SVM-light Version V6.02
0 # kernel type
3 # kernel parameter -d 
1 # kernel parameter -g 
1 # kernel parameter -s 
1 # kernel parameter -r 
様様様様様様様様様様様様様様様様様様様様様様様様様様様様# kernel parameter -u 
144 # highest feature index 
1419 # number of training documents 
21 # number of support vectors plus 1 
-1.2562967 # threshold b, each following line is a SV (starting with alpha*y)
1:0.0017527498268809297 2:-0.59699101756266792 3:-0.451006244418441 4:-0.1886482682563338 5:0.031294277232896905 6:0.18521526973591995 7:0.011947592265613899 8:0.047672588903095017 9:0.11135181147005861 10:0.31540053272957502 11:-0.19672462305343158 12:0.012328670366048608 13:0.072384866954115737 14:-0.13567659502428198 15:-0.28976051457269902 16:-0.45824940488790317 17:-0.62621351012690307 18:0.16851010165730435 19:0.1043711834393157 20:-0.35918842082087998 21:-0.2253232645654753 22:-0.23248930928738004 23:-0.15512655711864592 24:-0.25879529147192548 25:-0.19733382444851294 26:-0.16796729920827572 27:0.05416474655541919 28:0.55478996564354022 29:-0.018602495501217814 30:-0.15512443481178789 31:-0.20651482924245601 32:-0.20189666820604335 33:-0.19845596612587801 34:-0.43270440572217089 35:-0.48168002379390051 36:0.33895619164380181 37:0.42249207602108935 38:-0.029488895264150897 39:0.061553562401497883 40:-0.011938204795894004 41:-0.20336129128204214 42:-0.43308023230121517 43:-0.53514654228980907 44:-0.61828289112558144 45:0.27270375952539427 46:0.61240743148329024 47:0.12539536051171402 48:0.095657986656003904 49:-0.038189998044607987 50:-0.46333820362102363 51:-0.72923879175970907 52:-0.2077690209235073 53:0.20359781547268863 54:0.64271261533424839 55:0.66037417978313684 56:0.2218824177519515 57:0.00049067858092129851 58:-0.064528786746655964 59:-0.090592686161238639 60:-0.30101511141524723 61:-0.34385639173697313 62:-0.56668046096074098 63:0.34843712112587849 64:0.50405797808884301 65:0.41402422036047615 66:0.40762373928017337 67:0.2871947609800185 68:-0.006764205912315864 69:-0.36133292716743448 70:-0.46050976509411212 71:-0.22011231140618509 72:0.33033545012035387 73:0.36374999197715041 74:0.059692461389060932 75:0.0081086765087976555 76:-0.056611084368481918 77:-0.30788404923490398 78:-0.62817550676227629 79:-0.18409840441881614 80:0.34212339836420169 81:0.57543943466757796 82:0.065400323566882301 83:-0.054117369910057452 84:-0.15683899093304907 85:-0.085057669298750901 86:0.25969135728746917 87:-0.1790649732272574 88:-0.28318557310568576 89:-0.18491390184732737 90:-0.029929878768257603 91:0.33951285146165899 92:0.21343077678985978 93:0.23106351783595583 94:0.24721041145860145 95:0.076546758411818835 96:-0.31881073326274845 97:-0.45709346638847437 98:-0.44022711744963916 99:0.21105009030291608 100:0.036377631249728024 101:-0.43111180778210689 102:-0.30222413199783493 103:-0.058864768186790775 104:0.43702562847063864 105:0.22356594383491768 106:0.0015451043485170401 107:0.099828966184824314 108:-0.061322093091802726 109:-0.012819027848489001 110:-0.079399883037588811 111:-0.16572839971063391 112:-0.078080184393058916 113:0.14448174209000067 114:-0.26073967400084491 115:-0.29161135168561558 116:-0.41419928166444364 117:-0.20350767563286462 118:0.10627765621410126 119:0.069495857179903836 120:0.3384118448172373 121:0.43456705758977848 122:0.41306978414610968 123:-0.12198576766857661 124:0.11978395451426987 125:-0.36148924555665851 126:0.096194823426697385 127:-0.17800636734763339 128:-0.52634882950822726 129:-0.42349297313721962 130:-0.24572359761224855 131:0.33421405135208304 132:0.29075921911605046 133:0.0036217888764413786 134:-0.15249393022725985 135:-0.22280231857670413 136:0.16531432303354851 137:-0.57548851840510717 138:-0.075194532325012289 139:0.15878748785193159 140:0.34887054533434486 141:0.3781462567652249 142:0.74876716998525694 143:0.23855675814370284 144:0.19724857607949076 
