<?xml version="1.0"?>
<opencv_storage>
<cascade>
  <stageType>BOOST</stageType>
  <featureType>LBP</featureType>
  <height>20</height>
  <width>24</width>
  <stageParams>
    <boostType>GAB</boostType>
    <minHitRate>9.9500000476837158e-001</minHitRate>
    <maxFalseAlarm>5.0000000000000000e-001</maxFalseAlarm>
    <weightTrimRate>9.4999999999999996e-001</weightTrimRate>
    <maxDepth>1</maxDepth>
    <maxWeakCount>100</maxWeakCount></stageParams>
  <featureParams>
    <maxCatCount>256</maxCatCount>
    <featSize>1</featSize></featureParams>
  <stageNum>19</stageNum>
  <stages>
    <!-- stage 0 -->
    <_>
      <maxWeakCount>4</maxWeakCount>
      <stageThreshold>-1.7411838769912720e+000</stageThreshold>
      <weakClassifiers>
        <_>
          <internalNodes>
            0 -1 24 -286265618 -268439553 -1 -1 -269488145 -1 -1 -1</internalNodes>
          <leafValues>
            -8.4682202339172363e-001 6.9411092996597290e-001</leafValues></_>
        <_>
          <internalNodes>
            0 -1 157 1431655765 2136995839 -1 -1 2147483647 -1 -1 -1</internalNodes>
          <leafValues>
            -7.9147970676422119e-001 6.7844897508621216e-001</leafValues></_>
        <_>
          <internalNodes>
            0 -1 25 215937007 2147479551 -8396801 -16385 1711271919
            -268455937 -270532609 -268455953</internalNodes>
          <leafValues>
            -6.2550985813140869e-001 5.9300929307937622e-001</leafValues></_>
        <_>
          <internalNodes>
            0 -1 104 924848288 -250371 -673689384 -24579 -18939905
            -604143617 -1 -65</internalNodes>
          <leafValues>
            -6.1091244220733643e-001 5.2262777090072632e-001</leafValues></_></weakClassifiers></_>
    <!-- stage 1 -->
    <_>
      <maxWeakCount>5</maxWeakCount>
      <stageThreshold>-2.1052236557006836e+000</stageThreshold>
      <weakClassifiers>
        <_>
          <internalNodes>
            0 -1 51 1431699455 -1 -33 -1 1431699455 -1 -1 -1</internalNodes>
          <leafValues>
            -7.7398693561553955e-001 6.7485153675079346e-001</leafValues></_>
        <_>
          <internalNodes>
            0 -1 7 -288428306 -4097 -152113666 -16385 -135790625 -13345
            -4097 -4097</internalNodes>
          <leafValues>
            -8.3102285861968994e-001 5.2335482835769653e-001</leafValues></_>
        <_>
          <internalNodes>
            0 -1 4 651038446 -1 -268445697 -462865 268115903 -131331
            -268476417 -83974</internalNodes>
          <leafValues>
            -7.4172455072402954e-001 3.8803744316101074e-001</leafValues></_>
        <_>
          <internalNodes>
            0 -1 195 -788008310 1363407618 1342304514 -146278457
            -791809334 1699214222 -136314930 -136314881</internalNodes>
          <leafValues>
            -5.4266697168350220e-001 5.2914595603942871e-001</leafValues></_>
        <_>
          <internalNodes>
            0 -1 117 -1610930040 -1073758721 -1577751412 -21059 -51201
            -12662913 -11534337 -2101314</internalNodes>
          <leafValues>
            -5.7020014524459839e-001 4.8994427919387817e-001</leafValues></_></weakClassifiers></_>
    <!-- stage 2 -->
    <_>
      <maxWeakCount>5</maxWeakCount>
      <stageThreshold>-2.1424093246459961e+000</stageThreshold>
      <weakClassifiers>
        <_>
          <internalNodes>
            0 -1 115 -4177 -14353 -1894838774 -1048689 -1 -68158529 -49
            -1</internalNodes>
          <leafValues>
            -7.5439482927322388e-001 6.4822971820831299e-001</leafValues></_>
        <_>
          <internalNodes>
            0 -1 23 -286265618 -268441617 -413405249 -403705921
            -872940561 -78907633 -486543377 -268440081</internalNodes>
          <leafValues>
            -7.4901956319808960e-001 5.6965839862823486e-001</leafValues></_>
        <_>
          <internalNodes>
            0 -1 36 -251661754 -990907934 1078915136 1352659150
            -780672956 1629817486 1095090243 -169871361</internalNodes>
          <leafValues>
            -6.4390575885772705e-001 5.2476227283477783e-001</leafValues></_>
        <_>
          <internalNodes>
            0 -1 193 319488010 1608494063 -335815713 -538970641
            -68157473 -76813937 -3151617 -1</internalNodes>
          <leafValues>
            -7.6983904838562012e-001 4.0539416670799255e-001</leafValues></_>
        <_>
          <internalNodes>
            0 -1 118 -205262134 1363407488 1354817600 1359343618
            -1070102 1363488458 -774507573 -137370677</internalNodes>
          <leafValues>
            -5.4392826557159424e-001 5.6014978885650635e-001</leafValues></_></weakClassifiers></_>
    <!-- stage 3 -->
    <_>
      <maxWeakCount>7</maxWeakCount>
      <stageThreshold>-1.5909740924835205e+000</stageThreshold>
      <weakClassifiers>
        <_>
          <internalNodes>
            0 -1 110 -67130710 -1 -70255617 -1 -1 -67114245 -1049601 -1</internalNodes>
          <leafValues>
            -8.3016693592071533e-001 3.1036782264709473e-001</leafValues></_>
        <_>
          <internalNodes>
            0 -1 92 -775425398 1359208578 1074118794 1934095263
            1367866314 1073805954 -405799969 -136315921</internalNodes>
          <leafValues>
            -6.5171992778778076e-001 4.9200043082237244e-001</leafValues></_>
        <_>
          <internalNodes>
            0 -1 28 -17830162 -958137365 -219501878 -83888385 -134219521
            -14943253 -134225921 -1</internalNodes>
          <leafValues>
            -6.9464397430419922e-001 4.3251574039459229e-001</leafValues></_>
        <_>
          <internalNodes>
            0 -1 201 285450890 1929622219 -653918273 -548668433
            -1818231809 -2099045 -1074791425 -4194305</internalNodes>
          <leafValues>
            -6.0297930240631104e-001 4.7983393073081970e-001</leafValues></_>
        <_>
          <internalNodes>
            0 -1 140 -148900886 -208195154 1644408960 -741887869
            -266341430 1073791488 858235594 1363670602</internalNodes>
          <leafValues>
            -6.7791467905044556e-001 4.1383445262908936e-001</leafValues></_>
        <_>
          <internalNodes>
            0 -1 108 1476375490 1373070026 1078009856 2003793858
            2010117070 1094763016 1612178154 1406137226</internalNodes>
          <leafValues>
            -6.4666014909744263e-001 3.7187582254409790e-001</leafValues></_>
        <_>
          <internalNodes>
            0 -1 166 -170135348 -41014 541595848 -704780332 -796868472
            1472741772 1086619852 -221254706</internalNodes>
          <leafValues>
            -5.7895243167877197e-001 4.0282571315765381e-001</leafValues></_></weakClassifiers></_>
    <!-- stage 4 -->
    <_>
      <maxWeakCount>8</maxWeakCount>
      <stageThreshold>-1.8716439008712769e+000</stageThreshold>
      <weakClassifiers>
        <_>
          <internalNodes>
            0 -1 50 1431699455 -1025 -257 -97 -536871937 -283969 -1029
            -1025</internalNodes>
          <leafValues>
            -7.2041273117065430e-001 3.7414586544036865e-001</leafValues></_>
        <_>
          <internalNodes>
            0 -1 8 -285217025 -8193 -268697601 -1 -268697601 -1095
            -589826 -4097</internalNodes>
          <leafValues>
            -5.4243022203445435e-001 5.3380203247070313e-001</leafValues></_>
        <_>
          <internalNodes>
            0 -1 151 -136317970 -8405009 1363989192 1363538570
            -691146006 -540824886 1078059658 1397748427</internalNodes>
          <leafValues>
            -6.6248494386672974e-001 4.1709473729133606e-001</leafValues></_>
        <_>
          <internalNodes>
            0 -1 207 -246943030 1342235266 1359016650 1431696198
            -146292785 1363339970 -673185793 -144705585</internalNodes>
          <leafValues>
            -5.1445066928863525e-001 4.5032861828804016e-001</leafValues></_>
        <_>
          <internalNodes>
            0 -1 74 -783289654 1401412335 1346683078 1439953643
            1095090378 -179841598 1439563503 -136315170</internalNodes>
          <leafValues>
            -4.4255194067955017e-001 5.0714635848999023e-001</leafValues></_>
        <_>
          <internalNodes>
            0 -1 184 -740296790 -524338 1120584328 -201457718 8446186
            1648611402 310358734 1346888386</internalNodes>
          <leafValues>
            -6.5539920330047607e-001 2.9659959673881531e-001</leafValues></_>
        <_>
          <internalNodes>
            0 -1 11 -252714258 1252720614 -958466322 -51447073
            -186656818 -39335969 -889850157 -17301505</internalNodes>
          <leafValues>
            -5.7869762182235718e-001 3.4117284417152405e-001</leafValues></_>
        <_>
          <internalNodes>
            0 -1 156 855980023 -37847561 -1076928513 -2236418 -2195973
            -67208226 -1109491713 -32771</internalNodes>
          <leafValues>
            -6.1704409122467041e-001 3.3030584454536438e-001</leafValues></_></weakClassifiers></_>
    <!-- stage 5 -->
    <_>
      <maxWeakCount>9</maxWeakCount>
      <stageThreshold>-1.6499001979827881e+000</stageThreshold>
      <weakClassifiers>
        <_>
          <internalNodes>
            0 -1 27 -1 -286786866 -84411410 -520095026 -67108865
            -58720273 -524545 -1</internalNodes>
          <leafValues>
            -6.9122099876403809e-001 3.1885072588920593e-001</leafValues></_>
        <_>
          <internalNodes>
            0 -1 188 -213388598 -170403898 -749211257 -2621477
            -800604022 1074122816 -144703777 -136314929</internalNodes>
          <leafValues>
            -5.5611711740493774e-001 4.5795536041259766e-001</leafValues></_>
        <_>
          <internalNodes>
            0 -1 54 -136317234 -134218273 -195759998 -273 1430646784
            1078231040 -188353298 -706742545</internalNodes>
          <leafValues>
            -5.2767795324325562e-001 4.4675886631011963e-001</leafValues></_>
        <_>
          <internalNodes>
            0 -1 82 15169503 -2106369 -2621441 -11 -1075052547 -5505059
            -271917092 -1114162</internalNodes>
          <leafValues>
            -5.8999562263488770e-001 3.9459776878356934e-001</leafValues></_>
        <_>
          <internalNodes>
            0 -1 120 -46492488 -101517317 -1118806832 -2099203 -2099457
            -4990146 -81921 -8388613</internalNodes>
          <leafValues>
            -5.0467765331268311e-001 4.0285238623619080e-001</leafValues></_>
        <_>
          <internalNodes>
            0 -1 185 -209715254 -212076562 1892065346 -774390802
            -68226356 1074721538 1408234698 1943011210</internalNodes>
          <leafValues>
            -6.1106050014495850e-001 2.6500037312507629e-001</leafValues></_>
        <_>
          <internalNodes>
            0 -1 15 -286470418 -17895734 172937199 -286331194 -806363137
            -16778005 -606076929 -17</internalNodes>
          <leafValues>
            -5.9400177001953125e-001 3.5070401430130005e-001</leafValues></_>
        <_>
          <internalNodes>
            0 -1 200 -707805302 1925643970 1919324800 1945105122
            -92407858 1348528650 -529533494 1128788610</internalNodes>
          <leafValues>
            -6.1702316999435425e-001 2.5987413525581360e-001</leafValues></_>
        <_>
          <internalNodes>
            0 -1 155 863729373 -1073973769 894920671 -1881702402
            -1421647876 -1077969921 1022828543 -1073774599</internalNodes>
          <leafValues>
            -5.4502737522125244e-001 3.1447964906692505e-001</leafValues></_></weakClassifiers></_>
    <!-- stage 6 -->
    <_>
      <maxWeakCount>9</maxWeakCount>
      <stageThreshold>-2.1187801361083984e+000</stageThreshold>
      <weakClassifiers>
        <_>
          <internalNodes>
            0 -1 0 -269488145 -262145 -134742049 -8193 -270536705 -513
            -301989889 -268435457</internalNodes>
          <leafValues>
            -6.5530699491500854e-001 3.1340581178665161e-001</leafValues></_>
        <_>
          <internalNodes>
            0 -1 130 -221580598 -2049 -1 -16385 -1 -21025 -1 -17409</internalNodes>
          <leafValues>
            -6.4730304479598999e-001 3.1050437688827515e-001</leafValues></_>
        <_>
          <internalNodes>
            0 -1 186 1393505163 -2097281 -16385 -1025 -33571329 -67585
            -100925441 -16449</internalNodes>
          <leafValues>
            -5.5292421579360962e-001 3.4749501943588257e-001</leafValues></_>
        <_>
          <internalNodes>
            0 -1 43 -553663934 -3276833 -1337150912 -21628053 -146681536
            -675261630 -171640892 -682098849</internalNodes>
          <leafValues>
            -5.2846401929855347e-001 3.8577547669410706e-001</leafValues></_>
        <_>
          <internalNodes>
            0 -1 125 -544155400 -711633672 1364259313 1565873216
            -1340024660 -69247861 -1979703650 -1962803200</internalNodes>
          <leafValues>
            -4.8674705624580383e-001 3.6075356602668762e-001</leafValues></_>
        <_>
          <internalNodes>
            0 -1 21 -354228498 -823737118 -863080722 -292919060
            -641204737 -133121 -22036485 -3156037</internalNodes>
          <leafValues>
            -7.0042949914932251e-001 2.4922534823417664e-001</leafValues></_>
        <_>
          <internalNodes>
            0 -1 84 1363382986 -242781342 1342529610 -178801937 4583628
            -490212926 1355217663 -674237705</internalNodes>
          <leafValues>
            -5.0214821100234985e-001 3.2386395335197449e-001</leafValues></_>
        <_>
          <internalNodes>
            0 -1 124 -67414034 -673337152 -202317088 2002760258
            -411042834 1439560652 -218455414 1934619274</internalNodes>
          <leafValues>
            -5.4285705089569092e-001 2.7249321341514587e-001</leafValues></_>
        <_>
          <internalNodes>
            0 -1 143 -1677501227 -70172966 -536904227 -238339
            -1097943301 -1073816068 800284667 -1080419080</internalNodes>
          <leafValues>
            -3.2430180907249451e-001 4.8844912648200989e-001</leafValues></_></weakClassifiers></_>
    <!-- stage 7 -->
    <_>
      <maxWeakCount>11</maxWeakCount>
      <stageThreshold>-1.6807610988616943e+000</stageThreshold>
      <weakClassifiers>
        <_>
          <internalNodes>
            0 -1 115 -1 -513 -307245297 -3145729 -1048577 -4195333
            -4194337 -1</internalNodes>
          <leafValues>
            -5.6074100732803345e-001 6.1091595888137817e-001</leafValues></_>
        <_>
          <internalNodes>
            0 -1 34 -17830330 -286265370 -168890880 -1137 -10496698
            -8389789 -8421567 -1</internalNodes>
          <leafValues>
            -6.0802489519119263e-001 3.0957213044166565e-001</leafValues></_>
        <_>
          <internalNodes>
            0 -1 206 -217845046 1359016650 285257859 1394079711
            -136314929 1350889664 1373091839 -136315185</internalNodes>
          <leafValues>
            -4.7243076562881470e-001 3.6640751361846924e-001</leafValues></_>
        <_>
          <internalNodes>
            0 -1 49 292839421 -2229265 -425985 -1601 1037955054 -6756951
            -1057282 -3145745</internalNodes>
          <leafValues>
            -5.5090081691741943e-001 3.1739446520805359e-001</leafValues></_>
        <_>
          <internalNodes>
            0 -1 98 -740295730 -201365618 1614979200 -204475441
            -195693842 1074066894 1903141615 1934615183</internalNodes>
          <leafValues>
            -5.0712913274765015e-001 3.1428161263465881e-001</leafValues></_>
        <_>
          <internalNodes>
            0 -1 1 -288428306 -286223 -422189569 -1342313547 -8933377
            -73997847 -939566132 -339743766</internalNodes>
          <leafValues>
            -5.9157043695449829e-001 2.4189189076423645e-001</leafValues></_>
        <_>
          <internalNodes>
            0 -1 67 -620756976 -545220032 -1658319715 -1223851607
            -761247540 -1089581653 -2013232946 -343375476</internalNodes>
          <leafValues>
            -4.3074557185173035e-001 3.6582878232002258e-001</leafValues></_>
        <_>
          <internalNodes>
            0 -1 172 -134218006 -789529426 1170227264 -744518710
            -498733070 1629511685 -748431377 1106199375</internalNodes>
          <leafValues>
            -5.6057471036911011e-001 2.7171108126640320e-001</leafValues></_>
        <_>
          <internalNodes>
            0 -1 181 -3165202 -134221825 1390360554 -42468881 1347395786
            -473193278 -255745334 -749741114</internalNodes>
          <leafValues>
            -4.2070057988166809e-001 3.3086410164833069e-001</leafValues></_>
        <_>
          <internalNodes>
            0 -1 60 -1074791442 -46143570 1377847490 -118493586
            -176885368 17085952 351228295 1430386251</internalNodes>
          <leafValues>
            -5.5779862403869629e-001 2.3959143459796906e-001</leafValues></_>
        <_>
          <internalNodes>
            0 -1 187 -2147478271 -671777379 -1113735725 -4759775
            -1079268865 -131085 -1380598993 -1347021806</internalNodes>
          <leafValues>
            -4.2367956042289734e-001 3.2014295458793640e-001</leafValues></_></weakClassifiers></_>
    <!-- stage 8 -->
    <_>
      <maxWeakCount>11</maxWeakCount>
      <stageThreshold>-2.0947127342224121e+000</stageThreshold>
      <weakClassifiers>
        <_>
          <internalNodes>
            0 -1 113 -4177 -132097 -270553557 -4194305 -16777217
            -33949445 -917505 -517</internalNodes>
          <leafValues>
            -6.5960687398910522e-001 2.0259533822536469e-001</leafValues></_>
        <_>
          <internalNodes>
            0 -1 18 -34671362 -9508146 -1460739329 -269572882 -6557697
            -262149 -12583169 -5242929</internalNodes>
          <leafValues>
            -5.1135277748107910e-001 3.2006913423538208e-001</leafValues></_>
        <_>
          <internalNodes>
            0 -1 41 -2361790 -9437370 -203034560 -137625858 1963267396
            1430344020 -716934848 -2099371</internalNodes>
          <leafValues>
            -5.4667466878890991e-001 3.1190645694732666e-001</leafValues></_>
        <_>
          <internalNodes>
            0 -1 175 540505333 -1107296833 -302129697 -1075839524
            -637534209 -266785 -1127219201 -2563</internalNodes>
          <leafValues>
            -5.3288179636001587e-001 3.4909602999687195e-001</leafValues></_>
        <_>
          <internalNodes>
            0 -1 126 -671088914 -1048626 1893163136 -134742065
            -713035057 1363658566 1927410314 -212864049</internalNodes>
          <leafValues>
            -4.0332046151161194e-001 3.7483823299407959e-001</leafValues></_>
        <_>
          <internalNodes>
            0 -1 10 -16787457 141455342 -184551457 347864494 -574757041
            -1996494849 -1738566173 -876618785</internalNodes>
          <leafValues>
            -3.7229374051094055e-001 3.6543896794319153e-001</leafValues></_>
        <_>
          <internalNodes>
            0 -1 195 -771231030 -775424505 1078046722 2001190735
            -204492406 -191111034 1939600078 -6308977</internalNodes>
          <leafValues>
            -3.9876568317413330e-001 3.4359329938888550e-001</leafValues></_>
        <_>
          <internalNodes>
            0 -1 79 -246939922 -211025942 277442784 -251659570
            -178258802 1078252864 1889919146 1365758926</internalNodes>
          <leafValues>
            -5.4220384359359741e-001 2.3223991692066193e-001</leafValues></_>
        <_>
          <internalNodes>
            0 -1 161 -1725951503 -1110279120 535844351 -139452972
            -1191250248 -1145373830 -1626116120 -1615325062</internalNodes>
          <leafValues>
            -3.7427508831024170e-001 3.5937952995300293e-001</leafValues></_>
        <_>
          <internalNodes>
            0 -1 101 -1820124950 285319808 -1825933333 -674941979
            -443551764 -1878592798 -672276755 -204620801</internalNodes>
          <leafValues>
            -4.6962410211563110e-001 2.8157919645309448e-001</leafValues></_>
        <_>
          <internalNodes>
            0 -1 135 -584185848 -1080041998 -45056900 -33555420
            2064995836 -1886494767 -51750660 -16787316</internalNodes>
          <leafValues>
            -5.1391625404357910e-001 2.5358945131301880e-001</leafValues></_></weakClassifiers></_>
    <!-- stage 9 -->
    <_>
      <maxWeakCount>12</maxWeakCount>
      <stageThreshold>-2.0948896408081055e+000</stageThreshold>
      <weakClassifiers>
        <_>
          <internalNodes>
            0 -1 160 -717095717 -1 -33 -34081793 -1 -101134401
            -103809025 -36831233</internalNodes>
          <leafValues>
            -5.9715610742568970e-001 2.8480687737464905e-001</leafValues></_>
        <_>
          <internalNodes>
            0 -1 5 -286265618 183500782 -524417 -9253 -302032945
            -1078199333 -152573977 -2109445</internalNodes>
          <leafValues>
            -6.2951338291168213e-001 2.2755353152751923e-001</leafValues></_>
        <_>
          <internalNodes>
            0 -1 153 1476393966 -745537590 820171456 -202386718
            -208685110 1078255106 -228590897 1406139371</internalNodes>
          <leafValues>
            -5.8035099506378174e-001 2.6863691210746765e-001</leafValues></_>
        <_>
          <internalNodes>
            0 -1 88 -113714696 -1179623184 -802107139 -586345199
            -71762178 -1087376991 -1979647762 -1995833336</internalNodes>
          <leafValues>
            -4.0202808380126953e-001 4.0904098749160767e-001</leafValues></_>
        <_>
          <internalNodes>
            0 -1 215 -1031015457 182786 -1033378157 1090702922 1228939
            19521 -2080324417 -125829121</internalNodes>
          <leafValues>
            -3.2342773675918579e-001 4.5396921038627625e-001</leafValues></_>
        <_>
          <internalNodes>
            0 -1 81 285177855 -7077897 -9994241 -1076659243 -1076658196
            -65627 -70492161 -1141964833</internalNodes>
          <leafValues>
            -5.2565366029739380e-001 2.7690312266349792e-001</leafValues></_>
        <_>
          <internalNodes>
            0 -1 63 -748718398 -213385265 1415877096 -168034337
            1346728128 1094713544 1897390543 -154141958</internalNodes>
          <leafValues>
            -4.6099081635475159e-001 2.8627261519432068e-001</leafValues></_>
        <_>
          <internalNodes>
            0 -1 32 -827945738 787409662 799729602 -859383170 -86533
            -656385 -540279042 -32769</internalNodes>
          <leafValues>
            -5.8372199535369873e-001 1.9186206161975861e-001</leafValues></_>
        <_>
          <internalNodes>
            0 -1 119 -691288438 -582885457 -1893135870 -1074952979
            -1118765682 -9523426 -12620786 -875561017</internalNodes>
          <leafValues>
            -5.5521756410598755e-001 2.2301055490970612e-001</leafValues></_>
        <_>
          <internalNodes>
            0 -1 192 -145771538 -673448497 840610432 -202919030
            -146800946 1728357124 -773850129 1908930186</internalNodes>
          <leafValues>
            -4.7528582811355591e-001 2.3903459310531616e-001</leafValues></_>
        <_>
          <internalNodes>
            0 -1 159 -1290570987 -151055445 -98305 -19234833 -1174438657
            -1414545665 -1074626566 -1623237156</internalNodes>
          <leafValues>
            -3.9866706728935242e-001 2.7005735039710999e-001</leafValues></_>
        <_>
          <internalNodes>
            0 -1 35 -25169728 -1360042802 -195660672 1893655778
            2013155652 -2050908695 -985353019 -439356041</internalNodes>
          <leafValues>
            -5.6960397958755493e-001 2.0822130143642426e-001</leafValues></_></weakClassifiers></_>
    <!-- stage 10 -->
    <_>
      <maxWeakCount>13</maxWeakCount>
      <stageThreshold>-1.7237094640731812e+000</stageThreshold>
      <weakClassifiers>
        <_>
          <internalNodes>
            0 -1 51 1565917183 -17473 -1089 -19301 1595521983 -21878
            -21829 -1349</internalNodes>
          <leafValues>
            -7.0160233974456787e-001 5.9582307934761047e-002</leafValues></_>
        <_>
          <internalNodes>
            0 -1 147 -268443877 -805320897 -1893511421 -821040369
            -142881013 -26217153 1241858819 -268436609</internalNodes>
          <leafValues>
            -4.6190559864044189e-001 3.3172446489334106e-001</leafValues></_>
        <_>
          <internalNodes>
            0 -1 17 -294981890 -1152338 -301011201 -286331154
            -1082261505 -11265 -4849665 -43009</internalNodes>
          <leafValues>
            -5.2395510673522949e-001 2.6227968931198120e-001</leafValues></_>
        <_>
          <internalNodes>
            0 -1 209 -746065206 1359018882 1883435234 1363669768
            -174591026 1359012290 -221512725 1363669839</internalNodes>
          <leafValues>
            -5.4357635974884033e-001 2.8358259797096252e-001</leafValues></_>
        <_>
          <internalNodes>
            0 -1 123 -551549800 -33796 -47706855 -570600432 -1195376482
            -4235777 -633315873 -32487424</internalNodes>
          <leafValues>
            -4.3214756250381470e-001 3.0962833762168884e-001</leafValues></_>
        <_>
          <internalNodes>
            0 -1 29 -3672082 -454040593 -554766610 -16781585 -5245961
            -34105413 -557069 -134218501</internalNodes>
          <leafValues>
            -5.1074093580245972e-001 2.6139289140701294e-001</leafValues></_>
        <_>
          <internalNodes>
            0 -1 93 -204475445 -217893938 828676219 -137396249
            -1064545298 -1870354203 -565182465 -2360321</internalNodes>
          <leafValues>
            -2.7782112360000610e-001 4.5459908246994019e-001</leafValues></_>
        <_>
          <internalNodes>
            0 -1 108 -50332690 -244974642 579002432 2013263694
            2002773997 1095550468 1912595178 1398798030</internalNodes>
          <leafValues>
            -5.5036652088165283e-001 1.9820757210254669e-001</leafValues></_>
        <_>
          <internalNodes>
            0 -1 129 -1497690625 -1078042625 -1108115969 -1077968929
            -1146675209 -1409286721 -1698013186 -1073791489</internalNodes>
          <leafValues>
            -5.0156468152999878e-001 2.4013054370880127e-001</leafValues></_>
        <_>
          <internalNodes>
            0 -1 197 -263195958 1379958338 1346736347 -145372705
            -1329220978 -255799994 -1866204470 -201984001</internalNodes>
          <leafValues>
            -3.7598150968551636e-001 2.8636965155601501e-001</leafValues></_>
        <_>
          <internalNodes>
            0 -1 179 -116158310 1393584671 -1311366895 -1817338982
            -740639350 240185246 -1225416054 -1766851605</internalNodes>
          <leafValues>
            -3.0432614684104919e-001 3.5317015647888184e-001</leafValues></_>
        <_>
          <internalNodes>
            0 -1 38 -5247069 -825798674 -2096198998 1619525378
            -404512251 144637878 -493650067 -134220459</internalNodes>
          <leafValues>
            -3.6265149712562561e-001 3.0577781796455383e-001</leafValues></_>
        <_>
          <internalNodes>
            0 -1 142 -104467004 -690456884 -1903673344 -1074794137
            -140323418 1342457157 788922351 1909454751</internalNodes>
          <leafValues>
            -4.9111962318420410e-001 2.2657839953899384e-001</leafValues></_></weakClassifiers></_>
    <!-- stage 11 -->
    <_>
      <maxWeakCount>13</maxWeakCount>
      <stageThreshold>-1.6663484573364258e+000</stageThreshold>
      <weakClassifiers>
        <_>
          <internalNodes>
            0 -1 176 1432343007 -1 -4261441 -4456469 -6300673 -67392853
            -1431326981 -81921</internalNodes>
          <leafValues>
            -6.5254050493240356e-001 9.7063332796096802e-002</leafValues></_>
        <_>
          <internalNodes>
            0 -1 133 -269488129 -877689689 -835727857 168805935
            -269488193 -822354689 -833630459 -2</internalNodes>
          <leafValues>
            -4.1729369759559631e-001 3.7338864803314209e-001</leafValues></_>
        <_>
          <internalNodes>
            0 -1 2 -270012434 -2100745 -441057289 -8789121 -919041
            -67964739 -268578973 -873464881</internalNodes>
          <leafValues>
            -5.0454074144363403e-001 2.8087139129638672e-001</leafValues></_>
        <_>
          <internalNodes>
            0 -1 78 -1078338056 -1247774288 1427167477 -587136768
            -1822498818 -1086688584 -1979646230 -1995833344</internalNodes>
          <leafValues>
            -3.9605915546417236e-001 3.2010960578918457e-001</leafValues></_>
        <_>
          <internalNodes>
            0 -1 171 -134219030 1467870191 313974794 1936695906
            -1150297138 1346762564 -201328913 2009855695</internalNodes>
          <leafValues>
            -4.6978527307510376e-001 2.7424705028533936e-001</leafValues></_>
        <_>
          <internalNodes>
            0 -1 189 -251162426 -81792561 1435829461 -2115595 -725581364
            -196759424 -2015425586 -236995954</internalNodes>
          <leafValues>
            -3.5327720642089844e-001 3.1965625286102295e-001</leafValues></_>
        <_>
          <internalNodes>
            0 -1 72 1397723851 -74716185 1162154641 -740820177
            -716324662 -540019767 -706806834 -7342082</internalNodes>
          <leafValues>
            -3.0574870109558105e-001 3.7047395110130310e-001</leafValues></_>
        <_>
          <internalNodes>
            0 -1 19 -26280210 -288430358 -890311442 -833687890
            -721486953 -1948320009 -950014121 -1048765</internalNodes>
          <leafValues>
            -6.9486576318740845e-001 1.5393406152725220e-001</leafValues></_>
        <_>
          <internalNodes>
            0 -1 107 -374697768 -1182821736 -174059303 487151072
            -1162739510 -1677814349 539017470 -1979711480</internalNodes>
          <leafValues>
            -4.1693308949470520e-001 2.6293173432350159e-001</leafValues></_>
        <_>
          <internalNodes>
            0 -1 111 -1280354353 -1141444619 -1914732685 -36873988
            -1107329285 -853763 -1115029893 -17335065</internalNodes>
          <leafValues>
            -3.3249694108963013e-001 3.2644200325012207e-001</leafValues></_>
        <_>
          <internalNodes>
            0 -1 205 319009418 1363211018 2158856 1897004878 -773857798
            -1047987512 1368784045 -717098296</internalNodes>
          <leafValues>
            -5.2257072925567627e-001 2.1255759894847870e-001</leafValues></_>
        <_>
          <internalNodes>
            0 -1 150 -31459637 -583548345 -829884653 -719067391
            -632373342 -938215616 -1429733458 -1071123133</internalNodes>
          <leafValues>
            -2.9564005136489868e-001 3.6281099915504456e-001</leafValues></_>
        <_>
          <internalNodes>
            0 -1 90 2013124302 -203096218 1378124484 -775441728
            1698034892 1080223464 1407116751 1136916106</internalNodes>
          <leafValues>
            -4.9231928586959839e-001 2.2346499562263489e-001</leafValues></_></weakClassifiers></_>
    <!-- stage 12 -->
    <_>
      <maxWeakCount>16</maxWeakCount>
      <stageThreshold>-1.7492976188659668e+000</stageThreshold>
      <weakClassifiers>
        <_>
          <internalNodes>
            0 -1 112 -18 -33 -268439666 -2049 -67108865 -265537 -1537
            -1025</internalNodes>
          <leafValues>
            -6.6500079631805420e-001 5.6123558431863785e-002</leafValues></_>
        <_>
          <internalNodes>
            0 -1 87 -1188520808 -1725849584 -1935622945 -1647987247
            -1092814082 -1078993157 -1432305926 -1953958531</internalNodes>
          <leafValues>
            -4.6638280153274536e-001 2.7212986350059509e-001</leafValues></_>
        <_>
          <internalNodes>
            0 -1 70 276256119 -34861 -9994755 -2129953 -1143504899
            -14680740 -1092879170 -1075118145</internalNodes>
          <leafValues>
            -5.3741645812988281e-001 2.3630790412425995e-001</leafValues></_>
        <_>
          <internalNodes>
            0 -1 30 -1052946 -270028849 -22352274 -16849153 -4459521
            -4196609 -68190241 -263169</internalNodes>
          <leafValues>
            -5.1636874675750732e-001 2.5190562009811401e-001</leafValues></_>
        <_>
          <internalNodes>
            0 -1 202 319533707 -1089750326 -179455745 -2360929
            -1611663873 -1073751842 -101721345 -1052677</internalNodes>
          <leafValues>
            -4.0283140540122986e-001 2.7851027250289917e-001</leafValues></_>
        <_>
          <internalNodes>
            0 -1 149 -202444608 -228139768 -441518883 -89720866
            -707799860 -339807352 416273880 -33554530</internalNodes>
          <leafValues>
            -5.3171098232269287e-001 2.2489947080612183e-001</leafValues></_>
        <_>
          <internalNodes>
            0 -1 76 1903677646 -169347089 809801736 -673319985 353227972
            1950806730 1080551114 1439167466</internalNodes>
          <leafValues>
            -5.0113844871520996e-001 2.0415191352367401e-001</leafValues></_>
        <_>
          <internalNodes>
            0 -1 100 -1265085187 -648099 -1648967683 2103249084
            -1259203096 -527362 -1742424001 -1628041988</internalNodes>
          <leafValues>
            -3.4209865331649780e-001 3.0582717061042786e-001</leafValues></_>
        <_>
          <internalNodes>
            0 -1 16 -85033218 -294736146 135061102 -823726354 -806949633
            -1108100519 -823412097 -2105345</internalNodes>
          <leafValues>
            -6.3149487972259521e-001 1.4763924479484558e-001</leafValues></_>
        <_>
          <internalNodes>
            0 -1 139 -243267336 1908254584 1431470417 1570589960
            -889961314 -4305655 -636477713 -1086716792</internalNodes>
          <leafValues>
            -3.2675740122795105e-001 3.1938955187797546e-001</leafValues></_>
        <_>
          <internalNodes>
            0 -1 140 1430250414 -36733014 -1604132640 1938288875
            -725617970 1074054661 -1313347862 1908798155</internalNodes>
          <leafValues>
            -4.9970704317092896e-001 2.0694451034069061e-001</leafValues></_>
        <_>
          <internalNodes>
            0 -1 169 -11818405 -14056864 151057587 -587133743 1216381130
            -1920458752 1611677707 -871247870</internalNodes>
          <leafValues>
            -3.1372001767158508e-001 3.1440430879592896e-001</leafValues></_>
        <_>
          <internalNodes>
            0 -1 26 -294916757 -1513400473 -675710977 557042107
            167739251 1605930883 -988606992 -1967723290</internalNodes>
          <leafValues>
            -3.8034680485725403e-001 2.5285002589225769e-001</leafValues></_>
        <_>
          <internalNodes>
            0 -1 122 -1310508574 1963004042 -1544277248 1363652610
            -275156481 -548079614 -502207780 1942745803</internalNodes>
          <leafValues>
            -4.8218160867691040e-001 1.9535477459430695e-001</leafValues></_>
        <_>
          <internalNodes>
            0 -1 44 -151305010 -337135122 1960703072 -91620900
            -179329724 -46063260 1158017216 -171576244</internalNodes>
          <leafValues>
            -4.6118468046188354e-001 2.0669735968112946e-001</leafValues></_>
        <_>
          <internalNodes>
            0 -1 91 -1850215919 -1221115312 -2029980687 1429558709
            154313371 -1206156889 154312123 -1616181073</internalNodes>
          <leafValues>
            -2.2911636531352997e-001 4.1325497627258301e-001</leafValues></_></weakClassifiers></_>
    <!-- stage 13 -->
    <_>
      <maxWeakCount>16</maxWeakCount>
      <stageThreshold>-1.7305574417114258e+000</stageThreshold>
      <weakClassifiers>
        <_>
          <internalNodes>
            0 -1 164 -134747201 -11032837 -1111543873 2004814587
            1601170363 2140667899 402635707 1598017471</internalNodes>
          <leafValues>
            -6.2269014120101929e-001 8.6339883506298065e-002</leafValues></_>
        <_>
          <internalNodes>
            0 -1 48 1431650368 -2049 -573047329 -267329 1393931199
            -17040725 1979299757 -6553697</internalNodes>
          <leafValues>
            -7.2081577777862549e-001 1.4304000139236450e-001</leafValues></_>
        <_>
          <internalNodes>
            0 -1 116 -541072726 -1625294337 -817895413 -806354961
            -536880129 -71413251 -272760833 -3145729</internalNodes>
          <leafValues>
            -5.1856040954589844e-001 2.4553853273391724e-001</leafValues></_>
        <_>
          <internalNodes>
            0 -1 14 -823203074 -269854730 -303665409 -269518849
            2139084799 -21511 -1 -263169</internalNodes>
          <leafValues>
            -4.5756149291992188e-001 2.5414779782295227e-001</leafValues></_>
        <_>
          <internalNodes>
            0 -1 217 -536084769 -2147430910 -736436329 -704579741
            -2142844705 148544 -503121413 -99092545</internalNodes>
          <leafValues>
            -2.9500272870063782e-001 3.8495567440986633e-001</leafValues></_>
        <_>
          <internalNodes>
            0 -1 94 -775724854 -213390654 1367668953 -212879518
            -523649042 -222039098 1145831423 -674240565</internalNodes>
          <leafValues>
            -3.6120373010635376e-001 3.0075988173484802e-001</leafValues></_>
        <_>
          <internalNodes>
            0 -1 173 577992695 -1646273025 -1378885665 -401444
            -1127264801 -537928961 -1745884677 -1081891</internalNodes>
          <leafValues>
            -4.8865780234336853e-001 2.2267822921276093e-001</leafValues></_>
        <_>
          <internalNodes>
            0 -1 12 -8945835 75874126 -286341667 553113598 -587370695
            1828452791 -1388711483 -1979719809</internalNodes>
          <leafValues>
            -4.5523196458816528e-001 2.2785727679729462e-001</leafValues></_>
        <_>
          <internalNodes>
            0 -1 167 -545817601 2080342015 1644002287 1967520614
            298822282 -376509468 1615835850 -211812469</internalNodes>
          <leafValues>
            -2.9579579830169678e-001 3.3832558989524841e-001</leafValues></_>
        <_>
          <internalNodes>
            0 -1 185 -143130642 869007343 1650889570 1927281127
            -470813298 1084751239 -1207961397 -202905910</internalNodes>
          <leafValues>
            -3.1505671143531799e-001 2.9196941852569580e-001</leafValues></_>
        <_>
          <internalNodes>
            0 -1 144 -1803417379 -43019 -68222979 -1113758276
            -1378500609 -363621 -1534202897 -1346498915</internalNodes>
          <leafValues>
            -3.3410403132438660e-001 2.7604305744171143e-001</leafValues></_>
        <_>
          <internalNodes>
            0 -1 106 -274561000 -704789744 -1950085359 -36425544
            -29310818 -818176417 -1150231970 -1989656568</internalNodes>
          <leafValues>
            -3.7993010878562927e-001 2.3457616567611694e-001</leafValues></_>
        <_>
          <internalNodes>
            0 -1 11 -16778002 15627744 -596183920 -553716938 1995646482
            -1895988889 -300559788 -118227041</internalNodes>
          <leafValues>
            -5.0802326202392578e-001 1.8866746127605438e-001</leafValues></_>
        <_>
          <internalNodes>
            0 -1 99 -1976833584 328532032 1498479089 353063253
            1617092658 -1573437184 184741564 134873098</internalNodes>
          <leafValues>
            -4.3394038081169128e-001 2.0620074868202209e-001</leafValues></_>
        <_>
          <internalNodes>
            0 -1 199 -750274646 1430831010 1916955232 156230568
            -220207250 1690492480 -520097042 1114108106</internalNodes>
          <leafValues>
            -5.0217515230178833e-001 1.6586309671401978e-001</leafValues></_>
        <_>
          <internalNodes>
            0 -1 191 -783969852 1406423518 903086732 1910505412
            -1799232308 -100669756 1357805806 1926363851</internalNodes>
          <leafValues>
            -4.4422304630279541e-001 1.9604845345020294e-001</leafValues></_></weakClassifiers></_>
    <!-- stage 14 -->
    <_>
      <maxWeakCount>17</maxWeakCount>
      <stageThreshold>-1.8295619487762451e+000</stageThreshold>
      <weakClassifiers>
        <_>
          <internalNodes>
            0 -1 114 -18 -167775365 -407924978 -34603009 -2097153
            -117787393 -234892337 -1052193</internalNodes>
          <leafValues>
            -6.8511599302291870e-001 -1.0961776599287987e-002</leafValues></_>
        <_>
          <internalNodes>
            0 -1 55 -143130753 -136882305 -103285249 -145263781
            1078248644 -546875417 5505023 -67108865</internalNodes>
          <leafValues>
            -3.3524042367935181e-001 3.6457225680351257e-001</leafValues></_>
        <_>
          <internalNodes>
            0 -1 62 1072660447 -1075840001 471351291 -1612877323
            -1125156869 -1363667780 687689951 -603980549</internalNodes>
          <leafValues>
            -3.9118930697441101e-001 2.9012459516525269e-001</leafValues></_>
        <_>
          <internalNodes>
            0 -1 86 -310245368 -771932675 -1358426871 -537923723
            -619905874 -1080300294 -905912946 -270337</internalNodes>
          <leafValues>
            -4.4984570145606995e-001 2.2790539264678955e-001</leafValues></_>
        <_>
          <internalNodes>
            0 -1 13 -290525970 1854187246 -1395726610 -286339506
            1431306239 -72095013 -1311749 -1061</internalNodes>
          <leafValues>
            -5.3800827264785767e-001 2.2573380172252655e-001</leafValues></_>
        <_>
          <internalNodes>
            0 -1 89 -39266096 -1289715600 296767737 353719761 -91168002
            -1340182014 441473759 150994948</internalNodes>
          <leafValues>
            -4.7609239816665649e-001 2.1373981237411499e-001</leafValues></_>
        <_>
          <internalNodes>
            0 -1 216 -1978664193 158722 -1237033325 1073999586 1540291
            49351 1212424959 -85983233</internalNodes>
          <leafValues>
            -3.1697836518287659e-001 3.2434824109077454e-001</leafValues></_>
        <_>
          <internalNodes>
            0 -1 69 -241697810 -204472337 -2140254174 -103812405
            -167780219 21475334 -789775160 1364193870</internalNodes>
          <leafValues>
            -4.5568066835403442e-001 2.1472309529781342e-001</leafValues></_>
        <_>
          <internalNodes>
            0 -1 182 -748161893 -7882104 -582659055 1427757652
            -939392888 520626816 -134215526 -401877245</internalNodes>
          <leafValues>
            -3.0176213383674622e-001 3.2387599349021912e-001</leafValues></_>
        <_>
          <internalNodes>
            0 -1 177 353608362 1811934422 159709438 1066497838 -13583942
            -1924084293 176355498 362669240</internalNodes>
          <leafValues>
            -3.8066300749778748e-001 2.4639540910720825e-001</leafValues></_>
        <_>
          <internalNodes>
            0 -1 131 -1536684940 -69642883 -378323137 -17470796
            -1780101203 -44076129 -1024328225 -1463417496</internalNodes>
          <leafValues>
            -4.0710365772247314e-001 2.0396177470684052e-001</leafValues></_>
        <_>
          <internalNodes>
            0 -1 121 -1001922045 -654200573 -1207605565 -183015609
            -2147093117 -1203752345 -2074786401 -354957737</internalNodes>
          <leafValues>
            -2.3900839686393738e-001 3.7803837656974792e-001</leafValues></_>
        <_>
          <internalNodes>
            0 -1 37 -334009850 1726998503 2085596160 -754974866
            -1552721599 -264766703 -48530176 -167804929</internalNodes>
          <leafValues>
            -6.0053330659866333e-001 1.4872367680072784e-001</leafValues></_>
        <_>
          <internalNodes>
            0 -1 105 1897603786 1367569026 938212556 -238685982
            378761082 -639573046 1461185531 1128724430</internalNodes>
          <leafValues>
            -4.8923307657241821e-001 1.7932729423046112e-001</leafValues></_>
        <_>
          <internalNodes>
            0 -1 208 -835722749 -1862171353 -1071972333 -1179685337
            -2132822545 -1998373481 -28633925 -131074449</internalNodes>
          <leafValues>
            -2.7311369776725769e-001 3.4157025814056396e-001</leafValues></_>
        <_>
          <internalNodes>
            0 -1 57 -136479282 1543502839 -824903644 -151227166
            1431171400 -462642770 1435744111 1104011466</internalNodes>
          <leafValues>
            -4.5357444882392883e-001 1.9748859107494354e-001</leafValues></_>
        <_>
          <internalNodes>
            0 -1 194 -1602222672 -591656844 -2908163 -34070128
            -1210261505 -36331853 -1078121923 -2018503648</internalNodes>
          <leafValues>
            -4.0531304478645325e-001 2.1708360314369202e-001</leafValues></_></weakClassifiers></_>
    <!-- stage 15 -->
    <_>
      <maxWeakCount>18</maxWeakCount>
      <stageThreshold>-1.5768249034881592e+000</stageThreshold>
      <weakClassifiers>
        <_>
          <internalNodes>
            0 -1 115 -1 -2057 -269488369 -1048577 -335544321 -67437601
            -638058529 -2049</internalNodes>
          <leafValues>
            -5.3967320919036865e-001 2.3706378042697906e-001</leafValues></_>
        <_>
          <internalNodes>
            0 -1 136 -2113537 -144710966 -134874390 1363669696
            -612388866 -4097 826925802 1397748715</internalNodes>
          <leafValues>
            -4.6387302875518799e-001 2.2093236446380615e-001</leafValues></_>
        <_>
          <internalNodes>
            0 -1 174 521754073 -6563073 -41365505 -33621505 -1160844293
            -1144332133 -895752001 -269484038</internalNodes>
          <leafValues>
            -4.8890244960784912e-001 2.0614360272884369e-001</leafValues></_>
        <_>
          <internalNodes>
            0 -1 31 -3150258 -313563379 -95488282 1915813534 -580839113
            -67772142 -134420745 -8912897</internalNodes>
          <leafValues>
            -4.9795007705688477e-001 2.2437961399555206e-001</leafValues></_>
        <_>
          <internalNodes>
            0 -1 103 -1058029054 -787228843 -1610456061 -183112847
            -2147384091 -395066251 4544767 -3155745</internalNodes>
          <leafValues>
            -3.5609424114227295e-001 2.6071593165397644e-001</leafValues></_>
        <_>
          <internalNodes>
            0 -1 137 1031806456 -1212506152 2066571217 -579510896
            -1643096836 -552985356 -27100517 -610401088</internalNodes>
          <leafValues>
            -2.9829150438308716e-001 3.0456954240798950e-001</leafValues></_>
        <_>
          <internalNodes>
            0 -1 33 -270014685 -868359 -181275681 -1852714495 1145157567
            -240078702 -275193172 -1465657370</internalNodes>
          <leafValues>
            -3.3224368095397949e-001 2.5950396060943604e-001</leafValues></_>
        <_>
          <internalNodes>
            0 -1 180 -245632869 420715288 423378961 -104996971
            -1103299414 1174727364 -1579711845 -1058081</internalNodes>
          <leafValues>
            -1.8887288868427277e-001 4.5838400721549988e-001</leafValues></_>
        <_>
          <internalNodes>
            0 -1 128 -741613938 -253776180 -1198768128 -774011057
            -244193566 1094967533 -140013169 2011144159</internalNodes>
          <leafValues>
            -4.6533620357513428e-001 2.1858635544776917e-001</leafValues></_>
        <_>
          <internalNodes>
            0 -1 56 353525759 1464879268 -1515140129 -138612644 40186
            -2013265916 -286462565 -1945569208</internalNodes>
          <leafValues>
            -3.8856324553489685e-001 2.0900632441043854e-001</leafValues></_>
        <_>
          <internalNodes>
            0 -1 214 -487594301 8329318 -1781775962 11271867 1693335557
            4404289 1125995978 1375720927</internalNodes>
          <leafValues>
            -3.5997292399406433e-001 2.3508626222610474e-001</leafValues></_>
        <_>
          <internalNodes>
            0 -1 97 1453377744 -8485648 52485849 -113290904 -1303756606
            -553934198 -1153246497 -1893006705</internalNodes>
          <leafValues>
            -3.0318808555603027e-001 2.8981778025627136e-001</leafValues></_>
        <_>
          <internalNodes>
            0 -1 22 -332464390 -555308306 -500511666 -288693014
            -556924929 -1124891446 -548407570 -806366289</internalNodes>
          <leafValues>
            -5.2717286348342896e-001 1.7719265818595886e-001</leafValues></_>
        <_>
          <internalNodes>
            0 -1 213 -456657278 -2145201599 -1805494207 -1862193130
            -1601183742 -1998621435 -355772981 -496765101</internalNodes>
          <leafValues>
            -3.4428459405899048e-001 2.4657852947711945e-001</leafValues></_>
        <_>
          <internalNodes>
            0 -1 154 -263800118 1887565702 1969358848 -202647739
            -173621306 1883437445 -748360993 870256523</internalNodes>
          <leafValues>
            -4.7443717718124390e-001 1.7594495415687561e-001</leafValues></_>
        <_>
          <internalNodes>
            0 -1 83 -1741860619 -1112187679 -1411942413 -1805945890
            -1326042992 -1194609801 278060459 5167487</internalNodes>
          <leafValues>
            -3.5842305421829224e-001 2.3704554140567780e-001</leafValues></_>
        <_>
          <internalNodes>
            0 -1 45 -86882586 -531538 -226235538 -11148370 1715487940
            -818516588 838958783 -345539007</internalNodes>
          <leafValues>
            -3.8932481408119202e-001 2.0936462283134460e-001</leafValues></_>
        <_>
          <internalNodes>
            0 -1 148 -342228992 1789912646 776465173 170654855
            -613791989 1859875227 1331905283 -32246408</internalNodes>
          <leafValues>
            -5.1315748691558838e-001 1.7122893035411835e-001</leafValues></_></weakClassifiers></_>
    <!-- stage 16 -->
    <_>
      <maxWeakCount>19</maxWeakCount>
      <stageThreshold>-1.9323006868362427e+000</stageThreshold>
      <weakClassifiers>
        <_>
          <internalNodes>
            0 -1 158 -581566465 -2381421 -5301345 -246730225 -1066053
            -89497471 -248436597 -273728709</internalNodes>
          <leafValues>
            -5.3106027841567993e-001 3.1122797727584839e-001</leafValues></_>
        <_>
          <internalNodes>
            0 -1 52 335544319 -209469813 -14815473 -16197373 395273871
            -2347903 2072633226 -62719079</internalNodes>
          <leafValues>
            -4.2979755997657776e-001 2.5797897577285767e-001</leafValues></_>
        <_>
          <internalNodes>
            0 -1 146 -145257221 -2016571669 -436498757 -253948193
            2139736510 100597709 -40112453 1466909839</internalNodes>
          <leafValues>
            -3.1802275776863098e-001 3.3056160807609558e-001</leafValues></_>
        <_>
          <internalNodes>
            0 -1 64 1358954521 -108330615 201919515 -146204011
            -1190778728 -7427061 -2010370929 -5570802</internalNodes>
          <leafValues>
            -2.7355709671974182e-001 3.6150643229484558e-001</leafValues></_>
        <_>
          <internalNodes>
            0 -1 6 -270275602 804602493 -1693400773 48546198 498273775
            1749483746 -384239245 -374609245</internalNodes>
          <leafValues>
            -3.8639840483665466e-001 2.8356751799583435e-001</leafValues></_>
        <_>
          <internalNodes>
            0 -1 203 1393294251 -754713974 1916891717 -548935239
            -1504734769 -450722679 -1532903267 -3948569</internalNodes>
          <leafValues>
            -3.2046520709991455e-001 3.1107744574546814e-001</leafValues></_>
        <_>
          <internalNodes>
            0 -1 58 -16322057 1600057063 -386732033 -46182842 1142183156
            -5218283 1851803391 2049144322</internalNodes>
          <leafValues>
            -2.9357522726058960e-001 3.2350423932075500e-001</leafValues></_>
        <_>
          <internalNodes>
            0 -1 46 -1572865 1867217442 -1181826541 -89135584 -424802677
            1527471662 2052964642 -144706475</internalNodes>
          <leafValues>
            -2.6634481549263000e-001 3.6241912841796875e-001</leafValues></_>
        <_>
          <internalNodes>
            0 -1 170 -469799461 -105648477 -93327927 -229419198
            -1377454870 -289421590 -2146570550 -1072696765</internalNodes>
          <leafValues>
            -2.6937365531921387e-001 3.4760272502899170e-001</leafValues></_>
        <_>
          <internalNodes>
            0 -1 85 -267429174 -773631032 353227345 1970655491
            1997338060 -446409496 1170595306 1204681450</internalNodes>
          <leafValues>
            -4.0642946958541870e-001 2.2903528809547424e-001</leafValues></_>
        <_>
          <internalNodes>
            0 -1 127 -502016805 -749508810 824090073 -34127507
            -534773536 -341502438 287484923 -1691661044</internalNodes>
          <leafValues>
            -2.6865583658218384e-001 3.7681269645690918e-001</leafValues></_>
        <_>
          <internalNodes>
            0 -1 145 455299536 -2141146622 -719333385 1398559058
            -1836957750 -1076895791 239486146 -1889312254</internalNodes>
          <leafValues>
            -3.5755112767219543e-001 2.6452562212944031e-001</leafValues></_>
        <_>
          <internalNodes>
            0 -1 132 -286348782 -271858993 -1434202597 134397991
            1551234331 138857555 -928824832 -607393835</internalNodes>
          <leafValues>
            -3.7641340494155884e-001 2.4365234375000000e-001</leafValues></_>
        <_>
          <internalNodes>
            0 -1 20 -891358978 -965867778 707153006 -301463377
            -397698569 -508867047 -346564165 -8398161</internalNodes>
          <leafValues>
            -5.3228604793548584e-001 1.7514719069004059e-001</leafValues></_>
        <_>
          <internalNodes>
            0 -1 198 893776328 1435283782 1094800930 1373041928
            -235930994 -796222841 1082893003 1380963146</internalNodes>
          <leafValues>
            -5.2719247341156006e-001 1.6776588559150696e-001</leafValues></_>
        <_>
          <internalNodes>
            0 -1 77 1012143573 -1652554272 -1613234209 1032501994
            1359311348 -1683332704 -28975234 -95754742</internalNodes>
          <leafValues>
            -2.9317721724510193e-001 3.2597577571868896e-001</leafValues></_>
        <_>
          <internalNodes>
            0 -1 134 -1908750848 65931429 1237273627 1076355110
            -1442486263 850707985 -573158835 -93259321</internalNodes>
          <leafValues>
            -5.1356208324432373e-001 1.7957238852977753e-001</leafValues></_>
        <_>
          <internalNodes>
            0 -1 183 -643968576 1897595211 -629538168 -574441976
            -1329561460 -204975066 819952330 1112396362</internalNodes>
          <leafValues>
            -5.3093832731246948e-001 1.8163526058197021e-001</leafValues></_>
        <_>
          <internalNodes>
            0 -1 59 -521681425 1840246155 -356984831 -232037744
            -440063803 361902657 -220196799 -1292414089</internalNodes>
          <leafValues>
            -3.6033082008361816e-001 2.4564386904239655e-001</leafValues></_></weakClassifiers></_>
    <!-- stage 17 -->
    <_>
      <maxWeakCount>20</maxWeakCount>
      <stageThreshold>-1.5881303548812866e+000</stageThreshold>
      <weakClassifiers>
        <_>
          <internalNodes>
            0 -1 73 -8399529 1159791875 -304612581 -986734224 -985152223
            -2079898559 1627881474 -10493201</internalNodes>
          <leafValues>
            -5.9502202272415161e-001 8.7714590132236481e-002</leafValues></_>
        <_>
          <internalNodes>
            0 -1 163 1600126907 -586030850 497012894 1431006210
            -620439109 -1739257746 1047242890 1426180352</internalNodes>
          <leafValues>
            -3.5100525617599487e-001 3.6581087112426758e-001</leafValues></_>
        <_>
          <internalNodes>
            0 -1 95 -1162179586 -1688754283 -108987012 -11275515
            1753871343 -918289408 -360128513 -68169809</internalNodes>
          <leafValues>
            -4.1530677676200867e-001 2.6471516489982605e-001</leafValues></_>
        <_>
          <internalNodes>
            0 -1 53 -1155271693 -1718540620 -240847481 1967325732
            -1240312716 -72785807 1024548991 2134866779</internalNodes>
          <leafValues>
            -3.3439180254936218e-001 3.2096666097640991e-001</leafValues></_>
        <_>
          <internalNodes>
            0 -1 96 -1324822280 -218101264 -1818176395 -582400559
            -2112745350 -1458372606 306191103 134742283</internalNodes>
          <leafValues>
            -4.0393543243408203e-001 2.8674596548080444e-001</leafValues></_>
        <_>
          <internalNodes>
            0 -1 39 848495039 -1660397223 -1324820147 -1626334204
            -2037851172 -1467955200 -1206887025 -1416889344</internalNodes>
          <leafValues>
            -4.7433826327323914e-001 2.4029088020324707e-001</leafValues></_>
        <_>
          <internalNodes>
            0 -1 211 -502283646 -805113024 -1073358732 1344008455
            -782248568 134381569 1405875843 -217058893</internalNodes>
          <leafValues>
            -3.6287581920623779e-001 3.0213034152984619e-001</leafValues></_>
        <_>
          <internalNodes>
            0 -1 61 -554041643 -38801834 916505634 -92561365 -178213690
            273841991 -139553048 -67123610</internalNodes>
          <leafValues>
            -2.4216920137405396e-001 4.2911088466644287e-001</leafValues></_>
        <_>
          <internalNodes>
            0 -1 188 269202378 -1279020413 654426523 -281292799
            1363784330 1385702024 558508686 -40915986</internalNodes>
          <leafValues>
            -3.7058117985725403e-001 2.9334044456481934e-001</leafValues></_>
        <_>
          <internalNodes>
            0 -1 65 -318289737 2137106214 -127663375 -90574682
            -414956501 -34118323 -186277146 -1137215901</internalNodes>
          <leafValues>
            -2.9114720225334167e-001 3.6876267194747925e-001</leafValues></_>
        <_>
          <internalNodes>
            0 -1 152 -594280453 -1717534720 -402315649 -1115452683
            -570675025 445925352 1285926559 -1463684041</internalNodes>
          <leafValues>
            -2.3836399614810944e-001 4.2929536104202271e-001</leafValues></_>
        <_>
          <internalNodes>
            0 -1 42 1533005807 -685010474 866312824 999955896 1880097856
            1323827202 1305054655 1638120375</internalNodes>
          <leafValues>
            -3.6102545261383057e-001 2.8695937991142273e-001</leafValues></_>
        <_>
          <internalNodes>
            0 -1 138 -1861535089 419433730 1047047739 -16389629
            1427097251 -1125324928 -85254262 -355997913</internalNodes>
          <leafValues>
            -2.3907901346683502e-001 4.5014446973800659e-001</leafValues></_>
        <_>
          <internalNodes>
            0 -1 3 -363925762 -653193211 -251620655 -1827655424
            1887496601 -2130673664 -218081024 -260014062</internalNodes>
          <leafValues>
            -4.8125147819519043e-001 2.0827741920948029e-001</leafValues></_>
        <_>
          <internalNodes>
            0 -1 75 1078718658 -203451078 1968161476 1047144481
            -1341786068 1666423946 1888062380 1942737122</internalNodes>
          <leafValues>
            -4.8195374011993408e-001 2.2259359061717987e-001</leafValues></_>
        <_>
          <internalNodes>
            0 -1 109 -582588975 1892122784 1168954813 -145566657
            -2128092064 -1571606476 1949956303 -13676305</internalNodes>
          <leafValues>
            -2.2960473597049713e-001 4.7398066520690918e-001</leafValues></_>
        <_>
          <internalNodes>
            0 -1 165 -274742505 -201238321 -2050725877 -1409202777
            1557139003 1645759221 1158201344 -439630702</internalNodes>
          <leafValues>
            -3.1372714042663574e-001 3.2642871141433716e-001</leafValues></_>
        <_>
          <internalNodes>
            0 -1 102 -691294205 -717039610 -1777333471 -1119597219
            211255348 -2087573207 -898660933 -37753881</internalNodes>
          <leafValues>
            -2.7726331353187561e-001 3.8375204801559448e-001</leafValues></_>
        <_>
          <internalNodes>
            0 -1 141 -445121825 -181174067 370998557 -513703532
            1613889724 -341706616 -895463793 -618696562</internalNodes>
          <leafValues>
            -2.2284246981143951e-001 4.9761885404586792e-001</leafValues></_>
        <_>
          <internalNodes>
            0 -1 218 -342887673 574809346 -1350223906 -775825967
            1078252894 -1934092670 -1014579691 -804523849</internalNodes>
          <leafValues>
            -2.7640712261199951e-001 3.7641260027885437e-001</leafValues></_></weakClassifiers></_>
    <!-- stage 18 -->
    <_>
      <maxWeakCount>16</maxWeakCount>
      <stageThreshold>-1.8965362310409546e+000</stageThreshold>
      <weakClassifiers>
        <_>
          <internalNodes>
            0 -1 168 -1010861057 -221050580 -2088656519 -1122821871
            -640363324 -123004678 1504397499 -838870789</internalNodes>
          <leafValues>
            -5.9752446413040161e-001 1.4039868116378784e-001</leafValues></_>
        <_>
          <internalNodes>
            0 -1 162 -239013678 -136925555 359770941 2010450123
            -188242775 2055331905 -1583956823 1363496143</internalNodes>
          <leafValues>
            -4.0810230374336243e-001 3.4599632024765015e-001</leafValues></_>
        <_>
          <internalNodes>
            0 -1 40 -92804542 -697700244 -1190013952 -44466189
            1117878547 2051277371 1089097799 2046869653</internalNodes>
          <leafValues>
            -5.3817373514175415e-001 2.3169662058353424e-001</leafValues></_>
        <_>
          <internalNodes>
            0 -1 47 -761735688 -2071330224 -1426056875 -1912258432
            -368537378 -1651834751 -1593775112 -1880127967</internalNodes>
          <leafValues>
            -4.0391454100608826e-001 3.5548388957977295e-001</leafValues></_>
        <_>
          <internalNodes>
            0 -1 78 1371784091 -74251264 1090519581 2005214593 436197018
            -1088779271 89180907 -611647349</internalNodes>
          <leafValues>
            -2.5835949182510376e-001 5.7972168922424316e-001</leafValues></_>
        <_>
          <internalNodes>
            0 -1 204 -1193280865 269564416 1076890627 240396167
            823741913 -2092720711 97619690 -71597318</internalNodes>
          <leafValues>
            -2.9085582494735718e-001 4.7378799319267273e-001</leafValues></_>
        <_>
          <internalNodes>
            0 -1 71 -2141477341 -612128859 -1961455536 -649001911
            -1008934228 -1731689824 70017283 1077969368</internalNodes>
          <leafValues>
            -3.4432369470596313e-001 3.6327487230300903e-001</leafValues></_>
        <_>
          <internalNodes>
            0 -1 212 -565186305 -754856903 1613285394 -784215277
            -1870229293 412865692 -1339453429 -40129431</internalNodes>
          <leafValues>
            -2.2898167371749878e-001 6.1514151096343994e-001</leafValues></_>
        <_>
          <internalNodes>
            0 -1 9 -534132165 143726928 -931568522 301114355 56869270
            139560772 -1064512758 -896998178</internalNodes>
          <leafValues>
            -3.1190940737724304e-001 3.9967307448387146e-001</leafValues></_>
        <_>
          <internalNodes>
            0 -1 190 -1990475621 488861242 -1246333583 1035444867
            -1731979061 -203862874 -104563062 -1196877999</internalNodes>
          <leafValues>
            -2.5370454788208008e-001 5.2912634611129761e-001</leafValues></_>
        <_>
          <internalNodes>
            0 -1 196 -1869356541 410163266 152641281 -1718413137
            -1810529068 1544555701 -1181383182 -893534221</internalNodes>
          <leafValues>
            -3.0199351906776428e-001 4.2910236120223999e-001</leafValues></_>
        <_>
          <internalNodes>
            0 -1 80 -1476144590 -787266558 558196189 -552491423
            -2143254344 -1346215855 2018283431 -1658379879</internalNodes>
          <leafValues>
            -2.9906418919563293e-001 4.5021021366119385e-001</leafValues></_>
        <_>
          <internalNodes>
            0 -1 66 -1239944082 288428237 -1342115294 -620029823
            -1879023488 -1056749568 -930870165 1195607786</internalNodes>
          <leafValues>
            -5.0659424066543579e-001 2.8313866257667542e-001</leafValues></_>
        <_>
          <internalNodes>
            0 -1 68 -786525157 -247911910 119608307 -576985398
            -263329319 -658516720 168907769 -108140701</internalNodes>
          <leafValues>
            -2.1421611309051514e-001 6.5006899833679199e-001</leafValues></_>
        <_>
          <internalNodes>
            0 -1 178 -1321991977 -1577057311 -871134817 1561793031
            -917413242 -1954242168 2082064415 1855078407</internalNodes>
          <leafValues>
            -3.4279647469520569e-001 3.7827181816101074e-001</leafValues></_>
        <_>
          <internalNodes>
            0 -1 210 1913118094 1544166979 1074946338 314659147
            -792354678 1350568960 -1716397522 1198448904</internalNodes>
          <leafValues>
            -5.4542833566665649e-001 2.3386597633361816e-001</leafValues></_></weakClassifiers></_></stages>
  <features>
    <_>
      <rect>
        0 0 3 4</rect></_>
    <_>
      <rect>
        0 0 5 5</rect></_>
    <_>
      <rect>
        0 1 4 4</rect></_>
    <_>
      <rect>
        0 1 6 5</rect></_>
    <_>
      <rect>
        0 1 8 4</rect></_>
    <_>
      <rect>
        0 2 3 5</rect></_>
    <_>
      <rect>
        0 2 4 2</rect></_>
    <_>
      <rect>
        0 2 5 6</rect></_>
    <_>
      <rect>
        0 2 6 4</rect></_>
    <_>
      <rect>
        0 3 2 1</rect></_>
    <_>
      <rect>
        0 5 2 5</rect></_>
    <_>
      <rect>
        0 5 3 5</rect></_>
    <_>
      <rect>
        0 7 2 4</rect></_>
    <_>
      <rect>
        0 9 8 1</rect></_>
    <_>
      <rect>
        0 10 8 2</rect></_>
    <_>
      <rect>
        0 11 6 3</rect></_>
    <_>
      <rect>
        0 12 8 2</rect></_>
    <_>
      <rect>
        0 13 5 1</rect></_>
    <_>
      <rect>
        0 13 8 1</rect></_>
    <_>
      <rect>
        0 14 5 2</rect></_>
    <_>
      <rect>
        0 17 4 1</rect></_>
    <_>
      <rect>
        0 17 7 1</rect></_>
    <_>
      <rect>
        0 17 8 1</rect></_>
    <_>
      <rect>
        1 0 3 5</rect></_>
    <_>
      <rect>
        1 0 3 6</rect></_>
    <_>
      <rect>
        1 1 6 5</rect></_>
    <_>
      <rect>
        1 2 2 3</rect></_>
    <_>
      <rect>
        1 7 2 4</rect></_>
    <_>
      <rect>
        1 7 3 3</rect></_>
    <_>
      <rect>
        1 8 3 1</rect></_>
    <_>
      <rect>
        1 10 3 1</rect></_>
    <_>
      <rect>
        1 10 3 2</rect></_>
    <_>
      <rect>
        1 10 7 2</rect></_>
    <_>
      <rect>
        2 0 2 4</rect></_>
    <_>
      <rect>
        3 7 2 2</rect></_>
    <_>
      <rect>
        3 7 2 4</rect></_>
    <_>
      <rect>
        3 8 2 4</rect></_>
    <_>
      <rect>
        3 9 2 1</rect></_>
    <_>
      <rect>
        3 10 1 2</rect></_>
    <_>
      <rect>
        4 1 5 3</rect></_>
    <_>
      <rect>
        4 7 2 2</rect></_>
    <_>
      <rect>
        4 7 2 3</rect></_>
    <_>
      <rect>
        4 7 3 3</rect></_>
    <_>
      <rect>
        4 8 2 3</rect></_>
    <_>
      <rect>
        4 8 2 4</rect></_>
    <_>
      <rect>
        4 10 3 2</rect></_>
    <_>
      <rect>
        4 11 1 2</rect></_>
    <_>
      <rect>
        4 11 6 2</rect></_>
    <_>
      <rect>
        5 1 2 6</rect></_>
    <_>
      <rect>
        5 1 4 5</rect></_>
    <_>
      <rect>
        5 1 4 6</rect></_>
    <_>
      <rect>
        5 2 4 6</rect></_>
    <_>
      <rect>
        5 3 4 3</rect></_>
    <_>
      <rect>
        5 6 3 1</rect></_>
    <_>
      <rect>
        5 8 2 4</rect></_>
    <_>
      <rect>
        5 9 3 3</rect></_>
    <_>
      <rect>
        5 10 4 3</rect></_>
    <_>
      <rect>
        5 11 2 3</rect></_>
    <_>
      <rect>
        5 12 3 1</rect></_>
    <_>
      <rect>
        5 13 1 1</rect></_>
    <_>
      <rect>
        5 14 2 2</rect></_>
    <_>
      <rect>
        5 16 1 1</rect></_>
    <_>
      <rect>
        6 0 6 3</rect></_>
    <_>
      <rect>
        6 9 2 3</rect></_>
    <_>
      <rect>
        6 11 6 1</rect></_>
    <_>
      <rect>
        6 12 1 1</rect></_>
    <_>
      <rect>
        6 12 2 2</rect></_>
    <_>
      <rect>
        6 12 6 1</rect></_>
    <_>
      <rect>
        6 14 1 1</rect></_>
    <_>
      <rect>
        6 14 2 2</rect></_>
    <_>
      <rect>
        7 0 3 4</rect></_>
    <_>
      <rect>
        7 4 1 2</rect></_>
    <_>
      <rect>
        7 5 2 5</rect></_>
    <_>
      <rect>
        7 7 1 4</rect></_>
    <_>
      <rect>
        7 8 2 4</rect></_>
    <_>
      <rect>
        7 10 2 3</rect></_>
    <_>
      <rect>
        7 11 2 3</rect></_>
    <_>
      <rect>
        7 11 3 2</rect></_>
    <_>
      <rect>
        7 13 4 1</rect></_>
    <_>
      <rect>
        7 14 2 2</rect></_>
    <_>
      <rect>
        7 15 4 1</rect></_>
    <_>
      <rect>
        8 0 3 4</rect></_>
    <_>
      <rect>
        8 1 3 4</rect></_>
    <_>
      <rect>
        8 4 3 1</rect></_>
    <_>
      <rect>
        8 10 2 3</rect></_>
    <_>
      <rect>
        8 11 2 3</rect></_>
    <_>
      <rect>
        8 11 5 1</rect></_>
    <_>
      <rect>
        8 12 4 1</rect></_>
    <_>
      <rect>
        8 13 4 1</rect></_>
    <_>
      <rect>
        8 13 5 1</rect></_>
    <_>
      <rect>
        8 14 2 2</rect></_>
    <_>
      <rect>
        8 14 4 1</rect></_>
    <_>
      <rect>
        9 8 2 4</rect></_>
    <_>
      <rect>
        9 9 2 3</rect></_>
    <_>
      <rect>
        9 10 2 3</rect></_>
    <_>
      <rect>
        9 10 4 2</rect></_>
    <_>
      <rect>
        9 13 4 1</rect></_>
    <_>
      <rect>
        9 13 5 1</rect></_>
    <_>
      <rect>
        9 14 2 2</rect></_>
    <_>
      <rect>
        9 14 4 1</rect></_>
    <_>
      <rect>
        10 3 2 1</rect></_>
    <_>
      <rect>
        10 8 2 4</rect></_>
    <_>
      <rect>
        10 9 1 3</rect></_>
    <_>
      <rect>
        10 10 1 3</rect></_>
    <_>
      <rect>
        10 10 4 2</rect></_>
    <_>
      <rect>
        10 11 2 3</rect></_>
    <_>
      <rect>
        10 12 4 1</rect></_>
    <_>
      <rect>
        10 13 4 1</rect></_>
    <_>
      <rect>
        10 14 2 2</rect></_>
    <_>
      <rect>
        10 15 4 1</rect></_>
    <_>
      <rect>
        11 0 3 6</rect></_>
    <_>
      <rect>
        11 2 3 2</rect></_>
    <_>
      <rect>
        11 5 3 2</rect></_>
    <_>
      <rect>
        11 5 3 3</rect></_>
    <_>
      <rect>
        11 6 3 2</rect></_>
    <_>
      <rect>
        11 7 3 2</rect></_>
    <_>
      <rect>
        11 8 3 2</rect></_>
    <_>
      <rect>
        11 9 3 2</rect></_>
    <_>
      <rect>
        11 10 2 3</rect></_>
    <_>
      <rect>
        11 10 3 1</rect></_>
    <_>
      <rect>
        11 10 3 2</rect></_>
    <_>
      <rect>
        11 11 1 2</rect></_>
    <_>
      <rect>
        11 11 2 3</rect></_>
    <_>
      <rect>
        11 12 4 1</rect></_>
    <_>
      <rect>
        11 13 2 2</rect></_>
    <_>
      <rect>
        11 13 4 1</rect></_>
    <_>
      <rect>
        11 14 2 2</rect></_>
    <_>
      <rect>
        11 14 4 1</rect></_>
    <_>
      <rect>
        11 16 2 1</rect></_>
    <_>
      <rect>
        12 0 2 3</rect></_>
    <_>
      <rect>
        12 2 2 6</rect></_>
    <_>
      <rect>
        12 4 1 1</rect></_>
    <_>
      <rect>
        12 6 2 2</rect></_>
    <_>
      <rect>
        12 7 2 2</rect></_>
    <_>
      <rect>
        12 8 2 2</rect></_>
    <_>
      <rect>
        12 10 3 2</rect></_>
    <_>
      <rect>
        12 11 2 3</rect></_>
    <_>
      <rect>
        12 12 4 1</rect></_>
    <_>
      <rect>
        12 13 1 1</rect></_>
    <_>
      <rect>
        12 13 4 1</rect></_>
    <_>
      <rect>
        12 14 2 2</rect></_>
    <_>
      <rect>
        12 14 4 1</rect></_>
    <_>
      <rect>
        12 17 2 1</rect></_>
    <_>
      <rect>
        13 3 2 1</rect></_>
    <_>
      <rect>
        13 4 1 1</rect></_>
    <_>
      <rect>
        13 4 3 1</rect></_>
    <_>
      <rect>
        13 7 1 2</rect></_>
    <_>
      <rect>
        13 7 2 2</rect></_>
    <_>
      <rect>
        13 8 2 2</rect></_>
    <_>
      <rect>
        13 8 2 3</rect></_>
    <_>
      <rect>
        13 10 1 3</rect></_>
    <_>
      <rect>
        13 11 2 3</rect></_>
    <_>
      <rect>
        13 12 1 1</rect></_>
    <_>
      <rect>
        13 14 2 2</rect></_>
    <_>
      <rect>
        13 17 2 1</rect></_>
    <_>
      <rect>
        14 0 3 3</rect></_>
    <_>
      <rect>
        14 0 3 4</rect></_>
    <_>
      <rect>
        14 1 3 6</rect></_>
    <_>
      <rect>
        14 2 1 6</rect></_>
    <_>
      <rect>
        14 2 2 2</rect></_>
    <_>
      <rect>
        14 3 1 5</rect></_>
    <_>
      <rect>
        14 3 2 1</rect></_>
    <_>
      <rect>
        14 6 1 2</rect></_>
    <_>
      <rect>
        14 6 1 3</rect></_>
    <_>
      <rect>
        14 7 1 2</rect></_>
    <_>
      <rect>
        14 7 2 2</rect></_>
    <_>
      <rect>
        14 11 2 2</rect></_>
    <_>
      <rect>
        14 11 2 3</rect></_>
    <_>
      <rect>
        14 11 3 2</rect></_>
    <_>
      <rect>
        14 12 1 1</rect></_>
    <_>
      <rect>
        14 12 1 2</rect></_>
    <_>
      <rect>
        14 14 2 2</rect></_>
    <_>
      <rect>
        14 17 2 1</rect></_>
    <_>
      <rect>
        15 0 3 4</rect></_>
    <_>
      <rect>
        15 0 3 6</rect></_>
    <_>
      <rect>
        15 1 3 4</rect></_>
    <_>
      <rect>
        15 2 2 6</rect></_>
    <_>
      <rect>
        15 5 1 3</rect></_>
    <_>
      <rect>
        15 5 3 1</rect></_>
    <_>
      <rect>
        15 9 1 1</rect></_>
    <_>
      <rect>
        15 10 1 1</rect></_>
    <_>
      <rect>
        15 11 2 3</rect></_>
    <_>
      <rect>
        15 12 1 1</rect></_>
    <_>
      <rect>
        15 12 2 2</rect></_>
    <_>
      <rect>
        15 13 2 2</rect></_>
    <_>
      <rect>
        15 14 2 2</rect></_>
    <_>
      <rect>
        16 1 2 6</rect></_>
    <_>
      <rect>
        16 4 1 1</rect></_>
    <_>
      <rect>
        16 8 2 4</rect></_>
    <_>
      <rect>
        16 11 2 2</rect></_>
    <_>
      <rect>
        16 12 1 1</rect></_>
    <_>
      <rect>
        16 12 2 2</rect></_>
    <_>
      <rect>
        16 14 2 2</rect></_>
    <_>
      <rect>
        17 0 2 6</rect></_>
    <_>
      <rect>
        17 4 1 1</rect></_>
    <_>
      <rect>
        17 8 2 4</rect></_>
    <_>
      <rect>
        17 10 1 2</rect></_>
    <_>
      <rect>
        17 10 2 3</rect></_>
    <_>
      <rect>
        17 12 2 2</rect></_>
    <_>
      <rect>
        17 13 2 2</rect></_>
    <_>
      <rect>
        17 14 2 2</rect></_>
    <_>
      <rect>
        18 2 2 6</rect></_>
    <_>
      <rect>
        18 3 2 5</rect></_>
    <_>
      <rect>
        18 5 2 5</rect></_>
    <_>
      <rect>
        18 8 1 3</rect></_>
    <_>
      <rect>
        18 8 2 4</rect></_>
    <_>
      <rect>
        18 9 2 3</rect></_>
    <_>
      <rect>
        18 10 2 3</rect></_>
    <_>
      <rect>
        18 11 1 2</rect></_>
    <_>
      <rect>
        18 11 2 3</rect></_>
    <_>
      <rect>
        18 14 2 2</rect></_>
    <_>
      <rect>
        19 6 1 2</rect></_>
    <_>
      <rect>
        20 7 1 4</rect></_>
    <_>
      <rect>
        20 12 1 2</rect></_>
    <_>
      <rect>
        21 7 1 2</rect></_>
    <_>
      <rect>
        21 7 1 4</rect></_>
    <_>
      <rect>
        21 8 1 3</rect></_>
    <_>
      <rect>
        21 9 1 3</rect></_>
    <_>
      <rect>
        21 10 1 3</rect></_></features></cascade>
</opencv_storage>
