<?xml version="1.0"?>
<opencv_storage>
<cascade>
  <stageType>BOOST</stageType>
  <featureType>LBP</featureType>
  <height>20</height>
  <width>24</width>
  <stageParams>
    <boostType>GAB</boostType>
    <minHitRate>9.9500000476837158e-001</minHitRate>
    <maxFalseAlarm>4.0000000596046448e-001</maxFalseAlarm>
    <weightTrimRate>9.4999999999999996e-001</weightTrimRate>
    <maxDepth>1</maxDepth>
    <maxWeakCount>100</maxWeakCount></stageParams>
  <featureParams>
    <maxCatCount>256</maxCatCount>
    <featSize>1</featSize></featureParams>
  <stageNum>17</stageNum>
  <stages>
    <!-- stage 0 -->
    <_>
      <maxWeakCount>6</maxWeakCount>
      <stageThreshold>-1.7265866994857788e+000</stageThreshold>
      <weakClassifiers>
        <_>
          <internalNodes>
            0 -1 82 -21846 -1 -278 -1 -1 -1 -1 -1</internalNodes>
          <leafValues>
            -8.4244126081466675e-001 5.1762425899505615e-001</leafValues></_>
        <_>
          <internalNodes>
            0 -1 3 810890239 1946155007 2147483135 -134217729 1903656959
            -134217729 2147221503 -1</internalNodes>
          <leafValues>
            -6.0020899772644043e-001 5.7779663801193237e-001</leafValues></_>
        <_>
          <internalNodes>
            0 -1 215 -135266334 -532629696 -61276224 -805243328 -132282
            -448467328 -134416908 -170524722</internalNodes>
          <leafValues>
            -6.1982965469360352e-001 4.7423174977302551e-001</leafValues></_>
        <_>
          <internalNodes>
            0 -1 141 -18 -171050322 418443424 -171576341 -136451090
            1078261248 -238685489 1975909359</internalNodes>
          <leafValues>
            -5.7591229677200317e-001 4.3093755841255188e-001</leafValues></_>
        <_>
          <internalNodes>
            0 -1 107 -673188882 1442822638 -788102968 1977483212
            2013134532 324228 1911402952 1363538895</internalNodes>
          <leafValues>
            -5.8164209127426147e-001 4.1458556056022644e-001</leafValues></_>
        <_>
          <internalNodes>
            0 -1 13 -2099506 -403701778 -430774046 -562104321 1364717632
            1455702338 -993659417 -137364497</internalNodes>
          <leafValues>
            -5.0962996482849121e-001 4.5566874742507935e-001</leafValues></_></weakClassifiers></_>
    <!-- stage 1 -->
    <_>
      <maxWeakCount>8</maxWeakCount>
      <stageThreshold>-1.7672803401947021e+000</stageThreshold>
      <weakClassifiers>
        <_>
          <internalNodes>
            0 -1 83 -20561 -1 -1347482065 -2049 -1 -1 -4194321 -1</internalNodes>
          <leafValues>
            -7.2780042886734009e-001 6.5208405256271362e-001</leafValues></_>
        <_>
          <internalNodes>
            0 -1 193 1090757258 1392621770 1073951235 -137101429
            -237514097 -146276657 -169870865 -1</internalNodes>
          <leafValues>
            -6.3560467958450317e-001 5.0697797536849976e-001</leafValues></_>
        <_>
          <internalNodes>
            0 -1 10 -2110386 -135267377 -268148158 -18875137 1422148928
            1430274880 -997923516 -137363473</internalNodes>
          <leafValues>
            -5.9357464313507080e-001 4.5002260804176331e-001</leafValues></_>
        <_>
          <internalNodes>
            0 -1 138 -8405009 -134238390 869998602 1393029698 -152060978
            -698880342 1078440586 1346892491</internalNodes>
          <leafValues>
            -5.7575225830078125e-001 4.1984495520591736e-001</leafValues></_>
        <_>
          <internalNodes>
            0 -1 230 -1035009533 -2233 -939591689 -1048597 -268481021
            -8405121 -1091589 -1</internalNodes>
          <leafValues>
            -3.6418929696083069e-001 5.9144765138626099e-001</leafValues></_>
        <_>
          <internalNodes>
            0 -1 169 2002252782 2002517994 1343287432 -675153202
            -201608244 1346412864 -154667026 1363539946</internalNodes>
          <leafValues>
            -5.9708148241043091e-001 3.5124477744102478e-001</leafValues></_>
        <_>
          <internalNodes>
            0 -1 33 -169883954 -196286546 -151723824 -172687618
            1078255680 1141166784 -993656866 -725221378</internalNodes>
          <leafValues>
            -5.2102106809616089e-001 4.0363875031471252e-001</leafValues></_>
        <_>
          <internalNodes>
            0 -1 76 1602202862 -1638562 1342480512 -212471130 -33688596
            1078255940 1441656526 1371862927</internalNodes>
          <leafValues>
            -6.2083971500396729e-001 3.2691431045532227e-001</leafValues></_></weakClassifiers></_>
    <!-- stage 2 -->
    <_>
      <maxWeakCount>8</maxWeakCount>
      <stageThreshold>-1.9336379766464233e+000</stageThreshold>
      <weakClassifiers>
        <_>
          <internalNodes>
            0 -1 86 -83889422 -1 -1610432432 -16385 -1 -5243905 -1 -1</internalNodes>
          <leafValues>
            -8.1974190473556519e-001 4.5074701309204102e-001</leafValues></_>
        <_>
          <internalNodes>
            0 -1 122 -2110848510 -10502149 -1745389573 -67111073
            -270536705 -4205569 -335545345 -1</internalNodes>
          <leafValues>
            -6.9905966520309448e-001 4.7722736001014709e-001</leafValues></_>
        <_>
          <internalNodes>
            0 -1 182 -1878810110 1363382790 1883341314 2002252567
            1078427786 268517376 -238054705 -137887777</internalNodes>
          <leafValues>
            -5.8550417423248291e-001 4.6958762407302856e-001</leafValues></_>
        <_>
          <internalNodes>
            0 -1 52 1363345410 -687508497 2293831 -774670385 1426919562
            -678463927 -783323921 -17</internalNodes>
          <leafValues>
            -5.4276114702224731e-001 4.3178546428680420e-001</leafValues></_>
        <_>
          <internalNodes>
            0 -1 212 -204998742 45570 1610842112 1360130628 -202386486
            1078010370 2063590342 1346892354</internalNodes>
          <leafValues>
            -6.6668444871902466e-001 3.5084438323974609e-001</leafValues></_>
        <_>
          <internalNodes>
            0 -1 1 -2045795581 -826278051 1677655929 -33559297
            -1162874949 1333747710 -268435681 -1281</internalNodes>
          <leafValues>
            -3.8058859109878540e-001 5.5504715442657471e-001</leafValues></_>
        <_>
          <internalNodes>
            0 -1 31 -201334266 1181085223 2012456290 1403827191
            1195840773 1179006016 1474253001 1397188598</internalNodes>
          <leafValues>
            -6.3156884908676147e-001 2.7085775136947632e-001</leafValues></_>
        <_>
          <internalNodes>
            0 -1 20 -67371297 -120817062 -1394594594 1354292478
            -830480932 1053050148 -209805588 -50397185</internalNodes>
          <leafValues>
            -3.5677441954612732e-001 5.1529759168624878e-001</leafValues></_></weakClassifiers></_>
    <!-- stage 3 -->
    <_>
      <maxWeakCount>9</maxWeakCount>
      <stageThreshold>-1.9485456943511963e+000</stageThreshold>
      <weakClassifiers>
        <_>
          <internalNodes>
            0 -1 114 -4177 -17 -1892742389 -1050641 -8209 -1048625
            -1060913 -1</internalNodes>
          <leafValues>
            -7.0286458730697632e-001 4.2108434438705444e-001</leafValues></_>
        <_>
          <internalNodes>
            0 -1 124 856109875 1058930687 2006971391 2147483647
            2004746239 2138045439 2147483647 -1</internalNodes>
          <leafValues>
            -6.7439758777618408e-001 3.7968993186950684e-001</leafValues></_>
        <_>
          <internalNodes>
            0 -1 64 -783822206 -754482686 123008 1397749743 1078440394
            1073864834 1074789359 -201327665</internalNodes>
          <leafValues>
            -5.5833715200424194e-001 4.6261584758758545e-001</leafValues></_>
        <_>
          <internalNodes>
            0 -1 240 -1 -47383308 904961808 -677709872 -537554028
            238087180 2002089028 -1035</internalNodes>
          <leafValues>
            -4.3516910076141357e-001 5.1978772878646851e-001</leafValues></_>
        <_>
          <internalNodes>
            0 -1 90 1938012842 1363378690 1397088483 1363538118
            -1580208146 -1073679742 -1075904513 -137890162</internalNodes>
          <leafValues>
            -4.5503747463226318e-001 4.8629164695739746e-001</leafValues></_>
        <_>
          <internalNodes>
            0 -1 177 -741354806 -174881082 274461323 -10617123
            1074110602 -1857904630 1884277451 -203948081</internalNodes>
          <leafValues>
            -4.4961494207382202e-001 4.4751867651939392e-001</leafValues></_>
        <_>
          <internalNodes>
            0 -1 156 1976296426 1406140360 1611145898 1408230382
            1987028430 1141172103 1918366447 1909454543</internalNodes>
          <leafValues>
            -5.4375833272933960e-001 3.6534452438354492e-001</leafValues></_>
        <_>
          <internalNodes>
            0 -1 229 -1974533629 -4724865 1062167357 -76546375
            -1899025625 -8388737 -631276681 -1</internalNodes>
          <leafValues>
            -4.3752142786979675e-001 4.6167722344398499e-001</leafValues></_>
        <_>
          <internalNodes>
            0 -1 18 -84938833 -689275190 -866195422 1626274414
            -1276131830 1225140582 1463867204 -168823090</internalNodes>
          <leafValues>
            -4.5510345697402954e-001 3.9603686332702637e-001</leafValues></_></weakClassifiers></_>
    <!-- stage 4 -->
    <_>
      <maxWeakCount>9</maxWeakCount>
      <stageThreshold>-1.5288478136062622e+000</stageThreshold>
      <weakClassifiers>
        <_>
          <internalNodes>
            0 -1 81 -262 -513 -2097153 -16385 -2097153 -2360321 -4210689
            -16385</internalNodes>
          <leafValues>
            -7.5001859664916992e-001 2.4499590694904327e-001</leafValues></_>
        <_>
          <internalNodes>
            0 -1 214 -1048662 64134 -120270208 -264175796 -1073 63628
            -131597 -137363489</internalNodes>
          <leafValues>
            -6.5385884046554565e-001 3.5936820507049561e-001</leafValues></_>
        <_>
          <internalNodes>
            0 -1 11 -18877746 -16777218 -723190548 -218308612 -733612860
            1355079816 -1069226548 -707921170</internalNodes>
          <leafValues>
            -5.8647942543029785e-001 3.4933507442474365e-001</leafValues></_>
        <_>
          <internalNodes>
            0 -1 46 -2013265776 -1693972320 -1727002791 -585302000
            -1904031542 -24475509 -2013230454 -654309112</internalNodes>
          <leafValues>
            -5.1480621099472046e-001 4.0879002213478088e-001</leafValues></_>
        <_>
          <internalNodes>
            0 -1 186 -169610262 -77530458 -746544736 1970664270 -131076
            1346430784 -152181782 1371928523</internalNodes>
          <leafValues>
            -5.4073828458786011e-001 3.7986400723457336e-001</leafValues></_>
        <_>
          <internalNodes>
            0 -1 147 -1155328205 -71606352 939228159 -4237989
            -1073762562 -1342242817 -6635585 -5292069</internalNodes>
          <leafValues>
            -3.4790402650833130e-001 5.7186132669448853e-001</leafValues></_>
        <_>
          <internalNodes>
            0 -1 71 285442186 1393950223 -954837529 -3688481 1431305151
            326079 -2121729 -136315921</internalNodes>
          <leafValues>
            -5.0239294767379761e-001 3.7627363204956055e-001</leafValues></_>
        <_>
          <internalNodes>
            0 -1 37 -236978482 -8389906 -1801127776 -84937758 1426423812
            1342546634 1364103659 1078457034</internalNodes>
          <leafValues>
            -6.2895911931991577e-001 2.6221880316734314e-001</leafValues></_>
        <_>
          <internalNodes>
            0 -1 199 -1287389270 1426089856 1420879824 -145362684
            -136445953 -212796472 -1245212 -141230116</internalNodes>
          <leafValues>
            -5.3047662973403931e-001 3.0586293339729309e-001</leafValues></_></weakClassifiers></_>
    <!-- stage 5 -->
    <_>
      <maxWeakCount>12</maxWeakCount>
      <stageThreshold>-1.8197240829467773e+000</stageThreshold>
      <weakClassifiers>
        <_>
          <internalNodes>
            0 -1 99 -17 -1 -1886433777 -810553457 -2097153 -17429 -113
            -49</internalNodes>
          <leafValues>
            -6.4954251050949097e-001 2.8925374150276184e-001</leafValues></_>
        <_>
          <internalNodes>
            0 -1 75 -74952488 -846888 822104281 1431392720 -21182226
            -68204562 1071322 150995980</internalNodes>
          <leafValues>
            -6.0407233238220215e-001 3.0579134821891785e-001</leafValues></_>
        <_>
          <internalNodes>
            0 -1 145 146476285 -537432707 1073700863 -8421379
            -1078059521 -1067011 -1350647809 -1078256385</internalNodes>
          <leafValues>
            -4.8149907588958740e-001 3.8897687196731567e-001</leafValues></_>
        <_>
          <internalNodes>
            0 -1 188 -800591222 -749338815 1346396672 -145360553
            -254938934 -196742582 -178914321 -3146753</internalNodes>
          <leafValues>
            -4.2470318078994751e-001 4.1312402486801147e-001</leafValues></_>
        <_>
          <internalNodes>
            0 -1 119 1943010254 -676331582 1140183168 -671616021
            2001729286 1409673031 -204492145 1934096079</internalNodes>
          <leafValues>
            -4.9781888723373413e-001 3.5623955726623535e-001</leafValues></_>
        <_>
          <internalNodes>
            0 -1 21 -135274530 -540217920 -68618232 -3358996 -1116468
            -599457848 -87375988 -553062408</internalNodes>
          <leafValues>
            -4.6293729543685913e-001 3.6438015103340149e-001</leafValues></_>
        <_>
          <internalNodes>
            0 -1 29 1431427069 1427217311 -67323393 -13241345 336658397
            -582884890 -3147009 -2823233</internalNodes>
          <leafValues>
            -4.2178726196289063e-001 3.8679534196853638e-001</leafValues></_>
        <_>
          <internalNodes>
            0 -1 211 -1213203478 58048 -531171678 -171576625 1172291503
            51200 -655361 -715130161</internalNodes>
          <leafValues>
            -4.5790356397628784e-001 3.2142323255538940e-001</leafValues></_>
        <_>
          <internalNodes>
            0 -1 238 -83886173 -433062705 -8389888 -1062404564
            -134220281 203421540 -147393728 -489685121</internalNodes>
          <leafValues>
            -4.2430955171585083e-001 3.4149724245071411e-001</leafValues></_>
        <_>
          <internalNodes>
            0 -1 105 1945107662 -216714552 -42752832 1978610626
            -268452882 -1303072192 -1846107668 1078457026</internalNodes>
          <leafValues>
            -5.7627332210540771e-001 2.1712417900562286e-001</leafValues></_>
        <_>
          <internalNodes>
            0 -1 30 -2095373549 -339739793 803208305 -807403961
            1743519575 -337723905 -1487145129 -403799041</internalNodes>
          <leafValues>
            -4.0669193863868713e-001 3.5047823190689087e-001</leafValues></_>
        <_>
          <internalNodes>
            0 -1 144 -174023664 -1658036824 -1147355567 -1618458699
            -1190199880 -1098343496 -2053202160 -1693959276</internalNodes>
          <leafValues>
            -4.3038409948348999e-001 3.1814682483673096e-001</leafValues></_></weakClassifiers></_>
    <!-- stage 6 -->
    <_>
      <maxWeakCount>14</maxWeakCount>
      <stageThreshold>-1.6130039691925049e+000</stageThreshold>
      <weakClassifiers>
        <_>
          <internalNodes>
            0 -1 162 1431698943 1431690197 -1 -2097157 1431691263
            -581047041 -33555457 -1025</internalNodes>
          <leafValues>
            -7.0109230279922485e-001 1.4979942142963409e-001</leafValues></_>
        <_>
          <internalNodes>
            0 -1 135 -85266240 -73204006 -70519331 -217907521 -70781716
            -3150337 -170404390 -2</internalNodes>
          <leafValues>
            -6.8021959066390991e-001 2.5853675603866577e-001</leafValues></_>
        <_>
          <internalNodes>
            0 -1 0 -1911610877 -1342178313 805295999 -1073741825
            -270532673 -65 -268435457 -2049</internalNodes>
          <leafValues>
            -4.4625312089920044e-001 4.1605588793754578e-001</leafValues></_>
        <_>
          <internalNodes>
            0 -1 41 -16777505 -84083074 -1225999112 -655032338 -77267764
            223624525 -118169652 -65537</internalNodes>
          <leafValues>
            -3.4915032982826233e-001 4.4331812858581543e-001</leafValues></_>
        <_>
          <internalNodes>
            0 -1 73 -800873790 -783832442 1363278551 -135269425
            1078067086 -1069287738 -993001505 -136314913</internalNodes>
          <leafValues>
            -3.7019875645637512e-001 4.0285593271255493e-001</leafValues></_>
        <_>
          <internalNodes>
            0 -1 97 -2135277351 -1074406163 -1074014209 469704447
            -1200687878 -268435457 -2133131265 -1358969633</internalNodes>
          <leafValues>
            -3.3940216898918152e-001 4.4743782281875610e-001</leafValues></_>
        <_>
          <internalNodes>
            0 -1 178 -783814462 863497543 298220504 -178389009
            -531778934 -263329790 1347943087 -497027125</internalNodes>
          <leafValues>
            -4.1202425956726074e-001 3.5215675830841064e-001</leafValues></_>
        <_>
          <internalNodes>
            0 -1 53 1364132046 1936192495 1077944420 1473507815
            1104140494 -213007638 -728895745 -35258674</internalNodes>
          <leafValues>
            -4.1266289353370667e-001 3.3765900135040283e-001</leafValues></_>
        <_>
          <internalNodes>
            0 -1 240 -2097153 -608239628 -182320 -538247176 -1082657860
            1248913708 2135259120 -2621456</internalNodes>
          <leafValues>
            -3.5491538047790527e-001 3.9180442690849304e-001</leafValues></_>
        <_>
          <internalNodes>
            0 -1 168 1476391886 -150997144 1960902314 -763921466
            -774950230 -1058276638 1391456974 1917318990</internalNodes>
          <leafValues>
            -5.1673239469528198e-001 2.5567042827606201e-001</leafValues></_>
        <_>
          <internalNodes>
            0 -1 160 -1291625167 -606806160 -4719233 -1755860651
            -1104008975 -301991181 -1413529607 -1372070607</internalNodes>
          <leafValues>
            -3.5587421059608459e-001 3.7520053982734680e-001</leafValues></_>
        <_>
          <internalNodes>
            0 -1 93 1910241230 -203497490 -1057163028 -235014418
            -144703544 1625620164 -778699537 -783812913</internalNodes>
          <leafValues>
            -3.7766900658607483e-001 3.4580630064010620e-001</leafValues></_>
        <_>
          <internalNodes>
            0 -1 226 -273940573 -2011627582 -1904386384 -2002725086
            -33571247 752352063 -1127223580 -271976490</internalNodes>
          <leafValues>
            -3.8569208979606628e-001 3.3656880259513855e-001</leafValues></_>
        <_>
          <internalNodes>
            0 -1 201 864801418 1430364746 268624130 1364719177
            1475328398 -745997686 -194741529 -243926584</internalNodes>
          <leafValues>
            -4.5009982585906982e-001 2.8341019153594971e-001</leafValues></_></weakClassifiers></_>
    <!-- stage 7 -->
    <_>
      <maxWeakCount>15</maxWeakCount>
      <stageThreshold>-1.6917169094085693e+000</stageThreshold>
      <weakClassifiers>
        <_>
          <internalNodes>
            0 -1 80 -4178 -524801 -2097169 -1 -262145 -3589 -68157441
            -1025</internalNodes>
          <leafValues>
            -6.8714499473571777e-001 1.3851508498191833e-001</leafValues></_>
        <_>
          <internalNodes>
            0 -1 48 1024514256 -1088384000 268472573 487134469 -71385090
            -1087661136 436263674 151650312</internalNodes>
          <leafValues>
            -5.6998956203460693e-001 2.4321323633193970e-001</leafValues></_>
        <_>
          <internalNodes>
            0 -1 14 -8209 -8209 -100730913 -2065 1078215876 2000964676
            1078910687 -10748161</internalNodes>
          <leafValues>
            -3.5278257727622986e-001 4.3725922703742981e-001</leafValues></_>
        <_>
          <internalNodes>
            0 -1 161 16217527 853537791 -1142965249 2143285245
            1945892863 -513 -71836225 -67109633</internalNodes>
          <leafValues>
            -4.2489260435104370e-001 3.5170608758926392e-001</leafValues></_>
        <_>
          <internalNodes>
            0 -1 183 -238583678 894957326 1371865554 -210241973
            -792208758 -528276990 -262671634 1918366687</internalNodes>
          <leafValues>
            -4.6410849690437317e-001 2.9660254716873169e-001</leafValues></_>
        <_>
          <internalNodes>
            0 -1 20 -67109377 -1610711074 2130489086 -2000617794
            -436404260 2103990060 -1130788 -16844034</internalNodes>
          <leafValues>
            -3.4017166495323181e-001 3.8860210776329041e-001</leafValues></_>
        <_>
          <internalNodes>
            0 -1 142 2011168750 -739776818 818557058 -202394905
            1634726862 1145435906 1945106891 2009986255</internalNodes>
          <leafValues>
            -4.8821273446083069e-001 2.5182235240936279e-001</leafValues></_>
        <_>
          <internalNodes>
            0 -1 231 -831566313 -33555457 -269224065 -805832353
            -75497617 -1075847301 -277348421 -269484065</internalNodes>
          <leafValues>
            -3.0507218837738037e-001 4.2478829622268677e-001</leafValues></_>
        <_>
          <internalNodes>
            0 -1 137 -15491272 1065073962 -1092756623 2147089386
            -8061816 -1970758656 -35848248 -8324096</internalNodes>
          <leafValues>
            -4.6275055408477783e-001 2.7555888891220093e-001</leafValues></_>
        <_>
          <internalNodes>
            0 -1 6 -83931642 -294733826 -256920352 1989672190 1439126848
            1430615365 -171551532 -271061161</internalNodes>
          <leafValues>
            -5.4880434274673462e-001 1.9328463077545166e-001</leafValues></_>
        <_>
          <internalNodes>
            0 -1 192 1406084078 -236588369 -2141027680 1936193007
            -1845500180 1097921380 1735780175 1128657859</internalNodes>
          <leafValues>
            -4.7538769245147705e-001 2.6409819722175598e-001</leafValues></_>
        <_>
          <internalNodes>
            0 -1 228 -4196365 -1525816 -350472336 -39520300 -873596080
            107231076 1978736628 -1050723</internalNodes>
          <leafValues>
            -3.5673281550407410e-001 3.1342709064483643e-001</leafValues></_>
        <_>
          <internalNodes>
            0 -1 39 -1742207920 -586498848 -2038296003 -1618928139
            440832138 -1075865205 -1979409474 -351341108</internalNodes>
          <leafValues>
            -3.5360383987426758e-001 3.3376085758209229e-001</leafValues></_>
        <_>
          <internalNodes>
            0 -1 84 -756055552 2075065259 1793204736 2010870315
            357802240 235014342 1464291396 1997141787</internalNodes>
          <leafValues>
            -5.0912749767303467e-001 2.1570481359958649e-001</leafValues></_>
        <_>
          <internalNodes>
            0 -1 157 -436210262 -470811153 -774733600 -672204857
            -167774265 1142200149 -172232289 1907359711</internalNodes>
          <leafValues>
            -4.8258998990058899e-001 2.3245239257812500e-001</leafValues></_></weakClassifiers></_>
    <!-- stage 8 -->
    <_>
      <maxWeakCount>16</maxWeakCount>
      <stageThreshold>-1.6930336952209473e+000</stageThreshold>
      <weakClassifiers>
        <_>
          <internalNodes>
            0 -1 152 -197 -4097 -269496525 -282071233 -9333 -71828545
            -886062333 -9437189</internalNodes>
          <leafValues>
            -6.2779581546783447e-001 2.1044281125068665e-001</leafValues></_>
        <_>
          <internalNodes>
            0 -1 27 821557247 1946156543 -32769 -33 2011133950 -4194881
            2013192191 -262145</internalNodes>
          <leafValues>
            -4.5913967490196228e-001 3.5238951444625854e-001</leafValues></_>
        <_>
          <internalNodes>
            0 -1 202 -167772689 268494336 -572132355 1439167765 -1
            9240506 -1 -538968069</internalNodes>
          <leafValues>
            -3.4709790349006653e-001 4.2066225409507751e-001</leafValues></_>
        <_>
          <internalNodes>
            0 -1 25 -540521252 -538915752 -1366686657 1309298380
            -1909924660 -24088354 -1106767877 -565291812</internalNodes>
          <leafValues>
            -4.2686188220977783e-001 3.2394134998321533e-001</leafValues></_>
        <_>
          <internalNodes>
            0 -1 89 -741606933 -788141502 -800906273 -179832857
            -1673265156 -788481342 -144703491 -1049169</internalNodes>
          <leafValues>
            -2.5865608453750610e-001 4.7624230384826660e-001</leafValues></_>
        <_>
          <internalNodes>
            0 -1 47 -8388882 -236135474 -391253280 -789712214
            -1336807350 1616966148 -452593014 1078321743</internalNodes>
          <leafValues>
            -5.9413713216781616e-001 1.8771314620971680e-001</leafValues></_>
        <_>
          <internalNodes>
            0 -1 158 991958583 -1148289091 1061117951 -134348967
            -1107558467 -230403 -1346716417 -1347807751</internalNodes>
          <leafValues>
            -4.2714223265647888e-001 2.7561414241790771e-001</leafValues></_>
        <_>
          <internalNodes>
            0 -1 9 -386937329 -827396180 -831223714 -1073676412
            -536880060 -319979598 -52622252 -3342474</internalNodes>
          <leafValues>
            -3.7421172857284546e-001 3.2500898838043213e-001</leafValues></_>
        <_>
          <internalNodes>
            0 -1 45 -1724902376 1000973104 678998717 487412861
            -1236378466 -1624543335 1050823422 192439604</internalNodes>
          <leafValues>
            -4.1503438353538513e-001 2.8907471895217896e-001</leafValues></_>
        <_>
          <internalNodes>
            0 -1 234 -282067181 -289735089 -1502675148 -293012062
            -880881340 -1371476001 -52523968 -2228235</internalNodes>
          <leafValues>
            -3.6706316471099854e-001 3.3073690533638000e-001</leafValues></_>
        <_>
          <internalNodes>
            0 -1 181 -781191186 2009923534 -680467512 1406203882
            -40110138 1616963392 1905391311 1363268139</internalNodes>
          <leafValues>
            -5.2558469772338867e-001 2.2707849740982056e-001</leafValues></_>
        <_>
          <internalNodes>
            0 -1 103 -751957744 -1813070870 -546026276 -545270403
            1831933421 -1080206978 2053790461 -805309739</internalNodes>
          <leafValues>
            -4.6161293983459473e-001 2.1980313956737518e-001</leafValues></_>
        <_>
          <internalNodes>
            0 -1 224 -898695137 -1323876997 -1350632609 -801177609
            -75522241 -66 -314605569 -201326789</internalNodes>
          <leafValues>
            -2.9681608080863953e-001 3.6744856834411621e-001</leafValues></_>
        <_>
          <internalNodes>
            0 -1 220 -4460611 -5701771 -1145180688 -1074790675
            1040039321 1064435461 -578815232 -34611851</internalNodes>
          <leafValues>
            -3.1398949027061462e-001 3.5080784559249878e-001</leafValues></_>
        <_>
          <internalNodes>
            0 -1 59 -33554454 -219889713 1077080064 -691030038
            -1818233138 1153563908 1422365162 1350038395</internalNodes>
          <leafValues>
            -4.8838537931442261e-001 2.1455737948417664e-001</leafValues></_>
        <_>
          <internalNodes>
            0 -1 62 -208727157 -213398649 17106145 2110253551 -976231447
            -913855553 -120063233 -1074087709</internalNodes>
          <leafValues>
            -2.5614804029464722e-001 4.0839409828186035e-001</leafValues></_></weakClassifiers></_>
    <!-- stage 9 -->
    <_>
      <maxWeakCount>17</maxWeakCount>
      <stageThreshold>-1.6672481298446655e+000</stageThreshold>
      <weakClassifiers>
        <_>
          <internalNodes>
            0 -1 128 -818950337 -4353 -1894838497 791146031 -3145797
            -262669 1342131979 -129</internalNodes>
          <leafValues>
            -6.5566343069076538e-001 1.3798640668392181e-001</leafValues></_>
        <_>
          <internalNodes>
            0 -1 176 -136843041 -44564513 -1846020641 -2098177
            -800730486 -716894016 -774373409 -2097185</internalNodes>
          <leafValues>
            -3.5189267992973328e-001 4.2833474278450012e-001</leafValues></_>
        <_>
          <internalNodes>
            0 -1 173 288489403 286326268 -436216065 -3 1232990207
            -46671105 -302123025 -570556417</internalNodes>
          <leafValues>
            -3.8901752233505249e-001 3.3812376856803894e-001</leafValues></_>
        <_>
          <internalNodes>
            0 -1 5 -17892132 -956386308 -1074856099 -622800300 -18960707
            -2253845 -1068176188 -725287340</internalNodes>
          <leafValues>
            -5.8556413650512695e-001 2.2563248872756958e-001</leafValues></_>
        <_>
          <internalNodes>
            0 -1 110 -2010430211 -1615233473 -1342214657 -1074312067
            -1392718597 -4456449 -1162612737 -16884033</internalNodes>
          <leafValues>
            -3.1491768360137939e-001 3.8208201527595520e-001</leafValues></_>
        <_>
          <internalNodes>
            0 -1 115 -212868434 -741887414 -169872394 1346761282
            -537921574 -3217697 1426190922 1372582607</internalNodes>
          <leafValues>
            -4.3719592690467834e-001 2.8726318478584290e-001</leafValues></_>
        <_>
          <internalNodes>
            0 -1 96 -1626858352 -1650976552 1493736607 1598889305
            -1291805956 -1693711164 503886491 -1626710959</internalNodes>
          <leafValues>
            -3.7229758501052856e-001 3.2579314708709717e-001</leafValues></_>
        <_>
          <internalNodes>
            0 -1 12 -679481818 -1427920017 1724278274 -156238866
            2003256645 1128757109 -143174313 2002876279</internalNodes>
          <leafValues>
            -7.1018821001052856e-001 1.4339435100555420e-001</leafValues></_>
        <_>
          <internalNodes>
            0 -1 55 -1282767719 -585634855 -1358033253 -548806827
            -34148609 -1075896377 -1635319905 -272957441</internalNodes>
          <leafValues>
            -2.4875561892986298e-001 4.4370168447494507e-001</leafValues></_>
        <_>
          <internalNodes>
            0 -1 232 -3212528 -552947744 -1376854083 -52379768
            -169562076 -892405263 745332688 -193921056</internalNodes>
          <leafValues>
            -5.7174122333526611e-001 1.7291760444641113e-001</leafValues></_>
        <_>
          <internalNodes>
            0 -1 153 1943485326 -160617226 -136315906 860745930
            -1873891126 -645662308 1077998090 1908929227</internalNodes>
          <leafValues>
            -4.5863386988639832e-001 2.4245196580886841e-001</leafValues></_>
        <_>
          <internalNodes>
            0 -1 125 -1425584881 -1079273975 -268968577 2109569323
            -2056571774 -1077985281 -1567960274 -1343599079</internalNodes>
          <leafValues>
            -3.5431209206581116e-001 2.7558583021163940e-001</leafValues></_>
        <_>
          <internalNodes>
            0 -1 87 -68171597 -174355139 479920139 1945872981 340197553
            203817187 1216285945 -9572977</internalNodes>
          <leafValues>
            -2.5624883174896240e-001 3.8431340456008911e-001</leafValues></_>
        <_>
          <internalNodes>
            0 -1 50 -3073 -549519521 -466850120 -252129346 -77807636
            1064107989 -27490340 -8454145</internalNodes>
          <leafValues>
            -2.7440464496612549e-001 3.5543674230575562e-001</leafValues></_>
        <_>
          <internalNodes>
            0 -1 28 156255483 352616447 -550119203 1070397851 1548768766
            1549527743 -268862550 -5146117</internalNodes>
          <leafValues>
            -4.6442589163780212e-001 2.2323082387447357e-001</leafValues></_>
        <_>
          <internalNodes>
            0 -1 155 -1516327 402454228 -109119531 -1621752404
            -112960260 -1624502339 -368425234 -1712699388</internalNodes>
          <leafValues>
            -2.9404383897781372e-001 3.5836762189865112e-001</leafValues></_>
        <_>
          <internalNodes>
            0 -1 217 -25690142 1088922252 -84301088 -1069154361 -138812
            583494530 -1292209728 1652029327</internalNodes>
          <leafValues>
            -5.1451700925827026e-001 2.0739287137985229e-001</leafValues></_></weakClassifiers></_>
    <!-- stage 10 -->
    <_>
      <maxWeakCount>18</maxWeakCount>
      <stageThreshold>-1.7742500305175781e+000</stageThreshold>
      <weakClassifiers>
        <_>
          <internalNodes>
            0 -1 151 -528385 -8392769 -67408641 -577793 1877888959
            2143289275 -12353 2147438335</internalNodes>
          <leafValues>
            -6.0189574956893921e-001 1.9266332685947418e-001</leafValues></_>
        <_>
          <internalNodes>
            0 -1 88 -268457430 -8392705 -273692149 -270008833 -2105345
            -101517321 -537133217 -1</internalNodes>
          <leafValues>
            -5.8339101076126099e-001 1.9860957562923431e-001</leafValues></_>
        <_>
          <internalNodes>
            0 -1 92 -559933224 1601918440 318788049 1431916881
            -630177654 -1678881657 6295263 167774220</internalNodes>
          <leafValues>
            -5.0531262159347534e-001 2.2517588734626770e-001</leafValues></_>
        <_>
          <internalNodes>
            0 -1 26 -1356093645 -805306369 -1883507073 -537923905
            -402663489 -257 -415770761 -4097</internalNodes>
          <leafValues>
            -2.8126206994056702e-001 4.0655496716499329e-001</leafValues></_>
        <_>
          <internalNodes>
            0 -1 108 -603982226 -739250194 1623642144 -209715217
            1986000836 1074259526 1643373254 1936193419</internalNodes>
          <leafValues>
            -4.9065172672271729e-001 2.2931146621704102e-001</leafValues></_>
        <_>
          <internalNodes>
            0 -1 198 -106954769 268497280 -573016105 -183502859
            -591462657 278460424 -671220242 -269484033</internalNodes>
          <leafValues>
            -2.8534755110740662e-001 3.8347584009170532e-001</leafValues></_>
        <_>
          <internalNodes>
            0 -1 42 -144385 -1153646737 1859964662 -118735170 -229940
            -1107788018 -537334530 -1642514</internalNodes>
          <leafValues>
            -3.0785444378852844e-001 3.6999046802520752e-001</leafValues></_>
        <_>
          <internalNodes>
            0 -1 171 -1156444907 -2523916 -1613557761 -1630851
            -1104101377 -53506 -1162158341 -1080073039</internalNodes>
          <leafValues>
            -3.2251998782157898e-001 3.1963831186294556e-001</leafValues></_>
        <_>
          <internalNodes>
            0 -1 218 -268959746 -540088337 1340143552 -2827299 -75520090
            -204179532 -168822910 -304743473</internalNodes>
          <leafValues>
            -3.4506565332412720e-001 3.0392068624496460e-001</leafValues></_>
        <_>
          <internalNodes>
            0 -1 116 -298297868 2106582494 -590324644 1532206412
            -62896904 -1076267558 -345897473 -1969228409</internalNodes>
          <leafValues>
            -4.0501916408538818e-001 2.3322153091430664e-001</leafValues></_>
        <_>
          <internalNodes>
            0 -1 52 1397194882 -41026610 67150073 -753864721 -708800374
            -412402427 -571539714 -2134545</internalNodes>
          <leafValues>
            -4.2477768659591675e-001 2.3218677937984467e-001</leafValues></_>
        <_>
          <internalNodes>
            0 -1 205 -1781530678 -780094774 -244584576 -707561526
            -683148598 -2143034494 -170134842 1917313866</internalNodes>
          <leafValues>
            -4.2981830239295959e-001 2.2321270406246185e-001</leafValues></_>
        <_>
          <internalNodes>
            0 -1 143 -655363 -1080508484 1055402424 -4394004 2105284092
            -1137680943 -722280 -1078296899</internalNodes>
          <leafValues>
            -2.7958935499191284e-001 3.3953592181205750e-001</leafValues></_>
        <_>
          <internalNodes>
            0 -1 91 -1282419829 -251151870 1188331391 1372976039
            -158353427 -71113014 -68747270 -439355409</internalNodes>
          <leafValues>
            -2.8627297282218933e-001 3.5223025083541870e-001</leafValues></_>
        <_>
          <internalNodes>
            0 -1 225 -902869481 16738663 -436773537 1658838107
            -1438651073 414174073 -90742953 -125833475</internalNodes>
          <leafValues>
            -3.2009023427963257e-001 3.0798882246017456e-001</leafValues></_>
        <_>
          <internalNodes>
            0 -1 129 -281102728 -278926209 1861054003 254209549
            -335544517 -552076417 1299122450 -612372482</internalNodes>
          <leafValues>
            -3.1972074508666992e-001 2.9837894439697266e-001</leafValues></_>
        <_>
          <internalNodes>
            0 -1 69 10144848 1091657728 1430287097 357109812 14084138
            -2145057693 33562762 252331276</internalNodes>
          <leafValues>
            -4.5896843075752258e-001 2.0870494842529297e-001</leafValues></_>
        <_>
          <internalNodes>
            0 -1 170 -160435542 1355742182 -257630016 1389818730
            -168855674 1078228738 2011689711 1097325635</internalNodes>
          <leafValues>
            -5.8994978666305542e-001 1.6713026165962219e-001</leafValues></_></weakClassifiers></_>
    <!-- stage 11 -->
    <_>
      <maxWeakCount>19</maxWeakCount>
      <stageThreshold>-1.7411850690841675e+000</stageThreshold>
      <weakClassifiers>
        <_>
          <internalNodes>
            0 -1 113 -268439553 -4199745 -268571073 -902829525 -67110085
            -12801 -816066785 -612368385</internalNodes>
          <leafValues>
            -6.0055369138717651e-001 1.6268853843212128e-001</leafValues></_>
        <_>
          <internalNodes>
            0 -1 32 -49 -167774337 -37227598 -1 1430605888 1086353408
            -138084401 -538968065</internalNodes>
          <leafValues>
            -3.7904131412506104e-001 3.2692965865135193e-001</leafValues></_>
        <_>
          <internalNodes>
            0 -1 148 -1146924077 -1121725712 -68690433 -537431083
            -1616880645 -268436545 -1075352833 -4761741</internalNodes>
          <leafValues>
            -2.8856647014617920e-001 4.1698122024536133e-001</leafValues></_>
        <_>
          <internalNodes>
            0 -1 66 -2004876136 -544473360 -550829295 1568608528
            -892697458 -814022521 1531711243 -1895153316</internalNodes>
          <leafValues>
            -4.2769774794578552e-001 2.6244524121284485e-001</leafValues></_>
        <_>
          <internalNodes>
            0 -1 229 -1976627685 -193 1753185151 -32929 -276870273
            -8389121 -2409473 -1089</internalNodes>
          <leafValues>
            -3.0938214063644409e-001 3.2663092017173767e-001</leafValues></_>
        <_>
          <internalNodes>
            0 -1 222 -823132169 -546506840 -1243325712 1068285348
            -680527891 241721085 -404380748 -3</internalNodes>
          <leafValues>
            -3.3579957485198975e-001 3.1083393096923828e-001</leafValues></_>
        <_>
          <internalNodes>
            0 -1 139 1570765518 -16793625 -2144219038 2010079370
            2116006634 -1864049912 1428546250 1364193995</internalNodes>
          <leafValues>
            -4.7373521327972412e-001 2.3104822635650635e-001</leafValues></_>
        <_>
          <internalNodes>
            0 -1 175 -772809717 1067188127 -1074809342 -1179650062
            -689963126 2136371067 -437788536 -1498941457</internalNodes>
          <leafValues>
            -2.6417079567909241e-001 3.7268346548080444e-001</leafValues></_>
        <_>
          <internalNodes>
            0 -1 34 -805318657 -653206192 -876740737 -2621443 -926102280
            -855061324 -288695299 -1245448</internalNodes>
          <leafValues>
            -3.0003461241722107e-001 3.2528048753738403e-001</leafValues></_>
        <_>
          <internalNodes>
            0 -1 57 -1120366184 -1727438688 10539229 487028053
            -1285884230 -1347461235 1110604543 -1895132757</internalNodes>
          <leafValues>
            -3.0870145559310913e-001 3.0632051825523376e-001</leafValues></_>
        <_>
          <internalNodes>
            0 -1 235 -943730925 -1365330023 -272650731 -890604480
            -1074346236 -406847922 -120590268 -263916735</internalNodes>
          <leafValues>
            -3.8566911220550537e-001 2.4200674891471863e-001</leafValues></_>
        <_>
          <internalNodes>
            0 -1 197 -826561861 35363 169019563 488878899 -1038383681
            203038755 1786618287 -1048641</internalNodes>
          <leafValues>
            -2.6430135965347290e-001 3.5962626338005066e-001</leafValues></_>
        <_>
          <internalNodes>
            0 -1 241 -545270785 -1074906564 -1619036368 -143917096
            -1367445603 -1089482755 1203615716 -263939</internalNodes>
          <leafValues>
            -2.4917711317539215e-001 3.9263662695884705e-001</leafValues></_>
        <_>
          <internalNodes>
            0 -1 134 -884801017 1206579054 1120668283 -201851358
            1609761276 13101747 -186163737 1944550215</internalNodes>
          <leafValues>
            -3.7269747257232666e-001 2.4481508135795593e-001</leafValues></_>
        <_>
          <internalNodes>
            0 -1 17 -26214681 250543727 -329324472 15662830 -751829911
            725732708 659546689 -470812729</internalNodes>
          <leafValues>
            -3.7563842535018921e-001 2.5522676110267639e-001</leafValues></_>
        <_>
          <internalNodes>
            0 -1 56 -1879024137 -1668238348 -344233475 -1784457123
            632824950 -1733134852 1790232504 1045067298</internalNodes>
          <leafValues>
            -3.1886199116706848e-001 2.8797283768653870e-001</leafValues></_>
        <_>
          <internalNodes>
            0 -1 130 -1375335408 1062006482 -1960031427 168700417
            -607030087 -69283081 -923139584 -43581964</internalNodes>
          <leafValues>
            -4.7504818439483643e-001 1.9530826807022095e-001</leafValues></_>
        <_>
          <internalNodes>
            0 -1 79 -1867623339 -203747106 -1615659009 -1115740803
            -1334797776 -1078231557 -399442433 -2137306772</internalNodes>
          <leafValues>
            -3.1995630264282227e-001 2.8455445170402527e-001</leafValues></_>
        <_>
          <internalNodes>
            0 -1 156 1492081250 1085194118 807948320 -739335218
            2003172558 4515719 1744696047 1942484939</internalNodes>
          <leafValues>
            -5.3894603252410889e-001 1.7946985363960266e-001</leafValues></_></weakClassifiers></_>
    <!-- stage 12 -->
    <_>
      <maxWeakCount>21</maxWeakCount>
      <stageThreshold>-1.6916303634643555e+000</stageThreshold>
      <weakClassifiers>
        <_>
          <internalNodes>
            0 -1 98 -2 -538970113 -269488242 -1048577 -3670017 -1551 -1
            -67108865</internalNodes>
          <leafValues>
            -5.9387528896331787e-001 1.5288220345973969e-001</leafValues></_>
        <_>
          <internalNodes>
            0 -1 164 901228475 1574406875 1063256063 2132607739
            2109603775 -38021185 1068482491 489541034</internalNodes>
          <leafValues>
            -4.9398845434188843e-001 2.6563030481338501e-001</leafValues></_>
        <_>
          <internalNodes>
            0 -1 146 -721303552 -650772485 -33562913 -3678345 -42598401
            -640299014 -36569089 -581592577</internalNodes>
          <leafValues>
            -4.3999201059341431e-001 2.6303008198738098e-001</leafValues></_>
        <_>
          <internalNodes>
            0 -1 2 1576486143 1576486909 -189395085 -4985473 1414552781
            -805371937 -3 -43909121</internalNodes>
          <leafValues>
            -3.1449905037879944e-001 3.5988223552703857e-001</leafValues></_>
        <_>
          <internalNodes>
            0 -1 24 -576025348 -1178474 -286331137 -1573983514
            -1660103426 -2354956 2130448127 -269854465</internalNodes>
          <leafValues>
            -3.3362469077110291e-001 3.0465298891067505e-001</leafValues></_>
        <_>
          <internalNodes>
            0 -1 213 -286262038 720846 -1292984630 -532611124
            -1954545697 65501 -547751173 -36700161</internalNodes>
          <leafValues>
            -4.2785826325416565e-001 2.3166060447692871e-001</leafValues></_>
        <_>
          <internalNodes>
            0 -1 121 134366225 -38717648 -139494017 1060789473
            -1407040331 -140289 -1904320517 -1975882377</internalNodes>
          <leafValues>
            -3.9981991052627563e-001 2.3132357001304626e-001</leafValues></_>
        <_>
          <internalNodes>
            0 -1 13 -33558842 1338506091 -26020640 -698879277 -180259776
            -179025086 -985270940 -137365657</internalNodes>
          <leafValues>
            -4.4632053375244141e-001 2.0898717641830444e-001</leafValues></_>
        <_>
          <internalNodes>
            0 -1 191 269491600 277903184 -49391 301858181 -366149649
            -1997669395 1262898312 183656448</internalNodes>
          <leafValues>
            -4.3340662121772766e-001 2.1206417679786682e-001</leafValues></_>
        <_>
          <internalNodes>
            0 -1 239 -805307305 1540292590 -741360 -845087256 798978085
            151550909 1546757072 -2099203</internalNodes>
          <leafValues>
            -3.1432160735130310e-001 2.9865974187850952e-001</leafValues></_>
        <_>
          <internalNodes>
            0 -1 68 2147483598 -67178530 2084625492 -100821634
            1979692748 -1335571892 821912555 1364066255</internalNodes>
          <leafValues>
            -4.1499045491218567e-001 2.0368830859661102e-001</leafValues></_>
        <_>
          <internalNodes>
            0 -1 227 -936384869 136048466 544058897 -2080323738
            -539560957 267712093 2069865029 -1997539622</internalNodes>
          <leafValues>
            -3.8183900713920593e-001 2.3856781423091888e-001</leafValues></_>
        <_>
          <internalNodes>
            0 -1 223 -42598465 -609423372 2067651280 -571672580
            -581091448 -1880392324 771089393 -1073784947</internalNodes>
          <leafValues>
            -2.5678104162216187e-001 3.4986448287963867e-001</leafValues></_>
        <_>
          <internalNodes>
            0 -1 8 -294654145 -1036022089 -934645987 -1431310209
            -472128130 -1358988098 -513346273 -12583041</internalNodes>
          <leafValues>
            -2.7979141473770142e-001 3.1316283345222473e-001</leafValues></_>
        <_>
          <internalNodes>
            0 -1 180 405804249 291264896 1065317181 2113928113
            1078990324 -1192212268 -980131892 143949312</internalNodes>
          <leafValues>
            -3.7649306654930115e-001 2.5252839922904968e-001</leafValues></_>
        <_>
          <internalNodes>
            0 -1 190 -2010657277 -1744783529 138484371 507673443
            139297998 408207763 -1596058149 -217319945</internalNodes>
          <leafValues>
            -2.9869288206100464e-001 3.0156472325325012e-001</leafValues></_>
        <_>
          <internalNodes>
            0 -1 44 -239938384 -577703792 -551388167 -236781436
            993533434 -105062928 -1943994626 -389909277</internalNodes>
          <leafValues>
            -3.6656200885772705e-001 2.4453216791152954e-001</leafValues></_>
        <_>
          <internalNodes>
            0 -1 120 1602222894 936361902 -1058377046 293466607
            1367340676 1078253317 1937240782 1967518926</internalNodes>
          <leafValues>
            -5.2670103311538696e-001 1.6887420415878296e-001</leafValues></_>
        <_>
          <internalNodes>
            0 -1 179 -1789144997 -1155949126 -450219243 -12207198
            -596638544 1528199916 -1606411196 -1472171194</internalNodes>
          <leafValues>
            -3.4545907378196716e-001 2.6171562075614929e-001</leafValues></_>
        <_>
          <internalNodes>
            0 -1 163 3342395 2023357311 1137307583 -580986378
            -1403125809 -1075779593 -329913379 -909807489</internalNodes>
          <leafValues>
            -3.2235997915267944e-001 2.8035977482795715e-001</leafValues></_>
        <_>
          <internalNodes>
            0 -1 101 -663649325 -602885251 141361 497202094 -448164918
            135268529 269816814 -20447745</internalNodes>
          <leafValues>
            -2.5614511966705322e-001 3.5221514105796814e-001</leafValues></_></weakClassifiers></_>
    <!-- stage 13 -->
    <_>
      <maxWeakCount>22</maxWeakCount>
      <stageThreshold>-1.7425024509429932e+000</stageThreshold>
      <weakClassifiers>
        <_>
          <internalNodes>
            0 -1 112 -1 -264193 -303075569 -1048577 -168296961
            -117517833 -34734113 -1313</internalNodes>
          <leafValues>
            -5.1430279016494751e-001 4.1235673427581787e-001</leafValues></_>
        <_>
          <internalNodes>
            0 -1 159 1073794186 -37503233 -1180566593 -35259649
            -327819265 -1191144785 -387122433 -50020357</internalNodes>
          <leafValues>
            -5.3618985414505005e-001 1.9125112891197205e-001</leafValues></_>
        <_>
          <internalNodes>
            0 -1 149 1475415707 -46821665 2137735167 2136738804
            1496693169 -109778962 1027455931 1597198266</internalNodes>
          <leafValues>
            -4.2929357290267944e-001 2.4541051685810089e-001</leafValues></_>
        <_>
          <internalNodes>
            0 -1 67 597824088 -1188339104 -1860153251 486887617
            -1413834502 -1455450482 268491422 184684689</internalNodes>
          <leafValues>
            -4.1248124837875366e-001 2.6319667696952820e-001</leafValues></_>
        <_>
          <internalNodes>
            0 -1 136 -285219325 -339739649 -521813504 -827396098
            -336070797 -33556134 -142609646 -4195629</internalNodes>
          <leafValues>
            -3.8765886425971985e-001 2.7055674791336060e-001</leafValues></_>
        <_>
          <internalNodes>
            0 -1 19 -17302529 2147383282 -1090732898 1929181934
            -77143076 -1973103376 2103369052 -2</internalNodes>
          <leafValues>
            -2.7180939912796021e-001 3.5377401113510132e-001</leafValues></_>
        <_>
          <internalNodes>
            0 -1 7 -536879409 -547358969 -209558831 -142010 1414873292
            -27966132 1398232287 -567355</internalNodes>
          <leafValues>
            -2.6925510168075562e-001 3.5089039802551270e-001</leafValues></_>
        <_>
          <internalNodes>
            0 -1 195 -487593334 277521028 679903296 39574472 -950032703
            591524 1937764554 1901056967</internalNodes>
          <leafValues>
            -4.0504741668701172e-001 2.3583218455314636e-001</leafValues></_>
        <_>
          <internalNodes>
            0 -1 78 1563082968 -586655536 -1157430381 520292381
            -1163882262 -1895643684 369914603 -1643510823</internalNodes>
          <leafValues>
            -3.2549741864204407e-001 2.8983014822006226e-001</leafValues></_>
        <_>
          <internalNodes>
            0 -1 43 -2102663405 -811940396 -1755326089 -3279915
            -167802883 1541326837 -472411530 -422648178</internalNodes>
          <leafValues>
            -2.9575216770172119e-001 3.0972385406494141e-001</leafValues></_>
        <_>
          <internalNodes>
            0 -1 189 1610854602 -750257338 272646739 1968698181
            -1806855542 1883451649 1361685707 -244844819</internalNodes>
          <leafValues>
            -4.2514106631278992e-001 2.2479631006717682e-001</leafValues></_>
        <_>
          <internalNodes>
            0 -1 70 -1329835811 -1250148993 -1087111169 -1107601091
            -1179246670 -25207041 -1339916550 -64040710</internalNodes>
          <leafValues>
            -2.8006172180175781e-001 3.2195124030113220e-001</leafValues></_>
        <_>
          <internalNodes>
            0 -1 219 -57278465 -1079456148 631927804 -1246216
            -1077118024 -1888976919 -1208092208 -8868</internalNodes>
          <leafValues>
            -2.4770976603031158e-001 3.4864965081214905e-001</leafValues></_>
        <_>
          <internalNodes>
            0 -1 74 818761870 1911022438 1967447112 1396961943
            -539507233 -488312158 -310388533 1095103319</internalNodes>
          <leafValues>
            -4.5116722583770752e-001 2.0218035578727722e-001</leafValues></_>
        <_>
          <internalNodes>
            0 -1 65 -1612712233 285274596 -1248856069 1060632457
            1346427894 -1160082322 2147155966 -33726</internalNodes>
          <leafValues>
            -2.7041873335838318e-001 3.2802018523216248e-001</leafValues></_>
        <_>
          <internalNodes>
            0 -1 216 268435426 -1065158974 -898040864 1085393864
            -168038577 -1059218750 -876494877 1884805635</internalNodes>
          <leafValues>
            -4.9135622382164001e-001 1.8450269103050232e-001</leafValues></_>
        <_>
          <internalNodes>
            0 -1 51 -34779393 -1611862664 -1908810840 -788643859
            -35770900 -1346609956 -75722918 -340627538</internalNodes>
          <leafValues>
            -2.7284711599349976e-001 3.1488341093063354e-001</leafValues></_>
        <_>
          <internalNodes>
            0 -1 204 -923813709 402657942 269846070 -1310612910
            -1129217832 982651157 1794969258 -875891345</internalNodes>
          <leafValues>
            -2.5585141777992249e-001 3.2604587078094482e-001</leafValues></_>
        <_>
          <internalNodes>
            0 -1 127 -823762416 -805376651 -806781313 -1943090318
            -293937349 -1049038021 -283418352 2136538424</internalNodes>
          <leafValues>
            -3.9168503880500793e-001 2.2246049344539642e-001</leafValues></_>
        <_>
          <internalNodes>
            0 -1 95 -1011875866 1928117990 -254872860 1375723006
            1979707076 1413787398 1910108383 1414922186</internalNodes>
          <leafValues>
            -4.9634829163551331e-001 1.7790757119655609e-001</leafValues></_>
        <_>
          <internalNodes>
            0 -1 166 790862163 536510821 272915291 -687702603 2081754264
            1035947755 -666576548 -933665148</internalNodes>
          <leafValues>
            -2.9760414361953735e-001 2.9378709197044373e-001</leafValues></_>
        <_>
          <internalNodes>
            0 -1 94 -154347500 -201894262 1374831097 289662352
            -2140387156 -1988427374 1207999119 436406298</internalNodes>
          <leafValues>
            -3.6191043257713318e-001 2.4592961370944977e-001</leafValues></_></weakClassifiers></_>
    <!-- stage 14 -->
    <_>
      <maxWeakCount>20</maxWeakCount>
      <stageThreshold>-1.8018860816955566e+000</stageThreshold>
      <weakClassifiers>
        <_>
          <internalNodes>
            0 -1 111 -65545 -4985353 -806224005 -855446980 -13436929
            -68425031 -814626021 -75771009</internalNodes>
          <leafValues>
            -5.1296406984329224e-001 3.9883431792259216e-001</leafValues></_>
        <_>
          <internalNodes>
            0 -1 123 1408201719 857724415 2142207487 2011672541
            1193241855 -539064948 -41160705 -1053089</internalNodes>
          <leafValues>
            -3.6500412225723267e-001 3.3586752414703369e-001</leafValues></_>
        <_>
          <internalNodes>
            0 -1 174 -1215316069 -1693189314 -2120696045 -1109795237
            -73541845 2120040455 -1879054429 900714427</internalNodes>
          <leafValues>
            -3.3646696805953979e-001 3.2369604706764221e-001</leafValues></_>
        <_>
          <internalNodes>
            0 -1 14 -794625 -10491941 1370685439 -655761 1883555020
            -160480132 -530063393 -209719569</internalNodes>
          <leafValues>
            -2.4511216580867767e-001 4.3571913242340088e-001</leafValues></_>
        <_>
          <internalNodes>
            0 -1 16 -33564674 -218578114 -117515060 -1157632434
            -1297223220 -237194754 -123867763 -102106257</internalNodes>
          <leafValues>
            -3.3774757385253906e-001 2.8271102905273438e-001</leafValues></_>
        <_>
          <internalNodes>
            0 -1 100 -324015369 1430947694 -1472794881 -33914140
            -781207593 1544293327 -201343017 -104864001</internalNodes>
          <leafValues>
            -2.1697269380092621e-001 4.2341655492782593e-001</leafValues></_>
        <_>
          <internalNodes>
            0 -1 209 -542113797 -1010582962 -174882921 -774641969
            -41820178 -1336753536 -579338309 -136316021</internalNodes>
          <leafValues>
            -2.2474390268325806e-001 4.4148179888725281e-001</leafValues></_>
        <_>
          <internalNodes>
            0 -1 233 1261388547 -1973463361 643810067 1310975003
            -150077694 172594226 72231184 -805307462</internalNodes>
          <leafValues>
            -3.6340489983558655e-001 2.7443134784698486e-001</leafValues></_>
        <_>
          <internalNodes>
            0 -1 131 -500980093 -1056708634 -446599427 -135930777
            1768415151 1305345991 -2132461059 -772449209</internalNodes>
          <leafValues>
            -2.9275542497634888e-001 3.4369677305221558e-001</leafValues></_>
        <_>
          <internalNodes>
            0 -1 144 -678744176 -1795100824 -1884483311 -1618659307
            -1389821992 -1198634072 319574800 -1977879651</internalNodes>
          <leafValues>
            -3.8353005051612854e-001 2.7362272143363953e-001</leafValues></_>
        <_>
          <internalNodes>
            0 -1 140 -620744520 -1305939528 -1593779216 1145194176
            -330019688 -1694613223 1384180110 169501700</internalNodes>
          <leafValues>
            -4.7129461169242859e-001 2.1765270829200745e-001</leafValues></_>
        <_>
          <internalNodes>
            0 -1 60 -92311002 803765090 -2070148660 820559770 -351038392
            170693132 913850464 1575943166</internalNodes>
          <leafValues>
            -4.9118587374687195e-001 1.9233664870262146e-001</leafValues></_>
        <_>
          <internalNodes>
            0 -1 172 -2013244239 -1743691611 -1113335809 -1787742956
            -1416888898 -1090819842 -1693548318 -1657645822</internalNodes>
          <leafValues>
            -3.3609578013420105e-001 2.9661613702774048e-001</leafValues></_>
        <_>
          <internalNodes>
            0 -1 237 -1017649389 -1827761497 604640822 1342366382
            -414712822 2112797258 -404817984 1083177951</internalNodes>
          <leafValues>
            -3.5344463586807251e-001 2.7922999858856201e-001</leafValues></_>
        <_>
          <internalNodes>
            0 -1 106 352324784 -1987995728 -651994255 1295997297
            -209977144 1463357971 151150538 1247037452</internalNodes>
          <leafValues>
            -4.5992046594619751e-001 2.2132201492786407e-001</leafValues></_>
        <_>
          <internalNodes>
            0 -1 15 -352358601 -269832514 -833237665 -18153936
            -661832077 -1614413891 -28811161 -11733178</internalNodes>
          <leafValues>
            -2.9751926660537720e-001 3.2323104143142700e-001</leafValues></_>
        <_>
          <internalNodes>
            0 -1 4 -2088611818 581403268 -2146400239 68256536 -932703120
            1871210504 -33414362 -92540099</internalNodes>
          <leafValues>
            -4.5176973938941956e-001 2.2520130872726440e-001</leafValues></_>
        <_>
          <internalNodes>
            0 -1 117 403413075 521698900 -1652064563 -579739707
            -689894997 -1076965848 1592780659 -1160939837</internalNodes>
          <leafValues>
            -2.5966742634773254e-001 3.8451161980628967e-001</leafValues></_>
        <_>
          <internalNodes>
            0 -1 200 -743201142 1368042694 291936480 1891009142
            -208147376 1166909744 1938411722 -1781009442</internalNodes>
          <leafValues>
            -3.1952866911888123e-001 3.0692857503890991e-001</leafValues></_>
        <_>
          <internalNodes>
            0 -1 35 -298865101 -364125159 -2128400097 -362400942
            -1142858474 1813775165 1140882216 -363892909</internalNodes>
          <leafValues>
            -3.5582834482192993e-001 2.6749965548515320e-001</leafValues></_></weakClassifiers></_>
    <!-- stage 15 -->
    <_>
      <maxWeakCount>21</maxWeakCount>
      <stageThreshold>-1.8470519781112671e+000</stageThreshold>
      <weakClassifiers>
        <_>
          <internalNodes>
            0 -1 150 -243145533 -170531891 -577649447 -172817449
            -99755009 -89620352 -246825281 2012301428</internalNodes>
          <leafValues>
            -6.2853276729583740e-001 1.0423739254474640e-001</leafValues></_>
        <_>
          <internalNodes>
            0 -1 133 -354423489 -518659919 -370845929 -1946033657
            -475938373 -69691143 1214302995 -814286977</internalNodes>
          <leafValues>
            -3.7346199154853821e-001 3.5326707363128662e-001</leafValues></_>
        <_>
          <internalNodes>
            0 -1 38 2104808661 -67253565 -82129449 1526923528 1814058236
            -73308272 1681941502 2049589770</internalNodes>
          <leafValues>
            -3.5495999455451965e-001 3.4653455018997192e-001</leafValues></_>
        <_>
          <internalNodes>
            0 -1 207 720371199 1346502231 -1321047827 1389741632
            549710783 59217 -641605697 -241715857</internalNodes>
          <leafValues>
            -3.0644530057907104e-001 3.7908264994621277e-001</leafValues></_>
        <_>
          <internalNodes>
            0 -1 196 -141034526 1090576896 411337376 -209702895
            -1181774611 -345268054 -2004571934 -270652950</internalNodes>
          <leafValues>
            -3.5425227880477905e-001 3.4762281179428101e-001</leafValues></_>
        <_>
          <internalNodes>
            0 -1 167 -637827915 498810611 -34603755 -872155517
            -1432363362 -88114694 -1698398328 -1034947070</internalNodes>
          <leafValues>
            -3.1773039698600769e-001 3.9382150769233704e-001</leafValues></_>
        <_>
          <internalNodes>
            0 -1 85 -547370293 -143416569 321127196 1596553254
            1342308521 155131387 1157974172 -2100052</internalNodes>
          <leafValues>
            -2.6244562864303589e-001 4.5957505702972412e-001</leafValues></_>
        <_>
          <internalNodes>
            0 -1 22 -216481057 -1977046951 -771731234 -492126117
            -1551871844 436600843 -1727468406 -275492146</internalNodes>
          <leafValues>
            -3.2089576125144958e-001 3.6368709802627563e-001</leafValues></_>
        <_>
          <internalNodes>
            0 -1 104 -780108304 -116246588 -644659719 -1790486464
            -1199009636 -1991760888 -240366342 408412161</internalNodes>
          <leafValues>
            -4.7217214107513428e-001 2.5133275985717773e-001</leafValues></_>
        <_>
          <internalNodes>
            0 -1 203 334738146 16840258 59454290 388206658 -233340178
            1094752776 1243173023 1900797954</internalNodes>
          <leafValues>
            -5.3003215789794922e-001 2.3519322276115417e-001</leafValues></_>
        <_>
          <internalNodes>
            0 -1 109 11928784 -42529969 356997625 -1651420720 -872374398
            -628888384 981477834 -2002255268</internalNodes>
          <leafValues>
            -5.0829190015792847e-001 2.0832905173301697e-001</leafValues></_>
        <_>
          <internalNodes>
            0 -1 61 -192749018 -1920327592 676402948 830927109
            -905207189 171446278 1371632369 2007628283</internalNodes>
          <leafValues>
            -3.9671248197555542e-001 2.9966646432876587e-001</leafValues></_>
        <_>
          <internalNodes>
            0 -1 118 -791211038 -1138917046 555790677 352355741
            -799487860 -1984761637 286436489 -1355647845</internalNodes>
          <leafValues>
            -3.0935394763946533e-001 3.7337026000022888e-001</leafValues></_>
        <_>
          <internalNodes>
            0 -1 185 1116312782 1368074693 -1305435966 -791703313
            -1871797371 337118534 1140936922 1363326658</internalNodes>
          <leafValues>
            -5.2379071712493896e-001 2.3387275636196136e-001</leafValues></_>
        <_>
          <internalNodes>
            0 -1 154 253579347 -1858368162 244332635 -937398128
            -892673472 -2130140902 -1715406821 -654256896</internalNodes>
          <leafValues>
            -3.4550049901008606e-001 3.3909296989440918e-001</leafValues></_>
        <_>
          <internalNodes>
            0 -1 102 -816338221 -1641964669 36766523 -141318650
            371417266 949030143 1825978555 -607658411</internalNodes>
          <leafValues>
            -2.3849371075630188e-001 4.8672035336494446e-001</leafValues></_>
        <_>
          <internalNodes>
            0 -1 206 -788092781 -1689784575 1949450257 -570828761
            -1399769175 1039543883 1645538697 -86154301</internalNodes>
          <leafValues>
            -2.5542256236076355e-001 4.6076706051826477e-001</leafValues></_>
        <_>
          <internalNodes>
            0 -1 208 -368097792 455340115 -1592720576 1930168722
            -2105294312 -592412672 -1290891061 -523775640</internalNodes>
          <leafValues>
            -3.4548404812812805e-001 3.4435331821441650e-001</leafValues></_>
        <_>
          <internalNodes>
            0 -1 72 -464263149 1939995394 1435569164 1566436395
            -2007694151 -1743191563 -495092229 -128201405</internalNodes>
          <leafValues>
            -2.5665101408958435e-001 4.8425266146659851e-001</leafValues></_>
        <_>
          <internalNodes>
            0 -1 236 -71600197 -552472725 906067285 -1694070657
            -278487459 -69931331 -891158912 -355666197</internalNodes>
          <leafValues>
            -2.5683030486106873e-001 4.7718894481658936e-001</leafValues></_>
        <_>
          <internalNodes>
            0 -1 58 1234088667 321990672 -773700365 1566117269
            -916213249 -1149012161 1157659792 -1961211510</internalNodes>
          <leafValues>
            -2.4916063249111176e-001 4.7453811764717102e-001</leafValues></_></weakClassifiers></_>
    <!-- stage 16 -->
    <_>
      <maxWeakCount>16</maxWeakCount>
      <stageThreshold>-1.4142391681671143e+000</stageThreshold>
      <weakClassifiers>
        <_>
          <internalNodes>
            0 -1 132 -2888961 -78519504 -1862170539 -70056384 -436205062
            -1346261999 -108965734 -41268515</internalNodes>
          <leafValues>
            -5.5845201015472412e-001 3.7652704119682312e-001</leafValues></_>
        <_>
          <internalNodes>
            0 -1 194 -1314865 1358975872 -905183565 -1851263149
            -355926273 573305771 -833030865 -24121397</internalNodes>
          <leafValues>
            -3.3908233046531677e-001 5.0743299722671509e-001</leafValues></_>
        <_>
          <internalNodes>
            0 -1 36 -469968385 -654298345 17600529 -9305447 126140569
            2113930402 25759907 1275369992</internalNodes>
          <leafValues>
            -4.2747986316680908e-001 3.7437501549720764e-001</leafValues></_>
        <_>
          <internalNodes>
            0 -1 126 -1615701053 -1702666240 1965310495 1605582915
            -1299563569 -277925890 -1413253537 -395352558</internalNodes>
          <leafValues>
            -3.4604424238204956e-001 4.6981716156005859e-001</leafValues></_>
        <_>
          <internalNodes>
            0 -1 23 -33584037 -548295627 -1359470730 -934568529
            -966243090 -52937700 -312043826 -301821669</internalNodes>
          <leafValues>
            -3.0807515978813171e-001 5.0585567951202393e-001</leafValues></_>
        <_>
          <internalNodes>
            0 -1 63 -542114645 -2013019520 68739095 -1319808992
            -1065118065 -1711073714 -515829685 -339771367</internalNodes>
          <leafValues>
            -1.9414404034614563e-001 7.4168884754180908e-001</leafValues></_>
        <_>
          <internalNodes>
            0 -1 210 -561514297 -574360865 1449168920 -23968190
            2084866192 404579865 -763320118 -829434294</internalNodes>
          <leafValues>
            -2.3688629269599915e-001 6.2430387735366821e-001</leafValues></_>
        <_>
          <internalNodes>
            0 -1 184 102095107 982515732 -922387905 226468482 1082133712
            959054538 1207966401 -1432001917</internalNodes>
          <leafValues>
            -3.9609998464584351e-001 3.8263162970542908e-001</leafValues></_>
        <_>
          <internalNodes>
            0 -1 165 -347634225 -82236288 -277416095 -179472441
            1413692760 -1072116200 -186779669 -822477473</internalNodes>
          <leafValues>
            -2.6982232928276062e-001 5.7396101951599121e-001</leafValues></_>
        <_>
          <internalNodes>
            0 -1 49 1426186323 -1647054830 154198485 1460220129
            -460676945 -620660695 1494001839 -1184126709</internalNodes>
          <leafValues>
            -2.1860758960247040e-001 7.2217458486557007e-001</leafValues></_>
        <_>
          <internalNodes>
            0 -1 54 -536411186 -142600669 166020 1593835665 -778356698
            -1339934702 1617070506 1092702910</internalNodes>
          <leafValues>
            -5.2919846773147583e-001 2.9855096340179443e-001</leafValues></_>
        <_>
          <internalNodes>
            0 -1 187 -13663246 1036101977 -1528821087 4890818 600429121
            1779000328 1222896787 -75249157</internalNodes>
          <leafValues>
            -2.9332077503204346e-001 5.5582010746002197e-001</leafValues></_>
        <_>
          <internalNodes>
            0 -1 241 1983083171 1512274601 171933272 -1311642111
            -406434289 461786964 662147668 -101975400</internalNodes>
          <leafValues>
            -3.4747946262359619e-001 4.7165435552597046e-001</leafValues></_>
        <_>
          <internalNodes>
            0 -1 77 -654091298 1520308244 994595091 310777873
            -1672704886 -746584504 1816175599 -620084065</internalNodes>
          <leafValues>
            -3.1394389271736145e-001 5.2472454309463501e-001</leafValues></_>
        <_>
          <internalNodes>
            0 -1 40 1344979094 -1677614920 134297941 328010193
            -2065372616 978396170 1141025995 1306669336</internalNodes>
          <leafValues>
            -3.5126489400863647e-001 4.4659632444381714e-001</leafValues></_>
        <_>
          <internalNodes>
            0 -1 221 95154835 -1555388928 287469009 -394264187
            -1340218019 311043176 -2032866330 -131283925</internalNodes>
          <leafValues>
            -3.4527301788330078e-001 5.0582313537597656e-001</leafValues></_></weakClassifiers></_></stages>
  <features>
    <_>
      <rect>
        0 0 1 2</rect></_>
    <_>
      <rect>
        0 0 1 3</rect></_>
    <_>
      <rect>
        0 0 4 5</rect></_>
    <_>
      <rect>
        0 0 5 3</rect></_>
    <_>
      <rect>
        0 0 7 1</rect></_>
    <_>
      <rect>
        0 2 1 6</rect></_>
    <_>
      <rect>
        0 4 2 3</rect></_>
    <_>
      <rect>
        0 4 3 3</rect></_>
    <_>
      <rect>
        0 5 1 1</rect></_>
    <_>
      <rect>
        0 5 1 2</rect></_>
    <_>
      <rect>
        0 5 2 3</rect></_>
    <_>
      <rect>
        0 5 2 5</rect></_>
    <_>
      <rect>
        0 6 2 1</rect></_>
    <_>
      <rect>
        0 6 2 3</rect></_>
    <_>
      <rect>
        0 6 3 3</rect></_>
    <_>
      <rect>
        0 7 1 2</rect></_>
    <_>
      <rect>
        0 11 2 3</rect></_>
    <_>
      <rect>
        0 12 1 1</rect></_>
    <_>
      <rect>
        0 13 1 1</rect></_>
    <_>
      <rect>
        0 13 1 2</rect></_>
    <_>
      <rect>
        0 14 1 2</rect></_>
    <_>
      <rect>
        0 14 8 2</rect></_>
    <_>
      <rect>
        0 16 1 1</rect></_>
    <_>
      <rect>
        0 17 2 1</rect></_>
    <_>
      <rect>
        0 17 4 1</rect></_>
    <_>
      <rect>
        0 17 5 1</rect></_>
    <_>
      <rect>
        1 0 1 2</rect></_>
    <_>
      <rect>
        1 0 4 3</rect></_>
    <_>
      <rect>
        1 0 4 5</rect></_>
    <_>
      <rect>
        1 0 4 6</rect></_>
    <_>
      <rect>
        1 1 1 2</rect></_>
    <_>
      <rect>
        1 4 2 2</rect></_>
    <_>
      <rect>
        1 5 2 3</rect></_>
    <_>
      <rect>
        1 5 2 5</rect></_>
    <_>
      <rect>
        1 5 4 5</rect></_>
    <_>
      <rect>
        1 7 1 1</rect></_>
    <_>
      <rect>
        1 7 4 2</rect></_>
    <_>
      <rect>
        1 8 2 3</rect></_>
    <_>
      <rect>
        1 9 3 1</rect></_>
    <_>
      <rect>
        1 9 7 1</rect></_>
    <_>
      <rect>
        1 11 6 1</rect></_>
    <_>
      <rect>
        1 14 1 2</rect></_>
    <_>
      <rect>
        1 17 1 1</rect></_>
    <_>
      <rect>
        2 1 1 2</rect></_>
    <_>
      <rect>
        2 8 6 2</rect></_>
    <_>
      <rect>
        2 9 5 1</rect></_>
    <_>
      <rect>
        2 9 7 1</rect></_>
    <_>
      <rect>
        2 10 2 3</rect></_>
    <_>
      <rect>
        2 10 5 1</rect></_>
    <_>
      <rect>
        2 11 5 1</rect></_>
    <_>
      <rect>
        2 14 1 2</rect></_>
    <_>
      <rect>
        2 17 1 1</rect></_>
    <_>
      <rect>
        3 0 2 6</rect></_>
    <_>
      <rect>
        3 4 2 5</rect></_>
    <_>
      <rect>
        3 8 2 3</rect></_>
    <_>
      <rect>
        3 8 6 1</rect></_>
    <_>
      <rect>
        3 9 3 1</rect></_>
    <_>
      <rect>
        3 10 5 1</rect></_>
    <_>
      <rect>
        3 11 4 1</rect></_>
    <_>
      <rect>
        3 12 2 2</rect></_>
    <_>
      <rect>
        3 14 1 2</rect></_>
    <_>
      <rect>
        4 4 1 2</rect></_>
    <_>
      <rect>
        4 4 2 4</rect></_>
    <_>
      <rect>
        4 5 1 4</rect></_>
    <_>
      <rect>
        4 5 2 4</rect></_>
    <_>
      <rect>
        4 8 3 2</rect></_>
    <_>
      <rect>
        4 9 6 1</rect></_>
    <_>
      <rect>
        4 10 5 1</rect></_>
    <_>
      <rect>
        4 11 2 3</rect></_>
    <_>
      <rect>
        4 11 5 1</rect></_>
    <_>
      <rect>
        5 0 2 1</rect></_>
    <_>
      <rect>
        5 0 2 6</rect></_>
    <_>
      <rect>
        5 7 1 2</rect></_>
    <_>
      <rect>
        5 7 2 3</rect></_>
    <_>
      <rect>
        5 9 2 3</rect></_>
    <_>
      <rect>
        5 10 5 1</rect></_>
    <_>
      <rect>
        5 11 2 3</rect></_>
    <_>
      <rect>
        5 16 4 1</rect></_>
    <_>
      <rect>
        5 17 4 1</rect></_>
    <_>
      <rect>
        6 0 2 1</rect></_>
    <_>
      <rect>
        6 0 4 3</rect></_>
    <_>
      <rect>
        6 0 4 6</rect></_>
    <_>
      <rect>
        6 1 4 5</rect></_>
    <_>
      <rect>
        6 2 4 3</rect></_>
    <_>
      <rect>
        6 4 1 2</rect></_>
    <_>
      <rect>
        6 4 1 3</rect></_>
    <_>
      <rect>
        6 4 4 4</rect></_>
    <_>
      <rect>
        6 5 1 3</rect></_>
    <_>
      <rect>
        6 5 4 2</rect></_>
    <_>
      <rect>
        6 6 2 3</rect></_>
    <_>
      <rect>
        6 6 2 4</rect></_>
    <_>
      <rect>
        6 7 2 3</rect></_>
    <_>
      <rect>
        6 10 5 1</rect></_>
    <_>
      <rect>
        6 11 2 3</rect></_>
    <_>
      <rect>
        6 11 5 1</rect></_>
    <_>
      <rect>
        6 13 2 2</rect></_>
    <_>
      <rect>
        6 17 4 1</rect></_>
    <_>
      <rect>
        7 0 2 1</rect></_>
    <_>
      <rect>
        7 2 3 2</rect></_>
    <_>
      <rect>
        7 4 3 2</rect></_>
    <_>
      <rect>
        7 5 2 1</rect></_>
    <_>
      <rect>
        7 6 1 2</rect></_>
    <_>
      <rect>
        7 7 1 2</rect></_>
    <_>
      <rect>
        7 7 4 2</rect></_>
    <_>
      <rect>
        7 8 5 2</rect></_>
    <_>
      <rect>
        7 9 2 3</rect></_>
    <_>
      <rect>
        7 9 5 1</rect></_>
    <_>
      <rect>
        7 11 2 3</rect></_>
    <_>
      <rect>
        7 12 2 2</rect></_>
    <_>
      <rect>
        8 0 1 1</rect></_>
    <_>
      <rect>
        8 0 2 1</rect></_>
    <_>
      <rect>
        8 3 2 2</rect></_>
    <_>
      <rect>
        8 3 3 2</rect></_>
    <_>
      <rect>
        8 4 2 2</rect></_>
    <_>
      <rect>
        8 4 3 2</rect></_>
    <_>
      <rect>
        8 7 2 4</rect></_>
    <_>
      <rect>
        8 8 4 2</rect></_>
    <_>
      <rect>
        8 10 1 1</rect></_>
    <_>
      <rect>
        8 11 5 1</rect></_>
    <_>
      <rect>
        8 12 2 2</rect></_>
    <_>
      <rect>
        8 13 2 2</rect></_>
    <_>
      <rect>
        9 0 2 1</rect></_>
    <_>
      <rect>
        9 0 2 2</rect></_>
    <_>
      <rect>
        9 0 5 2</rect></_>
    <_>
      <rect>
        9 0 5 4</rect></_>
    <_>
      <rect>
        9 1 2 1</rect></_>
    <_>
      <rect>
        9 1 3 1</rect></_>
    <_>
      <rect>
        9 2 2 2</rect></_>
    <_>
      <rect>
        9 2 2 3</rect></_>
    <_>
      <rect>
        9 3 2 2</rect></_>
    <_>
      <rect>
        9 3 2 3</rect></_>
    <_>
      <rect>
        9 4 1 1</rect></_>
    <_>
      <rect>
        9 4 1 2</rect></_>
    <_>
      <rect>
        9 4 2 2</rect></_>
    <_>
      <rect>
        9 5 1 1</rect></_>
    <_>
      <rect>
        9 5 2 3</rect></_>
    <_>
      <rect>
        9 7 2 1</rect></_>
    <_>
      <rect>
        9 8 5 4</rect></_>
    <_>
      <rect>
        9 9 2 3</rect></_>
    <_>
      <rect>
        9 10 2 3</rect></_>
    <_>
      <rect>
        9 10 4 1</rect></_>
    <_>
      <rect>
        9 11 2 3</rect></_>
    <_>
      <rect>
        9 12 2 2</rect></_>
    <_>
      <rect>
        9 17 1 1</rect></_>
    <_>
      <rect>
        9 17 5 1</rect></_>
    <_>
      <rect>
        10 0 1 1</rect></_>
    <_>
      <rect>
        10 0 1 5</rect></_>
    <_>
      <rect>
        10 0 2 1</rect></_>
    <_>
      <rect>
        10 0 3 1</rect></_>
    <_>
      <rect>
        10 2 1 3</rect></_>
    <_>
      <rect>
        10 3 1 2</rect></_>
    <_>
      <rect>
        10 4 1 2</rect></_>
    <_>
      <rect>
        10 4 2 2</rect></_>
    <_>
      <rect>
        10 7 2 4</rect></_>
    <_>
      <rect>
        10 8 1 1</rect></_>
    <_>
      <rect>
        10 10 4 1</rect></_>
    <_>
      <rect>
        10 12 2 2</rect></_>
    <_>
      <rect>
        10 14 2 1</rect></_>
    <_>
      <rect>
        11 0 1 1</rect></_>
    <_>
      <rect>
        11 0 1 5</rect></_>
    <_>
      <rect>
        11 0 2 1</rect></_>
    <_>
      <rect>
        11 0 4 3</rect></_>
    <_>
      <rect>
        11 0 4 6</rect></_>
    <_>
      <rect>
        11 2 1 1</rect></_>
    <_>
      <rect>
        11 2 1 3</rect></_>
    <_>
      <rect>
        11 5 4 5</rect></_>
    <_>
      <rect>
        11 9 1 1</rect></_>
    <_>
      <rect>
        11 9 1 2</rect></_>
    <_>
      <rect>
        11 9 2 3</rect></_>
    <_>
      <rect>
        11 11 2 3</rect></_>
    <_>
      <rect>
        11 12 2 2</rect></_>
    <_>
      <rect>
        12 0 1 1</rect></_>
    <_>
      <rect>
        12 0 2 1</rect></_>
    <_>
      <rect>
        12 0 4 5</rect></_>
    <_>
      <rect>
        12 4 1 2</rect></_>
    <_>
      <rect>
        12 5 1 1</rect></_>
    <_>
      <rect>
        12 6 2 3</rect></_>
    <_>
      <rect>
        12 7 2 3</rect></_>
    <_>
      <rect>
        12 8 2 3</rect></_>
    <_>
      <rect>
        12 9 1 1</rect></_>
    <_>
      <rect>
        12 9 3 1</rect></_>
    <_>
      <rect>
        12 11 2 3</rect></_>
    <_>
      <rect>
        13 5 2 4</rect></_>
    <_>
      <rect>
        13 8 2 3</rect></_>
    <_>
      <rect>
        13 9 1 1</rect></_>
    <_>
      <rect>
        13 11 2 2</rect></_>
    <_>
      <rect>
        13 11 2 3</rect></_>
    <_>
      <rect>
        14 4 1 2</rect></_>
    <_>
      <rect>
        14 4 2 5</rect></_>
    <_>
      <rect>
        14 5 2 4</rect></_>
    <_>
      <rect>
        14 8 1 2</rect></_>
    <_>
      <rect>
        14 9 3 1</rect></_>
    <_>
      <rect>
        14 10 2 3</rect></_>
    <_>
      <rect>
        15 0 2 6</rect></_>
    <_>
      <rect>
        15 3 3 5</rect></_>
    <_>
      <rect>
        15 4 1 2</rect></_>
    <_>
      <rect>
        15 4 3 5</rect></_>
    <_>
      <rect>
        15 5 1 3</rect></_>
    <_>
      <rect>
        15 5 3 3</rect></_>
    <_>
      <rect>
        15 5 3 5</rect></_>
    <_>
      <rect>
        15 6 1 1</rect></_>
    <_>
      <rect>
        15 6 2 4</rect></_>
    <_>
      <rect>
        15 6 3 3</rect></_>
    <_>
      <rect>
        15 7 2 3</rect></_>
    <_>
      <rect>
        16 7 1 2</rect></_>
    <_>
      <rect>
        16 8 2 3</rect></_>
    <_>
      <rect>
        16 9 1 1</rect></_>
    <_>
      <rect>
        17 1 2 5</rect></_>
    <_>
      <rect>
        17 2 1 2</rect></_>
    <_>
      <rect>
        17 5 2 4</rect></_>
    <_>
      <rect>
        17 6 1 2</rect></_>
    <_>
      <rect>
        17 6 2 3</rect></_>
    <_>
      <rect>
        17 8 2 3</rect></_>
    <_>
      <rect>
        18 4 2 3</rect></_>
    <_>
      <rect>
        18 5 2 3</rect></_>
    <_>
      <rect>
        18 5 2 5</rect></_>
    <_>
      <rect>
        18 7 2 3</rect></_>
    <_>
      <rect>
        18 8 2 3</rect></_>
    <_>
      <rect>
        18 11 2 3</rect></_>
    <_>
      <rect>
        18 17 1 1</rect></_>
    <_>
      <rect>
        18 17 2 1</rect></_>
    <_>
      <rect>
        19 6 1 3</rect></_>
    <_>
      <rect>
        19 14 1 2</rect></_>
    <_>
      <rect>
        19 17 1 1</rect></_>
    <_>
      <rect>
        20 0 1 2</rect></_>
    <_>
      <rect>
        20 3 1 1</rect></_>
    <_>
      <rect>
        20 6 1 2</rect></_>
    <_>
      <rect>
        20 7 1 1</rect></_>
    <_>
      <rect>
        20 14 1 2</rect></_>
    <_>
      <rect>
        21 0 1 2</rect></_>
    <_>
      <rect>
        21 0 1 3</rect></_>
    <_>
      <rect>
        21 1 1 2</rect></_>
    <_>
      <rect>
        21 2 1 6</rect></_>
    <_>
      <rect>
        21 4 1 1</rect></_>
    <_>
      <rect>
        21 5 1 2</rect></_>
    <_>
      <rect>
        21 7 1 2</rect></_>
    <_>
      <rect>
        21 9 1 1</rect></_>
    <_>
      <rect>
        21 10 1 2</rect></_>
    <_>
      <rect>
        21 12 1 1</rect></_>
    <_>
      <rect>
        21 13 1 2</rect></_>
    <_>
      <rect>
        21 14 1 2</rect></_>
    <_>
      <rect>
        21 17 1 1</rect></_></features></cascade>
</opencv_storage>
