SVM-light Version V6.02
0 # kernel type
3 # kernel parameter -d 
1 # kernel parameter -g 
1 # kernel parameter -s 
1 # kernel parameter -r 
様様様様様様様様様様様様様様様様様様様様様様様様様様様様# kernel parameter -u 
144 # highest feature index 
928 # number of training documents 
22 # number of support vectors plus 1 
-1.4208408 # threshold b, each following line is a SV (starting with alpha*y)
1:0.028079356287243978 2:-0.049628697872864037 3:0.23444030879727831 4:0.43879357854356965 5:0.11943602774016311 6:-0.37104104054149384 7:0.16359070595970904 8:-0.21361094047827819 9:0.016795381920180499 10:0.12454741269899182 11:-0.3789046309999165 12:-0.14503143318139949 13:-0.16673084477836295 14:-0.036574658955674647 15:-0.45750568012448739 16:-0.16333251596369464 17:-0.47822694307539265 18:0.15933002672112889 19:0.36825181789474282 20:0.14757190496307429 21:0.2750971264765219 22:0.47930106685249213 23:0.10926161398722976 24:-0.28988436440206272 25:-0.52899333279887273 26:-0.49829997432073003 27:-0.16446961897805262 28:0.10307988689477897 29:-0.57447438597087996 30:-0.22574289835670089 31:0.062646659855348896 32:0.14877979537325631 33:-0.068629248007741603 34:0.002156304147857304 35:-0.31916389401274153 36:-0.0031588671115522909 37:0.42145523110892325 38:-0.1595394770497581 39:-0.18271778971526759 40:-0.2621600315966327 41:-0.056110038319517767 42:-0.36231792807047669 43:-0.11478902293890865 44:-0.25693359932742038 45:0.35021851560621853 46:-0.13564271970585931 47:-0.11988100018868214 48:-0.37951545100501327 49:-0.40306048537801459 50:-0.094383401255072705 51:-0.19002395169024222 52:0.11187742657242164 53:0.15492697263725236 54:0.25022695013396024 55:0.39066634390442823 56:-0.51136153109538929 57:-0.29938135177661551 58:-0.03135512776191423 59:0.21220597666514002 60:-0.14016055980001765 61:-0.12599468923194895 62:-0.42225623389125944 63:0.11238577962215196 64:0.031235520290294402 65:-0.14164931845029644 66:-0.2724703922659385 67:-0.055159665924094423 68:0.28530159697554736 69:-0.19306855674639811 70:-0.49888988925385408 71:-1.0908530823021252 72:0.11344217051621452 73:-0.37626863883808154 74:-0.10736734047363206 75:-0.27591731119658069 76:-0.29781238127505694 77:-0.040294176598695705 78:-0.0435476769885422 79:0.28740598434297659 80:0.19224482446829932 81:0.24106207015757758 82:-0.18496319661537797 83:0.16369028494624888 84:-0.084090357509550476 85:-0.28272939388095136 86:0.23159197998950015 87:0.54264198369040073 88:0.48160050243241492 89:-0.11474179548709773 90:-0.52901739686155591 91:0.05143170579039566 92:0.077917257714924332 93:-0.10635063660117491 94:0.023859584691792675 95:0.26732670401809033 96:-0.14563940652010035 97:-0.34163610725090648 98:-1.1682375938604448 99:-0.21945087399020269 100:-0.21231153890106913 101:-0.019932636299098069 102:-0.17141303280999209 103:-0.20724771633189937 104:0.31229771229280645 105:0.44954087412186555 106:0.21016746610798923 107:-0.73107608982956795 108:-0.14653560822468015 109:-0.2498893499787333 110:0.17241575743902537 111:-0.093345343767903211 112:-0.30089430404986894 113:0.12959859878061417 114:0.47976372006136997 115:0.39259718893269901 116:-0.16733053480883944 117:-0.66376880163736407 118:0.22110920915484489 119:0.26566335488905041 120:0.10787347269534985 121:-0.55510325164657415 122:-0.071452577251963842 123:0.22723739459598996 124:0.12366632352230857 125:0.23099324557126197 126:-0.042750163268197 127:-0.31347681587271725 128:-0.19576952747564247 129:-0.29810235221636011 130:-0.34875221254157024 131:0.2013115945785397 132:0.47792017868268005 133:0.39340816942603657 134:-0.66169471184676898 135:-0.10303233541411896 136:0.41523270290770942 137:-0.0034844428392912241 138:-0.51178857363011798 139:-0.63114617897530556 140:-0.16481885170528843 141:0.55149383469678381 142:0.71128712049017317 143:0.64138800607212887 144:0.42016846288196258 
