SVM-light Version V6.02
0 # kernel type
3 # kernel parameter -d 
1 # kernel parameter -g 
1 # kernel parameter -s 
1 # kernel parameter -r 
様様様様様様様様様様様様様様様様様様様様様様様様様様様様# kernel parameter -u 
144 # highest feature index 
788 # number of training documents 
77 # number of support vectors plus 1 
-0.7059063 # threshold b, each following line is a SV (starting with alpha*y)
1:-0.9573708802813381 2:0.88521356326144451 3:1.4631170019582347 4:-0.20516922159417894 5:-0.86696151330542581 6:0.3554478351104054 7:0.325655932267649 8:-0.014729576701209262 9:-1.0650878947930726 10:-0.030286990464637665 11:0.035153266788999354 12:0.042451189566285207 13:0.16478450070319023 14:0.68816384006134645 15:1.0451790855708809 16:1.025816990157036 17:0.79224154761654753 18:-0.19000192977543734 19:0.95913141835761284 20:-1.0019732733413651 21:-1.7782257689240344 22:-2.7020685004070022 23:-3.2995301166397097 24:-0.41735196031015903 25:0.45749557367814309 26:0.81358203143784802 27:1.5468006815957605 28:0.070846022306968626 29:0.23572216392835435 30:-0.22253642369128801 31:-0.37695940768066427 32:-0.21591732755994403 33:0.18885597797024523 34:0.3414313239075818 35:0.47001289793787465 36:-0.0076708856830102244 37:-0.242223299389663 38:0.14588815592998658 39:0.071447503428993697 40:0.12482979553651551 41:0.38669661446385545 42:0.57648442134971922 43:0.65012724238909458 44:0.56635273799809793 45:-0.74357034183722481 46:0.076107641398560327 47:0.32975414952053411 48:0.087000691426381283 49:0.05035430745016873 50:0.070481497338813676 51:0.045152004752397321 52:0.041871519513542219 53:0.087797952623462558 54:-0.041143702460031878 55:0.094274135828108063 56:0.37604146980168957 57:0.010315515987061999 58:-0.1050898132183521 59:-0.045000667621192557 60:0.1065950248974052 61:0.20037401225898327 62:0.32251517544249531 63:-0.0081890380982048393 64:0.094267256382574979 65:0.39072699480210277 66:0.049510105420987306 67:0.012386161840436305 68:0.023358641497914844 69:0.014240334230380434 70:0.043003299644924317 71:0.32133085042150167 72:-0.0082202155144271115 73:-0.0018430743468246806 74:0.26849104990823108 75:0.065763020366781749 76:0.037935983017178092 77:0.046699175832060139 78:0.029149854713581742 79:0.031295756128090338 80:0.054164921615293168 81:-0.34175767841532562 82:0.014166721748567437 83:0.44905324248073292 84:0.078389067119022549 85:0.071659823101787271 86:0.054959688823371822 87:0.021284266824453588 88:0.059581899497822374 89:0.12281243401781811 90:-0.039804500047757194 91:0.005099575249247543 92:0.29842917641370675 93:0.029604556873144231 94:0.0086957905844850664 95:0.011043315141828994 96:0.011153921053833504 97:0.041733295876693131 98:0.28007734721172806 99:-0.091997832442566249 100:0.079269447540000704 101:0.39940544160005476 102:-0.0063218724632030671 103:0.022554759556886742 104:-0.0044558315065034073 105:0.011483720243413193 106:0.085031952831025256 107:0.313252303415894 108:0.028943240259841796 109:0.016540515440957356 110:0.46149695593559037 111:0.089243658506479501 112:0.074423408158074383 113:0.046163465764123307 114:0.021444292757334307 115:0.043795312055248919 116:0.093821503654607494 117:0.070265391950652401 118:-0.094279240800763942 119:0.10288562818061012 120:-0.32456518766350345 121:-0.31381329382376333 122:-0.81448747273115596 123:-0.7925907353478272 124:-0.67041615005794597 125:-0.74249826535920016 126:-0.040617143639885674 127:0.19952667580661554 128:0.38853717815644367 129:-0.020125218690158628 130:0.013757449899624819 131:-0.034010396104764529 132:0.01207288907339551 133:0.070572055490906088 134:0.23266315516172129 135:0.15701969789085191 136:0.45558206962165554 137:-0.13334640734168177 138:-0.91686434273030992 139:-0.67583505596981697 140:-0.84138214236306341 141:-0.3374945119275623 142:0.068551149333106562 143:0.42988383163742261 144:0.084615887201696272 
