SVM-light Version V6.02
0 # kernel type
3 # kernel parameter -d 
1 # kernel parameter -g 
1 # kernel parameter -s 
1 # kernel parameter -r 
様様様様様様様様様様様様様様様様様様様様様様様様様様様様# kernel parameter -u 
144 # highest feature index 
850 # number of training documents 
15 # number of support vectors plus 1 
-0.26061956 # threshold b, each following line is a SV (starting with alpha*y)
1:0.23321221885027801 2:0.33778181635461418 3:-0.0557868832122577 4:-0.56260160712818774 5:-0.22132424158204886 6:-0.043999487904732369 7:0.024579544072903199 8:0.16081529951055176 9:0.26293111838518757 10:-0.2713372129799288 11:0.13097239321352538 12:0.15683985837860209 13:0.22098387451886634 14:0.46792842316240524 15:0.38261082940929642 16:0.2943134466517609 17:0.26774426973439835 18:-0.46311475046420925 19:0.20697224403173048 20:0.18764807336727174 21:0.056584388533659928 22:-0.067021259120853757 23:-0.26688160295852731 24:-0.13831907320493905 25:-0.073090651111984109 26:0.056282507617241462 27:-0.032341020136910925 28:-0.42770491186908449 29:0.404167919964452 30:0.28600914656268811 31:0.19887245580347343 32:0.33561642966421601 33:0.29840024981787239 34:-0.0080231124446816932 35:-0.33908831121590116 36:-0.20575565585517502 37:-0.4712375971037388 38:0.065495860301465356 39:0.19275782722069276 40:0.26496425161798121 41:0.47562472407063672 42:0.3990044656781272 43:0.34689647245168542 44:0.22849744881211501 45:-0.63140882589169889 46:-0.36706144769513993 47:-0.052834917028860194 48:0.17510957792734266 49:0.29217253686220146 50:0.38906221653442663 51:0.40550743672002365 52:0.42319142686592381 53:0.3413341365098595 54:-0.42133885518376579 55:-0.61400963170383682 56:0.40988239597100623 57:0.30604282815898809 58:0.19308567395383011 59:0.28748017932938263 60:0.42584247151961668 61:0.3075212889984103 62:-0.14359215504896236 63:-0.33625228368161081 64:-0.25318777943632875 65:0.12904108943658024 66:0.21813595009913461 67:0.15942447453226444 68:0.10322172846877631 69:0.32250725920850115 70:0.59551904831904423 71:0.95408037274053681 72:-0.22887287950801463 73:-0.18267449844642547 74:-0.012116676168317754 75:0.11326437517379855 76:0.20332401872535638 77:0.26243944771592481 78:0.28385139858732572 79:0.30629600678554586 80:0.29537251357597855 81:-0.22317412003272058 82:-0.30649579924499259 83:-0.057632036606227476 84:-0.084305152558741228 85:-0.020826173608348458 86:-0.27446829828284985 87:-0.064062281340507385 88:0.15462594115242037 89:0.30585783246996812 90:-0.049685687337967736 91:-0.27993812564749715 92:0.067455875051347466 93:0.12945023618306745 94:0.093765298146994094 95:0.045238598075322045 96:0.22239837196147119 97:0.47040792558290778 98:0.86999627357688047 99:-0.026070186813062765 100:0.040554495051705504 101:-0.079576709600758744 102:-0.13325521971085896 103:-0.13575803157640998 104:-0.33622278659301347 105:-0.13855393028705104 106:0.12572410950723731 107:0.23627707557564082 108:0.037509117151629003 109:0.033343486353620527 110:0.026010830903442105 111:-0.0039141699566155172 112:0.039058107582600719 113:-0.21147374256289114 114:0.00085987960354674245 115:0.2323441968062869 116:0.36187648514297388 117:0.072158781943086378 118:-0.032305087778173786 119:0.035812269865876191 120:-0.070429539149944972 121:-0.29968150723467174 122:-0.022230352336400735 123:0.09762360123939004 124:0.43333039231793158 125:0.23622105930686102 126:0.1269528615848397 127:0.058954340982300971 128:0.041856285009997753 129:0.017276870589673064 130:-0.017325838784502806 131:-0.21712928091748071 132:-0.058515705563906825 133:0.095854628818662635 134:0.19368721103894618 135:0.19512162879802036 136:-0.0057300932356527026 137:-0.095725223395147746 138:-0.13223231881892789 139:-0.0052593358609505933 140:-0.073591096174992654 141:0.14748190801667946 142:0.066228976855923674 143:-0.0018727033859522095 144:0.040682217167927047 
