SVM-light Version V6.02
0 # kernel type
3 # kernel parameter -d 
1 # kernel parameter -g 
1 # kernel parameter -s 
1 # kernel parameter -r 
様様様様様様様様様様様様様様様様様様様様様様様様様様様様# kernel parameter -u 
144 # highest feature index 
928 # number of training documents 
20 # number of support vectors plus 1 
-1.2424538 # threshold b, each following line is a SV (starting with alpha*y)
1:0.11574634579553342 2:-0.52120412513426728 3:-0.80616102299456693 4:-0.18556355328024526 5:0.57633510138447341 6:-0.45853815715984358 7:-0.42969952852718324 8:-0.17518313926557416 9:0.56159105388549957 10:0.0032786802831972842 11:-0.0095783776822631131 12:-0.17386042682819636 13:-0.039357113031430288 14:-0.28206747414847938 15:-0.099438783685948509 16:-0.017188150918874448 17:0.16483459062718081 18:0.35137903703731349 19:-0.33285789539460103 20:0.37281509018515391 21:0.41829945771593063 22:0.80015749620646182 23:1.401950064986772 24:-0.45899163122368525 25:-1.2908411227455274 26:-1.7992296999673574 27:-0.92084849246673384 28:-0.36233428994791905 29:-0.45283693618093152 30:-0.04121764455740836 31:0.27102133490155372 32:0.49587174529844164 33:0.34603833014816049 34:0.33033313296745676 35:0.045547466901615083 36:-0.079569628372671702 37:-0.14505735486693802 38:-0.14348108331782089 39:-0.15574477738980821 40:-0.130983650247781 41:-0.31151526321848511 42:0.03479722293439956 43:-0.059876517107515542 44:0.080490183133258203 45:0.053771662898802045 46:-0.24362573916361605 47:-0.1901447369073602 48:-0.023933916135389643 49:-0.009041487267359604 50:0.18581559193596059 51:-0.19565395979241734 52:0.12689933377133625 53:0.029268780968165022 54:0.098800775855291914 55:-0.36608224792836952 56:-0.51532239345113406 57:-0.2007943341886943 58:-0.0091032684021114772 59:0.083278590013913689 60:0.28505493195112425 61:0.15627500040009717 62:0.10963835757961851 63:-0.069524981308194525 64:0.4522498331377976 65:0.056140428705333298 66:0.23978665543920488 67:0.081001918817063201 68:-0.080007378228441881 69:-0.14616985376521091 70:-0.33650836766204306 71:-0.6240036491052855 72:-0.13365119930253172 73:-0.43103889345888008 74:-0.17968689335258073 75:0.016312158178130941 76:0.06475767200853294 77:0.37591820832357437 78:-0.12989708868811622 79:0.22107578516550241 80:0.012695052905808239 81:0.078971843681776399 82:-0.30845328472280897 83:-0.045913176052138661 84:0.0048565642596967648 85:-0.23602778142711459 86:0.29086349876122591 87:0.24761142033729444 88:-0.036808375490916721 89:-0.58154986306795675 90:-0.51078384318792847 91:0.98682250175970909 92:0.24348923692412455 93:0.34175986804503045 94:0.1733909111328559 95:0.087330101197912041 96:-0.025282338989022365 97:-0.38654945666620555 98:-0.92207904654517159 99:0.1782562983562089 100:-0.30563030049391982 101:-0.5596044471561562 102:-0.41892940664096207 103:-0.33492583095208606 104:0.10139079842614365 105:0.14171173985116614 106:0.24331372219925501 107:-0.41881719582056348 108:-0.26059691607200458 109:-0.20012355070253443 110:0.23287532295013233 111:0.24160245654995918 112:-0.079965857630234907 113:0.3680046746383645 114:0.39116273546869507 115:0.077326939965140049 116:-0.17825581330079443 117:-0.33428338147753528 118:0.2880216391078097 119:0.35706313580630272 120:0.20007939843367206 121:-0.44203842955589989 122:-0.5063072737380061 123:-0.10168553999047995 124:-0.3088960061194258 125:0.42078931948170517 126:0.37685016334365784 127:-0.16394896703561185 128:-0.36689254541736099 129:-0.38748812578044628 130:-0.33479964597673084 131:0.37353970938523667 132:0.38579003613681662 133:0.52690475103168211 134:-0.082431433999307691 135:0.11672601781085139 136:1.0360959586127119 137:-0.040557398227916944 138:-0.56084497199510042 139:-0.70591164573835008 140:-0.5978344193417946 141:0.37520270119205856 142:0.59066643670710939 143:0.42946589714789751 144:0.66643270150539158 
