SVM-light Version V6.02
0 # kernel type
3 # kernel parameter -d 
1 # kernel parameter -g 
1 # kernel parameter -s 
1 # kernel parameter -r 
様様様様様様様様様様様様様様様様様様様様様様様様様様様様# kernel parameter -u 
144 # highest feature index 
932 # number of training documents 
66 # number of support vectors plus 1 
-0.10188993 # threshold b, each following line is a SV (starting with alpha*y)
1:0.045643282224326696 2:0.6048236681170065 3:1.1518527879851708 4:0.61800517188552306 5:0.43688451558737285 6:0.071698525996688411 7:-0.04581968575535577 8:-0.35520027343296356 9:0.10034098812818608 10:0.4691180144579884 11:-0.41115460928391068 12:-0.81871338105688563 13:-0.78897097246573245 14:-0.75030968592267588 15:-0.2648718640082357 16:-0.017488700091672728 17:-0.21592134716634345 18:-0.083338093544032085 19:0.51611569819640757 20:0.27425913051721851 21:0.30265386933613009 22:0.44913649647320697 23:0.73580239012443893 24:0.28077396222059009 25:-0.34425916768189257 26:-0.61211751978264439 27:0.16006369283986138 28:-0.0085260686918395417 29:-0.083004385648587142 30:0.12335545350657877 31:-0.23803094000476846 32:-0.0050701715240308136 33:-0.056015765191701365 34:-0.093567815614272715 35:0.18194340318800026 36:-0.26826619968187648 37:0.92142139892002739 38:-0.26804321687688032 39:-0.55016494248616499 40:-0.53647418582378592 41:-0.51573481814815114 42:-0.19821864085848601 43:-0.015150136757453258 44:-0.0052300265323834078 45:0.52065768697249293 46:-0.1179072930075814 47:0.60062282302655545 48:0.8441025587183506 49:0.61168557055505912 50:-0.14601038879144038 51:-0.37585733402454885 52:-0.47720012773011067 53:0.10969302268405794 54:-0.0069920801290103834 55:-0.076078038634278117 56:0.21063845161171507 57:0.27395411561684918 58:-0.07509260008625164 59:-0.019341156786894471 60:-0.18867332514702212 61:-0.30103800030488315 62:0.2075565790966907 63:-0.1796759417112937 64:0.17279361419760877 65:0.83530865734169113 66:0.60650929746774773 67:0.30181224396868467 68:0.11105330730413321 69:-0.41963233670910305 70:-1.0073465063961566 71:-0.71539983280924291 72:0.11714553109179415 73:-0.29787681173535291 74:0.91898174743722449 75:0.95241332835012427 76:0.68918996799034582 77:-0.030971337946532312 78:-0.48194929821460336 79:-0.45201435145466889 80:0.021620699110138291 81:-0.57907230194174908 82:0.15996295835410074 83:0.90652640118022332 84:0.56373333724775454 85:0.21391525856420676 86:0.41527185785424342 87:0.44224383790794591 88:0.34967677717575552 89:0.17755748980516672 90:-0.55351650061854285 91:0.68655941659129005 92:0.56438165349630365 93:0.46628906122759867 94:0.29664428810005988 95:0.029298863118557405 96:-0.50542286038088113 97:-0.80889282617207192 98:-0.73491870195354025 99:0.0045830250799105956 100:0.080092880039542236 101:-1.0606215017059506 102:-0.59981874982807948 103:-0.23173782760660622 104:0.18194883533258677 105:0.36847929552001885 106:0.41654193864878086 107:-0.24914945848826414 108:0.17920962029915277 109:-0.16148072081692486 110:0.48177708255584606 111:0.046458309805362162 112:-0.23235337045429447 113:0.11213848210759848 114:0.32654227331713392 115:0.27091742743682323 116:-0.011988242021178376 117:-0.98074423897483276 118:0.30893333698350622 119:0.22978381329483125 120:-0.14491808711793305 121:-0.64704604123984666 122:-0.43410948006687461 123:1.544123333255413 124:1.7360473735199378 125:1.1566357865286385 126:-0.40467275140764108 127:-0.15584405509025004 128:-1.0839311503294344 129:-1.197434141888446 130:-0.49728402162043811 131:0.046303732715495045 132:0.25353364757782504 133:0.29902844296616371 134:-0.21416158422720441 135:0.21455167138998518 136:1.3145678020831748 137:0.11979501439901291 138:-0.43039854326672883 139:-0.44684393240254644 140:-0.062232610101260466 141:0.60178754993405015 142:0.28423127807324428 143:0.2908387642174432 144:1.2019158276327166 
