SVM-light Version V6.02
0 # kernel type
3 # kernel parameter -d 
1 # kernel parameter -g 
1 # kernel parameter -s 
1 # kernel parameter -r 
様様様様様様様様様様様様様様様様様様様様様様様様様様様様# kernel parameter -u 
144 # highest feature index 
727 # number of training documents 
25 # number of support vectors plus 1 
-1.0602577 # threshold b, each following line is a SV (starting with alpha*y)
1:-0.45427032664712064 2:0.0047623837813766711 3:0.15455544085673392 4:-0.015336238763385529 5:-0.19447890835627929 6:-0.66485013106671875 7:-0.017809795922236075 8:0.26952044303668793 9:0.14583298898279859 10:-0.40054869961618811 11:0.045134114586283074 12:0.08948365531291623 13:-0.18740395339543464 14:0.19904565590241394 15:0.64129981191138685 16:0.35685950298334279 17:0.31973820216254256 18:-0.29756393756702193 19:0.072573480278845054 20:-0.068379757153659473 21:-0.08536737902053175 22:-0.068967205360400644 23:-0.065678711544533891 24:-0.21059976794438573 25:0.080946410535204072 26:0.42565163853712124 27:0.018663336703761461 28:0.16858044351137846 29:0.0067931697830574305 30:-0.20664858038175563 31:-0.68657095579887606 32:-0.22334326318901387 33:-0.16317064920642821 34:0.59969433820303186 35:0.53992362712130326 36:0.16988411294841352 37:-0.52254477701694413 38:0.0052248404905567598 39:0.085599071941371258 40:-0.1080982859043932 41:0.30472251560949826 42:0.8399427213616375 43:0.36364690419888718 44:0.24524934887637181 45:-0.50296548005847053 46:-0.29419743351496958 47:0.21205960189834619 48:0.20352156296480206 49:0.14300001498255788 50:0.39471048541153808 51:0.57769926113427872 52:0.12455422343737148 53:-0.45853171049364627 54:-0.26457693108717212 55:0.17580688280968151 56:0.033286841897480213 57:-0.18077013057207689 58:-0.61143528416620563 59:-0.25580588884660871 60:0.073040130515857921 61:0.67486290607477772 62:0.48615147495962235 63:0.21018492316406834 64:-0.12907596778317512 65:0.086093701392739322 66:-0.17422451945016953 67:-0.40792953697215423 68:-0.47036600776861831 69:0.084831129456307913 70:0.39038892153880955 71:-0.079614042126710735 72:-0.18796152065892979 73:-0.15291210227430913 74:0.26972932563159707 75:0.2363628852295728 76:0.21166174780163013 77:0.36383900824893967 78:0.40369295281166689 79:0.07180703931204438 80:-0.44237231620407591 81:-0.27316676096168285 82:0.033895724119331776 83:0.16802945531087171 84:-0.0008347590090959006 85:-0.075536075363839647 86:-0.00062549143525205168 87:0.062962382231412997 88:-0.038166666154148647 89:-0.4727754055148205 90:-0.05769804107609202 91:0.097679994342034185 92:0.14859591779164491 93:-0.054486512311732252 94:-0.13087307119156757 95:-0.060963493689489501 96:0.20736307390830513 97:0.32160534623552328 98:-0.30899477031330513 99:-0.037534731150638448 100:0.032491539584548694 101:-0.068943458486725964 102:-0.053414512781117293 103:0.0083294410482000654 104:0.1209651994390319 105:0.17010305957347671 106:0.15116332178026173 107:-0.23560294288448924 108:-0.02044951889642229 109:0.069882329852356331 110:0.043052053031279021 111:-0.12087105635425807 112:-0.15635608034502849 113:-0.11307695324118112 114:-0.020648298354700421 115:-0.047437045225031199 116:-0.36470677727402356 117:-0.012038509386109782 118:0.69871011816731476 119:-0.023397897630120703 120:-0.17324787560458424 121:-0.38127106835150609 122:-0.66478305808821092 123:-0.5675593872148188 124:0.2445379325801465 125:0.27312524826159912 126:0.62898654506623708 127:0.086226425981758961 128:-0.26660857290921242 129:-0.16678484945562447 130:-0.073731999830651013 131:0.022872897258977329 132:0.10735328599979527 133:0.11505385282433415 134:-0.099522355786748284 135:0.0029297169410854619 136:0.052815037511074192 137:-0.29532635137619384 138:-0.23486292143672044 139:-0.72625369585912636 140:-0.45509554391864732 141:0.059786072387312844 142:0.23258513897076535 143:0.2550885420040781 144:0.74171590620352756 
