SVM-light Version V6.02
0 # kernel type
3 # kernel parameter -d 
1 # kernel parameter -g 
1 # kernel parameter -s 
1 # kernel parameter -r 
様様様様様様様様様様様様様様様様様様様様様様様様様様様様# kernel parameter -u 
144 # highest feature index 
11913 # number of training documents 
46 # number of support vectors plus 1 
8.6394177 # threshold b, each following line is a SV (starting with alpha*y)
1:0.4138763415120531 2:2.1015889312091875 3:-1.0052710576929154 4:-0.85969521170863439 5:-1.2914773748878667 6:-0.74284056433033907 7:-0.55294128924014718 8:-0.67407985720805486 9:0.90703112240925643 10:0.033934854733015274 11:0.54079144916215582 12:-0.53838484257690533 13:-0.067328952316310614 14:-0.79678695061477478 15:-0.023570274714126815 16:-0.12925988795682741 17:-0.70187856315107711 18:0.76573377039315282 19:1.120809473917715 20:0.43000627454368046 21:-0.67117045458302549 22:-1.1493540169791419 23:-0.88241468635010611 24:-0.75746948815906068 25:-1.0553839820698476 26:-1.4257686569397203 27:-0.63375849289340158 28:0.80435425382872128 29:0.97002318687490741 30:-0.81140377751396797 31:-0.51249740011195166 32:-0.88886713861960354 33:0.22824198044590421 34:-0.18412391124254338 35:-0.91247296095720265 36:-1.5626018524447756 37:0.044891796931092243 38:0.40825934581896217 39:-0.52176293050959599 40:0.19139091788900986 41:-0.71169014179305679 42:-0.091854331179088575 43:-0.18790030874448777 44:-0.80991278557124291 45:0.94710414474827975 46:0.80552022201077966 47:1.3396690406953673 48:0.79612702376983291 49:0.1175148766989671 50:-1.394983958944443 51:-1.0787578747830515 52:-0.606999556984129 53:-0.43132316616316724 54:0.87267717429405434 55:-0.15577623528898529 56:-0.26480279670269358 57:-0.66652330821213224 58:-0.23526117483098169 59:-0.45947368759139307 60:0.47442813285583113 61:0.23567688988967722 62:-0.62195443027973396 63:-1.7020261553184728 64:1.6882904008377175 65:0.38634373821485307 66:0.027667891903095491 67:0.30051446533040299 68:1.3771904505241399 69:2.1826830639983656 70:0.79877085688922189 71:0.71974054279956667 72:0.71558266662512926 73:0.91693295717922785 74:0.62093573061191343 75:-0.20376148257205567 76:-0.27397230615453722 77:-1.4798197098526724 78:-0.70019447594213413 79:-0.70921996297441536 80:-0.8423159921917257 81:-0.33766921710477898 82:1.7933066319707576 83:0.53658508372957514 84:-0.505807634794886 85:0.39701372277969837 86:0.55987058669759349 87:0.82805753541211069 88:0.15804904614895496 89:-0.41111508273561492 90:1.3183268644117163 91:0.61421181300124794 92:-0.34887373943559996 93:-0.36625847713897219 94:-0.009293671584298599 95:1.27235328379305 96:2.6898934423338443 97:0.82114728441695573 98:0.43210311296094633 99:0.26355213145330841 100:-0.012257185357914854 101:0.73415660100661007 102:0.10692606699313426 103:0.76357118066602736 104:1.2988539494589497 105:1.2761877633015113 106:1.8288183955212662 107:2.1097589117596391 108:1.3823656622704812 109:0.49170942851130695 110:1.0072190755577488 111:-0.21403895941008655 112:0.30295390521790677 113:0.46159511824625732 114:1.0305092677066274 115:0.0067134871303007049 116:-0.72464929138642353 117:0.77995864781552715 118:-1.1841130479040585 119:-2.423224930524261 120:-0.67664637929528215 121:0.20342871341711616 122:1.2387013363739869 123:1.26516950066155 124:1.6299847063485158 125:0.045556410497917477 126:0.19697524828733737 127:0.10293637194717098 128:0.65956651819058665 129:0.37766410590995414 130:0.73984365794941298 131:-0.095007164229615415 132:0.64944535241391443 133:0.93852033870307627 134:1.22420443805763 135:0.86033172233988298 136:1.8881629109668228 137:1.9984846193346284 138:0.18263717379070785 139:1.2658322346440976 140:-1.0932261676358004 141:-0.20315662109125454 142:0.34464426605966597 143:2.4927463105110323 144:1.2805022673593385 
