SVM-light Version V6.02
0 # kernel type
3 # kernel parameter -d 
1 # kernel parameter -g 
1 # kernel parameter -s 
1 # kernel parameter -r 
様様様様様様様様様様様様様様様様様様様様様様様様様様様様# kernel parameter -u 
144 # highest feature index 
11913 # number of training documents 
94 # number of support vectors plus 1 
10.469565 # threshold b, each following line is a SV (starting with alpha*y)
1:0.27271050957315329 2:2.0665449867578021 3:1.6774496131787102 4:0.17673528945072062 5:-0.86091552961823226 6:0.18115729270757763 7:-0.29858885077474939 8:-0.66447497639773578 9:-0.57714586227890596 10:0.11462090986766109 11:0.63590345868404097 12:-0.75785716365142697 13:-0.78841771518520964 14:-0.14622990065639235 15:0.57402160746219888 16:0.35035803933277243 17:0.74266835855597879 18:0.21466421599801563 19:0.0077791493990869796 20:0.85319886818309376 21:0.53936652682812758 22:0.12666384261859495 23:0.62516244895730511 24:1.2753711200983477 25:1.1046677262592963 26:1.5321187882694305 27:1.085289966650852 28:-0.45099273989519861 29:-0.58621716263922052 30:-0.50948671449200755 31:0.99398769577056145 32:1.3513672101686771 33:1.6423518924523042 34:0.33656082131839932 35:0.70027228252575124 36:0.15678415349886604 37:0.72029198503780045 38:0.24970216086334515 39:-0.79534795248031009 40:-0.63436573082496694 41:0.4099111707745437 42:1.0317647001202117 43:0.64723123773242486 44:0.39012749180008549 45:0.20287839643539438 46:1.3717037068802729 47:1.956774568685268 48:0.61490428717247692 49:0.1449500961047685 50:0.036507005233001898 51:0.8832054201613242 52:0.83122639763833484 53:-0.63164321977810267 54:0.90157976233794346 55:-1.3875827218761403 56:-1.0485288510543418 57:-0.84975084168172477 58:0.26780053766457157 59:1.7322086463785105 60:1.5708392288401785 61:1.0623937501708047 62:0.76465042598452904 63:-0.71699669039525238 64:-0.6060922683618668 65:-0.16491930456846907 66:-0.58649154447271157 67:-0.0042315907137629562 68:1.3765719914007692 69:0.92443738641304118 70:0.85864312420534639 71:1.9163059478850704 72:0.58958365113333022 73:2.2796404678168134 74:0.71943709384005405 75:0.3400639694594817 76:-0.25003921192502759 77:-1.6327407962905989 78:-0.3236161994831579 79:-0.22581402887962393 80:-1.3485443240193886 81:1.6556886874303962 82:0.61793225166530052 83:0.13062431035093672 84:0.019195573527329892 85:-0.37831273401530907 86:-1.5762390127427892 87:-1.2308853449915385 88:-1.0889483484347191 89:0.38343399392514266 90:1.6681255234224053 91:-0.36033904748756651 92:-0.058321970744703036 93:-0.50921742462401087 94:-0.094839525755864282 95:0.18503745139010133 96:0.6072904963217518 97:1.1353637406096386 98:0.2422989357797167 99:0.98288791368471518 100:1.3584089001839941 101:0.51175968085756018 102:0.0077377747639420843 103:0.34074860606535334 104:-0.15701477258322705 105:0.46827675141739183 106:0.087758703112906372 107:0.6121854338983449 108:0.47448464302390836 109:1.2809301851462307 110:0.13572866938479913 111:-0.23523732573830042 112:-0.19124993505475713 113:-1.2564234191856221 114:-1.0106910465297796 115:-0.75459544996624717 116:0.65201138922783586 117:1.9915163550792052 118:-0.26338199248583671 119:-0.08086837718489516 120:-0.11400408129857227 121:0.11556939586150636 122:0.1690425607845224 123:0.087901215538031777 124:1.0127583344996782 125:0.53750740087405846 126:1.3313381658159171 127:1.3802606727769882 128:0.3434664884370916 129:0.10319245402932328 130:0.21734837452959963 131:-0.18426635035882449 132:0.3049070162255107 133:-0.17156587767475104 134:0.36853479669663547 135:0.31652626248841292 136:0.26903097891038169 137:1.0834583542865572 138:0.36084743601146518 139:0.047195371645080052 140:1.1640413012595268 141:0.77352426342661118 142:-0.27998465150381985 143:-0.97565452709059397 144:-0.62219098124010308 
