SVM-light Version V6.02
0 # kernel type
3 # kernel parameter -d 
1 # kernel parameter -g 
1 # kernel parameter -s 
1 # kernel parameter -r 
様様様様様様様様様様様様様様様様様様様様様様様様様様様様# kernel parameter -u 
144 # highest feature index 
11913 # number of training documents 
73 # number of support vectors plus 1 
6.0881397 # threshold b, each following line is a SV (starting with alpha*y)
1:0.60608585436561835 2:1.4157132524217089 3:0.74003825610665153 4:0.60334158093624479 5:0.44930314306713504 6:-0.30683107697011613 7:-0.76932723962592653 8:-0.5587304508398292 9:-0.59162466172856054 10:0.40039701055428989 11:0.84440688367796057 12:0.44722772226706442 13:-0.11347599210823728 14:-0.99971747748327489 15:-1.0597217728462327 16:-1.00699907127956 17:-0.95605483723355822 18:0.53863003084740102 19:-0.4525166874329547 20:0.23633053894600986 21:0.12310634583196983 22:-0.056766290434158789 23:1.2327580925384982 24:1.3036167407681187 25:0.91767804096920291 26:2.22949681227455 27:0.45117851256814623 28:0.48224969968575515 29:-0.63421018601040624 30:-0.1355613034544812 31:-0.1024464934098635 32:-0.14430758081996253 33:-0.46541921258337243 34:-0.61348028578497948 35:1.40992700770597 36:0.22622297937165314 37:0.31194178219670132 38:0.047863424333086865 39:0.0102640203140659 40:-0.40483368630031979 41:-0.82157030867468805 42:-0.74163672447181905 43:-0.81485212151815833 44:-1.0447966895920375 45:1.2419336834644354 46:0.62658314196082798 47:-0.93464940628389359 48:-0.60451839628777637 49:-0.46076677991488196 50:-0.50571082463397921 51:-0.91749531406428442 52:-0.90845430602593402 53:-0.52528187628437473 54:0.83766907980057792 55:0.6264983220804099 56:-1.0002824433305748 57:-0.36603140886587471 58:-0.26633626891670514 59:-0.4363754586275333 60:-0.47345360090748895 61:-0.67347368314965284 62:1.0396363555357524 63:0.33458829403340851 64:0.2671549105244051 65:-0.42134776757424031 66:-0.69674334690246342 67:-0.31535397497933804 68:-0.33324615911352345 69:-0.58068480856425597 70:-0.69518798892348432 71:-0.10532829865359293 72:0.59330166476391144 73:0.82632890519323277 74:-0.87127074536746951 75:-0.56006238650474571 76:-0.39983738281648679 77:-0.52918367659921484 78:-0.95185240981270081 79:-0.8583367447504332 80:-0.45917268761758651 81:1.078315545256928 82:1.2273388450236749 83:-0.71682106546898861 84:-0.76669412848280794 85:-0.75785091378840441 86:-0.92722743564918775 87:-0.47637593877814294 88:0.024317316962572815 89:0.3590619722378533 90:0.43005593384469093 91:0.19102869956672808 92:-0.38344707728429772 93:-0.54868217256614094 94:-0.26588334302541528 95:-0.29645330326680031 96:-0.56633747333609341 97:-0.71138132268801746 98:-0.54943121857013488 99:0.4827322899679331 100:0.40314105442495313 101:0.51128354638609386 102:-0.28292222200677963 103:-0.65925863860756795 104:-0.50787593657637609 105:-0.32496244694485588 106:-0.45284596107109026 107:-0.67651539983531439 108:0.65392538027760594 109:0.99087904049695696 110:-0.22795897077077992 111:-0.53486075993476534 112:-0.63315807638313637 113:-0.82011157692533387 114:-0.12035917729555032 115:0.53914885817633917 116:0.84881864192892742 117:0.078333499972811804 118:-1.2916911653403609 119:0.077719324758356634 120:0.066522040462325432 121:0.7583472242655489 122:1.2754819666876775 123:1.0031492336815728 124:1.6745656431154785 125:1.1736606624024359 126:-0.30307554576238593 127:0.69288713189096063 128:0.91497702790067237 129:-0.13291387736778726 130:-0.5436968202238105 131:-0.37179982732779188 132:-0.10070684314803882 133:-0.099058219366037634 134:0.042969317700389878 135:0.47077574431842162 136:0.4449353680250322 137:1.5458861239416752 138:1.2815643869535114 139:0.84240730493524918 140:0.3689531420030559 141:-0.48358397578555223 142:-0.70236013940999353 143:-0.28680396540295117 144:-0.63242800811067656 
