SVM-light Version V6.02
0 # kernel type
3 # kernel parameter -d 
1 # kernel parameter -g 
1 # kernel parameter -s 
1 # kernel parameter -r 
様様様様様様様様様様様様様様様様様様様様様様様様様様様様# kernel parameter -u 
144 # highest feature index 
11913 # number of training documents 
147 # number of support vectors plus 1 
18.292512 # threshold b, each following line is a SV (starting with alpha*y)
1:1.9744923796099221 2:1.432707418516239 3:0.19261160556502294 4:0.90076376293574856 5:0.45339453949144987 6:0.066457627050477766 7:-0.8756480942945295 8:-1.4925486653708784 9:0.7774645440287884 10:1.2036719121438113 11:-0.16036429454110321 12:0.74070838826958896 13:-0.066044359869893626 14:0.21430655356883946 15:1.7669207890041434 16:0.7549035734628099 17:1.8066333978110354 18:2.7899094177973325 19:0.76500048817337729 20:0.40612938729658071 21:-1.5606280491998394 22:-0.32577133461761737 23:0.25245296132214834 24:0.56196328081531377 25:2.3763529605311802 26:0.65129057436784776 27:1.3337732262580497 28:1.6659632096980082 29:2.6787401103039876 30:1.9448750080120527 31:1.0854210469869323 32:0.010222650533051119 33:-0.40005670633457785 34:-0.043131570044753667 35:0.52787353121956349 36:1.4293962280023991 37:0.1651911427607628 38:-0.66352474529866512 39:0.11032217643136759 40:-0.75310979798637778 41:0.87075441005349086 42:2.3769648523600844 43:1.0970971838868708 44:2.4565074794378448 45:1.7699083066793297 46:0.50771354544529523 47:0.0054020255021397009 48:0.90533966178506053 49:1.4753498714396573 50:1.6921951109662134 51:0.71848141891972694 52:0.26971972140828698 53:1.8181462813939659 54:-0.051158958181822423 55:2.8692795856219209 56:2.6721625238540967 57:1.9427484024916308 58:0.97291027268441344 59:-0.56238742543263787 60:-0.70666877866306999 61:-0.66431599593892932 62:-0.11108639971010185 63:1.5139010021843404 64:0.72574963365145118 65:1.1888065132165515 66:0.1605505102152473 67:0.75292211493307881 68:0.43708290996080451 69:-0.088711433801915249 70:-0.19728998020777291 71:-0.037319459866782263 72:1.3118842262979933 73:0.51797004547497305 74:1.5297457855935241 75:1.2280457391474646 76:2.474560291931764 77:2.6514227503446426 78:0.053897641525631854 79:-0.14367430151628138 80:0.5265150195269136 81:-1.1545021776006732 82:2.7251012508088115 83:3.222283206770042 84:1.6513233225633823 85:1.1596710523203517 86:-0.91019721370048912 87:-2.2230640929957066 88:-0.33363339515774054 89:0.51189538410201652 90:1.3297051065023491 91:0.8023445490838429 92:0.10378222442385261 93:-0.41911736092004914 94:0.71056178588728258 95:1.1742279904466917 96:0.23284022061588938 97:0.10048827889588435 98:0.36791251105836476 99:0.96863190587514436 100:1.0570392002844577 101:-0.06260601766473621 102:0.012546407659717984 103:0.65516909420254421 104:0.65128968890037986 105:1.6052840494298235 106:1.272497605524026 107:2.0525949421706513 108:1.4351907911539965 109:2.7660436390815542 110:1.138935389149111 111:0.46069775308441951 112:-0.36335675424639513 113:-1.9255922288792759 114:-2.1245258680280195 115:0.11620893552389445 116:0.7255979236665 117:1.4419734171678495 118:0.57792291806051899 119:-1.4463533866035148 120:-0.40426501456913239 121:0.12774255140460239 122:0.59502889547013893 123:1.1484253495606209 124:1.5340830398855108 125:1.5842258030095326 126:0.84108357788892862 127:0.68727029855549449 128:0.27163427616586605 129:0.29009781241008115 130:0.34333050462836617 131:0.029143832400820722 132:0.92108396655022884 133:1.4130648102882626 134:0.94705413790634607 135:1.1518301918032265 136:0.21326070685571563 137:2.0297385782298525 138:3.32870086393975 139:2.352523748029471 140:0.72249517264791352 141:-0.1635077844452883 142:-0.5611780697888813 143:-1.6053353069324838 144:0.9973681269594501 
