SVM-light Version V6.02
0 # kernel type
3 # kernel parameter -d 
1 # kernel parameter -g 
1 # kernel parameter -s 
1 # kernel parameter -r 
様様様様様様様様様様様様様様様様様様様様様様様様様様様様# kernel parameter -u 
144 # highest feature index 
11913 # number of training documents 
66 # number of support vectors plus 1 
7.6740474 # threshold b, each following line is a SV (starting with alpha*y)
1:0.033505937278693276 2:2.266614887538311 3:2.2974242868162649 4:0.20391250836071578 5:0.66376586492407585 6:-0.3851621330335871 7:-0.68609329541896269 8:-0.66953226790479992 9:-0.23250791367329185 10:0.36902221867172541 11:0.79555911499590171 12:0.83746522069884632 13:0.58912688450155859 14:0.8956669784868615 15:0.62017873987575745 16:-0.13226573651832299 17:-0.048058074221056103 18:-0.10929400939261791 19:-0.55205313393496658 20:-0.82709131198825903 21:0.80213632407608193 22:-0.10682285680355251 23:-1.2222691466227888 24:0.89443266712393155 25:2.7228100901482533 26:2.2886251431153029 27:1.5900468555440526 28:0.40208883905132609 29:-0.042267888506606399 30:0.34720632852204697 31:-0.41490187606601636 32:-0.34923704718054044 33:0.39086294392682058 34:-0.08344866662940538 35:-0.55994389257118382 36:0.82188573348512595 37:0.049777892280213273 38:0.37310069406819557 39:-0.062093421317147887 40:0.23925144706175089 41:0.57324535240749941 42:0.1880543120910271 43:-0.13435115558905175 44:0.0049681583628656129 45:-0.55327269035592419 46:0.17175201381904559 47:-0.59873984280393511 48:0.40046073134486299 49:-0.34105788141549465 50:-0.36003235848850201 51:-0.2715398550174955 52:-0.23443193269261808 53:-0.099369771183784414 54:-0.77376139029787139 55:1.287042999179844 56:0.70648175163107285 57:-0.012739735117159035 58:-0.36291256902299696 59:-0.30691585744450151 60:0.34050802389682011 61:-0.013060173563800126 62:0.014416076798962826 63:1.2132684978471062 64:1.369562586864397 65:0.73094198675531952 66:0.49086341569746761 67:-0.45811719899055203 68:-0.4448899164118576 69:-0.20784718057154916 70:-0.35939293712335574 71:-0.46223258555306612 72:-0.6633615176234795 73:-0.067773866789673204 74:-0.29519051136843971 75:0.6204243470818005 76:-0.12964482785583445 77:-0.12247371015963096 78:-0.2460526348859392 79:-0.25649038737293506 80:-0.29327896036050127 81:-0.58849273684800685 82:1.1593187555133775 83:1.6076840324867714 84:1.192137221540245 85:0.65882050327853259 86:0.20714893272573165 87:-0.47887117009489399 88:-0.628181660514051 89:-0.069585104740860784 90:-0.36395671761034581 91:1.1667982922186559 92:0.92878859125560953 93:0.32997257046128403 94:-0.44498051814947481 95:-0.60817054547252525 96:-0.40139315889665239 97:-0.45587294188028277 98:-0.69101911690844531 99:-0.63531176372152753 100:-0.50323154416708049 101:2.07492038624784 102:-0.15993970837290256 103:-0.29055545517059389 104:-0.33787762813530309 105:-0.75096005205793448 106:0.19617372039252137 107:-0.79544542952040387 108:-0.14301773909660542 109:0.3710398099093436 110:1.4296837187452216 111:0.53687924003946796 112:0.24535405196781052 113:0.4960982887821872 114:-0.00027549615178622949 115:-0.074318997729151862 116:0.58931056209845878 117:-0.20558037263453943 118:1.115672550504043 119:-0.24068758988220104 120:-1.688766872628281 121:-0.38863137168358891 122:0.3446631704110702 123:0.17704578606780763 124:0.58515962119400344 125:1.1305243199972848 126:0.94228127474138446 127:-0.82170428665603656 128:0.81715479106089139 129:-0.78284509650415346 130:-0.37438160699431627 131:0.26514079149015035 132:0.44111287897902901 133:1.2716705531506969 134:-0.37909164139910201 135:-0.24275444328808821 136:-0.4571724756958091 137:-0.90143376889540705 138:-1.2379750809010415 139:0.15538229155310895 140:3.9938622765414324 141:3.159814376809833 142:1.7987479008015637 143:1.1509052893930778 144:1.1042372417433639 
