SVM-light Version V6.02
0 # kernel type
3 # kernel parameter -d 
1 # kernel parameter -g 
1 # kernel parameter -s 
1 # kernel parameter -r 
様様様様様様様様様様様様様様様様様様様様様様様様様様様様# kernel parameter -u 
144 # highest feature index 
11913 # number of training documents 
79 # number of support vectors plus 1 
11.067751 # threshold b, each following line is a SV (starting with alpha*y)
1:-0.7288396783938389 2:-1.2566108710403887 3:-0.54003460778346746 4:1.5807708630189599 5:1.9942083216208457 6:2.1139926604493038 7:1.5543532458775744 8:1.199858842109873 9:-0.20613625607085262 10:0.71317009068971804 11:0.28412352972663724 12:0.48428985212883802 13:0.30784028581284939 14:-0.20708057020051679 15:0.5406814841743347 16:0.43524912852730357 17:0.58376027534637487 18:-0.083228582091997849 19:2.152101242685911 20:1.6960186421259005 21:-0.60934200003988359 22:0.54446843438361814 23:1.0209840822168568 24:0.91888611249873653 25:1.0002420630627096 26:0.27936138334140104 27:1.5411825799154997 28:-0.62726112305679727 29:0.67735074270284823 30:0.064053222396552367 31:-0.13394490958632554 32:-0.53498552365277197 33:0.40498920870757427 34:0.55737922599208378 35:-0.60619568487226105 36:0.25268090225483808 37:1.6682719894668254 38:0.29944280456340189 39:-0.13888036571610118 40:-0.27225704435733983 41:-0.24373966641925515 42:0.25271332696894427 43:0.11753160081598152 44:0.36862316954491536 45:-0.24912896459086209 46:1.4806179559827082 47:-0.1719320604175818 48:0.63155109774985796 49:-0.34161374339293465 50:-0.6539315522865955 51:-0.30328313639897603 52:-0.32012573399107624 53:-0.30913873303859307 54:0.33308955556436715 55:0.32612475946179265 56:1.1794173724039634 57:-0.72642504285290044 58:-0.29467458216753395 59:-0.55509217852094084 60:0.1687853570361553 61:0.47066302334196247 62:-0.49862512954553262 63:-0.7832724932896542 64:-0.35642968304635803 65:0.97453175060311148 66:1.0110819581426185 67:0.14711028141926713 68:-0.74866980466918087 69:-0.12728045514792596 70:-0.31443453788022574 71:-0.74957173010441835 72:0.41750620159171076 73:2.3370588596433959 74:0.32793001461976878 75:0.81027679597674307 76:-0.36060728921656676 77:-0.70792233178443065 78:-0.23363534302489908 79:-0.20549866597181368 80:-0.47183710647191723 81:-0.41820786700367696 82:1.6879135577607434 83:1.6658659348963605 84:0.56190366096835054 85:-0.28106658853600586 86:-0.78634572387936463 87:0.048279163191742844 88:-0.25476749403541304 89:-0.62677385829511245 90:0.42856032253836229 91:0.12234489647309343 92:1.2941372220111524 93:0.7627208195621602 94:0.15940209529834781 95:-0.53338264347279651 96:-0.097259113136401038 97:-0.29193384942203832 98:-0.77293523241585127 99:-0.0064584068285875318 100:1.466163476036221 101:0.66498742066899685 102:0.043339154080412334 103:0.00083746026825187725 104:0.066760733930353811 105:-0.18707231411674119 106:-0.54258821054466877 107:-0.80181456002720863 108:0.29922525779461345 109:1.8238198401084604 110:2.3082131081551056 111:1.3882660956523023 112:-0.26360924498994587 113:-1.04915561305022 114:-0.023826921262508981 115:-0.32955551007613459 116:-0.63892307883089938 117:0.58466773506469516 118:0.66745249259195383 119:1.8825564149968566 120:2.3412279733336865 121:0.96301541709335814 122:-1.0928791130608513 123:-0.16897809874984115 124:-0.32501277724841793 125:-0.37332453536333277 126:1.0442683575864196 127:2.0111013906947033 128:1.5796492480037569 129:0.48861071784744542 130:0.12224090384772282 131:-0.089972859446427356 132:-0.41101817141541502 133:-0.63949957114489631 134:-0.57965696226028185 135:0.68056595792872465 136:0.88532461977803512 137:0.69815222777429109 138:0.64599856844344572 139:-0.80777115837001445 140:-3.3705004317089293 141:-2.9056675211152001 142:-2.0338684197027765 143:-1.0663882457331006 144:-0.92655568899034724 
