SVM-light Version V6.02
0 # kernel type
3 # kernel parameter -d 
1 # kernel parameter -g 
1 # kernel parameter -s 
1 # kernel parameter -r 
ð­ºð­ºð­ºð­ºð­ºð­ºð­ºð­ºð­ºð­ºð­ºð­ºð­ºð­º# kernel parameter -u 
144 # highest feature index 
7816 # number of training documents 
655 # number of support vectors plus 1 
-6.3085424 # threshold b, each following line is a SV (starting with alpha*y)
1:-0.4022238402897792 2:-3.1768192948450973 3:-2.8484330854594124 4:-3.7314194917004802 5:-2.1784919586594076 6:0.13553571366584091 7:-0.2738113121054323 8:0.13354696299664848 9:-0.040045177042898616 10:-1.4606115440086864 11:-0.72329482871110817 12:-0.16068209308363585 13:0.33834157152216138 14:0.030133960729776536 15:-1.7300483383012442 16:-0.13137428952271504 17:-1.9251903844511855 18:-0.98428217001106055 19:-1.0384034404929074 20:0.86413471853680179 21:2.3403198311785824 22:-1.2377371004336422 23:0.41048583289602547 24:-1.4875006762493159 25:-1.2468079503094007 26:-1.3172898890030404 27:-1.2742508012181957 28:-1.0915127157277316 29:-0.035936747065389213 30:0.31976094779943881 31:0.13361087572100905 32:1.2515661405605378 33:-2.1692187334350796 34:-0.86344955294175407 35:-0.56014961016203857 36:0.29769892816218424 37:0.77505044631055398 38:-0.73729710986446362 39:0.65038582501342501 40:1.1318526249865819 41:1.2777866165236997 42:-0.14613505894316653 43:1.7400246473158905 44:0.016172565441911563 45:-0.49859705081226602 46:-0.1794816557245745 47:-0.29447475352442448 48:-0.13591695986233646 49:0.28908498680656552 50:1.5178566564095972 51:0.56622253244581611 52:0.51538559566248843 53:0.39641751245775392 54:-1.7289656093528518 55:-0.58110587167155181 56:-1.0946159558841155 57:0.93125597900304047 58:1.4433295420890635 59:2.2963823501685812 60:-1.15516019864855 61:0.094865196516472863 62:1.4561700952383811 63:1.4195640876206015 64:-0.7208514014985381 65:-0.15372043473532662 66:0.28784155502916636 67:-0.19130849617467721 68:0.7020899661807356 69:-1.0724986940821593 70:-0.37392573171641702 71:0.68234438372641815 72:0.94299181397973919 73:0.51789441137903958 74:0.68313920966148212 75:0.50574861207366706 76:0.12971377179277269 77:0.48047145256914287 78:-0.13798587983245766 79:-0.53830470350166526 80:0.61685180513883442 81:-0.81657968576775208 82:-0.46606657884441904 83:0.38280552167374965 84:0.96187314508511879 85:0.20468253714981027 86:0.58364367689797236 87:-0.47284469852318622 88:-0.47612032627535794 89:1.0595239080734227 90:0.21045098368846016 91:-0.83339248257939702 92:-0.42416742562446891 93:0.17608997990373326 94:-0.84662055501458433 95:-0.089025280258260009 96:-1.2188870997318335 97:-1.3038236350707899 98:-0.17703573528825611 99:-0.4320844678685784 100:-0.63222515040240124 101:0.18330434090600348 102:0.84271865761728082 103:0.069045284336647555 104:1.0246335370156898 105:-0.51347093569144686 106:0.11252601423985502 107:-0.5945973790640241 108:-0.011256640200896562 109:-2.1448696664968185 110:-1.3969308655032506 111:-0.31955791626217656 112:-0.91179431601299865 113:-0.6724679147549113 114:-0.98923368859430472 115:-0.25426947608601802 116:1.0205115519721744 117:-0.85155803699022825 118:1.0043454978879491 119:-0.34133480068153793 120:0.79713501731263769 121:-0.59741452784117577 122:-1.8223597970903445 123:-1.7086706833222909 124:-0.89184236815984941 125:-2.3717857522220709 126:-1.22172561522139 127:-1.6571666832298271 128:-0.86918178471543361 129:0.31943062662584454 130:-0.079223644556640757 131:0.87682052001273814 132:-0.15408777404285232 133:0.44172389172640497 134:-0.85247869582769287 135:-2.1657318243831405 136:-0.35719344391542468 137:-1.2353334911278167 138:-1.6206779214547744 139:-1.6096861049293176 140:-0.76851590470310049 141:-2.1080047585318429 142:-0.63932788936401863 143:0.28512624987776286 144:-0.13567625163527636 
