SVM-light Version V6.02
0 # kernel type
3 # kernel parameter -d 
1 # kernel parameter -g 
1 # kernel parameter -s 
1 # kernel parameter -r 
様様様様様様様様様様様様様様様様様様様様様様様様様様様様# kernel parameter -u 
144 # highest feature index 
11913 # number of training documents 
143 # number of support vectors plus 1 
9.0395858 # threshold b, each following line is a SV (starting with alpha*y)
1:-3.4997049459852314 2:-1.5399211413325526 3:0.032544986354700878 4:0.14435846685259066 5:1.5264763297895161 6:1.321938090965898 7:2.1931301010748738 8:1.8156217217407469 9:0.98067576068649898 10:0.62459883003448946 11:0.47647673024357173 12:1.2143915798948353 13:1.3903533716538341 14:1.9850994730470968 15:0.46708730712483926 16:0.46609825772589314 17:-1.4274694524452634 18:-1.8067872672793377 19:0.82812813511393868 20:-1.6092952832968956 21:-0.78587314057478297 22:-1.0224452391201748 23:-0.046807971142993829 24:0.0045286299920277995 25:-0.12011563068528319 26:1.44487774220294 27:1.1851687013451606 28:0.95750500935523908 29:1.5192858538482241 30:-0.54683668315652567 31:-0.27014582888221977 32:-1.6249880993803696 33:-0.3569836985087555 34:-0.20888524765234998 35:0.061769100133247309 36:0.76953627754072551 37:0.8669564599187698 38:1.4912600236521736 39:2.2439470034328624 40:2.077048329586713 41:0.88192053530632253 42:-0.66265079224977586 43:-0.61980631998983848 44:-2.1957454345313816 45:-2.687610550829965 46:1.1743583534564743 47:1.7571121322953511 48:-0.0065993432475516256 49:-0.63698270526200096 50:-2.0889783326111919 51:-1.2205437209732659 52:-0.57992824164957157 53:0.24083903673863755 54:1.4653535891576257 55:-0.19540931584573276 56:0.8378005461193283 57:-0.14366760593395442 58:0.66891565049623092 59:-0.71926936500499217 60:-0.70311477512653675 61:-0.6039956039087927 62:-0.38155879317397812 63:-0.21186139366649295 64:1.1815644936906886 65:0.022299962598944546 66:0.83000541975106301 67:1.2548941388391033 68:1.3738193915079608 69:1.2700798879434223 70:0.72183785157777203 71:0.73736199559373294 72:0.23885515254234016 73:0.369644903270407 74:-0.23165286745642205 75:-1.0730885858001944 76:-1.3632741312161327 77:-1.3279894422827909 78:-0.071299448028899912 79:0.81164981845555628 80:2.0398887071624134 81:2.5921175892950519 82:-1.4295157540962682 83:-1.782262738789169 84:-0.19490709332058118 85:0.025748967945698614 86:-0.10874044977371927 87:1.2608612030542219 88:1.3010813132194665 89:0.67771960736296866 90:0.61633533357459303 91:2.0182533144432138 92:-0.91144562893752068 93:0.46573394301055721 94:0.67337445379609362 95:1.7628429620464634 96:1.6871987088849527 97:0.98722578507156922 98:1.1621055717456019 99:0.74224764226457784 100:1.2980794700292682 101:-0.70288999668818741 102:-0.52394884348485626 103:-1.0607614448317884 104:0.142620561096654 105:0.59398814109724374 106:-0.69852411560428729 107:-0.38634416535016608 108:0.8063413134958255 109:-0.45666806554683431 110:0.092150277216392004 111:1.1988319641207064 112:1.7010129206525668 113:0.50925879297954146 114:0.725370409096873 115:1.1906736084815039 116:1.1779748565990482 117:0.81228511106858781 118:-0.50408667193329371 119:1.7357671146477918 120:1.4196614248895645 121:0.52545546635861351 122:0.69469828855562898 123:-0.12849729235462232 124:0.59378217844083336 125:-0.040679814141062365 126:-1.44339087933961 127:1.8338922433228446 128:0.35300269789347483 129:0.4012061721535603 130:-0.41603600875394614 131:0.53977611478482024 132:-0.35172039210792189 133:-0.33819053877496424 134:1.1966842568333178 135:1.0605129024768809 136:0.97609390661465034 137:2.6895062034493655 138:0.32782686629031721 139:0.73499470579939641 140:0.31491973925173566 141:0.70384845542822427 142:-0.55431876790441503 143:-1.5253215228032202 144:-0.85527312695716962 
