SVM-light Version V6.02
0 # kernel type
3 # kernel parameter -d 
1 # kernel parameter -g 
1 # kernel parameter -s 
1 # kernel parameter -r 
様様様様様様様様様様様様様様様様様様様様様様様様様様様様# kernel parameter -u 
144 # highest feature index 
11913 # number of training documents 
73 # number of support vectors plus 1 
7.7078317 # threshold b, each following line is a SV (starting with alpha*y)
1:2.1065402603614767 2:1.5446332513564904 3:1.2864916443684944 4:0.70435804433285165 5:-0.25742755633563463 6:-0.21660674070320732 7:-0.52091335208533018 8:-0.47728090872316953 9:-0.5632064358222526 10:0.7911219526277149 11:-0.0086415341476930585 12:-0.9312266426286725 13:-1.020507795063446 14:-0.94345449428855155 15:-0.59510945437843943 16:-0.10030045392353114 17:0.48037806367261587 18:1.1198999736572866 19:-0.11914770196358643 20:-0.46350214683147001 21:-0.43702610647451723 22:-0.039397159376222637 23:0.65327378541088521 24:1.2621186938210067 25:0.6725580081361795 26:0.85153363102443169 27:0.35766987204789891 28:0.71033336806677361 29:-0.28364651042745159 30:-0.26876951868790921 31:-0.37934871581290508 32:-0.2975033869890375 33:-0.23800141729140495 34:-0.45049249122242319 35:0.62508011180732881 36:0.26387603854166075 37:0.85364944331654324 38:-0.3730350286273893 39:-1.042620356939483 40:-0.99240745518050111 41:-0.73993450258199078 42:-0.34133752357770653 43:0.30418062856259354 44:0.63736399288114542 45:1.4212116598855851 46:-0.064573414982342925 47:-0.032838351442118913 48:-0.28795549119442432 49:-0.38008434612483677 50:0.72753781303871878 51:1.069188299815534 52:0.91361303931963289 53:1.4809990909516317 54:0.23747178942909103 55:0.81503456401012275 56:0.071232847112884523 57:0.034068363607460531 58:-0.081908914538460373 59:-0.17196806355098621 60:-0.3086453655885153 61:-0.5354739624589322 62:0.24586172594930489 63:0.54009740156104236 64:0.39017111370453439 65:0.74340448733958908 66:1.3088173526596376 67:0.74599445474520831 68:-0.05258488336033959 69:-0.55349015406414748 70:-0.64071916043723165 71:-0.38655607748718301 72:0.0049756750440808073 73:-0.58463042903181617 74:-0.19221626266450098 75:-0.57032923487537313 76:-0.49094774490671567 77:0.83535653861894921 78:1.3711464863360689 79:1.0521771026798696 80:1.041540896936582 81:-0.42631479705478015 82:-1.0382395883466591 83:-0.71775659932313507 84:-0.47585524408331031 85:0.19176569657538167 86:1.6829377088817221 87:1.3253394335571529 88:0.68754881482562757 89:0.24004867045630557 90:-0.45383392685062846 91:0.71400840119568298 92:1.0486064352756235 93:0.78157817389899664 94:0.30481575355978202 95:-0.3793090195951902 96:-0.33566777497415323 97:-0.63134139069007378 98:-0.76297091181060617 99:0.32362887504767512 100:1.1063722104785039 101:0.33926752275241168 102:-0.56412570914198457 103:-0.17558916631550037 104:-0.35096415743594223 105:0.35578810219657048 106:0.28907521845814022 107:0.43779689163936775 108:0.87654869939403046 109:-0.62152864332780833 110:-0.51427680573365642 111:-0.2462158985393339 112:0.47440680690420228 113:1.4379428693595568 114:1.3231867650448226 115:0.58819183118588225 116:-0.21611323878234281 117:-0.44014435176920524 118:-0.11256675938019531 119:0.18629908819422142 120:1.1615020767622148 121:1.1288237719195786 122:0.11784457187775543 123:1.1572749674212672 124:-0.20471811133528964 125:-0.28965463844136885 126:-0.12814336609824797 127:0.98286859960958217 128:0.30883369496752083 129:-0.66967033714186097 130:-0.31477729140755661 131:-0.71661862043833935 132:0.33316037120653669 133:0.34062759141254362 134:0.50277219505966131 135:0.28720851399868041 136:0.87702091168470353 137:0.92946612055814437 138:1.0557620790596696 139:0.75145964464742998 140:-0.26111889619778844 141:-0.54840249095218396 142:-0.53055940961719261 143:-0.20230758626671003 144:0.18580579716682633 
