SVM-light Version V6.02
0 # kernel type
3 # kernel parameter -d 
1 # kernel parameter -g 
1 # kernel parameter -s 
1 # kernel parameter -r 
様様様様様様様様様様様様様様様様様様様様様様様様様様様様# kernel parameter -u 
144 # highest feature index 
11913 # number of training documents 
214 # number of support vectors plus 1 
16.617195 # threshold b, each following line is a SV (starting with alpha*y)
1:0.00049930346031834549 2:2.05238299106635 3:3.0986305111066716 4:2.1207508640109585 5:0.42778139888108896 6:2.9252521601453787 7:2.126644386722703 8:4.2901486402480398 9:1.8505977986402853 10:1.8004145705995731 11:-0.99815902996710371 12:-0.70506514978529355 13:0.27891102583602084 14:0.91504477054396516 15:3.3239922341824761 16:2.3022105984416976 17:3.0513891480747835 18:1.1924312596596345 19:4.3462146647985449 20:0.0077078829605233181 21:-0.48766818119103983 22:0.41032325588089097 23:-1.43980099366004 24:-0.5452270758752501 25:-1.8638005935122814 26:-0.57771350385509401 27:2.4294709337000757 28:1.1731344219447506 29:0.34705522084100898 30:-0.10129547276427656 31:-0.14961278871039788 32:-0.94754611734752692 33:0.35723106231399299 34:0.29843473738673482 35:-0.27214932024263516 36:-0.15968045379901091 37:1.3593585042419061 38:0.12622191860064133 39:-0.31714953285586867 40:0.12633918181916831 41:0.38293105542378952 42:2.0336252708507048 43:0.67397535021846633 44:1.0099727137188146 45:-0.21319433988019629 46:0.42808019125972857 47:0.64623823699940086 48:-0.57773156256269376 49:-0.49132496663783687 50:-0.79455310083867758 51:0.44239539812927159 52:-0.79303080356584221 53:-0.34647840986110462 54:1.7578463449486561 55:2.8374963439246019 56:0.50349812219575318 57:0.24393628987806565 58:-0.077073461643391447 59:-0.74338673756843399 60:0.32652300973581527 61:0.54645122676639057 62:0.3504651098046847 63:0.84279134127833277 64:0.4692342875022158 65:0.0099665509736249387 66:-0.32788114563870102 67:-0.35445231363661189 68:-1.2221363667927332 69:0.059740069961524735 70:-0.075955420382743444 71:0.29782094893076744 72:-0.28425805835491574 73:1.3703877820708801 74:0.28260157779216832 75:-0.5214879977738216 76:-0.47066990878998377 77:-0.71660657705964614 78:0.2921496308063305 79:-0.31740489950919709 80:0.035077432068284391 81:0.81410548490012102 82:0.68542985745566765 83:-0.14470675880885492 84:-0.31529819122227293 85:-0.28911486497430339 86:-1.0335311929648101 87:-0.28413592404247939 88:-0.49886239212369871 89:-0.83534777192469822 90:2.0201513348435198 91:2.1068108162125947 92:0.28234009554394746 93:-0.19323928683684818 94:-0.23221285162221958 95:-1.022713462225415 96:0.092247942777319847 97:-0.08148748501704868 98:0.27433508334726264 99:0.45312822109302364 100:0.78778980799682974 101:0.022293288025696426 102:-0.084438600181824572 103:-0.17549354899333153 104:-1.1340736780423648 105:0.0079312015234957543 106:-0.2312572450457421 107:0.12590537530572227 108:0.88453331566444193 109:2.2767475825872103 110:0.047086963238659053 111:-0.42177218031940245 112:-0.25402950225259624 113:-0.93040191213207224 114:-0.33407681714870374 115:-0.6305438688987216 116:-0.9429139204200282 117:2.1058944663652799 118:1.5936304821587721 119:-0.50659731126748697 120:-1.007099400146281 121:-0.028592669307588435 122:-0.48721765500918418 123:-0.19985484286672772 124:0.0083314184331247636 125:1.2677305544227933 126:1.7199164775143052 127:2.698799654756562 128:-0.42653719229481923 129:-0.25552693203688653 130:-0.23698517862192223 131:-1.0901223346110085 132:0.0099430021811854463 133:-0.25397275561708105 134:0.46216728643639765 135:1.2097536606376023 136:1.8446993533044787 137:1.3186719732935808 138:-0.15259156396881199 139:-0.12968501163035615 140:-0.43214847955298402 141:0.69110340129448466 142:1.5992544129930244 143:0.98566248616665353 144:1.8061892519745175 
