SVM-light Version V6.02
0 # kernel type
3 # kernel parameter -d 
1 # kernel parameter -g 
1 # kernel parameter -s 
1 # kernel parameter -r 
様様様様様様様様様様様様様様様様様様様様様様様様様様様様# kernel parameter -u 
144 # highest feature index 
11913 # number of training documents 
100 # number of support vectors plus 1 
9.1670787 # threshold b, each following line is a SV (starting with alpha*y)
1:0.9894080904782383 2:-1.0242362933070335 3:-0.79887765051733628 4:0.2207178061060748 5:1.7258693140830057 6:-0.85824732043843754 7:0.083392265742994992 8:0.50305769132368949 9:2.1646773636255161 10:0.69848048262407769 11:1.4873014350866043 12:0.11686345598580311 13:0.42681540930011613 14:-0.42768052577038035 15:-0.065891991777081244 16:0.55836287197268519 17:-0.70460644667685868 18:1.1633258836242275 19:-0.37324311149923989 20:-0.19262871262902262 21:0.45444856046329207 22:1.9561034633896095 23:2.4332621466706299 24:-2.1619372246563318 25:-1.612974564826922 26:-1.8857928498910288 27:-2.0051958137609875 28:-1.0029723482903188 29:0.2801122796449636 30:-1.2515082090417828 31:-0.3866068216453053 32:-0.10001568055848488 33:2.4331506633117677 34:2.2836848183284193 35:1.3150399658812968 36:1.1789047528135577 37:-0.076292794252951851 38:1.3568027822128161 39:0.18688961624184061 40:-0.083472662065171774 41:-0.60429663256772215 42:0.59546302030754561 43:0.49843386671459805 44:-0.57727717251351029 45:0.4179420700285667 46:-1.4057824389103013 47:-1.5027193072784657 48:-0.69351837669949612 49:0.34890533540892599 50:2.2760401255786959 51:1.1555375603765674 52:0.095540912475105363 53:1.4291094714446984 54:0.61981303224866291 55:-1.7348689607345265 56:-0.12224752734745689 57:-1.059693214343113 58:-0.33567961177021266 59:-0.16257825449352792 60:1.8927380331790209 61:2.3468208675650852 62:1.3393142753242047 63:1.2114726773669757 64:0.57820053925137327 65:-0.33073647792266647 66:1.1170518957392592 67:-0.46098890428239198 68:-0.11070377261400675 69:-0.61806908319470788 70:1.157989421538705 71:0.55940434911457559 72:0.62662843207936891 73:-2.2322997819711889 74:-0.50165197743864254 75:-0.029561931853505748 76:0.62106857153287953 77:2.1235803992631479 78:1.1628120456660389 79:0.77644105360177373 80:1.1333413949976512 81:-0.73305005909671062 82:0.86449713433958553 83:0.91201187021022612 84:1.0466876050808138 85:0.62565335089038765 86:0.77840515320891168 87:0.66628837379530903 88:0.86852083861774354 89:0.41532091292703266 90:-1.2017517996818621 91:1.1175245184608698 92:-0.87519959890670118 93:0.89926399792002221 94:-0.7936035016084062 95:-0.35857080154793702 96:-0.18111422846597183 97:-0.17083876886410321 98:-0.93172955247113887 99:2.0020635475413755 100:1.7584958008366902 101:-0.069554539691776579 102:0.25404518663083925 103:-1.3462620166257171 104:-1.5739980675303664 105:-0.96911411215205379 106:-0.68311572348144733 107:-1.0232240112209481 108:0.56379148637642817 109:-0.67416968645258246 110:0.82717832888144349 111:0.9028407033605601 112:0.91254470698820267 113:1.1433692355711853 114:0.0064427811610126718 115:-0.34901313222435187 116:0.036189722531733998 117:-1.6612022197398479 118:-0.15684527323801642 119:1.6058017970355565 120:1.6519725107353895 121:0.49680635856906086 122:-0.23283297433697098 123:0.45599613885054663 124:0.24291920551528171 125:0.94876857898423483 126:-1.3626608387138828 127:1.7931210485422175 128:0.12706737756124556 129:-0.43132673255357851 130:-0.54035181211522132 131:-1.0670955442759547 132:-0.96378656667305163 133:-0.71089364523011156 134:0.0010262675345923647 135:0.76919318687849469 136:1.0739633268459885 137:1.97894300566265 138:1.2041632002218041 139:1.3486496208043841 140:0.81220348015879751 141:1.5259693687740212 142:2.0793150618056075 143:1.7344191480414111 144:0.81612801125115242 
