SVM-light Version V6.02
0 # kernel type
3 # kernel parameter -d 
1 # kernel parameter -g 
1 # kernel parameter -s 
1 # kernel parameter -r 
様様様様様様様様様様様様様様様様様様様様様様様様様様様様# kernel parameter -u 
144 # highest feature index 
1400 # number of training documents 
48 # number of support vectors plus 1 
1.4604511 # threshold b, each following line is a SV (starting with alpha*y)
1:0.12947211612867515 2:-1.210388773314711 3:-0.81941036769904341 4:-0.8429836793739558 5:2.1806850796142858 6:0.14159940195437315 7:-0.23268765751047221 8:0.36522612090700252 9:2.6606069420732612 10:0.95712026120058336 11:0.31006318800015564 12:0.25971908488603002 13:0.064678273665153108 14:0.33263817440754817 15:-0.19034250503438044 16:1.2991243036732312 17:0.96580910355357219 18:2.0501171582940172 19:-0.92952996408626831 20:0.71685068322851775 21:-0.45357331950836544 22:-0.37873961483192625 23:1.0861929097548253 24:-0.068585670824707345 25:-3.5753348736693473 26:-2.8580512596211354 27:-1.7152131930071262 28:0.046557089841334526 29:0.29218415457090796 30:-0.044824126479925175 31:0.76002542867572365 32:1.4138329281978645 33:-0.33721831455568652 34:-0.08595628626528018 35:0.18501016295361206 36:0.83091655251063334 37:-0.48527728001144022 38:-0.35477272490540412 39:-0.021948964063253473 40:-0.026359941205929244 41:0.171333629545729 42:-0.45265330810696458 43:0.37297585733510746 44:-0.31258351036785881 45:0.44991337774308937 46:0.15244635149695579 47:-0.95778480582431269 48:-0.33107133034731151 49:-0.3677764634293707 50:1.3665912818002051 51:0.5136375467127049 52:0.29307484197144673 53:-0.38017529281591866 54:0.86741785642521763 55:-0.36612877567150237 56:-0.34049849154885958 57:-0.33291920121514063 58:-0.24394686743221763 59:-0.65668803764887695 60:0.32898407609546931 61:-1.7841255539854801 62:0.11619084152725934 63:0.83566646437326297 64:1.7943448765474852 65:-0.13473397442957796 66:0.59841610114748867 67:-0.42664383035727443 68:-0.64375867344849913 69:1.1310617004230283 70:-1.2859687422444113 71:-0.6136988405209387 72:1.0586660145755742 73:-0.35332467580517701 74:-0.71933167671849541 75:0.0100338392962524 76:-0.057509659973088545 77:2.0836462007116086 78:0.63714223960994432 79:0.34662285051379504 80:-0.55716082405409717 81:-1.4179888236455869 82:-0.75156511181785146 83:-0.15097536505463338 84:0.83104531013742755 85:0.97899094707274359 86:3.0275337134786993 87:0.16868695135581224 88:0.030551879420054884 89:0.72088849704179647 90:-0.87512837630063789 91:0.71953055994533421 92:-0.31129106280905561 93:0.64559839182097423 94:-0.28516540921169609 95:-1.0104672748863277 96:0.54858041562653448 97:-2.2368399771137293 98:-0.44054885122294923 99:0.28304520500945618 100:-0.098456478411631299 101:-0.64012555375841762 102:0.31009451035882374 103:1.3326039539318375 104:-0.58286808191475858 105:-0.25139822782029198 106:0.11007810132336426 107:-0.64717227213330464 108:0.20958156129857308 109:-1.6918366264648732 110:-0.1939051832103903 111:0.93562112089688954 112:0.7393843882182497 113:1.872840981943217 114:-1.1082320472424325 115:-0.3633353656766582 116:0.78299383238415454 117:-0.94046406335914812 118:0.085599018108877711 119:0.49847299600397038 120:0.82043512608863867 121:0.28164983709823399 122:0.72089658336991458 123:-0.58876151837897861 124:-0.93393425939483232 125:-0.021549839699087192 126:-0.37969936366017054 127:-0.047982212262987156 128:-0.38545232893678011 129:0.49276031548513238 130:1.2346422131629777 131:-1.1423943666363736 132:-0.93958390514807499 133:-0.61533794477241044 134:-0.24382753830726667 135:0.96712087275215508 136:2.4818039639310081 137:0.60661821078643385 138:-0.67899272358159257 139:-0.87095094598483902 140:-1.1056347852050024 141:0.64330369276735355 142:1.3323398549984946 143:0.40446286833207223 144:1.0204988121614709 
