SVM-light Version V6.02
0 # kernel type
3 # kernel parameter -d 
1 # kernel parameter -g 
1 # kernel parameter -s 
1 # kernel parameter -r 
様様様様様様様様様様様様様様様様様様様様様様様様様様様様# kernel parameter -u 
144 # highest feature index 
18912 # number of training documents 
103 # number of support vectors plus 1 
16.008629 # threshold b, each following line is a SV (starting with alpha*y)
1:2.5805143866878875 2:2.1497359584898583 3:0.56843066576182733 4:0.099687641351343087 5:-0.13551164177751257 6:-0.23297709308853226 7:0.5253369864232984 8:-2.0255753680480657 9:0.64134656339957596 10:2.2080364977722358 11:1.6987010609428785 12:-0.34235669361319743 13:-0.0017855016567526125 14:0.35076071430520633 15:0.090466994475652845 16:1.1667977890363883 17:-0.76179997041958702 18:1.2077298507909191 19:-0.3309874981338532 20:-2.5977473203151211 21:0.53937885150013554 22:0.69945670224851375 23:0.37647243633983551 24:-0.66696812351651591 25:-0.33868510203417779 26:1.9398803538439418 27:3.39359851863377 28:1.2082058460830329 29:-1.9489607676587175 30:-0.31986700344591984 31:-0.86970443762672034 32:-0.77182626070897964 33:-0.57590602723811801 34:0.19852481001578676 35:1.3110586175457883 36:0.31508048381912968 37:2.0689443765907765 38:1.1417835650793966 39:-0.42492461382109736 40:0.11539483761568864 41:0.46865521926036291 42:0.17096231005273624 43:0.8411323615895121 44:-0.81048251994492815 45:0.58565789780429456 46:1.6568608981294539 47:1.4610328629572371 48:-0.2466738170216527 49:0.17578562149448651 50:0.087808806985132881 51:0.64219350383075258 52:0.17615414500432672 53:-0.80687264095928302 54:0.54521384892086389 55:-0.0019403528200028219 56:-2.0900639777181453 57:-0.45211509941082845 58:-0.82945600365257288 59:-0.87462039969842331 60:-0.28171856088325159 61:0.47385877253507303 62:0.61808875118525641 63:1.4140615071509712 64:1.3194040064248593 65:-1.3792188207818268 66:0.44589714831100086 67:0.4519583408084159 68:0.10126479375614543 69:0.4405130481915504 70:0.4414505887518399 71:2.6314618191521926 72:1.7020270478486252 73:2.6109048654529348 74:0.72835522563093991 75:-0.15386616079400972 76:0.54012865652491293 77:0.64906757728947773 78:1.1209398852236752 79:0.29161520606589175 80:-0.96975277274557947 81:0.98375883172266332 82:0.69309519876735448 83:0.53275612545430917 84:-0.15474099577333328 85:0.70439236534570493 86:1.3076166081933798 87:1.398705799799532 88:0.74181832224547162 89:-0.85018184396703123 90:-0.042773037181843998 91:0.22266546635367823 92:-1.1726794694041773 93:0.69572799871241864 94:0.7319577368825414 95:0.44286840095368762 96:0.78395307925000823 97:-0.067609120985397786 98:1.588213679304471 99:1.9647570146459941 100:1.4246344715383474 101:0.15148191128754218 102:0.65760761204816653 103:1.5314815954008472 104:-0.17814447550823803 105:0.21478485052196578 106:-0.25416248558900889 107:1.0879346336160465 108:1.5791549655572461 109:0.6982892427287366 110:1.315878169288788 111:-0.48212251051038246 112:0.76978901401566568 113:0.53883316937938242 114:1.3266195339208882 115:0.65159861917023998 116:0.010393757164845627 117:0.35499310220062752 118:1.7037998725404906 119:4.5788606238019387 120:3.2512204908421971 121:2.815393890315276 122:-0.29864084398471269 123:0.62461935346981934 124:0.09837361956466395 125:1.1334615662820644 126:-0.53942104911708366 127:1.1035518611334809 128:-0.59315333757776534 129:-0.28049902538689997 130:1.1820414425897099 131:-0.048991154068048437 132:0.23720074120317702 133:0.24243798009052869 134:0.57691388572626989 135:1.4825397079245377 136:0.54484244434927953 137:-1.3020575899102216 138:-1.0971520456090418 139:0.62432602246973912 140:-0.059505901105668113 141:1.9441303931502378 142:3.2192814635138083 143:2.268295285553616 144:2.3125226216900483 
