SVM-light Version V6.02
0 # kernel type
3 # kernel parameter -d 
1 # kernel parameter -g 
1 # kernel parameter -s 
1 # kernel parameter -r 
様様様様様様様様様様様様様様様様様様様様様様様様様様様様# kernel parameter -u 
144 # highest feature index 
18912 # number of training documents 
340 # number of support vectors plus 1 
7.1073632 # threshold b, each following line is a SV (starting with alpha*y)
1:1.6694800753352463 2:-0.77980916375409948 3:-1.5172543389264244 4:-1.1869047642216508 5:-1.4320355176243025 6:-1.3369309201155213 7:-0.75751100326553933 8:-0.56580520650199551 9:0.67455145408843298 10:0.5270873843672893 11:0.7762681027988827 12:0.0582381323598095 13:0.046434833238681743 14:0.072176686833823681 15:0.024330520410069098 16:-0.044693581014547686 17:-0.61417200529180771 18:0.1193384804885938 19:2.0427156027353601 20:1.0449034412712856 21:0.27874601294571144 22:-0.204975695690471 23:-0.72689756004253481 24:-1.5776624787996369 25:-2.5738738980416693 26:-3.6103045539674214 27:2.3395541469726977 28:-0.18151776897752073 29:-0.12826533515646693 30:0.027258263590939063 31:0.04552829536081518 32:0.062976423947979671 33:0.079465488522503375 34:-0.047596796782072549 35:0.69710377002865564 36:0.9290229158241976 37:1.07715738999104 38:0.52898999478647835 39:0.063694181179357837 40:0.041551467955053246 41:0.044252925397093974 42:0.025838972940917609 43:-0.048199780700196537 44:-0.56561145171329064 45:-0.26731642360427571 46:0.38959980222430757 47:0.10268784238387317 48:-0.27761571132153989 49:-0.1509466189671452 50:-0.16712938568823441 51:-0.10888217622069053 52:-0.14677227095719736 53:-0.70165912353090798 54:0.21687889353754738 55:0.047895262540956149 56:-0.28693089649239006 57:0.023980398887172467 58:0.047705005355857172 59:0.010213815470068187 60:0.073353834365108367 61:-0.018075593629873727 62:0.60655324474287242 63:1.5591321819081332 64:-0.073618711649390892 65:-0.62522212488766871 66:-0.14290710047312796 67:-0.027530611746842182 68:-0.14452246582941275 69:-0.071197710572932088 70:-0.13783737077329761 71:0.51557649416912321 72:1.1257973291823111 73:0.56990471270891019 74:-0.21002880305832647 75:-0.42807482202849817 76:-0.22897832671519078 77:-0.22961940992323707 78:-0.14749036691843359 79:-0.22217964267979609 80:-0.8798153345247498 81:0.2367553451060328 82:0.87846176794576714 83:-0.65427454078732905 84:-0.76935375762144242 85:-0.39349319748982703 86:-0.27185533077700952 87:-0.052980065976018453 88:0.17817707609081684 89:-0.11957175961636624 90:0.023060464991548256 91:0.0043799871221208075 92:-0.89500442372121169 93:-0.26483615695256296 94:-0.089080907708087978 95:-0.17229527284429788 96:-0.098444982879765427 97:-0.19347133799866731 98:0.26322632630915344 99:1.2018154776755128 100:0.090991679968225173 101:0.14006460003840465 102:-0.031270002734918811 103:0.11929999754919933 104:-0.69964815631715882 105:-0.47198121226747869 106:-0.48899886484384975 107:-0.28687425630000002 108:1.0753863863239201 109:0.35910202247669587 110:-0.4278591943044302 111:-0.64866893447430385 112:-0.3170717264675077 113:-0.1497424003799499 114:0.1870928060145276 115:0.3829328918506536 116:0.1121049960388229 117:0.32710022153456486 118:-0.71330996066131069 119:0.012926702663258243 120:0.08094681947312872 121:-0.48937163707832354 122:-0.25295330526965237 123:2.5289718326646411 124:3.1743437707092923 125:1.6499982243856202 126:-0.47763864376273668 127:0.52798597784807044 128:0.39769704021364655 129:-0.0041024089127561312 130:0.26451863271405218 131:-0.60015649370512014 132:-0.48407931771056123 133:-0.4795254996478357 134:-0.29488772577691208 135:0.88678718775831744 136:0.27503515308523052 137:2.5887355059397943 138:1.6036344422947471 139:1.1456223570170647 140:-0.26933783272206874 141:-0.52944043398267593 142:-1.2696001163676136 143:-1.0871659612508882 144:-0.028430727746189953 
