SVM-light Version V6.02
0 # kernel type
3 # kernel parameter -d 
1 # kernel parameter -g 
1 # kernel parameter -s 
1 # kernel parameter -r 
様様様様様様様様様様様様様様様様様様様様様様様様様様様様# kernel parameter -u 
144 # highest feature index 
18912 # number of training documents 
415 # number of support vectors plus 1 
16.287625 # threshold b, each following line is a SV (starting with alpha*y)
1:-0.37334544637740463 2:1.4804034509649666 3:0.29708193216462542 4:0.39613790957550754 5:-1.0252473208056769 6:0.35421856554825137 7:0.79558407980123769 8:3.8909464651063548 9:0.5870287642382026 10:0.27974526019003043 11:1.7257908783201905 12:1.4349795046706082 13:1.5288049845895286 14:0.023521836275330929 15:0.81502660657444292 16:0.74232128816548282 17:0.91971628017459217 18:0.85187773873329287 19:0.56246871374163998 20:4.5780375369415749 21:0.39995987174728387 22:0.71314511069463693 23:-0.22936363445012972 24:0.24148800163286449 25:0.24692798412435893 26:-0.91293831557717253 27:3.480204495066209 28:-0.20449287952894474 29:0.023213755607417369 30:-0.19286890542773519 31:0.80529023186985682 32:0.11444161397756775 33:0.52253966072312552 34:0.94403941624936161 35:0.80060766569845065 36:1.2303876483845384 37:0.11769559056254872 38:2.2717464594906756 39:1.8203270410563686 40:1.5907844546276104 41:0.21788574484446313 42:1.01000067807295 43:1.1313308724368019 44:0.63760314468890444 45:0.78024592970391293 46:1.7821376150887487 47:0.18377833840093943 48:0.56140390188921163 49:0.18396515431213592 50:-0.0076821741663191476 51:0.50729007492366573 52:0.73043845384118511 53:0.46753921546550326 54:1.4514740275075135 55:1.4796565700931232 56:0.12705514194384671 57:0.6520245317183917 58:0.91248377256030522 59:0.096499850046913041 60:0.39388075629006497 61:0.75789350915669562 62:1.0029678397491055 63:3.8573750370533628 64:0.72230009201265633 65:0.40601124414610196 66:1.5784268616825172 67:0.75728463140961577 68:0.37012199081160285 69:0.28799730824974035 70:0.13534092377283891 71:0.85697674320290662 72:0.58655440985454321 73:0.79167519000783793 74:-0.78212242107136309 75:-0.11300191637977948 76:-0.13624963888581212 77:-0.083505648663624241 78:0.3435297821921251 79:0.0061425272323427649 80:0.11908127551351125 81:2.1023962309196822 82:0.44983987387190977 83:0.19026272374225697 84:0.82254341229376193 85:0.14387929005003997 86:-0.13945853511770631 87:0.36711861692403902 88:0.24802641781806131 89:1.1948709329690261 90:0.2215708830169133 91:1.1757691740771552 92:-0.55070318768620141 93:0.52958657713952662 94:0.26699803401289152 95:0.082374332409730619 96:0.26308929254670632 97:-0.21432141712304778 98:-0.3018619081898819 99:1.7764150485974839 100:0.63599711764524325 101:1.4612904493662648 102:0.60851768173374088 103:0.31520758253329573 104:-0.1486864977249347 105:0.63237671291822817 106:0.40509457224701539 107:-0.79327437237541321 108:0.20398174276268355 109:1.327506876799285 110:0.25846465998674467 111:1.1707550960119626 112:0.28340527370947222 113:0.014168448958068694 114:0.60248012181771493 115:0.73782881335544326 116:1.6713239438127863 117:1.2098763369595311 118:1.1700812631888458 119:1.4641729647398738 120:1.2254988683499113 121:0.23927786285245117 122:0.57333323321882046 123:-0.20992967132418261 124:-1.6080821176957329 125:-3.8763479834030754 126:1.0672366420348411 127:1.9225701393130559 128:1.2767298401120857 129:0.81975223059962843 130:0.26554461014127778 131:-0.17538928764387673 132:0.49235865712978727 133:0.42398270891352857 134:-0.30647464762363863 135:1.6310135368860295 136:2.0291957570481682 137:-2.2042162990920935 138:0.32039806692989597 139:-0.15296941837818384 140:-0.01050385276432432 141:-0.17873400354164776 142:0.12982774842346306 143:1.3354387216144892 144:1.9863553471752693 
