SVM-light Version V6.02
0 # kernel type
3 # kernel parameter -d 
1 # kernel parameter -g 
1 # kernel parameter -s 
1 # kernel parameter -r 
様様様様様様様様様様様様様様様様様様様様様様様様様様様様# kernel parameter -u 
144 # highest feature index 
18912 # number of training documents 
92 # number of support vectors plus 1 
9.426016 # threshold b, each following line is a SV (starting with alpha*y)
1:0.8639516130041589 2:1.7722142422039791 3:1.8648210801031899 4:1.6140599438225101 5:1.1229249217964135 6:-0.01972838149416567 7:0.34209583546881372 8:-0.95813925337169104 9:0.1941184332213699 10:1.1891421079989128 11:0.57380062646530239 12:0.35612024487124994 13:0.16302562404359205 14:-0.47759682571344264 15:-0.49826777011051349 16:0.38843300177097828 17:0.14220784142756476 18:0.29826074432032312 19:-0.38381050588885424 20:-1.1445447229490304 21:0.052666610010548509 22:0.14866628921545083 23:0.20530563272391977 24:1.3650440682327813 25:1.8355444379134154 26:2.0114363887747921 27:0.29094914375669334 28:0.56928430591939128 29:0.056947836049831557 30:-0.2482179913245825 31:-0.3551491706970033 32:-0.98323834338507665 33:-0.24880533107462441 34:-0.30849697766807582 35:-0.2247273050967282 36:0.957835895085696 37:1.7379731062899859 38:0.21612131025861991 39:0.28521068760771306 40:0.32666189305000459 41:-0.28001281343151629 42:-0.35833115115601688 43:0.5676459699004649 44:0.1841427074395211 45:0.56378110937989101 46:-0.020675691816935848 47:-0.3161729672916031 48:0.52641775068870955 49:0.28540834128730108 50:0.45514415272558395 51:0.24016342520218875 52:0.91038955708234903 53:1.0417385231510727 54:0.094188401396103072 55:1.2500318041388701 56:0.50178208342348984 57:-0.090897905068549889 58:-0.051560519141910954 59:-0.4913088217581022 60:-0.10423684322261598 61:-0.21563815629105437 62:-0.44795875783885042 63:0.92122183096700727 64:-0.52958929350963591 65:1.7054017571382625 66:0.43658329550846009 67:0.086142487911826771 68:0.14645378875551074 69:0.010190411508719049 70:-0.26828233827937487 71:-1.1553960787198521 72:-0.76376796901471744 73:0.3065023817180168 74:-0.23449514054162512 75:0.54029691652194134 76:0.034986899896209955 77:0.37822942903363344 78:0.19787653075750011 79:0.65086475163363677 80:1.0558466160332212 81:0.56732560912598862 82:-0.32288295947915857 83:0.5701489137778506 84:0.0009937032190898698 85:0.066196373758152349 86:0.17098983472861501 87:0.29619682008840653 88:0.20184718888012398 89:-0.29032283589861307 90:-0.16841779242187993 91:0.51851675553888255 92:2.8645255091647006 93:1.1948592203220083 94:-0.27673576505969749 95:0.1075658489459404 96:-0.16758224851635778 97:-0.42695225179655172 98:-0.97828167472719185 99:-0.12285456741282674 100:1.4790603371659059 101:1.0618401653315146 102:-0.93100250340364599 103:-1.564665931707468 104:-0.37070972911845218 105:-0.32533317093941305 106:-0.01667828113613018 107:1.3583320533562131 108:0.86426941486076592 109:-0.34631789194679941 110:0.10114804022693186 111:-0.059687900286160167 112:0.19117664086007513 113:0.31501765761778355 114:0.44496568569515105 115:0.36441149974708742 116:-0.65277138225765918 117:-0.30681926526524395 118:0.84260238388943254 119:0.4600824818805741 120:0.26987374733696479 121:0.048357142044599205 122:-1.0245248636186108 123:0.26724261459859655 124:0.52072485824866266 125:0.13014529122266805 126:1.4585110572109063 127:1.0390526977366044 128:0.12255972833538326 129:-0.86298191739229879 130:-1.2953719050741903 131:-0.44960995376241147 132:-0.32516764573180296 133:0.08648336047781191 134:1.5809736465739719 135:1.8398060186395284 136:0.86820254172146605 137:-1.5449023038610388 138:-1.2408050345583042 139:-0.44585220088352784 140:-0.45493421228878528 141:0.75343627630102983 142:1.2159127170055126 143:3.3818281491243889 144:1.2505145637351154 
