SVM-light Version V6.02
0 # kernel type
3 # kernel parameter -d 
1 # kernel parameter -g 
1 # kernel parameter -s 
1 # kernel parameter -r 
様様様様様様様様様様様様様様様様様様様様様様様様様様様様# kernel parameter -u 
144 # highest feature index 
18912 # number of training documents 
128 # number of support vectors plus 1 
4.9181656 # threshold b, each following line is a SV (starting with alpha*y)
1:-1.1094552165770872 2:0.64979365129822775 3:0.90904041460571294 4:0.57465876135936245 5:0.39948442814671259 6:0.15732592208033255 7:-0.53848366113241053 8:1.9539346055562108 9:0.38163920223118569 10:-0.80315930252108758 11:-0.10695432646323484 12:0.24786650214053865 13:0.45914679416572513 14:0.38490688038282794 15:0.12359431403374474 16:-0.60597729306749715 17:1.5648458126851608 18:0.14652340888973159 19:1.218219979873685 20:1.7940959200353999 21:0.21179335692260612 22:-0.47843427361047353 23:-0.63368810037761958 24:-0.20693373510777202 25:-0.29590066868763809 26:-0.3406735767160658 27:-1.4330316846273674 28:0.62226316948153171 29:1.1231489289205592 30:-0.51146598004161181 31:-0.12443360055482937 32:-0.29885053515319632 33:-0.010057479169687234 34:-0.4382560243555938 35:-0.7310064580236475 36:-1.7610751414702743 37:-0.59605879076538826 38:-0.5306416112067357 39:0.15559647901900597 40:0.24661260381968628 41:0.19662938897533805 42:0.0099590862571593587 43:-0.35349429750353534 44:1.3030293465448799 45:0.14408271599783098 46:0.60642584037842384 47:-0.10996026670406667 48:-0.55004057573182719 49:-0.47819687957011919 50:-0.43694969169570791 51:-0.55232517451962249 52:-0.5029241880639802 53:0.55411634297549872 54:0.30842845870674773 55:0.14168455369241154 56:1.515824744326824 57:-0.057726221309311973 58:-0.0083232060633796415 59:-0.16349735387488934 60:-0.033149707030657297 61:-0.32795539628102688 62:-0.583931816663112 63:-2.0015430980544866 64:-0.23304115825468771 65:0.49777476683915112 66:-0.29746267304194485 67:-0.36310792735384195 68:-0.23829546626047476 69:-0.3102131130530939 70:-0.18671242491844534 71:-0.056998422773987978 72:0.40575992630145596 73:1.226250285591123 74:-0.2003268625754116 75:-0.61421477461715501 76:-0.50936089363653037 77:-0.43934258910610524 78:-0.54031331276498507 79:-0.45313489546021929 80:0.3000058744196582 81:0.24574596888765671 82:0.57855914011271281 83:-1.0469501373663019 84:-0.44663771364374172 85:-0.2535974744177778 86:-0.37989889352012685 87:-0.26650423553179708 88:-0.15756394857127351 89:-0.63162608667706799 90:0.061333621937797178 91:-0.49042719469525509 92:0.63491289927003736 93:-0.41926708825225562 94:-0.40130390443018837 95:-0.210726127523514 96:-0.28980762388881259 97:-0.096380846307193388 98:0.0065849301175792442 99:0.25024268690793344 100:0.46742947912306759 101:-0.33622753371316211 102:-0.24591085543523941 103:-0.15370286676027492 104:-0.25795227463497583 105:-0.2022193461276833 106:0.024508370012020303 107:-0.65813855147705591 108:0.76752755563995612 109:0.71654085298917236 110:-1.251186677817018 111:-0.3358294341697462 112:-0.19899123495387316 113:-0.33533593922920091 114:-0.23197848003344429 115:-0.11504711597706754 116:-0.64071254443415515 117:0.22911174173133689 118:0.47205550064239188 119:-0.69401731532693811 120:-0.28034585564410275 121:0.0050558407782256513 122:-0.025204935772680633 123:0.14533774900247498 124:0.41147258899582501 125:0.38888824862136218 126:0.95985584739270169 127:0.80625924404886096 128:-0.27562799273520883 129:-0.11147921546341405 130:-0.077866163372510067 131:-0.23973601585129947 132:-0.17937186296495711 133:0.0017772099801221897 134:-0.98348880238417458 135:0.95999144397729197 136:0.95318611138522669 137:0.85023167603325611 138:0.7559124868853051 139:0.83353896406306027 140:-0.11000755652713551 141:-0.37112106979573423 142:-0.59008179818062412 143:-1.4594673955329605 144:0.33517154645951375 
