SVM-light Version V6.02
0 # kernel type
3 # kernel parameter -d 
1 # kernel parameter -g 
1 # kernel parameter -s 
1 # kernel parameter -r 
様様様様様様様様様様様様様様様様様様様様様様様様様様様様# kernel parameter -u 
144 # highest feature index 
18912 # number of training documents 
97 # number of support vectors plus 1 
11.284745 # threshold b, each following line is a SV (starting with alpha*y)
1:3.1254568421881777 2:2.257517493064805 3:0.59020189934609701 4:-0.87523145823263293 5:-3.115589389902504 6:-0.28691926005011592 7:1.3010758068983359 8:2.9477269084861986 9:3.3346128629748195 10:-0.079040855330612406 11:0.78048985344343635 12:1.0594886721230004 13:0.53058594343233345 14:0.057798640057946896 15:1.3134449873966989 16:1.3374904252580504 17:0.065065755431384931 18:1.1939824061047193 19:0.75214641473209587 20:-0.67988710726308477 21:-0.29057668811464032 22:-0.46227239709241169 23:-0.33469908727387931 24:-2.4323643239020765 25:-1.1999324637179072 26:-2.7258794066237826 27:-0.97851966538994761 28:1.6491200857097497 29:-0.21004504977835337 30:0.9752783743277107 31:0.40076860214979554 32:-2.0346347519392918 33:-0.53751564026174425 34:0.50733621966353815 35:0.12252291076289572 36:0.73352754965987566 37:0.88498964846001982 38:1.2694191583991401 39:1.2284296882424015 40:1.0274941488417382 41:0.49537224008633768 42:1.4345492148265764 43:0.99859000170865864 44:-0.20127124401057017 45:1.7295070543072906 46:0.15171249841073414 47:0.51910393129867938 48:-0.02129321878137521 49:-0.16303994698571714 50:-1.0772953010553157 51:0.24888420625374899 52:0.019284978869762222 53:0.79186386840208878 54:1.6638422675479871 55:-0.1650024540953326 56:-1.0917990301741947 57:1.2093100464174997 58:0.35704415928712657 59:-0.93842449075021361 60:-0.089168235906401466 61:0.12571755947969737 62:0.13387872265243669 63:-1.0589522058755647 64:1.9873231781916363 65:-0.87777266905856977 66:0.58459051977601451 67:0.76418409146018407 68:0.26858174805866564 69:0.047045893893109592 70:-0.62510322787545158 71:-0.25747553981981142 72:1.1732090871849805 73:0.57679235102258308 74:0.36280102472853271 75:-0.55123583793083819 76:-0.039510902415804884 77:-1.8379963814744409 78:-0.40505370239634791 79:-0.40591262828037022 80:-0.13726724403835361 81:1.1338710179140985 82:0.89092709916086055 83:0.68174073292803072 84:-1.7253129897135808 85:0.039369414838446144 86:0.71621655402475726 87:1.1273187354590872 88:0.67263264642402254 89:0.075570194771717086 90:1.9010368415048844 91:0.69864711084296227 92:-0.46585182066185588 93:0.32126147882872108 94:0.85417756981949733 95:-0.21456978984347308 96:-0.24166518262340311 97:-0.80812762583856268 98:-1.5245386060595292 99:-0.50052857717784516 100:0.079425053748621133 101:-1.3356987189460949 102:-0.71622892931632054 103:-0.2214810826521677 104:0.20268954847490911 105:0.83818971718520507 106:0.29987659141795592 107:-1.8983843987297013 108:0.048547374921119678 109:1.1263853628248317 110:1.0790021090412831 111:-1.271841410148171 112:-0.92200023747558946 113:0.62309370101613626 114:-0.75162655200555495 115:-0.15461444715156647 116:-0.0858810905369638 117:0.58648050505589411 118:1.8170135268133434 119:-3.2029485447867159 120:-1.8686323545269548 121:-0.56959659899580906 122:2.0166561058491634 123:2.6413038772136224 124:-0.58236354870557649 125:-0.4206122666171086 126:-0.20506896332479355 127:0.78193416489096113 128:-0.62378419732287049 129:-1.2457771855688315 130:-1.7218087760656586 131:2.1057647088128912 132:1.464241015398495 133:0.31800459207699233 134:-0.37252326822106574 135:0.65823762733426672 136:-1.9747850877044415 137:-0.46337901730813791 138:-0.60922956208124235 139:1.2181945306021009 140:2.9146960097645995 141:3.3317207234778761 142:3.1998257975850932 143:2.818543172249687 144:0.20293120433601683 
