SVM-light Version V6.02
0 # kernel type
3 # kernel parameter -d 
1 # kernel parameter -g 
1 # kernel parameter -s 
1 # kernel parameter -r 
様様様様様様様様様様様様様様様様様様様様様様様様様様様様# kernel parameter -u 
144 # highest feature index 
18912 # number of training documents 
63 # number of support vectors plus 1 
5.5102967 # threshold b, each following line is a SV (starting with alpha*y)
1:0.80761372246744367 2:1.698174764241754 3:0.77411624748801144 4:0.48530047934769066 5:-0.2940686810985878 6:-0.146363260938498 7:-0.45655199762101062 8:-0.55744807305305499 9:-0.91015641192194641 10:1.2963163421711834 11:0.75819781988414792 12:-0.36605369362577012 13:-0.51270428600128692 14:-0.2487522891957733 15:0.13291864597557349 16:0.55653451402214249 17:1.0797837239884092 18:0.25174501690008499 19:0.0043291653858617898 20:0.12015155111060564 21:0.047038302656517664 22:1.2705709774951608 23:0.85500944829992698 24:0.43857202213402802 25:0.38447492257018906 26:1.0370149038516094 27:-0.11098893014964542 28:-0.45366496664485595 29:-0.0089603797105347639 30:0.056408243386003386 31:0.51694199353148074 32:0.26359833376134212 33:0.59957388245945764 34:0.068672558141927534 35:0.4794906720120522 36:0.15752613685259381 37:0.50140466782282977 38:0.36623978436842675 39:-0.46686500184234514 40:-0.68421046752670323 41:-0.39807440567100794 42:0.49324289844905506 43:0.55470097449808897 44:1.306424157903751 45:0.84960515111324253 46:-1.4568043235551755 47:-0.85497782440104331 48:-0.95461872993184649 49:-0.74148794631432047 50:0.25132380218928596 51:0.49213094983826638 52:1.4860278779761937 53:0.11611935878042394 54:0.44420816911028532 55:-0.8605708443038651 56:-0.2392205102234988 57:0.043256989357304612 58:0.28251514799387495 59:-0.10680644610138233 60:0.74518462779525707 61:0.50844677355867152 62:0.17197624507785642 63:-0.081910303511672944 64:-0.40573769031473583 65:-0.14109774335420527 66:-0.33395265692891357 67:-0.693314721330895 68:-0.35988171046469319 69:0.036737372515212516 70:0.042301513059107974 71:0.50560490023103644 72:0.2007716745699496 73:-1.5548306666284712 74:-0.62153052344715742 75:-0.4783972649790727 76:-0.4265449280135542 77:0.39161209565002286 78:0.4202760991798018 79:1.6054559839304017 80:-0.27859826383704178 81:-0.21953645910477787 82:-0.49350754238995259 83:0.22933836736881494 84:0.44002164438371416 85:0.37296066156926155 86:0.17819870716512551 87:0.24744991482760539 88:1.0054502282860669 89:0.30768105597250772 90:-0.82569860173545973 91:-0.27914986406239117 92:0.090684555892900184 93:-0.081215365526838709 94:-0.58010879761621004 95:-0.38887517805618532 96:-0.059775441029557203 97:0.45883807008641508 98:0.74913744488957135 99:0.73145624545175136 100:0.44189583109102326 101:-0.02108591884227027 102:0.17985265090855712 103:0.01244754660822711 104:-0.57130295612647986 105:-0.57829034296679716 106:-0.17377131022615219 107:0.50444266704109975 108:1.145946984059877 109:0.018456951243237419 110:0.41584087940226711 111:0.55589393136067611 112:0.64259924526836987 113:0.64417543947544298 114:0.50418678357635272 115:0.87218756977151124 116:0.85536188282054026 117:-0.41889228944440143 118:0.34870202441091908 119:0.15679500054130752 120:-0.009542886035687554 121:-0.055967554770286074 122:0.44199557341928775 123:0.23797546939893011 124:0.11997261609444763 125:0.13055057942332485 126:-0.16628359331085701 127:0.74952890446701992 128:0.19693605102943343 129:0.4976126140426505 130:0.42974211836941134 131:-0.14874776178111365 132:-0.65148185932652758 133:-0.10498573004906663 134:0.20118607680710171 135:0.99070565960675327 136:-0.15233087401431103 137:0.80422692931768025 138:1.0852276560444811 139:0.5944773291763219 140:0.95374749630820799 141:-0.044504823803228476 142:-0.76284614028403597 143:-1.1782578817981488 144:-0.30113587817909915 
