SVM-light Version V6.02
0 # kernel type
3 # kernel parameter -d 
1 # kernel parameter -g 
1 # kernel parameter -s 
1 # kernel parameter -r 
様様様様様様様様様様様様様様様様様様様様様様様様様様様様# kernel parameter -u 
144 # highest feature index 
18912 # number of training documents 
172 # number of support vectors plus 1 
9.8949491 # threshold b, each following line is a SV (starting with alpha*y)
1:1.331905324144909 2:0.29980345199685077 3:0.17559451394830936 4:0.12837878996621407 5:1.0020621115651074 6:-0.38332453078839229 7:-0.31999391908279423 8:-0.062635437733650212 9:0.40857200054306281 10:1.1040136670444558 11:0.70708825263539898 12:-0.20927892001762172 13:0.081234960120401462 14:0.69529649334653276 15:0.61458376346928334 16:0.32044389312847543 17:0.52063835267205372 18:1.1999661281676215 19:-0.72693241327473934 20:-0.04608434738683212 21:1.303619505915615 22:1.7256740923751566 23:2.3044893874318242 24:0.5792351617098136 25:-1.248053496802368 26:-1.7620593586967608 27:-1.6599851769979426 28:-0.28165029021382093 29:-0.57586643692649042 30:0.13490816335264691 31:0.76836535769872238 32:0.9057010627290506 33:1.0196539301374918 34:1.0014294579201399 35:0.58898431465441614 36:0.013019521497153602 37:0.41655588059714294 38:0.73423433016842454 39:0.059795845592878018 40:-0.025671768834373745 41:0.57775060271626932 42:0.94513407884882494 43:0.5410690244529115 44:0.97587750367815762 45:0.80220570510852507 46:0.3976014705834594 47:-0.22473456007388901 48:0.19344926619431793 49:0.2923654877139687 50:0.56832682122611833 51:0.27881337615381729 52:0.37027427143848557 53:0.44947807525342326 54:0.2646641248611773 55:-0.10912331491490483 56:-0.52857547360190194 57:0.035994061118172847 58:0.47872772675668379 59:1.0402674323996151 60:1.2931272662504347 61:1.2164323703074591 62:1.0461167054838998 63:0.54965021992533025 64:0.41619858597291259 65:-0.10128935010913268 66:0.094436780132400255 67:0.11971569619777792 68:0.89343789854162037 69:1.2155918131803225 70:0.73409365861582854 71:1.1103758884696093 72:0.66999830746102973 73:0.96932289796887638 74:0.067874230357748352 75:0.86898579254936081 76:1.0112272918072849 77:0.65498359272692819 78:0.27469552898366806 79:0.032776631701545191 80:0.14970525536872595 81:1.3550543105901689 82:0.53296539268286791 83:-0.17788698267051303 84:0.32323841764186584 85:-0.33901125503198515 86:0.036161783731584698 87:0.17367116400316063 88:-0.33877950941601831 89:-0.52831120237411322 90:0.54325986813296179 91:0.24981744683944948 92:0.30671737102441637 93:0.83248628354345511 94:1.0537755127739181 95:0.99285113047107865 96:0.91870726812052961 97:0.1978285919404352 98:0.44344951778443098 99:0.095166680038973703 100:-0.35523112828321257 101:0.27051073832840017 102:0.065668759510310162 103:0.2667397000357174 104:-0.091416488878100902 105:0.17020919347929669 106:0.066308435080535078 107:-0.11492962209568371 108:-0.41897431514565048 109:1.4966823959853435 110:0.38487188672696659 111:0.45563928979980156 112:0.011354019054564606 113:0.54716889226258592 114:0.47402694198804157 115:-0.23288952155971196 116:-0.0028549341330275828 117:1.4548143370977096 118:1.4451847450749273 119:2.06380863354376 120:1.7059058303553991 121:0.64262183110956328 122:-1.5984580194312092 123:-0.79412793999714015 124:-1.13963590591949 125:0.28044512279297784 126:1.5576688437025914 127:-0.005333180176852333 128:0.40094109952662343 129:0.26199554608827286 130:0.27871410604567137 131:0.062162120399620886 132:0.39674814898174354 133:0.17756877820692951 134:0.084233805056320873 135:0.43360402393822495 136:0.19096261413324825 137:-1.0541984514528091 138:-0.69013025924049232 139:-1.1316923173687732 140:-1.3666373154390925 141:-2.2055210945078518 142:-1.3748857819233118 143:-0.86877828342995755 144:0.11970406742551425 
