SVM-light Version V6.02
0 # kernel type
3 # kernel parameter -d 
1 # kernel parameter -g 
1 # kernel parameter -s 
1 # kernel parameter -r 
様様様様様様様様様様様様様様様様様様様様様様様様様様様様# kernel parameter -u 
144 # highest feature index 
18912 # number of training documents 
360 # number of support vectors plus 1 
10.220866 # threshold b, each following line is a SV (starting with alpha*y)
1:-0.50103100089055952 2:-1.4718933111353953 3:-0.57529387240810748 4:-0.04989026417150564 5:-0.67146226001194387 6:-0.0097910867346976977 7:-0.23810528148537302 8:3.1625879506039918 9:1.4972235543343817 10:-0.85027551770203669 11:-0.41320830797365471 12:-0.12038756000066757 13:0.062442404571190782 14:-0.22344973112452338 15:0.34556764928267247 16:0.14591290576536733 17:0.71271818405228449 18:0.40028784544884749 19:2.0839696409432475 20:-2.3791942385849723 21:-0.29178096947300669 22:0.59199771807282486 23:-0.36383903046321719 24:-0.5232019414180259 25:-1.1835487481676954 26:0.15236331667956982 27:2.337579304478802 28:1.5539192014312562 29:-0.085022012539458056 30:1.1484611198237769 31:0.37369712679375677 32:-0.06725770299967461 33:0.19988935802503147 34:-0.55213712402634452 35:1.1566115419667113 36:0.74453655499903171 37:0.37208185538933669 38:0.34040258392995709 39:0.043534762355916939 40:0.044801807696088727 41:0.0034400963183708342 42:0.3463342155168635 43:0.33655657873420458 44:1.0520295184715658 45:-0.048427201679021543 46:0.041340934188317711 47:-0.21164169066175331 48:-0.085444598705240363 49:0.089250922077710043 50:-0.14544163699663384 51:0.25793695760962071 52:-0.17188517609429341 53:-0.038737995169522067 54:-1.1803752628771953 55:2.1869042561382162 56:1.8180061865700787 57:1.5166373736786407 58:0.46076250266467017 59:0.29985128934810851 60:0.46029135673748156 61:-0.12620196906133802 62:1.0215305995788422 63:1.2405296897891012 64:1.1472400711984239 65:0.43438999602496664 66:-0.30187675333606695 67:-0.016396302293284769 68:-0.34572764520085947 69:-0.10519757422431536 70:-0.23513993023914889 71:-0.30782882523709804 72:0.49532455881484994 73:0.32878619805704457 74:-0.38232629463996587 75:0.052154455417912735 76:0.19856404712040343 77:-0.020892477159697758 78:0.49110553517572419 79:0.20756524075789343 80:1.0318593937576523 81:-1.923302152338451 82:1.9082067627180048 83:0.14037512391568027 84:0.23385319482935046 85:0.2788174749246457 86:0.19512881596786694 87:0.42073125008296852 88:0.37400471707891647 89:2.009278756507435 90:1.3200315275880585 91:0.4920934216541914 92:-0.34379250743839357 93:-0.27298925365157511 94:0.025718837376647059 95:-0.34983257174296306 96:0.061200563141185702 97:0.1267460098814161 98:-0.21344558444227402 99:0.7525712018309183 100:1.5634291685110979 101:-0.43612306562311515 102:-0.0012629534333276253 103:-0.0072908028489085284 104:-0.70275963242668038 105:-0.11941623457761651 106:0.13780235584254771 107:1.739074988732199 108:-0.11258725840922086 109:1.0942325963309938 110:-1.2763338367604296 111:-0.67670262525400293 112:-0.39010482080493775 113:-0.39879075061140162 114:-0.40771836183824739 115:-0.60415687771364102 116:1.3264343824739631 117:0.61676150940457763 118:2.2363280715035612 119:-0.12414136583497168 120:-0.72721403396773598 121:-0.53136905911884047 122:-0.49683471016180619 123:-0.46635893072267454 124:-1.1026641333700216 125:1.7315279359624636 126:1.1557226562785003 127:0.74062222422636625 128:-0.78417866407206749 129:-0.34750757538282728 130:-0.23130615714962716 131:-0.93763926688206334 132:-0.61259757846665086 133:-0.43907627034426033 134:1.2637280571713752 135:-0.0953665667333774 136:-0.21196544381636201 137:0.051400246565971655 138:-0.061888719489308491 139:1.1519591753130656 140:1.6421607788479708 141:2.0024626568005552 142:1.553234761232936 143:2.648065583866209 144:-0.57881714311892252 
