SVM-light Version V6.02
0 # kernel type
3 # kernel parameter -d 
1 # kernel parameter -g 
1 # kernel parameter -s 
1 # kernel parameter -r 
様様様様様様様様様様様様様様様様様様様様様様様様様様様様# kernel parameter -u 
144 # highest feature index 
18912 # number of training documents 
33 # number of support vectors plus 1 
3.0842112 # threshold b, each following line is a SV (starting with alpha*y)
1:-1.1598364742181748 2:-0.14892466692402256 3:-0.0083425387196702019 4:0.30872220476919165 5:1.3947819627741169 6:1.548547881410399 7:0.51701945271865424 8:0.13641900547557786 9:-0.50141913500105462 10:-0.024470844905893463 11:1.1998485891183508 12:0.25611697250989135 13:-0.20306055659672256 14:-0.088749957741517921 15:0.14454874318942312 16:-0.046518373010282631 17:-0.37904777698220393 18:-0.31621698753996069 19:0.30678640793058837 20:0.99749804500293371 21:-0.12388051482129661 22:-0.40997838479882021 23:0.16192358565234177 24:0.51451364474543226 25:0.7252726757557284 26:0.67270042363068805 27:0.93847643866640618 28:-0.28881215741323718 29:0.64973170872413288 30:-0.0079674740067438021 31:-0.65220251983063349 32:-0.75950892621984667 33:-0.085816269951774465 34:-0.040153986979630268 35:-0.45952761872062531 36:0.16235401589481147 37:-0.082719354843723669 38:1.0838038554608014 39:-0.28020133218311727 40:-0.33097722881493608 41:-0.30693540121911639 42:-0.059335545929597222 43:-0.14187742085161772 44:-0.45401516300756389 45:-0.6565264898765989 46:0.028162479534544926 47:0.3242745778487412 48:-0.084190195271956869 49:-0.65736160755678774 50:-0.14830164883704691 51:-0.27185539927546187 52:-0.11051133768726955 53:-0.19790880910365602 54:-0.63476826953530319 55:0.35192510824913437 56:0.44876102649179017 57:-0.47386855613671963 58:-0.56330873010855453 59:-0.70870135280152902 60:-0.1577705814999758 61:-0.15683655707984084 62:-0.38911382726975002 63:-0.15909778644496056 64:0.612619310033929 65:0.34342742540940419 66:-0.24685823721808048 67:-0.37535012804812273 68:0.13267383219309195 69:0.16354305142797221 70:-0.26604604729081888 71:-0.1961039652665921 72:-0.46253114680908503 73:-0.32530668172045174 74:0.99634245641062158 75:0.29689903834339659 76:-0.75335266350586549 77:-0.25957559022938248 78:-0.36603459865226423 79:-0.13021736874159393 80:-0.15361911672326994 81:-0.40206948976252105 82:0.46521153238652552 83:0.70408888575163475 84:0.24684720760518833 85:-0.57917142663279131 86:-0.20936716007133646 87:-0.68230107967451803 88:-0.23856138331757981 89:0.55924282176990758 90:-0.13339972009549772 91:0.25163142326747162 92:0.38646093084048661 93:-0.073180889544469857 94:-0.18783782645121061 95:0.11071663413606457 96:0.22138114865829195 97:-0.37746995207087253 98:-0.25506084159164399 99:-0.4313245151649453 100:-0.0052005777566332401 101:0.60848505925484286 102:-0.27303369850963533 103:-0.10011367336274196 104:-0.064473345947417729 105:0.12385729341417376 106:0.17703659795124577 107:0.16794738667846562 108:-0.43684930276694067 109:0.11260429725925916 110:0.51043985674129588 111:0.14896052701164378 112:-0.44307674300893413 113:-0.013449471031226266 114:-0.44930523466997374 115:-0.19397594328525841 116:0.59556439623235324 117:-0.16711466776035588 118:-0.5879385620320734 119:0.31992049865670535 120:-0.7270336001196207 121:-0.26047797342567303 122:1.1068205441671604 123:0.92554911119057437 124:0.025365810494131912 125:0.68052599075892106 126:0.52869506759249285 127:-0.29869732774386248 128:0.26786887163794204 129:-0.15725383248389135 130:-0.15883498347133421 131:0.33840452807304711 132:0.2426855628646726 133:0.29217421318250275 134:0.2404079338934153 135:-0.46420288914698543 136:-1.2821334745510222 137:-0.96527763483876217 138:-0.97646793840726587 139:0.0064046876667232661 140:1.1214636231427093 141:0.74036023836692899 142:0.12477082100505188 143:0.797397709869336 144:-0.080989668788172389 
