SVM-light Version V6.02
0 # kernel type
3 # kernel parameter -d 
1 # kernel parameter -g 
1 # kernel parameter -s 
1 # kernel parameter -r 
様様様様様様様様様様様様様様様様様様様様様様様様様様様様# kernel parameter -u 
144 # highest feature index 
18912 # number of training documents 
121 # number of support vectors plus 1 
9.1620227 # threshold b, each following line is a SV (starting with alpha*y)
1:1.504396166015763 2:1.7103317171601222 3:1.6688559753850742 4:1.7208201836864161 5:2.0755654210546757 6:1.3190172443708841 7:0.34824896503204239 8:-0.72293243255815587 9:-1.0936284448310511 10:1.9718597927738934 11:0.25625264116465124 12:1.6239113507844989 13:0.46803938007424373 14:-0.1013993935738236 15:-0.10059711490181365 16:-0.36219649813920768 17:-0.11131975738416225 18:1.6268772289618731 19:-2.388178534228063 20:-3.0655565805415597 21:-1.2487332815088517 22:-0.39882150370839481 23:0.49663781797730355 24:1.838273052675877 25:3.0415031076674999 26:4.9216535127809076 27:1.7833387227627451 28:1.7898366295197079 29:0.22276122744842825 30:-0.43043460836884123 31:-0.43473577817776571 32:-0.81613034502332726 33:-1.2180082254044458 34:0.30143160943238673 35:1.2071682438463343 36:1.0816981546506952 37:0.084258450023539766 38:-0.19911175062277892 39:0.49797102805052035 40:-0.2051898933722863 41:-0.65588242972386779 42:-0.34807941998484576 43:-0.62966039349362224 44:-0.6169495666740058 45:1.1051583513488992 46:0.51008272459082449 47:-0.084339407969571303 48:-0.88566629561630705 49:-1.0712887050657305 50:-1.465140893153325 51:-0.66920490449839676 52:-1.0194056976082182 53:-0.44610551518221508 54:0.51743607511918954 55:2.0468356103024057 56:-0.69642962112742546 57:-0.90441877189741504 58:-0.89264193315366358 59:-1.7624364949829117 60:-1.7422075479821275 61:-0.43910220189279436 62:0.38563264070087305 63:1.5066995767363711 64:0.40133036044909853 65:-0.65649101825288259 66:-1.1803612171318145 67:-0.49826595909032878 68:-1.1515785589658758 69:-0.63209915408176287 70:-0.74432941029837829 71:0.36125664544438174 72:0.41563987571951228 73:0.5009920655010387 74:-0.084475591595890048 75:-0.86792304828534683 76:-0.94887145445729104 77:-1.3081933799229679 78:-0.57453903305487863 79:-0.98017457071604497 80:-0.38230313121336473 81:0.73179044465247201 82:0.23892972718764574 83:-1.2882396220693539 84:-0.65620851601158747 85:0.058085355817897186 86:1.2893779695969625 87:0.85314038782458068 88:-0.18926510479937161 89:-0.59187391657826871 90:0.7086458131530845 91:0.90391951517923719 92:-0.17444783106362799 93:-0.95361067786981912 94:-0.33973036774896159 95:-1.0687878019850567 96:-0.60957894705223181 97:-0.92320371901357257 98:0.016872587979943812 99:0.8275098171880777 100:0.70333525628050486 101:0.25225906710350388 102:-1.2786353949565055 103:-1.4092590285724165 104:-0.81770314503816299 105:-0.356846816842325 106:-1.2792722871543809 107:-1.7311770975155965 108:0.73665069201474576 109:0.073172677331527131 110:-0.56078019007668023 111:-0.032706745260398712 112:0.083749693020085295 113:0.55220957120861092 114:0.6736201603028229 115:0.28298898384599469 116:-0.10616026415738614 117:1.0095430992223702 118:1.0058312432841434 119:-0.20812541585330563 120:0.63599072388782174 121:2.1572212446448322 122:1.8357261513167724 123:-1.9351119573867215 124:-2.7492000598693012 125:-1.3366288596810116 126:-0.88256068486935979 127:1.2177179488079153 128:1.3365095260122386 129:0.22433179505689047 130:-0.78456848224614917 131:0.15670228369253883 132:-0.062647213928035364 133:-0.67150509291092086 134:-1.0296917819978688 135:1.3027028170205244 136:-0.82014366285553886 137:1.0313850393399739 138:1.9849870843031303 139:0.60224305928942046 140:0.9350508398849291 141:0.0006194234567071038 142:-0.20430974285303291 143:-0.98600749965313994 144:-1.2497149851156406 
