SVM-light Version V6.02
0 # kernel type
3 # kernel parameter -d 
1 # kernel parameter -g 
1 # kernel parameter -s 
1 # kernel parameter -r 
様様様様様様様様様様様様様様様様様様様様様様様様様様様様# kernel parameter -u 
144 # highest feature index 
18912 # number of training documents 
126 # number of support vectors plus 1 
10.387014 # threshold b, each following line is a SV (starting with alpha*y)
1:1.4636177101508656 2:-0.75600545254231899 3:-0.56221695446797459 4:1.0545378388064752 5:2.2868631498041134 6:3.0652891405652385 7:3.1543723754473096 8:1.3660779345120517 9:1.6228263844934243 10:0.16983313891374008 11:-0.27518206699827291 12:-0.98790718506997754 13:-0.85298129741298689 14:-0.9387677115998474 15:0.34309892734880137 16:1.1558069612379482 17:-0.23729496440165476 18:0.046007069136136607 19:0.34559423098162834 20:1.821967761277222 21:3.7149693532244412 22:2.9880680835616182 23:2.2758602336862466 24:0.40224210994005455 25:-0.8734946447695342 26:-1.435287966636569 27:0.18887494605173366 28:1.0965588995604272 29:-0.82177262517672445 30:0.83259895220216495 31:0.83897813567576041 32:-0.41679279691217747 33:-0.46496776266258516 34:-0.61481772992261186 35:-1.3425512866708846 36:1.5906952829265089 37:1.1334125705346676 38:-0.17132945559456034 39:-0.78417925376944631 40:-0.6973849967177923 41:-0.75346603250493738 42:-0.042306379345067813 43:0.54977676954479249 44:-0.29075537975721077 45:0.99234945801753605 46:-0.045318240767530535 47:0.19651688525621744 48:-0.293296968788337 49:-0.23553333269086785 50:-0.78524147522431165 51:-0.41408528456573979 52:-0.63062359404969537 53:-0.56556398971609012 54:0.42935644443152032 55:0.68314393919344174 56:-1.3898487032193774 57:-0.34479544635363546 58:-0.03645758836621233 59:-0.47975001372948362 60:-0.28308817500880973 61:-0.29844735708739567 62:-0.72002659848370942 63:1.3287914740587901 64:0.8170255698771316 65:-0.64251843741480819 66:-0.39757079543270335 67:-0.32224312713563885 68:-0.51757816340304963 69:-0.070241613928596222 70:-0.18166328444973504 71:-0.29943411901353789 72:-0.036559671140922609 73:0.31176455545803672 74:0.10698976288647327 75:-0.20414232461441201 76:-0.15234420657581574 77:-0.60821311585595028 78:-0.30985294742762259 79:-0.56336141623676084 80:-0.23380620967744742 81:0.8613548597310533 82:-0.069115107530521733 83:-0.44549275281389389 84:-0.4136735737912714 85:-0.2206467318731016 86:-0.6370187126247232 87:-0.36936627275725031 88:-0.85574705306382137 89:-0.9992934246164098 90:0.94711624560891339 91:1.2803141883308449 92:-0.35888751771886995 93:-0.17863657643497335 94:-0.17945088137502738 95:-0.45628838718696563 96:-0.080085836780701622 97:-0.21454717462059214 98:-0.37898466096782013 99:0.5283670187840771 100:0.61045841038703885 101:-1.1388802870493371 102:-0.40161196368027796 103:-0.27940743808924479 104:-0.67294893463422611 105:-0.21084963899167825 106:-0.30163591654643901 107:-0.32238175696755433 108:0.3400326589107131 109:0.84342773986073405 110:-0.53806494326753296 111:-0.53430956528760276 112:-0.2849727224885632 113:-0.68923776053512675 114:-0.42190371820805422 115:-0.84903786078422794 116:-0.78527471761401013 117:1.1222733514645677 118:0.99373524613568287 119:0.63091568416610178 120:0.2201895305607349 121:-0.28830729001968486 122:-0.53641378229575665 123:0.1431887523900727 124:0.2006790175541823 125:2.2687169454135638 126:2.354443116300815 127:1.39374771600559 128:-1.2962270620870311 129:-0.58807461159504937 130:-0.36387298995644896 131:-0.72872729045007201 132:-0.24291553889133743 133:-0.26402964085587172 134:-0.059632420553739615 135:0.54050225554968645 136:0.99199361031513333 137:0.35945642232973263 138:-0.079712307240737759 139:-0.15047580772787689 140:0.14987635205215422 141:0.32506484521019441 142:0.27976054141454704 143:-0.12234823378726849 144:1.4407342610546368 
