SVM-light Version V6.02
0 # kernel type
3 # kernel parameter -d 
1 # kernel parameter -g 
1 # kernel parameter -s 
1 # kernel parameter -r 
様様様様様様様様様様様様様様様様様様様様様様様様様様様様# kernel parameter -u 
144 # highest feature index 
18912 # number of training documents 
92 # number of support vectors plus 1 
8.9708523 # threshold b, each following line is a SV (starting with alpha*y)
1:0.077930928254429738 2:-0.18077001420945182 3:0.80801671038526024 4:0.26427992765417108 5:0.71753647256004194 6:1.2358372027480211 7:0.17455200822646288 8:-0.2877330039849394 9:0.26085288792457961 10:0.23166056769724064 11:-0.2453155777212547 12:-0.15926438424850037 13:0.53184173726243111 14:0.016693845103288675 15:0.036293630034242401 16:0.39002549536425996 17:0.36985765679236704 18:0.21551226623068509 19:0.42238586872679101 20:-0.11380878079429012 21:-0.11694417517005595 22:-1.1391752141542346 23:-0.26743222377216996 24:0.79357626405140258 25:2.3680160941235568 26:2.2828480283593731 27:1.2393854178323012 28:1.6122375377682407 29:1.474726680798172 30:1.0790612624786688 31:-0.054263720226150322 32:-0.79537478714795684 33:-0.70006160758411895 34:-0.062967345530038896 35:0.32117097891803725 36:1.0207683336417188 37:0.065941820877586807 38:-0.32255335054921425 39:-0.5012270889044963 40:0.29346711883137744 41:-0.020566552780939995 42:-0.15413101530267773 43:0.43693320566320892 44:0.33135431872124987 45:0.27482292601681968 46:0.72242436331383308 47:-0.27184206596003913 48:-0.56425647801011325 49:0.15458869028593475 50:-0.12926395021259718 51:0.55326151417850999 52:0.75579781760467268 53:0.68013679162352103 54:-0.077491985310567169 55:1.2982033087053602 56:1.4913291097114263 57:1.2035858652393425 58:0.44633160786331361 59:-0.56736489393377243 60:-1.1775573117093123 61:-0.21034229747869604 62:0.0002994336908331563 63:0.86773223756245754 64:0.11347884636161801 65:0.58152718390794278 66:0.66779354100885624 67:1.2046444873234472 68:0.89318497456561075 69:-0.73754817921060145 70:-0.46748513784276924 71:-0.33708316642785224 72:0.10788520329133422 73:1.0822237076825791 74:0.092862086595791898 75:0.034636800407950918 76:0.5549231855573703 77:0.15662700454245868 78:0.34500256068353441 79:0.34874874595182925 80:0.58169612287078121 81:0.89668439773301378 82:0.77569712670149493 83:0.4084403560504512 84:0.059975848241357474 85:0.27975103578679195 86:-0.42065823914678552 87:-0.26066763560845085 88:-0.28311993088335302 89:0.14811036524691676 90:1.1869657250544288 91:-0.36534968410760732 92:0.23134710892635557 93:1.1165083589343539 94:2.2327024278023271 95:0.93503400459365504 96:-0.54005343781634119 97:-0.36604463101678031 98:-0.43355680363637944 99:0.051627199052116102 100:-0.86335796931853337 101:0.17273496934983759 102:0.65248233506226017 103:1.6276906146939039 104:0.13541141487776701 105:-0.19208450645552916 106:-0.11327075542009715 107:-0.8362296452093092 108:-0.80646069293870737 109:1.9434555460178287 110:1.235428688821842 111:0.34810574056454696 112:0.092666211565114884 113:-0.12830836246635438 114:-0.34447811049110527 115:-0.30195464886675766 116:0.75211741689588607 117:1.8957497012564455 118:0.90890128958594063 119:1.2240503090197514 120:0.18492656934278104 121:-0.20576672425833178 122:-0.018480068439095339 123:-0.21960300303213334 124:-0.67276584515514004 125:0.63437649324380052 126:1.364943700697989 127:-0.18515887362164274 128:0.78270418761219118 129:1.5333339542505904 130:1.9050990647910404 131:0.41089437160233888 132:0.096511838717784001 133:0.025640393861278719 134:-0.56957593136043194 135:-0.80959160850016243 136:0.15105087870351097 137:-0.77529476303750255 138:-1.0771434361233381 139:-0.55138257564291016 140:0.12778880069495191 141:-0.17561869515378883 142:-0.7170375694550527 143:-1.5342965362586514 144:-0.59449737724658369 
