SVM-light Version V6.02
0 # kernel type
3 # kernel parameter -d 
1 # kernel parameter -g 
1 # kernel parameter -s 
1 # kernel parameter -r 
様様様様様様様様様様様様様様様様様様様様様様様様様様様様# kernel parameter -u 
144 # highest feature index 
18912 # number of training documents 
293 # number of support vectors plus 1 
13.313472 # threshold b, each following line is a SV (starting with alpha*y)
1:1.3849309963078582 2:-1.3309643532548074 3:-0.72480090411983167 4:-0.52973960026259492 5:-0.51054611598665856 6:-0.39505119666097305 7:-0.24062284054552685 8:-0.62131952158342563 9:1.4763467609959864 10:1.9247684138605043 11:-0.088978074874622504 12:-0.0019808575348460398 13:-0.25905478810811206 14:0.028127673267073248 15:0.46533620203641807 16:0.82714280699295761 17:1.3896283421821556 18:0.91674361822501649 19:1.6323843034070478 20:1.3893327723026772 21:-0.93820141673716984 22:-0.13676965391546883 23:-0.27929059605393791 24:-0.086961869848829906 25:-0.43480060722473013 26:-0.11848497857824537 27:1.1377487482198037 28:0.57973810855738439 29:2.3939947113972391 30:0.006399885849660043 31:-0.033434086416166228 32:-0.30058518125424283 33:0.23318391804043032 34:0.29396990145170498 35:0.15904456636053896 36:1.8083721616676436 37:0.52304525924800316 38:-0.0025506338353077488 39:0.11089332946369033 40:-0.13889278400423286 41:0.31742839150428681 42:0.55452279902181512 43:0.82737411575418329 44:0.41677202012005943 45:1.8767052293399873 46:-0.014910057052650192 47:-0.41127324556202371 48:-0.066149823556878193 49:0.13659229168531339 50:0.59213221455662246 51:0.67719088784406911 52:0.6737188674733392 53:1.0064589737454586 54:2.3822333909823001 55:2.0959609958439631 56:1.0428275269596212 57:-0.016251012241717346 58:-0.031651498706988003 59:-0.012478897786634097 60:0.27546575477169027 61:0.35244935548139372 62:-0.044619580014766902 63:0.3192555414551001 64:1.9908973458501258 65:0.88845178869363006 66:0.24173793308913599 67:0.099201097331706123 68:-0.090462218145899789 69:0.16993162140929927 70:-0.044355447744212143 71:-1.0264903840409034 72:-0.13416176302372235 73:-1.1815483881832931 74:-0.12785459866657747 75:-0.20968751530899776 76:-0.095294813712065149 77:0.33903577715759242 78:0.36367209689932917 79:0.51445943991898502 80:1.4681743775401466 81:2.234995819757815 82:-0.89991088288771548 83:-0.074947950922934686 84:0.17471852418090214 85:0.13345836116958343 86:0.33097573505202804 87:0.14779529010327586 88:-0.094038320388790758 89:1.0604395212683912 90:2.343399861591315 91:2.2885716339484761 92:1.9588849205125729 93:0.37156301039918899 94:-0.016277973477131374 95:-0.23162326194705149 96:0.016587831946952576 97:-0.14282289909447832 98:-1.1433582874871246 99:-1.2969706993990842 100:1.9946846050813751 101:1.5269316890827378 102:-0.038836053839735381 103:0.10502616619050981 104:-0.18022122451028372 105:-0.0027696223812589708 106:-0.17265895616506832 107:-1.3858315300658601 108:-0.50390351499766195 109:-0.61690530327415993 110:0.043365334075941196 111:0.28088320839922903 112:0.027679591909027867 113:0.031000622588468217 114:-0.20374548995210479 115:-0.53507270292486386 116:0.41593229364395812 117:1.4786606845781851 118:0.46474520727961971 119:0.55675093292336542 120:0.66332362065800532 121:0.41425313531860963 122:0.32693370085207119 123:0.80081803883936231 124:0.18639146955033947 125:2.1024964406955196 126:3.3789271763691695 127:1.6603265624996846 128:0.20837097099983204 129:-0.62073255767875879 130:-0.14714532309747377 131:-0.26123585234140562 132:-0.13094331875867088 133:-0.1090067942847107 134:-0.93965296872423587 135:-0.9822977545026641 136:1.6817407963210944 137:1.8022985850517808 138:-0.43937231739603633 139:-0.42828269259527535 140:0.51937296829392587 141:0.15577477268305048 142:-0.63219594425384751 143:-1.6691424322487036 144:0.49165844960843719 
