SVM-light Version V6.02
0 # kernel type
3 # kernel parameter -d 
1 # kernel parameter -g 
1 # kernel parameter -s 
1 # kernel parameter -r 
様様様様様様様様様様様様様様様様様様様様様様様様様様様様# kernel parameter -u 
144 # highest feature index 
18912 # number of training documents 
171 # number of support vectors plus 1 
13.570968 # threshold b, each following line is a SV (starting with alpha*y)
1:1.6675292601790681 2:-0.4215269628347087 3:-1.5000378440468685 4:-1.0815959616939441 5:-0.53446054915123842 6:-0.58495122020468504 7:-0.77806918985737095 8:-2.0045802831613382 9:1.8222196237918313 10:1.7194828010567218 11:0.29823302070324909 12:-0.30053550737489221 13:0.52743896759329356 14:0.99011453569890684 15:0.74447180487036302 16:-0.0052479468587474645 17:0.27689512391939691 18:0.66396189611161271 19:1.42671828802971 20:-0.38596905261243342 21:0.0011053204018345879 22:-1.0182568104059768 23:-0.57841820618673134 24:-1.5764476712686242 25:-1.2233463016403265 26:-0.09085750940929628 27:2.2257389251024704 28:0.8001544983311184 29:0.80796755901360329 30:0.85882970370887146 31:0.29578962820921406 32:0.37503290657422134 33:-0.082658543268869095 34:-0.74285866960065228 35:-0.80715020320857311 36:1.2488071256002164 37:0.67146003610943639 38:-0.47935853411354917 39:-0.53623098212975207 40:0.42100420592879745 41:1.1445611415994887 42:0.64631436665439401 43:0.34946767291641129 44:0.86764066133193396 45:-0.22419411969793743 46:0.49148507718416423 47:2.1384142002927757 48:1.8649850283925085 49:2.0674017555937443 50:1.5664627202720751 51:0.77409049075236602 52:0.93366645453384356 53:2.0041966494448977 54:1.4016686829259346 55:-0.54473240962808223 56:0.17550591895465562 57:0.45899506315215333 58:0.24440359377747295 59:0.62841909612089086 60:0.11125709684778497 61:-0.62782686655141773 62:-1.5568377321302689 63:0.42151848326493779 64:0.67337030005858123 65:0.74050229548778723 66:-0.11900349328619043 67:0.6736127778770471 68:1.3599653192507823 69:1.4895799905779714 70:1.7002052519176261 71:1.5554580226861907 72:0.58173486161115473 73:2.312121959800991 74:1.7952251298740802 75:1.3774752467808742 76:1.669154044819108 77:1.3552406354953361 78:0.38703628387675942 79:0.57057926485829114 80:0.6783817299974878 81:0.41212424513163692 82:0.033786326472214023 83:1.1174388756286533 84:0.42821903870613554 85:0.23096943964911584 86:0.088289974190110448 87:-0.36259789849565238 88:-0.54268635717210323 89:-2.0356345476063797 90:0.55537567381694231 91:1.5328063357802693 92:-0.066097480755071589 93:-0.81856511572671864 94:0.23462054086432338 95:0.76916914094818167 96:0.7348615642256775 97:1.5640296015695316 98:2.1291825272837177 99:1.3547521561899734 100:0.63850857770927461 101:-0.50756796243117297 102:-1.0755681457864941 103:-0.28381168196036849 104:0.15175089174470918 105:0.41739397320259025 106:1.4544771770123455 107:1.7214733404687201 108:0.67861165146320934 109:2.2982707224275187 110:-0.47860304902530487 111:-0.51878558733773161 112:-0.44415670646633054 113:-0.45068812076235276 114:-0.63203448917411342 115:-0.6587945700843213 116:-1.586312641934656 117:1.0894240381331362 118:1.0094365617000147 119:0.4634172146350532 120:-0.77661113232786594 121:-1.4054098956670125 122:-1.4922814846899646 123:-1.3222876306661531 124:-1.3397229241252819 125:-1.4481121027732129 126:1.1768526911433057 127:2.6183329818481909 128:-0.65786825634530055 129:-1.2724352130789416 130:-0.71735309329663599 131:-0.55773315054280226 132:-0.2933013898768162 133:0.46194391501197402 134:0.37603034983275019 135:1.2785649288789076 136:1.8940088214064033 137:0.31783240089598003 138:-1.3722691517298375 139:-0.98848323755885836 140:-0.42341462392737811 141:0.11661345492933906 142:0.43894985890955829 143:-0.061849967169724088 144:1.3136130262028298 
