SVM-light Version V6.02
0 # kernel type
3 # kernel parameter -d 
1 # kernel parameter -g 
1 # kernel parameter -s 
1 # kernel parameter -r 
様様様様様様様様様様様様様様様様様様様様様様様様様様様様# kernel parameter -u 
144 # highest feature index 
18912 # number of training documents 
165 # number of support vectors plus 1 
8.5374971 # threshold b, each following line is a SV (starting with alpha*y)
1:0.36754672042761727 2:1.0746067222774711 3:0.59695954774396176 4:0.71825148407879413 5:0.58545226869661393 6:0.084211927199118075 7:0.34841959075209394 8:-0.23229795936716247 9:-1.1615158135695551 10:-0.18517936758429021 11:-0.26917096019935177 12:-0.26372107839715392 13:0.34546627313558909 14:0.20766286654363056 15:0.33019288563481503 16:0.26728550194660089 17:0.34107184903351961 18:-0.30760068066005297 19:-0.015899961179480671 20:0.16347125194057313 21:0.30067801214146256 22:1.4599538267066905 23:1.3775477012171167 24:1.5493518359779548 25:1.1929801954056467 26:1.4646911145629251 27:0.7792558779423433 28:0.37951751602338829 29:0.32063437961824204 30:0.13960809974149557 31:0.95549919002327788 32:1.3028604491327778 33:0.89998247259950725 34:0.39870777494103188 35:-0.27642902720279372 36:0.49278197981041283 37:0.98744856436251882 38:0.29909898990494921 39:-0.015090112221527924 40:0.14555156407616937 41:-0.49336140079601598 42:0.30859955524219518 43:0.26668465652413664 44:0.3868821983996017 45:1.012389638440943 46:0.74434565150842191 47:0.17517062649124715 48:-0.21533963387939409 49:-0.33272227275635524 50:-0.65406404717404676 51:0.0067324674724620528 52:-0.36269205218775002 53:0.38028600692146219 54:0.61910842551437795 55:0.23412758964997094 56:0.49467856441903296 57:0.15444382566122311 58:0.30846023873004003 59:0.2925453110821945 60:0.69347957373698288 61:0.38111691861903702 62:-0.60060187855737535 63:0.21688367488786631 64:0.030026232870471681 65:-0.5069113653998516 66:-0.80077383570190364 67:-1.3071280856587821 68:-1.1510276566131037 69:-0.68071052261761367 70:-0.72491547484327012 71:-1.4672553759962341 72:0.01156577181481161 73:1.202058786280694 74:0.42925890194327437 75:-0.28350812460138808 76:-0.18900466043743649 77:-0.49055630260243327 78:-0.025494196803833895 79:-0.30666120583958878 80:0.43727889485182775 81:1.370163172964759 82:0.94897298313647593 83:0.48680037227421691 84:-0.14466635452897864 85:-0.15640226516641084 86:-0.84081736373936911 87:-0.20624559568297962 88:-0.20979439506026448 89:0.18619119700894837 90:1.2056358125127018 91:-0.45099228600362562 92:-0.1633070864089077 93:-0.26253030283402978 94:-0.59018509650092466 95:-0.53903853748344277 96:-0.45084755562986845 97:-0.42983303851359433 98:-0.9590605701765359 99:-0.78483749660190594 100:-0.13186814463403196 101:0.098097664730853296 102:1.3980158145748425 103:2.017150431464851 104:1.1466957397613069 105:1.0413899389286698 106:0.98059430673091308 107:0.41375923306216628 108:0.18378293178534846 109:0.65583955562909646 110:-0.039128893102604312 111:-0.13869133755360391 112:0.033498568862534134 113:-0.10915272388046265 114:0.056180055025006413 115:0.23824936018158163 116:0.096944896278154447 117:-0.039089356480928289 118:-0.083472918517930719 119:0.023521150824252601 120:0.49602149993407513 121:0.13027448392482227 122:-0.40995523884896956 123:0.23692685859365603 124:2.2248590334642406 125:2.0702497778823576 126:0.9975414527810883 127:-1.139607276313886 128:-0.22233818121711046 129:1.2769695857113974 130:1.8509883357418058 131:0.97950300241793964 132:1.0903995983116743 133:0.96915023499449937 134:0.59094632179530704 135:-0.53155591173637962 136:0.27981188107322746 137:1.1833786681822782 138:1.8971338003246743 139:1.3252192023986449 140:0.81754674422838924 141:0.78348809606311287 142:0.50478456767742363 143:0.65920762248658404 144:0.46381110557268551 
