SVM-light Version V6.02
0 # kernel type
3 # kernel parameter -d 
1 # kernel parameter -g 
1 # kernel parameter -s 
1 # kernel parameter -r 
様様様様様様様様様様様様様様様様様様様様様様様様様様様様# kernel parameter -u 
144 # highest feature index 
18912 # number of training documents 
133 # number of support vectors plus 1 
9.1523457 # threshold b, each following line is a SV (starting with alpha*y)
1:-2.0132660974112628 2:0.17791253167333987 3:0.65798698304962755 4:0.82420821728738647 5:0.80072549654007441 6:0.88482414604825299 7:-0.20165462892351876 8:0.46425591064207383 9:0.52036367770633729 10:0.58738729199062645 11:-1.1982912871484497 12:0.2267292137609119 13:0.11954614416020293 14:0.20361913422863195 15:-0.35727756184675319 16:0.15375015840072492 17:3.2965887856061418 18:1.0766016980458586 19:2.3756936575108214 20:1.8955940517941805 21:-0.76240499805970674 22:0.73793880964781999 23:0.77792497848564535 24:1.0160323424921232 25:0.82018240811482568 26:-0.75616577792320827 27:-0.72657501053025486 28:-0.001462517827460097 29:2.3633616843414447 30:-0.10961549062193443 31:0.051902614379699868 32:-0.56798392989233348 33:-0.48381168765763083 34:0.043543447950459904 35:-1.4122754153684796 36:0.66366363074307344 37:-0.53798881459821102 38:-1.574435108668208 39:-0.061489667365404593 40:0.026601894374303853 41:0.0012024267059495414 42:-0.34103745984906575 43:0.024883379761984084 44:1.726759107001326 45:2.1852885877210926 46:0.58968368437768459 47:1.1873076773713456 48:-0.78864959786087163 49:-0.29225269281257871 50:-0.38228613972555819 51:0.03227530704774452 52:0.47476320831121238 53:0.22570604676854616 54:0.54776469284401574 55:0.59398344773672551 56:1.0142168650555958 57:-0.69503171574564382 58:0.031218808832691347 59:-0.7120316404780509 60:-0.64032841970841559 61:-0.13636740135086775 62:-0.80923306816036567 63:-0.76442777522751282 64:0.23084648283262243 65:1.0242858080024198 66:0.57503706443343161 67:-0.013959676078417638 68:-0.42449223037499367 69:-0.36571484145534022 70:-0.098270902073514688 71:0.42487178736915976 72:-0.0086214246829112717 73:0.49333469616838188 74:0.76985532188172856 75:-0.97422642582548424 76:-0.3963664314681995 77:-0.36925388878056986 78:0.18861872736219631 79:0.20502560989508306 80:-0.74210607843165743 81:0.055332857736501428 82:1.0538738602916307 83:2.722225914807614 84:-0.8523570161391627 85:-0.54391044818171652 86:0.11474857453594209 87:0.90325072886132673 88:0.5164501280156637 89:-0.90796070172218535 90:-0.28057641087621388 91:0.17353345043601953 92:0.065173099363779796 93:0.31704131063814278 94:-0.0812474911680231 95:-0.37391485004226155 96:-0.21467949659556196 97:-0.48223715436946968 98:0.064261307677075163 99:0.52635622454631059 100:0.24083165882391566 101:-0.91448789266837882 102:0.064465863036503701 103:-0.018612149757510132 104:-0.21831648067346626 105:0.15072782234727081 106:-0.72356470703724174 107:1.2219133639033362 108:1.4677835991663692 109:1.2795270229043596 110:3.815736167140813 111:-0.76101522693445589 112:-0.27582809081931436 113:0.43638211341521743 114:0.85683029941847233 115:0.63047556572199459 116:-0.12022582630497403 117:0.19866893812413522 118:-0.70712297354134401 119:1.623746606677736 120:0.73249467512310273 121:2.1720683666886194 122:-0.091928824761698613 123:0.14433183222490392 124:0.26055914251637846 125:-1.1146104933890362 126:-2.2644722011242289 127:0.82941303224221985 128:-0.75232590463946769 129:-0.0049114835281704461 130:0.034560030079961807 131:-0.16165149249174376 132:0.11718095049790106 133:-0.80206769791151578 134:2.6542406934556118 135:1.2648587612555415 136:-0.10390056279814264 137:-1.3729696894956391 138:-0.60929996868690306 139:-0.215174624372792 140:-0.10614436221212359 141:1.1544778417711812 142:0.75310101318697753 143:2.4135477977278628 144:1.6419350408443218 
