SVM-light Version V6.02
0 # kernel type
3 # kernel parameter -d 
1 # kernel parameter -g 
1 # kernel parameter -s 
1 # kernel parameter -r 
様様様様様様様様様様様様様様様様様様様様様様様様様様様様# kernel parameter -u 
144 # highest feature index 
18912 # number of training documents 
130 # number of support vectors plus 1 
17.766697 # threshold b, each following line is a SV (starting with alpha*y)
1:0.85850279210533786 2:0.67951027110812279 3:1.0191317408970562 4:-0.00027164118823042038 5:-0.01332006222635318 6:0.63254354421200598 7:-0.12532039817148943 8:-0.28666161180298744 9:0.3551265876662284 10:-0.075105760753162221 11:-0.047845447890907833 12:0.98409722138921962 13:1.4989156728465673 14:1.5096796554876446 15:1.5720947886944634 16:0.021673921243297589 17:0.83608605756270871 18:1.1529120720543711 19:-0.1624877502339761 20:-1.3301280773578772 21:-0.34035294842835412 22:-0.74000615967065275 23:-0.25276555355381181 24:0.27672249064921028 25:1.0244807244277729 26:2.7567911812368244 27:2.1176268254911061 28:2.4724193649330171 29:1.3059374152962646 30:0.35092091409063664 31:0.20881627601539077 32:-0.24451388935533636 33:-0.237576524572845 34:0.3669922840942601 35:1.1382198504750269 36:1.1758803706057552 37:-0.019840629819452893 38:-0.32121230183845173 39:0.75776084765685248 40:0.85143379303795585 41:1.1666053994141685 42:1.3307506199009724 43:0.21449967313668528 44:1.3220523737461676 45:0.78064824962782398 46:1.3392507048313225 47:0.78206986675544998 48:0.63994029466856883 49:0.66266474291777833 50:0.85439057242521521 51:1.588641274504222 52:1.5834423625953908 53:2.095519912288057 54:1.6389770631667462 55:1.974310768515561 56:2.2339068278828313 57:0.6233881397463179 58:0.52874844664352838 59:-0.84777350364159387 60:-0.63224901699223379 61:0.24230952578466897 62:0.84325515831226028 63:0.97938693034972069 64:0.82610091814475095 65:2.0060644543380071 66:0.75306573409847943 67:0.90691105099138891 68:0.036199517991447272 69:1.186835947379167 70:1.2088370140595059 71:0.86828843455192128 72:1.3550343516705308 73:1.4222650187101151 74:0.97196790915708098 75:0.75670091872008594 76:0.66021198700403372 77:0.81778802610922474 78:0.99388579195641191 79:1.1833417301911593 80:0.87469695552676519 81:0.61237282429597295 82:1.3242339777544267 83:2.294123964225788 84:0.93174053790494948 85:1.1139364227779636 86:-0.12992656055644533 87:-0.03352167714568377 88:-0.90129713894335706 89:-0.39465443532000788 90:1.5196871083336929 91:0.99822772213383715 92:0.67436688909372178 93:0.42909137998498625 94:0.79804918935235536 95:0.51038676039190189 96:1.6735538507731709 97:1.3802845628066174 98:1.4460331034746456 99:2.0229053722818566 100:1.3730340161619985 101:-0.061642616248368975 102:-0.078674631307352971 103:-0.31331651441492708 104:-0.92692186809974886 105:0.6969726920734749 106:0.70740643633098221 107:2.044577594385824 108:0.0076228257135984023 109:1.163878764242118 110:0.8900890713190126 111:0.55287338146950304 112:0.93685023865017825 113:-0.26515509761940914 114:-0.4381286931113697 115:-0.7092078549937747 116:0.37034282581668421 117:0.8196370682400298 118:1.2372064055716847 119:-2.6368736520215332 120:0.55285278421162254 121:1.7928494589666613 122:3.621837178961385 123:0.67618181044315406 124:1.6458320845379064 125:2.2721636334721742 126:1.3207528650991005 127:1.2874506411818665 128:0.39570863726072703 129:-0.27703567070327328 130:-0.017702436828601009 131:-1.0452576800513114 132:0.40455108449002958 133:1.0907710358024625 134:1.6506554719745568 135:-0.56625934150093293 136:-0.19107299839529213 137:3.1647210500959635 138:2.6333707932363239 139:2.4357841591090721 140:-0.75186661296106627 141:-1.1575159846101062 142:-0.66600210591799192 143:-1.9676014175400753 144:-0.093981220185160863 
