SVM-light Version V6.02
0 # kernel type
3 # kernel parameter -d 
1 # kernel parameter -g 
1 # kernel parameter -s 
1 # kernel parameter -r 
様様様様様様様様様様様様様様様様様様様様様様様様様様様様# kernel parameter -u 
144 # highest feature index 
18912 # number of training documents 
87 # number of support vectors plus 1 
16.601797 # threshold b, each following line is a SV (starting with alpha*y)
1:1.0340553948299149 2:-0.15711367295455692 3:0.55129704129479751 4:-0.096008600205231609 5:1.1521938060783499 6:0.06321180898158818 7:-0.42902311701762219 8:0.82499486859309257 9:0.060503533156154643 10:0.51051199155873106 11:1.4305865130563187 12:0.42671361336309566 13:0.89058045835088828 14:-0.89739378071667719 15:-0.03567019312054498 16:1.4789999384610599 17:1.6695710102608192 18:1.5437631912102168 19:1.6480107614471415 20:1.4602992055015482 21:1.4264334558907916 22:3.5739436949670917 23:3.7873136757919674 24:0.23554880447870152 25:0.1471101288716975 26:-1.6431285377644884 27:-1.4842321694395402 28:0.057545756883601973 29:0.025040502368948836 30:0.44729396635836438 31:1.0144339465378409 32:0.65180464405046301 33:1.6380222035377834 34:-0.12424092253774288 35:0.3573588146741713 36:1.6885291837296474 37:0.50174227583646092 38:0.45109154868807222 39:-0.20630847072168468 40:0.88650063656752742 41:0.87014558584214363 42:-0.36470112090368767 43:1.680048376298712 44:2.0283019694895459 45:-1.0423339151624598 46:1.7976065074402934 47:0.1465046826065588 48:0.29836841580326157 49:1.7030278207148317 50:2.6509973314953355 51:0.90634421945173327 52:0.85756373743345771 53:1.2309548045737468 54:1.3611203940971484 55:-0.79668991886915164 56:0.12857551127681255 57:-0.12039614329456727 58:-0.14254207177453404 59:-0.40505391231272103 60:0.7712830066958789 61:0.1286702284118808 62:0.58940815944146618 63:1.0463984728523701 64:0.84436623912270825 65:1.9948340089785814 66:1.5255586016254092 67:1.8172089069486428 68:0.90400761366242044 69:0.37078033576108149 70:1.3659155768777278 71:1.5683294455699768 72:0.49356970605388795 73:1.2813836600549315 74:0.53419473174348298 75:-0.41587401755957298 76:-0.049371600142435135 77:2.6133489312029425 78:0.27102661824572638 79:-0.48869305009652786 80:0.95344575835187184 81:2.740458793664863 82:0.94807130756059621 83:1.0681125275463437 84:2.0951964470702853 85:0.017013003582598829 86:-0.27726064361151748 87:-1.3928245310190093 88:-1.9920129667639137 89:0.89028951662032951 90:-0.37911948659574302 91:0.74378157719971338 92:1.6130966369707025 93:0.94619976474043144 94:0.70999061568244937 95:0.71768622461355935 96:0.09743719484586788 97:0.17308030023609222 98:1.0044324735486458 99:0.46329567173867092 100:0.24441782600774831 101:1.2826849589025024 102:0.84963069423029269 103:0.31468685880572922 104:-0.73592604226285685 105:-0.19657038844398844 106:-0.37819764035786269 107:-0.22038320215599505 108:0.0020355588327766183 109:-0.2036576413509299 110:1.668643486106929 111:1.7283944376601164 112:-0.82922134356262589 113:0.79938594229550741 114:0.020648601688897594 115:-0.95060197783386458 116:-0.17551433407990502 117:0.45564532752059606 118:0.03468390996994497 119:-2.688408552729709 120:-1.7303047466079797 121:0.20614335994327426 122:3.7117509396645332 123:1.254688604802209 124:2.2968970105878421 125:2.0829986607174216 126:1.0173761739601943 127:0.21331137716334281 128:0.42306177575729986 129:-0.62955592665131477 130:-0.40076148691412439 131:3.0671765162848139 132:1.7090582595710209 133:0.23574613219126095 134:0.10069367228225384 135:-0.52047163076245084 136:-1.1548542738357923 137:-0.6146836381726698 138:0.11683014796590169 139:0.76787106441618858 140:2.5208817530954146 141:3.7678845398779277 142:2.1796711619196296 143:2.2959277905919491 144:1.0325285217100393 
