SVM-light Version V6.02
0 # kernel type
3 # kernel parameter -d 
1 # kernel parameter -g 
1 # kernel parameter -s 
1 # kernel parameter -r 
様様様様様様様様様様様様様様様様様様様様様様様様様様様様# kernel parameter -u 
144 # highest feature index 
18912 # number of training documents 
208 # number of support vectors plus 1 
8.8369489 # threshold b, each following line is a SV (starting with alpha*y)
1:1.7612515879995634 2:0.85205412347886744 3:0.11978346580617846 4:-0.26209108484504423 5:-0.3187312977026675 6:0.79932005460590883 7:0.94571763442688783 8:-0.75089066591770381 9:1.1371935807866362 10:0.63111028495013011 11:1.2864928122673884 12:0.19744333060093683 13:0.25772060556313992 14:0.11782693057015334 15:0.76191494259611059 16:0.5788306940832213 17:-1.6966611130834066 18:0.29948375148341944 19:-0.088067184917914751 20:2.6137656704171524 21:1.7174467924595271 22:-0.17821140783296155 23:-0.90320847596644371 24:0.29789733087661352 25:0.16819525046800962 26:-0.20044194178131716 27:-0.93743301937463064 28:-0.1350219273191838 29:0.74277657332286662 30:1.2252333207064048 31:-0.071091645159735109 32:-0.85392304135736508 33:0.043991413875667656 34:-0.17340465674188799 35:0.7787038091977152 36:0.076310286250280648 37:0.29501338276767763 38:0.7601161497070984 39:-0.078123201797771782 40:0.023528068558650812 41:-0.1434345343855716 42:0.51887842575927245 43:0.31024523591105019 44:-1.6688235120077566 45:-0.30373906778038268 46:0.56669901996879157 47:0.43792307611614179 48:0.89341176602959793 49:0.64052554951584961 50:-0.17771751149491877 51:0.35383918650600815 52:0.35547042694547581 53:0.3184805424421277 54:0.58678871975476143 55:-0.1819370777876137 56:0.58370111682439374 57:1.2094033703091653 58:-0.077719426038108663 59:-0.65575255445564273 60:0.054128060636517226 61:-0.3136020124360116 62:0.74151726968086629 63:0.40009933249251883 64:-0.081196504139176159 65:0.19613656519921627 66:0.018824673628259975 67:0.094298232764929685 68:-0.41374568112663224 69:0.12415908842367036 70:0.074942281956282414 71:0.98384482155102404 72:0.88033747316669175 73:0.65620102788710488 74:-0.34291898230054663 75:0.73879062612634572 76:0.62296050135683678 77:-0.17042114722175272 78:0.17851316665199318 79:0.24522588046951976 80:0.64840077749122405 81:0.0088409790857890136 82:1.090798809434987 83:-1.5881548485467609 84:0.8779212415450941 85:0.57090111793897524 86:-0.09381869981921484 87:-0.069126943628877627 88:-0.15125463459026747 89:0.57835402867757502 90:1.8427522122866213 91:-0.33448618565625654 92:-0.053708979101172713 93:-0.14324044101540145 94:0.056426145011794056 95:-0.43820853049341013 96:-0.028687248146567763 97:0.21162580322672936 98:1.509630732003683 99:0.6102862423646217 100:-0.55757375320676694 101:-0.21348638035367798 102:-0.12720583125513243 103:-0.20091907492622893 104:-0.52821195537052712 105:-0.082538288264461177 106:0.93330863914196793 107:1.8407601588316904 108:0.37663389092077237 109:1.1095408355792153 110:-1.634431875313354 111:0.66356915442913256 112:0.28344294700755834 113:0.02775856703825514 114:0.12058018605176429 115:0.086508178187225435 116:0.42366915524051252 117:1.6022425427406251 118:1.3062508842648461 119:0.059924989459856082 120:0.26803535895091235 121:-0.072007656632840117 122:0.082966696023951986 123:0.34187504398894197 124:0.68285890701289764 125:-0.21450513795086204 126:0.85238631135236831 127:-0.72453532197530501 128:-0.21490505336441926 129:-0.087877233141165481 130:-0.24418659342454896 131:-0.60253123986801049 132:-0.092947536155713023 133:1.0196173918077898 134:1.9973382325764197 135:0.66393952329142469 136:-0.40823975935479601 137:-0.52429298875984609 138:-0.268824108862665 139:0.13025931074844804 140:-0.38930876123297065 141:0.40658839579575834 142:1.1216939588291917 143:2.4659222583568945 144:0.054743411832056582 
