SVM-light Version V6.02
0 # kernel type
3 # kernel parameter -d 
1 # kernel parameter -g 
1 # kernel parameter -s 
1 # kernel parameter -r 
様様様様様様様様様様様様様様様様様様様様様様様様様様様様# kernel parameter -u 
144 # highest feature index 
18912 # number of training documents 
101 # number of support vectors plus 1 
6.7801315 # threshold b, each following line is a SV (starting with alpha*y)
1:0.43489316176449966 2:0.33181342142467996 3:0.42622544130019452 4:0.24504738645819202 5:-0.023620253514708811 6:0.11627058834353621 7:0.18417140069552038 8:-0.42452590493988096 9:-0.13422929147786913 10:0.71066154444914198 11:0.32055510282229899 12:-0.041452823903309927 13:0.21301071318067805 14:-0.024144831813809154 15:-0.28611747858541037 16:-0.60386340090328139 17:-0.49652560541543517 18:0.67640646256287884 19:0.023463993750688687 20:0.57079912513602804 21:0.60212267181270784 22:0.16634635813033025 23:0.11529303006444977 24:0.48429129172513752 25:-0.13196475852625272 26:0.0083200096871313828 27:-0.26278259402900339 28:-0.38254612403402932 29:-0.25229875273228053 30:0.6369751797207549 31:0.86230687979188136 32:0.68991896754412729 33:1.1098985968377462 34:0.47316455728018342 35:-0.41308148923362686 36:-0.84391596479316267 37:0.72090188571849489 38:-0.025961718840397413 39:-0.20418794864768397 40:-0.022712283978706685 41:-0.40015604014960854 42:-0.68204974441851707 43:-0.75726326405413436 44:-0.4671776369903794 45:0.71583847883068252 46:0.76657229968185658 47:0.062277252771234547 48:0.099217922113122109 49:0.062178806488105913 50:-0.30134960816270978 51:-0.86486921984451459 52:-0.67151670630928395 53:0.30703931749828001 54:0.74491187583098994 55:-1.0499091511242593 56:-0.60556743296777327 57:0.26780444914165336 58:0.64943246018944434 59:0.67337768334027981 60:0.5907998303603248 61:0.43687526807560739 62:-0.14292483026099403 63:-1.0928767974897364 64:0.70135813984916762 65:0.34176540987143228 66:0.63564103097308344 67:1.3335605893403986 68:1.338816315978272 69:1.0039215914991904 70:0.80711941302186641 71:1.4423989511825357 72:0.93602524678285204 73:0.64590239126176874 74:-0.27913385667870316 75:-0.13779960062522681 76:-0.14138413888095094 77:-0.39881567901023507 78:-0.80944297460982939 79:-0.62888593750267885 80:0.027384865828453016 81:0.65652993801772541 82:0.48269494983802624 83:0.072904736807517412 84:-0.34251213656196028 85:-0.22741918814337847 86:-0.35915386890952983 87:-0.039182154602675663 88:-0.21595353971769621 89:0.027495981800138306 90:0.029389557592138016 91:0.58663801066897536 92:-0.050691044811779107 93:0.028133594477281962 94:0.53924510251021363 95:0.60887594962938552 96:0.31209721914176297 97:0.28940151118739948 98:0.65640092145306617 99:1.0067014633343994 100:0.96144834702891768 101:0.09730592885860033 102:-0.62363388104253514 103:-0.72924932750762539 104:-0.70731336981775816 105:-0.41251403320163388 106:-0.44637805610675579 107:0.50657322056555831 108:1.276339901109288 109:0.83935962842390155 110:0.27333880249100573 111:-0.17986853180560344 112:-0.1423325779455093 113:-0.20489807551082401 114:0.24183147453782361 115:-0.048960708995676366 116:0.26215584859264673 117:0.28983988292993995 118:-0.50628654147555319 119:0.0056601523149500572 120:-0.32919271917650988 121:0.021531826994501273 122:0.16489198749704592 123:0.98191540050071513 124:0.75319891609337919 125:0.56189709511955155 126:-0.50439964725941988 127:1.1873023645785723 128:0.40691870297687027 129:-0.3700194797595322 130:-0.7139784613109309 131:-0.8329810123939374 132:-0.36918652766394094 133:-0.48298534886019018 134:0.37028245185790609 135:1.4082173287743136 136:1.0418260824315253 137:1.1463298262479649 138:0.97221063052478796 139:1.1841827614817548 140:-0.0034371091523546365 141:-0.28765949178192107 142:-0.87422615204776899 143:-0.68782128576325952 144:0.051946921420435686 
