SVM-light Version V6.02
0 # kernel type
3 # kernel parameter -d 
1 # kernel parameter -g 
1 # kernel parameter -s 
1 # kernel parameter -r 
様様様様様様様様様様様様様様様様様様様様様様様様様様様様# kernel parameter -u 
144 # highest feature index 
18912 # number of training documents 
1975 # number of support vectors plus 1 
-7.8176658 # threshold b, each following line is a SV (starting with alpha*y)
1:-1.8898070231421455 2:-2.4811884888068021 3:-2.1233678749572995 4:-1.5057357900797386 5:-2.3850124336994529 6:-0.55302137327615297 7:2.0055990595183113 8:-0.68082914813573558 9:-1.4396272342083654 10:-0.065326280906632367 11:-1.1561877292244889 12:-0.047592920480996406 13:0.25913337644102952 14:0.0064429869222325103 15:-1.4183518507377728 16:-0.45727283065297319 17:-1.2163761723083015 18:-2.0222893744738939 19:-1.4045370953161518 20:-0.99770281999823329 21:-0.29925407584591918 22:-0.64406746770984991 23:0.53874843712518805 24:-1.9128915824777826 25:-0.91350777395912142 26:-1.1529950939712807 27:-1.15235533310729 28:0.061129200095722605 29:0.012587730967648347 30:-0.85274674316904164 31:-0.24060093430356133 32:1.267619508505597 33:-0.90156490722692917 34:1.5448902284292281 35:0.24253928153704951 36:0.74832130786158912 37:-0.26550270747682703 38:-0.40948519177994402 39:0.92706880185537521 40:1.2545257158805252 41:1.0397400787246376 42:-1.1641853909400888 43:-0.87152321650949149 44:-1.2008672845032533 45:0.055921917990269195 46:0.40810491807259291 47:-0.1646554756030362 48:0.65739398657715753 49:-1.0380972154409325 50:0.46445592106515066 51:-1.0398211252284011 52:-0.30922861908077087 53:0.31034567871928737 54:-0.9604412374544874 55:-0.82216303513019939 56:-0.66742450896409522 57:-0.22723231352026893 58:0.51382221151242469 59:0.971975342123921 60:-1.3747593137144065 61:0.69120444899235678 62:1.0370718635933311 63:-0.72756248915886679 64:-0.2072354061007291 65:-0.52661643625340149 66:0.42014142844953128 67:-1.0969620270980385 68:1.4490497953900245 69:-0.92971748331686921 70:0.22843455109377392 71:-2.3158520798401003 72:1.649380713556226 73:-0.84718079826755543 74:0.77217214398527267 75:-0.080092023144285596 76:-1.1773895048301539 77:-1.0461612035867784 78:-0.40357351395893942 79:0.15838466096392223 80:0.19110522436357302 81:-0.55727737703307956 82:-0.27436066443655394 83:0.072945256782069381 84:-0.6014417715309256 85:0.45027126624462344 86:0.21742943444594387 87:-0.3777415326324875 88:-0.31260842317080761 89:0.49572389809725048 90:-0.92000926616423562 91:-2.3932737030601996 92:-0.58098485588691373 93:0.22508761282801629 94:-1.8745076306776018 95:0.72728860930850914 96:0.084824386211695232 97:0.40367994878072744 98:-1.6152835113682886 99:-0.91216207775442593 100:1.3618939530728589 101:-0.97193768593879859 102:0.70650605066547922 103:-0.24695276724219564 104:0.43561369030524411 105:0.17016906979332105 106:-0.33778570184640067 107:0.2948713486519024 108:1.5386533803943985 109:-3.3536296343261487 110:-0.92000308762907446 111:0.49427872322506033 112:-0.064758300161567764 113:-0.32839368851559053 114:0.37519853971866185 115:-0.41835968595076706 116:-0.76448099037582751 117:-2.5698885867684109 118:-1.1224379583177237 119:-1.1714453970770642 120:0.094239176786659593 121:-0.78292911942332899 122:-1.5235313421929342 123:-3.9696672009233254 124:-0.81252436626048608 125:-0.77855861472828447 126:-0.3557376558527291 127:-2.6317940835161977 128:1.5146416286259481 129:-0.19666930049300341 130:-0.28478819735108363 131:-0.96659536228249743 132:1.7686469862119591 133:0.52479416708431947 134:-1.0050743180205455 135:-2.6502093289288688 136:0.37112599980183769 137:0.43824221370677319 138:-0.49166053466828957 139:-2.9622673088489755 140:0.52305897766202503 141:-2.6026032757070325 142:0.1304822987788033 143:-1.5709105961489551 144:2.2694509472851485 
