SVM-light Version V6.02
0 # kernel type
3 # kernel parameter -d 
1 # kernel parameter -g 
1 # kernel parameter -s 
1 # kernel parameter -r 
様様様様様様様様様様様様様様様様様様様様様様様様様様様様# kernel parameter -u 
144 # highest feature index 
1295 # number of training documents 
48 # number of support vectors plus 1 
0.10423906 # threshold b, each following line is a SV (starting with alpha*y)
1:-0.24560748606735883 2:-0.34692143036287199 3:-0.046247805957027779 4:0.16826025774762524 5:0.075759040647447623 6:0.46908811445109722 7:0.67934939097177494 8:-0.58545520183144795 9:-0.15500338000346775 10:0.3962429700629238 11:-0.056941017295035791 12:-0.071902393562332301 13:-0.080151434268870891 14:-0.095498611195579938 15:-0.13911500168691224 16:0.15732606006816269 17:0.0017478025327108473 18:0.41435733998308016 19:-0.21996274243340902 20:-0.47161079732952355 21:0.033685008682068779 22:0.45826321146319027 23:0.67130086181989734 24:0.58542632578983156 25:0.59526305437538363 26:0.060963720924165667 27:0.097303709482789741 28:-0.12960675087010037 29:-0.36481167395552144 30:0.22290653297081203 31:-0.030542450740702002 32:0.065472377254805744 33:0.012960704414995642 34:0.13418092288922617 35:-0.019860908622443298 36:0.071048392376438507 37:0.20885647567953322 38:-0.094692938638528554 39:-0.13065831027355648 40:-0.098848868207959198 41:-0.10127941924713266 42:-0.13221983597158132 43:-0.039753953356762309 44:0.0012974181271849447 45:0.55984853829473924 46:0.21877649638006855 47:0.27265528594554195 48:-0.017467193283754026 49:0.026483698941503073 50:-0.041094693998756579 51:-0.013191557187047549 52:-0.091582935879216648 53:-0.27010869116357483 54:0.0047622253855737207 55:-0.048187332212675987 56:-0.28729060880544166 57:0.0046588594430161849 58:-0.089978885669327976 59:-0.01206020681695915 60:-0.046405414635214887 61:0.00091701573551494471 62:-0.097383276164213772 63:-0.052635477912471904 64:-0.063580424891191284 65:0.1609451934399006 66:-0.027034594226663454 67:-0.015231389696968823 68:-0.066033374280918419 69:-0.04605068543396857 70:-0.099787919532503544 71:0.090828294957240652 72:0.062969240174897578 73:0.19722574689253608 74:0.41727945196396482 75:0.031679230975492287 76:0.042557374910052834 77:-0.023935385312081881 78:-0.0060822029350503827 79:-0.097073323997603794 80:-0.28465388165989058 81:-0.062937317583717178 82:-0.010511410687874714 83:1.3456286872567187 84:0.36706615421704653 85:0.25242477472633168 86:0.1218000549401508 87:0.10341356451268953 88:-0.051729342951368745 89:-0.12305006352902553 90:-0.20640460985383485 91:-0.090243263802287449 92:-0.13482414076036167 93:-0.00022278866161851759 94:0.0044027489830466525 95:-0.051511670227806367 96:-0.039747739943311419 97:-0.096492587025905061 98:0.16990274141083067 99:0.17926897598633817 100:-0.7125139581567026 101:-0.1750163652531595 102:0.089806579855725113 103:0.065798372643563016 104:0.011808951389462365 105:0.033255606995156534 106:-0.070513801151711103 107:1.0648598778405287 108:0.10138131976521793 109:0.032302129042534301 110:1.5718122949602589 111:0.46404568183819106 112:0.38103882717292969 113:0.23953994565166203 114:0.1671867011358863 115:0.017268755388268772 116:0.011117970771189657 117:-0.1534226129556257 118:-0.45460964514456731 119:0.95358149130234193 120:0.56132331508632194 121:0.65644157471941256 122:0.36921398450769999 123:0.16630473291212813 124:0.29731293437717188 125:-0.44750782792728383 126:-1.1893303881915227 127:-0.72346420760481767 128:-0.12657253995406412 129:0.09763565218357742 130:0.093706689523193207 131:0.085146203047214652 132:0.088433260829704527 133:0.0097602967016031071 134:1.4268954131411489 135:0.11585040634749441 136:-0.9841063144053519 137:-0.90724873457056876 138:-0.59428144393537452 139:-0.54548857354729763 140:-0.036218226612810989 141:0.54985435579753028 142:0.83032095840688469 143:1.6390553300243902 144:0.37135794325360622 
