<?xml version="1.0"?>
<opencv_storage>
<cascade>
  <stageType>BOOST</stageType>
  <featureType>LBP</featureType>
  <height>21</height>
  <width>40</width>
  <stageParams>
    <boostType>GAB</boostType>
    <minHitRate>9.9500000476837158e-001</minHitRate>
    <maxFalseAlarm>5.0000000000000000e-001</maxFalseAlarm>
    <weightTrimRate>9.4999999999999996e-001</weightTrimRate>
    <maxDepth>1</maxDepth>
    <maxWeakCount>100</maxWeakCount></stageParams>
  <featureParams>
    <maxCatCount>256</maxCatCount>
    <featSize>1</featSize></featureParams>
  <stageNum>20</stageNum>
  <stages>
    <!-- stage 0 -->
    <_>
      <maxWeakCount>8</maxWeakCount>
      <stageThreshold>-1.9035977125167847e+000</stageThreshold>
      <weakClassifiers>
        <_>
          <internalNodes>
            0 -1 142 -196612 -2228226 -141771780 -147460 -131073
            -76416001 -131074 -16386</internalNodes>
          <leafValues>
            -6.9101023674011230e-001 5.6255710124969482e-001</leafValues></_>
        <_>
          <internalNodes>
            0 -1 152 285212920 -5432360 530386941 -191555 -1179079745
            -6316292 -1409504257 -1081602568</internalNodes>
          <leafValues>
            -5.8587664365768433e-001 5.9223312139511108e-001</leafValues></_>
        <_>
          <internalNodes>
            0 -1 187 318767324 -189968 498695679 -190019 -1146438658
            -415558 -1096105985 -1078457176</internalNodes>
          <leafValues>
            -5.1612764596939087e-001 5.2211683988571167e-001</leafValues></_>
        <_>
          <internalNodes>
            0 -1 161 -137370998 -526204896 -1610088448 -1031044726
            -536641536 4207360 1367375874 -739253333</internalNodes>
          <leafValues>
            -4.2580303549766541e-001 5.6879168748855591e-001</leafValues></_>
        <_>
          <internalNodes>
            0 -1 268 -67114358 1085255310 -924057600 -254806354
            -227548278 82981 -739008310 -201334037</internalNodes>
          <leafValues>
            -3.3551284670829773e-001 6.0350161790847778e-001</leafValues></_>
        <_>
          <internalNodes>
            0 -1 153 495983864 2147369144 1063206911 -57859 -1281207572
            -1073852787 499040255 -1078453764</internalNodes>
          <leafValues>
            -3.3714482188224792e-001 5.0621926784515381e-001</leafValues></_>
        <_>
          <internalNodes>
            0 -1 340 -476321238 -1043683834 1076625408 -755240320
            -471343102 4289536 -153107136 -262413402</internalNodes>
          <leafValues>
            -3.1075775623321533e-001 4.9220100045204163e-001</leafValues></_>
        <_>
          <internalNodes>
            0 -1 109 285213848 2144797068 399079935 492511105
            -1196932102 -68764682 -1489364737 -1081603960</internalNodes>
          <leafValues>
            -4.2824566364288330e-001 3.5962077975273132e-001</leafValues></_></weakClassifiers></_>
    <!-- stage 1 -->
    <_>
      <maxWeakCount>9</maxWeakCount>
      <stageThreshold>-1.9102241992950439e+000</stageThreshold>
      <weakClassifiers>
        <_>
          <internalNodes>
            0 -1 26 -65537 -491522 -2293761 -4686852 -1179649 -67305473
            -4145 -196610</internalNodes>
          <leafValues>
            -7.3090046644210815e-001 4.4636061787605286e-001</leafValues></_>
        <_>
          <internalNodes>
            0 -1 116 -234102262 -268185600 -493977088 -527450110
            -213781752 1392518656 -1071136118 1074782991</internalNodes>
          <leafValues>
            -6.1645776033401489e-001 4.3977832794189453e-001</leafValues></_>
        <_>
          <internalNodes>
            0 -1 175 83892732 -4760707 -1084440577 -426499 -1079333889
            -4194307 -1080508417 -1078453860</internalNodes>
          <leafValues>
            -5.0365567207336426e-001 4.6663448214530945e-001</leafValues></_>
        <_>
          <internalNodes>
            0 -1 295 -536092534 -803147776 4489224 1086849762
            -1069506136 262176 1174766734 1406134251</internalNodes>
          <leafValues>
            -4.6835592389106750e-001 4.7088128328323364e-001</leafValues></_>
        <_>
          <internalNodes>
            0 -1 93 268961240 -6481732 1025321407 -9365192 480775932
            -135054600 -1459058177 -1086846808</internalNodes>
          <leafValues>
            -4.5412260293960571e-001 4.4128540158271790e-001</leafValues></_>
        <_>
          <internalNodes>
            0 -1 238 -1024998782 -253509622 -1473263616 -1009808242
            -1037962496 1073747200 352424715 -217064949</internalNodes>
          <leafValues>
            -3.6771929264068604e-001 5.0584375858306885e-001</leafValues></_>
        <_>
          <internalNodes>
            0 -1 229 2010251096 -144080904 -1073976324 -1035 -1141017092
            -9082956 792202424 1059928104</internalNodes>
          <leafValues>
            -5.8870792388916016e-001 2.9429075121879578e-001</leafValues></_>
        <_>
          <internalNodes>
            0 -1 282 -489692662 -752181530 55443456 -1815379774
            -832314418 1073771776 1422903695 -210771025</internalNodes>
          <leafValues>
            -2.6800304651260376e-001 5.7877236604690552e-001</leafValues></_>
        <_>
          <internalNodes>
            0 -1 155 -2013259600 871751672 -547885057 2138332584
            -1388703750 -1124128001 -1157972033 -1700264760</internalNodes>
          <leafValues>
            -4.4153985381126404e-001 3.0929183959960938e-001</leafValues></_></weakClassifiers></_>
    <!-- stage 2 -->
    <_>
      <maxWeakCount>11</maxWeakCount>
      <stageThreshold>-2.2847256660461426e+000</stageThreshold>
      <weakClassifiers>
        <_>
          <internalNodes>
            0 -1 182 -2 -134416498 1502880012 -11206820 -70726932
            353370508 1355086572 -1</internalNodes>
          <leafValues>
            -6.1759567260742188e-001 6.0025143623352051e-001</leafValues></_>
        <_>
          <internalNodes>
            0 -1 222 -202383358 -794959141 17596680 -976229809
            -246288128 1346388032 -217726196 -209717489</internalNodes>
          <leafValues>
            -5.2076536417007446e-001 5.3153759241104126e-001</leafValues></_>
        <_>
          <internalNodes>
            0 -1 332 -494149118 -234700768 -2113273856 1611121186
            -436025856 33554432 1376118792 1397736323</internalNodes>
          <leafValues>
            -5.3995954990386963e-001 4.2990311980247498e-001</leafValues></_>
        <_>
          <internalNodes>
            0 -1 232 -172 -4325387 -1074401796 -131113 -1078329880
            -4407336 950540540 -1073889352</internalNodes>
          <leafValues>
            -5.7359027862548828e-001 3.5204619169235229e-001</leafValues></_>
        <_>
          <internalNodes>
            0 -1 87 67110928 -1079178376 1060900287 1061100853
            1002064571 -1610638913 263892415 -1141240680</internalNodes>
          <leafValues>
            -4.6000692248344421e-001 4.1210380196571350e-001</leafValues></_>
        <_>
          <internalNodes>
            0 -1 250 -1039679486 -754461425 -1029389690 -138165697
            -419322869 274746376 -476057719 -749746929</internalNodes>
          <leafValues>
            -3.5064864158630371e-001 5.3257155418395996e-001</leafValues></_>
        <_>
          <internalNodes>
            0 -1 96 -1828184680 1039621428 -1076355585 -4521960 20581096
            -254004 696256764 -1088813048</internalNodes>
          <leafValues>
            -3.7965756654739380e-001 3.9299637079238892e-001</leafValues></_>
        <_>
          <internalNodes>
            0 -1 97 -232529338 -256658424 1827309582 -1339383550
            -232400984 941973337 -470822962 -259267933</internalNodes>
          <leafValues>
            -2.9153648018836975e-001 5.1818013191223145e-001</leafValues></_>
        <_>
          <internalNodes>
            0 -1 309 -834411870 1653270054 -2147483648 1652810922
            662087180 7038213 315351752 -203443224</internalNodes>
          <leafValues>
            -3.3683070540428162e-001 3.8284569978713989e-001</leafValues></_>
        <_>
          <internalNodes>
            0 -1 124 103338256 2006391116 535367221 1072895932
            1050164157 -254468 690917023 247339028</internalNodes>
          <leafValues>
            -5.1036775112152100e-001 2.3480826616287231e-001</leafValues></_>
        <_>
          <internalNodes>
            0 -1 164 -677384694 1942986916 -1463246720 -217485910
            -482303670 16786432 -768573202 -229654646</internalNodes>
          <leafValues>
            -2.7389967441558838e-001 4.6201184391975403e-001</leafValues></_></weakClassifiers></_>
    <!-- stage 3 -->
    <_>
      <maxWeakCount>12</maxWeakCount>
      <stageThreshold>-2.1468143463134766e+000</stageThreshold>
      <weakClassifiers>
        <_>
          <internalNodes>
            0 -1 25 -2 2136759292 -539688994 -6496258 -2101252 -207976
            -1 -33</internalNodes>
          <leafValues>
            -5.9016919136047363e-001 5.2443349361419678e-001</leafValues></_>
        <_>
          <internalNodes>
            0 -1 270 -1073496062 -740563389 17220618 -743443801
            -234626134 -670662010 1124844431 1393541771</internalNodes>
          <leafValues>
            -4.9245607852935791e-001 4.6370592713356018e-001</leafValues></_>
        <_>
          <internalNodes>
            0 -1 10 -2293764 -2 1569471420 -86308 -16386 -214086
            -4412438 -1529208</internalNodes>
          <leafValues>
            -6.7449706792831421e-001 3.2314008474349976e-001</leafValues></_>
        <_>
          <internalNodes>
            0 -1 170 -233840638 -250883072 -2121498616 -787746134
            -469056472 2102272 1073840130 1397744335</internalNodes>
          <leafValues>
            -4.8206797242164612e-001 3.7772545218467712e-001</leafValues></_>
        <_>
          <internalNodes>
            0 -1 197 33560752 530413432 -33734659 -2146883 1043869630
            -1078101059 1066154494 1067976856</internalNodes>
          <leafValues>
            -5.5158346891403198e-001 3.1000223755836487e-001</leafValues></_>
        <_>
          <internalNodes>
            0 -1 179 -263200246 -201398770 701003022 -78909905
            -228931958 1342187936 1351451054 -202381429</internalNodes>
          <leafValues>
            -3.4229958057403564e-001 4.9192240834236145e-001</leafValues></_>
        <_>
          <internalNodes>
            0 -1 297 -1292111126 -212870 764157960 1440230176 -419177544
            1056944 457211102 335526895</internalNodes>
          <leafValues>
            -3.6796995997428894e-001 4.1543218493461609e-001</leafValues></_>
        <_>
          <internalNodes>
            0 -1 202 824187320 402423281 201195517 -1074514763
            -1095192833 -418306 851105978 -1162339176</internalNodes>
          <leafValues>
            -4.2813995480537415e-001 3.2545647025108337e-001</leafValues></_>
        <_>
          <internalNodes>
            0 -1 303 -1111556100 -6488076 -709010952 -1078331012
            731684856 -1631839843 524033276 -536879140</internalNodes>
          <leafValues>
            -4.1268351674079895e-001 3.1835979223251343e-001</leafValues></_>
        <_>
          <internalNodes>
            0 -1 163 -337659254 -68632794 2087519232 -246678014
            1266730184 1074018062 -1030229270 -267390310</internalNodes>
          <leafValues>
            -2.8920617699623108e-001 4.4791126251220703e-001</leafValues></_>
        <_>
          <internalNodes>
            0 -1 41 490735152 -608289284 267964025 802293560 533503992
            -1159766081 -1076216081 200150268</internalNodes>
          <leafValues>
            -5.5848717689514160e-001 2.1257394552230835e-001</leafValues></_>
        <_>
          <internalNodes>
            0 -1 330 -494157822 -782838360 -867252472 -1054087281
            -1299794007 1125183777 1664078024 -1018183157</internalNodes>
          <leafValues>
            -2.8391641378402710e-001 4.3186944723129272e-001</leafValues></_></weakClassifiers></_>
    <!-- stage 4 -->
    <_>
      <maxWeakCount>12</maxWeakCount>
      <stageThreshold>-2.0602862834930420e+000</stageThreshold>
      <weakClassifiers>
        <_>
          <internalNodes>
            0 -1 136 -2 -4196614 1367921528 -131076 -11665732 1511319508
            -270729252 -1</internalNodes>
          <leafValues>
            -5.5408322811126709e-001 5.4098361730575562e-001</leafValues></_>
        <_>
          <internalNodes>
            0 -1 265 -1073225726 -742666238 33587208 -1064574422
            -79434870 1107333376 -794442101 1393549963</internalNodes>
          <leafValues>
            -5.0950330495834351e-001 4.2746564745903015e-001</leafValues></_>
        <_>
          <internalNodes>
            0 -1 92 -527703542 -265551966 -494481906 -208934261
            -1844972561 -217780311 -273678481 -536090737</internalNodes>
          <leafValues>
            -3.5680016875267029e-001 5.0548332929611206e-001</leafValues></_>
        <_>
          <internalNodes>
            0 -1 203 -9043972 -142738436 2147352569 -131073 -147460
            -213576 -1346519560 -8569412</internalNodes>
          <leafValues>
            -5.8554965257644653e-001 3.1205424666404724e-001</leafValues></_>
        <_>
          <internalNodes>
            0 -1 140 286268756 530333693 2013118463 -1074324487
            -1107789313 -458753 -1074860289 -1078457892</internalNodes>
          <leafValues>
            -4.3346306681632996e-001 3.8286852836608887e-001</leafValues></_>
        <_>
          <internalNodes>
            0 -1 325 -1031282550 -1028861886 -1065090048 1087299630
            -351535358 566178 1108308142 1112531851</internalNodes>
          <leafValues>
            -4.9323296546936035e-001 3.2065474987030029e-001</leafValues></_>
        <_>
          <internalNodes>
            0 -1 271 807408060 -80408072 -1073885185 -2811651
            -1616187393 -283602946 -1130848770 -1147139928</internalNodes>
          <leafValues>
            -4.1937193274497986e-001 3.5002672672271729e-001</leafValues></_>
        <_>
          <internalNodes>
            0 -1 173 -71569014 -203492120 1660952968 -142755076
            -532107256 1574144 1415656158 1945087983</internalNodes>
          <leafValues>
            -3.7303879857063293e-001 3.8619512319564819e-001</leafValues></_>
        <_>
          <internalNodes>
            0 -1 252 -696003966 -117406718 -414449664 -743858110
            -285020919 47244320 1460265099 -203689589</internalNodes>
          <leafValues>
            -2.8957986831665039e-001 4.5555409789085388e-001</leafValues></_>
        <_>
          <internalNodes>
            0 -1 169 -34648178 -10642450 -873197620 -554290 2012004287
            -67328580 -8225 1072374334</internalNodes>
          <leafValues>
            -3.3911839127540588e-001 3.5907515883445740e-001</leafValues></_>
        <_>
          <internalNodes>
            0 -1 70 1332218832 1744575228 56409599 1037580668 -570680577
            -1073995784 -591873 720898660</internalNodes>
          <leafValues>
            -6.3512963056564331e-001 1.7271284759044647e-001</leafValues></_>
        <_>
          <internalNodes>
            0 -1 336 -1068918 1695258112 1105992192 -253236661
            -269565054 4618094 -412093810 -207621410</internalNodes>
          <leafValues>
            -2.9138681292533875e-001 4.2980310320854187e-001</leafValues></_></weakClassifiers></_>
    <!-- stage 5 -->
    <_>
      <maxWeakCount>11</maxWeakCount>
      <stageThreshold>-1.8643094301223755e+000</stageThreshold>
      <weakClassifiers>
        <_>
          <internalNodes>
            0 -1 90 295180797 -41475 -1073750017 -41479 -1078280193
            -278529 -1078001665 -1078322760</internalNodes>
          <leafValues>
            -5.6017547845840454e-001 4.9599683284759521e-001</leafValues></_>
        <_>
          <internalNodes>
            0 -1 77 -229377 -229377 -458753 -4685825 -1245185 -197188
            -3276817 -245764</internalNodes>
          <leafValues>
            -5.7677561044692993e-001 4.0831142663955688e-001</leafValues></_>
        <_>
          <internalNodes>
            0 -1 267 -2 2075452926 1313376512 1438132956 -110828616
            100669360 1608299500 2147467263</internalNodes>
          <leafValues>
            -4.6651944518089294e-001 4.1073662042617798e-001</leafValues></_>
        <_>
          <internalNodes>
            0 -1 201 50338296 -32771 2146910207 -59403 -1086701633
            -16404 -1342242817 -1078452804</internalNodes>
          <leafValues>
            -4.2175912857055664e-001 4.0844190120697021e-001</leafValues></_>
        <_>
          <internalNodes>
            0 -1 112 -267656690 -801378262 -838564724 -234430326
            -213517496 857015157 -78917880 1345315342</internalNodes>
          <leafValues>
            -4.6728718280792236e-001 3.9831045269966125e-001</leafValues></_>
        <_>
          <internalNodes>
            0 -1 368 -151002365 -524445 -417367249 -424215601 -526525
            -214437545 -9961609 -212555520</internalNodes>
          <leafValues>
            -4.0779572725296021e-001 3.4393903613090515e-001</leafValues></_>
        <_>
          <internalNodes>
            0 -1 189 957355477 -1078895111 -1074004481 -1040972
            -1682399233 -4355588 -1364406785 -1080424232</internalNodes>
          <leafValues>
            -3.0435743927955627e-001 4.4274762272834778e-001</leafValues></_>
        <_>
          <internalNodes>
            0 -1 307 -221265278 -630488798 -2143125500 1087359950
            -766843990 1107837216 -955923830 -749747317</internalNodes>
          <leafValues>
            -2.9097551107406616e-001 4.5673790574073792e-001</leafValues></_>
        <_>
          <internalNodes>
            0 -1 160 -134217746 -536887626 1069817324 -2245636
            2129927400 1062999180 486293496 2132617934</internalNodes>
          <leafValues>
            -4.4122996926307678e-001 2.7630165219306946e-001</leafValues></_>
        <_>
          <internalNodes>
            0 -1 291 -494673654 -169676758 -897023744 1351517830
            -486215768 36704256 1191305614 1406132654</internalNodes>
          <leafValues>
            -3.9313808083534241e-001 2.9884263873100281e-001</leafValues></_>
        <_>
          <internalNodes>
            0 -1 106 75504432 800884572 463212473 -1610801667 1056575295
            -114819 1073385343 263718760</internalNodes>
          <leafValues>
            -5.7684695720672607e-001 1.9787240028381348e-001</leafValues></_></weakClassifiers></_>
    <!-- stage 6 -->
    <_>
      <maxWeakCount>13</maxWeakCount>
      <stageThreshold>-1.9321032762527466e+000</stageThreshold>
      <weakClassifiers>
        <_>
          <internalNodes>
            0 -1 20 -196609 -983042 -196609 -500226 -131105 -458753 -33
            -196609</internalNodes>
          <leafValues>
            -6.8826252222061157e-001 3.3109053969383240e-001</leafValues></_>
        <_>
          <internalNodes>
            0 -1 2 -420483410 -452989201 -4369 -353374993 -16777217
            -452987201 -2097153 -520163410</internalNodes>
          <leafValues>
            -4.3537217378616333e-001 4.4425436854362488e-001</leafValues></_>
        <_>
          <internalNodes>
            0 -1 335 -2 -461572 -1075041604 -571686948 -1001988
            205529524 459029948 1073725439</internalNodes>
          <leafValues>
            -4.4593080878257751e-001 3.6643412709236145e-001</leafValues></_>
        <_>
          <internalNodes>
            0 -1 128 286266716 -188931 2140995583 -189059 -1079197697
            -1026 -1074217025 -1080550984</internalNodes>
          <leafValues>
            -4.4348263740539551e-001 3.4564980864524841e-001</leafValues></_>
        <_>
          <internalNodes>
            0 -1 255 523296764 -671748 -8519683 -163843 -67568131
            -71598340 -1073954817 -1073858180</internalNodes>
          <leafValues>
            -3.9610764384269714e-001 3.5422229766845703e-001</leafValues></_>
        <_>
          <internalNodes>
            0 -1 200 -268440950 -521903542 -1494818304 -524043670
            1741628938 2560262 -136318206 -201328721</internalNodes>
          <leafValues>
            -3.7487334012985229e-001 3.5411056876182556e-001</leafValues></_>
        <_>
          <internalNodes>
            0 -1 284 -175906174 -755845918 176980224 -1062687230
            -164592480 37762816 1180811976 1407181551</internalNodes>
          <leafValues>
            -3.9370447397232056e-001 3.1933450698852539e-001</leafValues></_>
        <_>
          <internalNodes>
            0 -1 115 993532380 -566924 -1210376195 -320196 -553873409
            -663554 -1616211969 -1079505920</internalNodes>
          <leafValues>
            -3.3915376663208008e-001 3.4185996651649475e-001</leafValues></_>
        <_>
          <internalNodes>
            0 -1 276 939458556 -137035916 -1073872900 -1073954948
            -1145259044 -36381460 1068113404 -1079164948</internalNodes>
          <leafValues>
            -5.3505003452301025e-001 2.0556469261646271e-001</leafValues></_>
        <_>
          <internalNodes>
            0 -1 194 -268440066 2130030462 1002192844 2013018974
            2147222248 502283752 536690684 1006448639</internalNodes>
          <leafValues>
            -4.1938722133636475e-001 2.6244169473648071e-001</leafValues></_>
        <_>
          <internalNodes>
            0 -1 214 -227548058 -118496529 -854659320 -880349297
            -413816863 -69405723 -212468465 -470288637</internalNodes>
          <leafValues>
            -2.8758195042610168e-001 3.5671705007553101e-001</leafValues></_>
        <_>
          <internalNodes>
            0 -1 166 127405356 2008756213 -537547137 -134668867
            -1447772675 -1107820630 -1212633093 805244713</internalNodes>
          <leafValues>
            -3.8536152243614197e-001 2.7436929941177368e-001</leafValues></_>
        <_>
          <internalNodes>
            0 -1 277 -1053046 -405821585 -420999678 -758842614
            1475317646 2237892 -144445234 -201346561</internalNodes>
          <leafValues>
            -2.5834575295448303e-001 3.8274452090263367e-001</leafValues></_></weakClassifiers></_>
    <!-- stage 7 -->
    <_>
      <maxWeakCount>14</maxWeakCount>
      <stageThreshold>-1.8250248432159424e+000</stageThreshold>
      <weakClassifiers>
        <_>
          <internalNodes>
            0 -1 65 -32770 -196609 -65538 -65538 -131076 -116064259 -2
            -1</internalNodes>
          <leafValues>
            -5.4872792959213257e-001 4.1968443989753723e-001</leafValues></_>
        <_>
          <internalNodes>
            0 -1 129 486546940 -189956 502841341 -4385512 -1616330758
            -168247298 -1153922049 -1079375736</internalNodes>
          <leafValues>
            -4.9510085582733154e-001 3.6015379428863525e-001</leafValues></_>
        <_>
          <internalNodes>
            0 -1 240 -2 -2 -1245188 -131074 -537526276 -720900 -9043972
            -131073</internalNodes>
          <leafValues>
            -3.9545112848281860e-001 4.0958702564239502e-001</leafValues></_>
        <_>
          <internalNodes>
            0 -1 217 285219248 1602043309 536780733 2147433981 756816383
            -1081143812 1002061759 1069155516</internalNodes>
          <leafValues>
            -5.6239157915115356e-001 2.6174664497375488e-001</leafValues></_>
        <_>
          <internalNodes>
            0 -1 97 -223609138 -266209880 -289493362 -1062670944
            -25821203 1889925036 -5243186 1345320367</internalNodes>
          <leafValues>
            -4.0736594796180725e-001 3.5790151357650757e-001</leafValues></_>
        <_>
          <internalNodes>
            0 -1 212 -1073561598 -1028721985 -2101889 -983707945
            -446169089 -1963020353 -256377921 1085268747</internalNodes>
          <leafValues>
            -4.2221686244010925e-001 2.5857916474342346e-001</leafValues></_>
        <_>
          <internalNodes>
            0 -1 371 -84414713 -134217929 2104491807 -200849 -411568265
            -8913033 -134742665 -218872800</internalNodes>
          <leafValues>
            -3.2912459969520569e-001 3.4838417172431946e-001</leafValues></_>
        <_>
          <internalNodes>
            0 -1 310 -805307522 -538379788 -277967444 -2048378388
            -16992787 364920244 1056762108 1073725439</internalNodes>
          <leafValues>
            -3.5367831587791443e-001 3.0169564485549927e-001</leafValues></_>
        <_>
          <internalNodes>
            0 -1 9 -1915819030 -132290 -1109595140 -39980466 -1644236934
            -423446 -841172242 -607280950</internalNodes>
          <leafValues>
            -4.1878345608711243e-001 2.6791980862617493e-001</leafValues></_>
        <_>
          <internalNodes>
            0 -1 243 218633692 -2144043 2111829471 -539025923
            -1090851073 -537133570 -1683293186 -1079373696</internalNodes>
          <leafValues>
            -3.8965496420860291e-001 2.9165801405906677e-001</leafValues></_>
        <_>
          <internalNodes>
            0 -1 139 219153780 2147294689 536270847 2079799677 521673726
            -276906371 -1075265553 1057627176</internalNodes>
          <leafValues>
            -4.8376718163490295e-001 2.1560910344123840e-001</leafValues></_>
        <_>
          <internalNodes>
            0 -1 159 -268179446 -249306070 -355725944 -506502358
            -1763643990 1140913184 1561118600 1930427375</internalNodes>
          <leafValues>
            -3.8486585021018982e-001 2.7849245071411133e-001</leafValues></_>
        <_>
          <internalNodes>
            0 -1 43 -537239556 1072978430 -549949441 1066409912 -491780
            -1074069508 1576840127 -323070090</internalNodes>
          <leafValues>
            -3.5186317563056946e-001 2.6510947942733765e-001</leafValues></_>
        <_>
          <internalNodes>
            0 -1 329 -765214718 -2113995137 -945152086 -370217042
            -209715267 1592680829 -580037748 1075044355</internalNodes>
          <leafValues>
            -3.5926488041877747e-001 2.6476263999938965e-001</leafValues></_></weakClassifiers></_>
    <!-- stage 8 -->
    <_>
      <maxWeakCount>17</maxWeakCount>
      <stageThreshold>-1.9058536291122437e+000</stageThreshold>
      <weakClassifiers>
        <_>
          <internalNodes>
            0 -1 75 -1 -229380 -2326532 -1650950148 -131075 -2228244
            -131073 -131073</internalNodes>
          <leafValues>
            -5.7438355684280396e-001 3.6486211419105530e-001</leafValues></_>
        <_>
          <internalNodes>
            0 -1 354 -1073741826 -131201 -553648900 -2228227 -1073750532
            -8847383 -1073783300 -3</internalNodes>
          <leafValues>
            -3.9841213822364807e-001 4.4717094302177429e-001</leafValues></_>
        <_>
          <internalNodes>
            0 -1 205 -168299062 -33559441 -1358393596 -72365269
            -264130319 -177901135 -3286129 -49</internalNodes>
          <leafValues>
            -3.3885934948921204e-001 4.4161549210548401e-001</leafValues></_>
        <_>
          <internalNodes>
            0 -1 220 -1073561598 -72363281 -1048577 -135338561 -68419585
            -16783381 -38014977 -1020542805</internalNodes>
          <leafValues>
            -2.9385495185852051e-001 4.0775930881500244e-001</leafValues></_>
        <_>
          <internalNodes>
            0 -1 301 -1 -537067522 2012020732 -204804 -4259843 -493732
            2113732604 -1</internalNodes>
          <leafValues>
            -2.3381723463535309e-001 5.0752013921737671e-001</leafValues></_>
        <_>
          <internalNodes>
            0 -1 17 -2099202 -4194434 -136383490 -5668934 -8454162
            -1179652 -1049990 -1340726</internalNodes>
          <leafValues>
            -3.1864115595817566e-001 3.1857776641845703e-001</leafValues></_>
        <_>
          <internalNodes>
            0 -1 138 218109360 532160061 1068574687 1069358525
            1063921647 532578271 -1342546945 1069154684</internalNodes>
          <leafValues>
            -4.6695572137832642e-001 2.2391784191131592e-001</leafValues></_>
        <_>
          <internalNodes>
            0 -1 285 -729813334 1617936174 -1495203134 -219680630
            239068874 2582343 1727521698 -201329169</internalNodes>
          <leafValues>
            -3.1074357032775879e-001 3.0455851554870605e-001</leafValues></_>
        <_>
          <internalNodes>
            0 -1 288 16781524 -980140 1059979067 -3320916 -1220871429
            -1342994251 -1094927365 -1147664256</internalNodes>
          <leafValues>
            -4.0700212121009827e-001 2.5116479396820068e-001</leafValues></_>
        <_>
          <internalNodes>
            0 -1 14 -357565017 -21500161 -33558786 -290460817 -17303569
            -385880065 -270139428 -525546260</internalNodes>
          <leafValues>
            -2.4778091907501221e-001 3.4168866276741028e-001</leafValues></_>
        <_>
          <internalNodes>
            0 -1 258 -804527582 -671810205 -2014913112 1372574627
            -212538456 1124121016 1601564586 1396424747</internalNodes>
          <leafValues>
            -3.3314466476440430e-001 2.4960276484489441e-001</leafValues></_>
        <_>
          <internalNodes>
            0 -1 317 -1145373936 -1695762320 -541065291 213778420
            -1074028616 -1342964738 -541540184 -1732518543</internalNodes>
          <leafValues>
            -2.9319325089454651e-001 2.7564272284507751e-001</leafValues></_>
        <_>
          <internalNodes>
            0 -1 320 -1078266884 -1074216964 -4588228 -131211 535600888
            -67307523 983043544 -1124075027</internalNodes>
          <leafValues>
            -2.9645287990570068e-001 2.6968955993652344e-001</leafValues></_>
        <_>
          <internalNodes>
            0 -1 172 -22030462 1189963531 -412205024 -202640461
            1952228608 13006463 -201415294 -222829905</internalNodes>
          <leafValues>
            -2.7641087770462036e-001 2.9711633920669556e-001</leafValues></_>
        <_>
          <internalNodes>
            0 -1 75 -163848 435234549 -23342115 2010986399 -1099431938
            -302186635 1073638364 -1732886596</internalNodes>
          <leafValues>
            -2.9153591394424438e-001 2.8109461069107056e-001</leafValues></_>
        <_>
          <internalNodes>
            0 -1 59 -1448997634 -43832 2140168191 -2603561 -409954562
            -127294 2105860095 -1356696974</internalNodes>
          <leafValues>
            -2.9030272364616394e-001 2.7017956972122192e-001</leafValues></_>
        <_>
          <internalNodes>
            0 -1 324 -1073299446 -2844698 -1427327012 1710028286
            -1636958431 691588385 -541196307 1076609799</internalNodes>
          <leafValues>
            -3.4875425696372986e-001 2.2337494790554047e-001</leafValues></_></weakClassifiers></_>
    <!-- stage 9 -->
    <_>
      <maxWeakCount>17</maxWeakCount>
      <stageThreshold>-1.8161311149597168e+000</stageThreshold>
      <weakClassifiers>
        <_>
          <internalNodes>
            0 -1 32 -1 -50397441 -16843010 -16843009 -10485761
            2113535999 -1 -1</internalNodes>
          <leafValues>
            -4.4484326243400574e-001 5.8836430311203003e-001</leafValues></_>
        <_>
          <internalNodes>
            0 -1 26 -65537 -491533 -458753 -4695558 -65553 -196609 -4145
            -229378</internalNodes>
          <leafValues>
            -5.0475823879241943e-001 3.1538316607475281e-001</leafValues></_>
        <_>
          <internalNodes>
            0 -1 184 -134217730 -720900 801914844 1073545212 2147230460
            989364212 1006433276 2147434495</internalNodes>
          <leafValues>
            -4.1000911593437195e-001 3.0268514156341553e-001</leafValues></_>
        <_>
          <internalNodes>
            0 -1 151 495977712 -5284363 1069363199 -57411 -1289060357
            -303105 -1879396609 -1078325768</internalNodes>
          <leafValues>
            -4.1091799736022949e-001 2.6719489693641663e-001</leafValues></_>
        <_>
          <internalNodes>
            0 -1 362 -1023416569 -134217857 -16777217 -1 -8388825
            -8917129 -409 -470301132</internalNodes>
          <leafValues>
            -2.4926112592220306e-001 4.4061243534088135e-001</leafValues></_>
        <_>
          <internalNodes>
            0 -1 127 -1073495550 -206831646 -543236145 -72353661
            -435687537 -5767323 -681838641 1124319243</internalNodes>
          <leafValues>
            -3.6440220475196838e-001 2.8781890869140625e-001</leafValues></_>
        <_>
          <internalNodes>
            0 -1 91 520093880 -4235792 -1617526785 -8757448 1035476222
            -679577432 523931388 455739936</internalNodes>
          <leafValues>
            -4.9048021435737610e-001 2.1918925642967224e-001</leafValues></_>
        <_>
          <internalNodes>
            0 -1 340 -277877110 -1026621906 -303111680 -1058603126
            -159947450 7828999 -134745536 -201853185</internalNodes>
          <leafValues>
            -3.7744045257568359e-001 2.4335072934627533e-001</leafValues></_>
        <_>
          <internalNodes>
            0 -1 275 -4098 536378174 2130505724 -1082335236 -67338244
            1002192316 1073070076 1073561599</internalNodes>
          <leafValues>
            -3.8269189000129700e-001 2.3054189980030060e-001</leafValues></_>
        <_>
          <internalNodes>
            0 -1 35 -107012 -5619748 -1376231556 498613656 -268645636
            -2293924 -459011 -1409646596</internalNodes>
          <leafValues>
            -4.3678888678550720e-001 1.8440856039524078e-001</leafValues></_>
        <_>
          <internalNodes>
            0 -1 290 -770711390 -340867932 1854767108 -745827442
            -366680920 1142953256 119660680 1395638570</internalNodes>
          <leafValues>
            -3.7459102272987366e-001 2.1443878114223480e-001</leafValues></_>
        <_>
          <internalNodes>
            0 -1 294 -1073045366 -777466778 -2081625910 -743649559
            -1904556050 1111013043 1525673870 1343086607</internalNodes>
          <leafValues>
            -3.8784310221672058e-001 1.9104583561420441e-001</leafValues></_>
        <_>
          <internalNodes>
            0 -1 235 255329776 1073444693 -1363686985 2147301757
            792083379 -99281 1068695487 -1078321684</internalNodes>
          <leafValues>
            -3.4896203875541687e-001 2.3006039857864380e-001</leafValues></_>
        <_>
          <internalNodes>
            0 -1 5 -1901460228 -33282 -35865089 -548189068 739266512
            -11409167 2082485623 -1373498256</internalNodes>
          <leafValues>
            -3.7366697192192078e-001 2.0650136470794678e-001</leafValues></_>
        <_>
          <internalNodes>
            0 -1 207 -747641914 -24661 -1064654962 1399815087 -202005808
            -1243126480 861103019 -70261179</internalNodes>
          <leafValues>
            -2.6563000679016113e-001 2.8443363308906555e-001</leafValues></_>
        <_>
          <internalNodes>
            0 -1 328 -2818636 -537591820 2147254264 -1073950892
            2037184508 -1145776132 2138910460 1492387076</internalNodes>
          <leafValues>
            -6.6395425796508789e-001 1.0802859812974930e-001</leafValues></_>
        <_>
          <internalNodes>
            0 -1 247 -503086974 -1426932562 -1565786100 -458568050
            -1423182933 57717792 1428428682 1397744623</internalNodes>
          <leafValues>
            -3.5085996985435486e-001 2.1589642763137817e-001</leafValues></_></weakClassifiers></_>
    <!-- stage 10 -->
    <_>
      <maxWeakCount>21</maxWeakCount>
      <stageThreshold>-1.9452151060104370e+000</stageThreshold>
      <weakClassifiers>
        <_>
          <internalNodes>
            0 -1 33 -1 -1 -65538 -4521985 -1 2138963965 -1 -1</internalNodes>
          <leafValues>
            -4.0911909937858582e-001 6.3473957777023315e-001</leafValues></_>
        <_>
          <internalNodes>
            0 -1 319 -2 -133124 -1111703588 -131076 -196612 -196612
            -1078149378 -131074</internalNodes>
          <leafValues>
            -4.2109209299087524e-001 3.3950853347778320e-001</leafValues></_>
        <_>
          <internalNodes>
            0 -1 191 -255787068 -2621457 -359733586 -14160241 -194773009
            -150474753 -136384785 -1053041</internalNodes>
          <leafValues>
            -3.3600869774818420e-001 3.5919237136840820e-001</leafValues></_>
        <_>
          <internalNodes>
            0 -1 369 -285212889 -2193 -8912897 -17367041 -534667
            -4718665 -137 -17416412</internalNodes>
          <leafValues>
            -3.2951974868774414e-001 3.1149265170097351e-001</leafValues></_>
        <_>
          <internalNodes>
            0 -1 119 -223611314 -256639840 -823243124 -1028723294
            -687472884 858056689 -934346774 1378875231</internalNodes>
          <leafValues>
            -3.9334866404533386e-001 2.4645924568176270e-001</leafValues></_>
        <_>
          <internalNodes>
            0 -1 249 170925168 -1614858307 1576508401 -49155 1058807789
            -1073791060 1066313983 1069157564</internalNodes>
          <leafValues>
            -4.7940427064895630e-001 2.0149815082550049e-001</leafValues></_>
        <_>
          <internalNodes>
            0 -1 30 1337975758 -66578 223881966 1467445230 -331830
            -268636498 800045822 1005478140</internalNodes>
          <leafValues>
            -4.4272053241729736e-001 2.1067276597023010e-001</leafValues></_>
        <_>
          <internalNodes>
            0 -1 323 -1073299454 -743973321 -137441730 -739266881
            -349711425 -5505041 -543162385 1108328971</internalNodes>
          <leafValues>
            -3.7346363067626953e-001 2.1270671486854553e-001</leafValues></_>
        <_>
          <internalNodes>
            0 -1 95 285742480 -675997380 354354169 926421024 529139902
            -136544296 -1893725201 -1147008888</internalNodes>
          <leafValues>
            -3.6050653457641602e-001 2.4244073033332825e-001</leafValues></_>
        <_>
          <internalNodes>
            0 -1 133 -768869366 -105120582 2072889836 -141890262
            -770511104 846266224 1282166190 1345320895</internalNodes>
          <leafValues>
            -3.7297427654266357e-001 2.0354922115802765e-001</leafValues></_>
        <_>
          <internalNodes>
            0 -1 108 134219824 -134792776 993361911 -182809 1073527518
            -16860766 -1082736649 -1080556080</internalNodes>
          <leafValues>
            -3.8210591673851013e-001 2.1140049397945404e-001</leafValues></_>
        <_>
          <internalNodes>
            0 -1 171 -4194610 -131846 -1242280 -239200596 -328422148
            226235709 125628924 2147434495</internalNodes>
          <leafValues>
            -3.3107146620750427e-001 2.2481967508792877e-001</leafValues></_>
        <_>
          <internalNodes>
            0 -1 321 363859773 766631925 -21037057 -1344446671 805056383
            -1090715651 -1224822834 -1078452740</internalNodes>
          <leafValues>
            -3.4031382203102112e-001 2.2453066706657410e-001</leafValues></_>
        <_>
          <internalNodes>
            0 -1 260 -273680734 1183760138 -806436608 -144003541
            796781981 7307019 1920914658 -207621697</internalNodes>
          <leafValues>
            -2.6009613275527954e-001 2.8699025511741638e-001</leafValues></_>
        <_>
          <internalNodes>
            0 -1 19 -352387394 1878929000 -346357761 800734650 -18874883
            -755669868 -401443 -1192233221</internalNodes>
          <leafValues>
            -2.5797161459922791e-001 2.8057423233985901e-001</leafValues></_>
        <_>
          <internalNodes>
            0 -1 349 -1254427875 -1254298511 -46530561 -646230275
            -2082152704 -1107395728 -1246036500 -1204366184</internalNodes>
          <leafValues>
            -2.4146232008934021e-001 2.9139199852943420e-001</leafValues></_>
        <_>
          <internalNodes>
            0 -1 50 -890353409 -103080269 -553734145 -12952200 803740021
            -172265613 1832058303 -6652061</internalNodes>
          <leafValues>
            -2.1685042977333069e-001 3.1097066402435303e-001</leafValues></_>
        <_>
          <internalNodes>
            0 -1 230 -528293376 1933492750 -341127240 -1887564176
            -1071649509 1115484215 439692184 1127732239</internalNodes>
          <leafValues>
            -3.9589285850524902e-001 1.8129901587963104e-001</leafValues></_>
        <_>
          <internalNodes>
            0 -1 15 -324047257 -121968961 -8456204 -18026772 -1082394625
            -50340361 -12845204 -1258537692</internalNodes>
          <leafValues>
            -2.8590229153633118e-001 2.3914615809917450e-001</leafValues></_>
        <_>
          <internalNodes>
            0 -1 299 -292886902 1088042254 -425339262 1107424930
            1667092426 45090574 1929347814 -790629633</internalNodes>
          <leafValues>
            -2.8493905067443848e-001 2.3519799113273621e-001</leafValues></_>
        <_>
          <internalNodes>
            0 -1 213 808456384 923171160 1056833407 -1648657027
            -1405571842 -16838436 465092603 229250224</internalNodes>
          <leafValues>
            -4.4409370422363281e-001 1.4733196794986725e-001</leafValues></_></weakClassifiers></_>
    <!-- stage 11 -->
    <_>
      <maxWeakCount>22</maxWeakCount>
      <stageThreshold>-1.9592571258544922e+000</stageThreshold>
      <weakClassifiers>
        <_>
          <internalNodes>
            0 -1 64 -32770 -65537 -65538 -65537 -10616868 -548012035
            -1026 -1</internalNodes>
          <leafValues>
            -5.1380801200866699e-001 3.1992504000663757e-001</leafValues></_>
        <_>
          <internalNodes>
            0 -1 165 -2 -66052 -229380 -229508 -1262594 1073510328
            805109756 -1</internalNodes>
          <leafValues>
            -3.4776246547698975e-001 3.7045794725418091e-001</leafValues></_>
        <_>
          <internalNodes>
            0 -1 370 -12541 -67109001 -38017 -17367178 -8921225 -788617
            -1575049 -134940908</internalNodes>
          <leafValues>
            -3.1513467431068420e-001 3.4377586841583252e-001</leafValues></_>
        <_>
          <internalNodes>
            0 -1 188 -131076 -2113 -135492612 -134235208 -1179649
            -277357193 -148482 -16514</internalNodes>
          <leafValues>
            -3.7776279449462891e-001 2.6253166794776917e-001</leafValues></_>
        <_>
          <internalNodes>
            0 -1 123 3156 530060797 535506943 1073688573 -1342291969
            1070481391 1072627455 1069157048</internalNodes>
          <leafValues>
            -4.9096027016639709e-001 2.2337661683559418e-001</leafValues></_>
        <_>
          <internalNodes>
            0 -1 251 -770981718 -240400150 -1548828668 -1012167002
            -443888197 4735904 1176879499 1376764683</internalNodes>
          <leafValues>
            -4.2759472131729126e-001 1.8195807933807373e-001</leafValues></_>
        <_>
          <internalNodes>
            0 -1 186 -1073561598 2071907855 -3146849 2079318951
            -319818257 -271616721 1933567951 1073963523</internalNodes>
          <leafValues>
            -3.6711156368255615e-001 2.4918520450592041e-001</leafValues></_>
        <_>
          <internalNodes>
            0 -1 7 -353441046 -34805023 -811414280 -1517590 -806420756
            -823334917 -286471960 -896614200</internalNodes>
          <leafValues>
            -3.7228065729141235e-001 2.1654908359050751e-001</leafValues></_>
        <_>
          <internalNodes>
            0 -1 355 -1145118721 -196610 -272795652 -231428 -1409426435
            -6520836 -1073938948 -1073762324</internalNodes>
          <leafValues>
            -2.8466132283210754e-001 2.6818880438804626e-001</leafValues></_>
        <_>
          <internalNodes>
            0 -1 130 419962104 -542106128 494186493 1608063372
            -1096233476 -11092078 260081902 522848408</internalNodes>
          <leafValues>
            -4.5061439275741577e-001 1.4969362318515778e-001</leafValues></_>
        <_>
          <internalNodes>
            0 -1 67 -747642358 -1148743864 -2100770304 1464332298
            -269496627 -1391872058 194226696 -821298866</internalNodes>
          <leafValues>
            -3.7695840001106262e-001 2.0298624038696289e-001</leafValues></_>
        <_>
          <internalNodes>
            0 -1 286 -269751894 -671438624 212598816 -1884607712
            -63510532 237258544 1564246763 1073724863</internalNodes>
          <leafValues>
            -3.2924056053161621e-001 2.3090621829032898e-001</leafValues></_>
        <_>
          <internalNodes>
            0 -1 262 1041297716 251555324 2046671669 1064132477
            -1348803137 1056856061 -1088889345 788405565</internalNodes>
          <leafValues>
            -4.1059166193008423e-001 1.8210303783416748e-001</leafValues></_>
        <_>
          <internalNodes>
            0 -1 334 -628103678 1179578159 -336698880 1627060654
            1731192691 1148155733 1984688838 -256379937</internalNodes>
          <leafValues>
            -3.1415075063705444e-001 2.2091083228588104e-001</leafValues></_>
        <_>
          <internalNodes>
            0 -1 292 -5246486 1978592180 1604672008 1474514808 -25497410
            249050896 1433153770 2147473391</internalNodes>
          <leafValues>
            -2.6311156153678894e-001 2.5410640239715576e-001</leafValues></_>
        <_>
          <internalNodes>
            0 -1 314 -1212350466 -182020 -1778844324 -201457688
            2046679932 -1082327076 1073049340 -1078165764</internalNodes>
          <leafValues>
            -4.2615699768066406e-001 1.6459518671035767e-001</leafValues></_>
        <_>
          <internalNodes>
            0 -1 21 -286904404 -21041154 -22098698 -50401361 1731980654
            -142653473 -656 -190038084</internalNodes>
          <leafValues>
            -3.3003652095794678e-001 1.9400914013385773e-001</leafValues></_>
        <_>
          <internalNodes>
            0 -1 53 -285324233 1577024863 -344003097 -1086704334
            1567763295 -538181698 1870167903 -6661250</internalNodes>
          <leafValues>
            -2.0631068944931030e-001 3.1364610791206360e-001</leafValues></_>
        <_>
          <internalNodes>
            0 -1 257 -804274038 -628448240 -972373876 -801201621
            -301742198 -1975322189 -1842494069 1394327983</internalNodes>
          <leafValues>
            -2.8114095330238342e-001 2.3637008666992188e-001</leafValues></_>
        <_>
          <internalNodes>
            0 -1 322 470288560 -12599848 -865665635 -80392195 -553992257
            -1082147084 -1213404418 -1196421008</internalNodes>
          <leafValues>
            -3.9246213436126709e-001 1.6508463025093079e-001</leafValues></_>
        <_>
          <internalNodes>
            0 -1 192 -1064902526 -146869216 -1445155380 -708288880
            1984749316 1700554496 1372329608 1135600547</internalNodes>
          <leafValues>
            -3.6304157972335815e-001 1.6671553254127502e-001</leafValues></_>
        <_>
          <internalNodes>
            0 -1 78 1301825770 -909144618 -275986945 -809808677
            2139460539 798689818 -1441092945 -1149629963</internalNodes>
          <leafValues>
            -2.7499428391456604e-001 2.3235550522804260e-001</leafValues></_></weakClassifiers></_>
    <!-- stage 12 -->
    <_>
      <maxWeakCount>22</maxWeakCount>
      <stageThreshold>-1.7895765304565430e+000</stageThreshold>
      <weakClassifiers>
        <_>
          <internalNodes>
            0 -1 24 -32769 -16842889 -16843010 -16842753 -548405281
            1568661501 -33 -50331649</internalNodes>
          <leafValues>
            -4.4950729608535767e-001 3.8619300723075867e-001</leafValues></_>
        <_>
          <internalNodes>
            0 -1 269 -2 -8585218 2147254260 -196612 -65539 1052519868
            -1245186 -1</internalNodes>
          <leafValues>
            -3.1497657299041748e-001 3.8657304644584656e-001</leafValues></_>
        <_>
          <internalNodes>
            0 -1 84 -68423446 1368478128 1216364744 286331265 -9571844
            -75635468 -538576145 -71303169</internalNodes>
          <leafValues>
            -2.9691606760025024e-001 3.4301578998565674e-001</leafValues></_>
        <_>
          <internalNodes>
            0 -1 145 -2 -163852 2147245564 2113682928 -268644612
            527449524 251445246 1073561596</internalNodes>
          <leafValues>
            -5.0812625885009766e-001 1.4036257565021515e-001</leafValues></_>
        <_>
          <internalNodes>
            0 -1 48 917758 2147356508 -1342263873 -13488342 393873663
            -16834561 2147146495 2134529402</internalNodes>
          <leafValues>
            -3.5901248455047607e-001 2.6073205471038818e-001</leafValues></_>
        <_>
          <internalNodes>
            0 -1 364 -352326377 -262273 -241 -65537 -16777449 -612892681
            -285212921 -202051596</internalNodes>
          <leafValues>
            -2.8253266215324402e-001 2.9031500220298767e-001</leafValues></_>
        <_>
          <internalNodes>
            0 -1 99 -268382008 -33584692 -1870608184 -539164660
            -897528082 -35864834 -1182232918 -5305718</internalNodes>
          <leafValues>
            -3.2341736555099487e-001 2.5264728069305420e-001</leafValues></_>
        <_>
          <internalNodes>
            0 -1 359 -1373896911 875813920 1065352125 788397565
            -1350565891 -1358954523 -1342193668 -1375740435</internalNodes>
          <leafValues>
            -2.4659155309200287e-001 3.0195701122283936e-001</leafValues></_>
        <_>
          <internalNodes>
            0 -1 308 -502603774 -534584096 -1542715892 1090570020
            -1576342104 1113371028 1095029132 1378874307</internalNodes>
          <leafValues>
            -4.1374316811561584e-001 1.8678288161754608e-001</leafValues></_>
        <_>
          <internalNodes>
            0 -1 199 268959961 -32897 -143009825 -536904193 -1097418066
            -51790 -1082329345 -1128784944</internalNodes>
          <leafValues>
            -3.3499085903167725e-001 2.1725960075855255e-001</leafValues></_>
        <_>
          <internalNodes>
            0 -1 206 1465337838 -738996233 218950662 860595119
            1463107744 1894077492 -1056449653 -75497649</internalNodes>
          <leafValues>
            -2.8225389122962952e-001 2.5575494766235352e-001</leafValues></_>
        <_>
          <internalNodes>
            0 -1 264 -11468808 -4325448 -268681004 -13067920 -8585476
            -21311508 2041315516 -537117480</internalNodes>
          <leafValues>
            -5.8973675966262817e-001 1.0419970005750656e-001</leafValues></_>
        <_>
          <internalNodes>
            0 -1 162 -340558086 2143256122 1073553292 -571662868
            -1075004356 1026820884 1402505210 1610563579</internalNodes>
          <leafValues>
            -3.1221655011177063e-001 2.3019380867481232e-001</leafValues></_>
        <_>
          <internalNodes>
            0 -1 218 470811688 1671046524 -1820412191 805254653
            1058276511 2138996205 925513727 804916524</internalNodes>
          <leafValues>
            -4.9970072507858276e-001 1.2345050275325775e-001</leafValues></_>
        <_>
          <internalNodes>
            0 -1 177 -531636094 -780474498 -538034302 2070867247
            -755183923 1356887191 1361962891 1393550091</internalNodes>
          <leafValues>
            -3.1139785051345825e-001 2.1733115613460541e-001</leafValues></_>
        <_>
          <internalNodes>
            0 -1 11 -1934737186 -47050946 -4268547 -889364 -261091728
            -35221 1729560439 -1351461833</internalNodes>
          <leafValues>
            -2.9439577460289001e-001 2.1856008470058441e-001</leafValues></_>
        <_>
          <internalNodes>
            0 -1 374 1052663580 -1078034437 -1077051393 -720898
            2029518821 -622928975 -1208262732 455352148</internalNodes>
          <leafValues>
            -5.1370251178741455e-001 1.2287456542253494e-001</leafValues></_>
        <_>
          <internalNodes>
            0 -1 167 -768612218 -202060289 -1347424914 1908927790
            -558055940 -560137795 -668870930 1344796559</internalNodes>
          <leafValues>
            -2.8402063250541687e-001 2.2835424542427063e-001</leafValues></_>
        <_>
          <internalNodes>
            0 -1 29 -923865910 -936711642 13159166 -1060487002
            1624981691 -1474289610 585094299 196795322</internalNodes>
          <leafValues>
            -4.1867530345916748e-001 1.4729066193103790e-001</leafValues></_>
        <_>
          <internalNodes>
            0 -1 3 -1360900611 -536922372 -704776225 -570892 -1417875464
            -1158754926 -189991920 -32352525</internalNodes>
          <leafValues>
            -2.1489809453487396e-001 2.9191261529922485e-001</leafValues></_>
        <_>
          <internalNodes>
            0 -1 336 -299895798 1112466980 -1194240 1621838568 654239526
            5179247 -176692352 -755506465</internalNodes>
          <leafValues>
            -3.0409440398216248e-001 2.0320361852645874e-001</leafValues></_>
        <_>
          <internalNodes>
            0 -1 234 956303408 -285050435 1946152703 -537666975
            991825919 728178613 1065277695 783439040</internalNodes>
          <leafValues>
            -3.6937147378921509e-001 1.6419124603271484e-001</leafValues></_></weakClassifiers></_>
    <!-- stage 13 -->
    <_>
      <maxWeakCount>25</maxWeakCount>
      <stageThreshold>-1.7787408828735352e+000</stageThreshold>
      <weakClassifiers>
        <_>
          <internalNodes>
            0 -1 353 -1077936130 -67372033 -2359784 -548929537
            -1073741828 -65537 -1140858884 -536870913</internalNodes>
          <leafValues>
            -4.9242934584617615e-001 2.6817539334297180e-001</leafValues></_>
        <_>
          <internalNodes>
            0 -1 121 -1 -81922 -237572 -98308 -4259843 -71499780 -196610
            -1</internalNodes>
          <leafValues>
            -2.5882863998413086e-001 4.7324091196060181e-001</leafValues></_>
        <_>
          <internalNodes>
            0 -1 42 -285326098 1548643343 -17895698 -11612210 -272936961
            -50897073 -3077 -128559245</internalNodes>
          <leafValues>
            -3.3358457684516907e-001 2.9553097486495972e-001</leafValues></_>
        <_>
          <internalNodes>
            0 -1 280 -804798462 -4197017 -11616097 -71305537 -1442058325
            -8726649 -347354385 1393541771</internalNodes>
          <leafValues>
            -3.2038691639900208e-001 2.7040913701057434e-001</leafValues></_>
        <_>
          <internalNodes>
            0 -1 156 -8194 -67637793 -509149700 -67109378 -65537
            -272698897 -269746178 -1082150914</internalNodes>
          <leafValues>
            -2.6003122329711914e-001 3.2220247387886047e-001</leafValues></_>
        <_>
          <internalNodes>
            0 -1 49 -285324161 2136608055 -352419841 -4300930 290984222
            2132433773 -4817409 -5603461</internalNodes>
          <leafValues>
            -2.5767359137535095e-001 2.8997075557708740e-001</leafValues></_>
        <_>
          <internalNodes>
            0 -1 256 402655376 -536922372 1073610751 -134407683
            -357843025 -94996 -1171194385 -1165221712</internalNodes>
          <leafValues>
            -4.0235126018524170e-001 1.7089866101741791e-001</leafValues></_>
        <_>
          <internalNodes>
            0 -1 163 -4470 -18165978 -822686720 -202965117 -405814068
            1095184199 -220278574 -205523009</internalNodes>
          <leafValues>
            -2.5975373387336731e-001 2.8278574347496033e-001</leafValues></_>
        <_>
          <internalNodes>
            0 -1 242 184554684 1060124140 1061007157 2067758845
            1061036989 -1074053571 1068246015 736762360</internalNodes>
          <leafValues>
            -4.9593916535377502e-001 1.3155549764633179e-001</leafValues></_>
        <_>
          <internalNodes>
            0 -1 254 -297865558 -2102604150 -409688576 596438026
            -1360066578 4355887 -1279799158 -202377281</internalNodes>
          <leafValues>
            -2.8419351577758789e-001 2.3884509503841400e-001</leafValues></_>
        <_>
          <internalNodes>
            0 -1 2 -353439825 -83899138 -32777 -51382289 -75497505
            -50593793 -35651788 -190025940</internalNodes>
          <leafValues>
            -2.5451228022575378e-001 2.5322830677032471e-001</leafValues></_>
        <_>
          <internalNodes>
            0 -1 272 -502841214 -80550146 -894640213 -795021678
            -352130566 -1720648564 -616183825 1397735883</internalNodes>
          <leafValues>
            -2.8874480724334717e-001 2.2455348074436188e-001</leafValues></_>
        <_>
          <internalNodes>
            0 -1 367 -1094828561 -1145127425 -16778248 -819020290
            767196597 1609834417 788381153 249824468</internalNodes>
          <leafValues>
            -3.9664140343666077e-001 1.5157000720500946e-001</leafValues></_>
        <_>
          <internalNodes>
            0 -1 303 -1082197124 -1176708100 -1145734155 -46268419
            -1078161928 -196884 469507324 -1616904196</internalNodes>
          <leafValues>
            -3.3150121569633484e-001 1.8382774293422699e-001</leafValues></_>
        <_>
          <internalNodes>
            0 -1 79 -525604340 -266273878 -1073741889 -239359333
            691400701 -15597649 -76550247 539871151</internalNodes>
          <leafValues>
            -3.1704506278038025e-001 1.9527617096900940e-001</leafValues></_>
        <_>
          <internalNodes>
            0 -1 289 1384833032 -80085632 1258604808 1405088556
            1868620216 2137579304 1326240138 1376765995</internalNodes>
          <leafValues>
            -3.6604619026184082e-001 1.6320018470287323e-001</leafValues></_>
        <_>
          <internalNodes>
            0 -1 147 1025150120 -548010613 901253177 -1078130255
            -1271756513 -2088204359 -1080381761 1057893309</internalNodes>
          <leafValues>
            -3.4623828530311584e-001 1.7123420536518097e-001</leafValues></_>
        <_>
          <internalNodes>
            0 -1 51 -285323715 -25202753 -336681346 -159770765
            1325010797 -8421673 -289508027 -13484078</internalNodes>
          <leafValues>
            -2.2783638536930084e-001 2.6131430268287659e-001</leafValues></_>
        <_>
          <internalNodes>
            0 -1 66 -479202610 285176550 1256861610 277893094 -9448075
            -46377099 -60962820 2020855732</internalNodes>
          <leafValues>
            -3.1537964940071106e-001 1.9445732235908508e-001</leafValues></_>
        <_>
          <internalNodes>
            0 -1 338 -1153704175 -1624191319 -537010179 -471542287
            -1083000950 -27607813 -1654785542 -1996497679</internalNodes>
          <leafValues>
            -1.9516088068485260e-001 3.0814689397811890e-001</leafValues></_>
        <_>
          <internalNodes>
            0 -1 146 -18087960 -684135200 -1930573624 -861329880
            -1101857810 1042035728 510166268 762002917</internalNodes>
          <leafValues>
            -3.4712839126586914e-001 1.6934341192245483e-001</leafValues></_>
        <_>
          <internalNodes>
            0 -1 94 -1173713394 -1289487200 -286486546 -71788510
            -1099044147 -29770884 -278065571 1076741709</internalNodes>
          <leafValues>
            -3.4366819262504578e-001 1.6598203778266907e-001</leafValues></_>
        <_>
          <internalNodes>
            0 -1 259 1347943744 1369420260 1515969280 295515059
            -1334601332 -1674165636 462391304 254793787</internalNodes>
          <leafValues>
            -3.2815852761268616e-001 1.7103898525238037e-001</leafValues></_>
        <_>
          <internalNodes>
            0 -1 141 16 -75547768 347963315 2080181656 -608650498
            -553666324 -1661796361 201326784</internalNodes>
          <leafValues>
            -5.4470193386077881e-001 9.9870301783084869e-002</leafValues></_>
        <_>
          <internalNodes>
            0 -1 178 309834530 284451071 -544959602 905239639 -245699204
            1559512401 1598160863 1375062735</internalNodes>
          <leafValues>
            -3.2298997044563293e-001 1.7531181871891022e-001</leafValues></_></weakClassifiers></_>
    <!-- stage 14 -->
    <_>
      <maxWeakCount>26</maxWeakCount>
      <stageThreshold>-1.7619663476943970e+000</stageThreshold>
      <weakClassifiers>
        <_>
          <internalNodes>
            0 -1 74 -1 -131075 -2359297 -131073 -1027 -133700 -1 -1</internalNodes>
          <leafValues>
            -3.7154263257980347e-001 5.9987407922744751e-001</leafValues></_>
        <_>
          <internalNodes>
            0 -1 224 -9440501 -855643393 -284169459 -709891313
            -142609487 1526719089 -150605043 -536870913</internalNodes>
          <leafValues>
            -2.1914254128932953e-001 4.9400326609611511e-001</leafValues></_>
        <_>
          <internalNodes>
            0 -1 27 -335906 -492296 -137823498 2008043992 -649396337
            -562495826 -77599793 -537362946</internalNodes>
          <leafValues>
            -5.3125077486038208e-001 1.4305880665779114e-001</leafValues></_>
        <_>
          <internalNodes>
            0 -1 357 -1147404383 490471421 -83886303 -153092097
            -1623986521 -1979711505 -1140852319 -1997545993</internalNodes>
          <leafValues>
            -2.3341999948024750e-001 3.4240022301673889e-001</leafValues></_>
        <_>
          <internalNodes>
            0 -1 135 -1311782 -603980740 -1087862292 -38178820
            -562692824 523775252 1818341294 2122268607</internalNodes>
          <leafValues>
            -3.1154358386993408e-001 2.5456407666206360e-001</leafValues></_>
        <_>
          <internalNodes>
            0 -1 57 -525670908 -83886089 -536875009 -184555979
            -1111498947 -1 -1342177956 -458688736</internalNodes>
          <leafValues>
            -3.3597597479820251e-001 2.0475427806377411e-001</leafValues></_>
        <_>
          <internalNodes>
            0 -1 116 -232001970 -206342712 -288485554 -68361204
            -11141364 2138077173 -1355838482 1359992287</internalNodes>
          <leafValues>
            -3.1410855054855347e-001 2.3321880400180817e-001</leafValues></_>
        <_>
          <internalNodes>
            0 -1 125 136314992 187389940 1069458943 -67422883 20320625
            -1208295758 1073673983 800726140</internalNodes>
          <leafValues>
            -4.6086624264717102e-001 1.3437397778034210e-001</leafValues></_>
        <_>
          <internalNodes>
            0 -1 372 -352325850 -9447561 -1893794305 -536936450
            -343965899 -527561 -1582219 -1095495356</internalNodes>
          <leafValues>
            -3.2988604903221130e-001 1.9401472806930542e-001</leafValues></_>
        <_>
          <internalNodes>
            0 -1 339 -771563518 -201597013 1864910734 -704644721
            -1887246543 -73074828 1598858179 1396957955</internalNodes>
          <leafValues>
            -3.3971917629241943e-001 1.7479029297828674e-001</leafValues></_>
        <_>
          <internalNodes>
            0 -1 223 -1070956030 -604068177 -944896195 1272974341
            -1301354310 146591660 -751923269 1104135995</internalNodes>
          <leafValues>
            -3.1928366422653198e-001 1.8993474543094635e-001</leafValues></_>
        <_>
          <internalNodes>
            0 -1 244 20060432 -1531965144 1037781501 -710125827
            -1430605830 -1886736651 783089052 136462344</internalNodes>
          <leafValues>
            -4.4361770153045654e-001 1.2462325394153595e-001</leafValues></_>
        <_>
          <internalNodes>
            0 -1 300 -4264446 34121258 -366058880 1942402947 1795114890
            5465607 -186174822 -747116613</internalNodes>
          <leafValues>
            -2.8053036332130432e-001 2.1325375139713287e-001</leafValues></_>
        <_>
          <internalNodes>
            0 -1 40 -546159362 -659008460 -701837706 167919844
            -1908911404 -607255692 1318339837 146692330</internalNodes>
          <leafValues>
            -4.2729076743125916e-001 1.3899935781955719e-001</leafValues></_>
        <_>
          <internalNodes>
            0 -1 16 -1276124470 -4983322 2327052 -2392408 -69360666
            -717177276 1112264923 -150092082</internalNodes>
          <leafValues>
            -2.9697480797767639e-001 1.9708687067031860e-001</leafValues></_>
        <_>
          <internalNodes>
            0 -1 209 -269848834 -34072386 -1903943560 2147237244
            1325165404 781717500 1861530812 1073626622</internalNodes>
          <leafValues>
            -3.9543646574020386e-001 1.4878743886947632e-001</leafValues></_>
        <_>
          <internalNodes>
            0 -1 358 -1372323919 654514037 -1078199631 2095968069
            -1472861212 598736637 -1358966787 -1729144579</internalNodes>
          <leafValues>
            -2.1802273392677307e-001 2.5172829627990723e-001</leafValues></_>
        <_>
          <internalNodes>
            0 -1 273 271049730 -675967865 1873035852 1240313772
            1593892328 141561120 1608374190 1395645871</internalNodes>
          <leafValues>
            -3.0193555355072021e-001 1.8375140428543091e-001</leafValues></_>
        <_>
          <internalNodes>
            0 -1 52 -268548817 2133816095 -623233 -4950222 91321994
            1073659717 -440748556 -5087754</internalNodes>
          <leafValues>
            -2.1466837823390961e-001 2.6539021730422974e-001</leafValues></_>
        <_>
          <internalNodes>
            0 -1 126 176 -139524876 1599463167 -4097679 -1367164162
            -69293864 -466561409 436211920</internalNodes>
          <leafValues>
            -4.9870842695236206e-001 1.1856696009635925e-001</leafValues></_>
        <_>
          <internalNodes>
            0 -1 283 -771497590 -5575444 -705950208 -777852256
            -298778712 168310564 1168233355 1464852879</internalNodes>
          <leafValues>
            -3.2385036349296570e-001 1.6939459741115570e-001</leafValues></_>
        <_>
          <internalNodes>
            0 -1 23 1244129522 914501666 1092616272 -1048041214
            2113760480 -557425133 1165284604 -294988190</internalNodes>
          <leafValues>
            -2.9664033651351929e-001 1.8422670662403107e-001</leafValues></_>
        <_>
          <internalNodes>
            0 -1 114 -1694443560 -570570796 1149583500 -1311832063
            -1691159650 -324741638 209898155 -1415184248</internalNodes>
          <leafValues>
            -2.8261381387710571e-001 1.8962216377258301e-001</leafValues></_>
        <_>
          <internalNodes>
            0 -1 352 -1141924950 821947903 -639764664 1352587767
            -270299133 -1849695949 -1091054495 -1293525552</internalNodes>
          <leafValues>
            -2.8622424602508545e-001 1.9307646155357361e-001</leafValues></_>
        <_>
          <internalNodes>
            0 -1 278 488299505 142634416 -1241513987 -1034063363
            -1205088261 -1096041476 236896509 -1418733100</internalNodes>
          <leafValues>
            -2.1317346394062042e-001 2.5574964284896851e-001</leafValues></_>
        <_>
          <internalNodes>
            0 -1 333 -1632436228 1933113240 -1146307076 2004652020
            1034951092 -1531988 1069290920 529292724</internalNodes>
          <leafValues>
            -6.1944639682769775e-001 9.3732513487339020e-002</leafValues></_></weakClassifiers></_>
    <!-- stage 15 -->
    <_>
      <maxWeakCount>29</maxWeakCount>
      <stageThreshold>-1.8826884031295776e+000</stageThreshold>
      <weakClassifiers>
        <_>
          <internalNodes>
            0 -1 205 -17 -33554977 -7344241 -513 -176983565 -34343565
            -33 -1</internalNodes>
          <leafValues>
            -3.7772187590599060e-001 5.4835909605026245e-001</leafValues></_>
        <_>
          <internalNodes>
            0 -1 39 -286363986 2020372038 -353440018 2125131502
            1744787247 -117485801 -67176449 -131891369</internalNodes>
          <leafValues>
            -4.0261197090148926e-001 2.4868687987327576e-001</leafValues></_>
        <_>
          <internalNodes>
            0 -1 368 -16781561 -137 -268468353 -17629185 -8915113
            -524937 -1573001 -202051804</internalNodes>
          <leafValues>
            -3.1477501988410950e-001 2.5931516289710999e-001</leafValues></_>
        <_>
          <internalNodes>
            0 -1 89 -266080754 -257819352 -1048673 -247469237 -72093697
            -18219345 -1 -265556049</internalNodes>
          <leafValues>
            -2.5726607441902161e-001 3.0834913253784180e-001</leafValues></_>
        <_>
          <internalNodes>
            0 -1 46 -807514881 -45193 -302584321 -364566 1274429951
            -1075610753 2063520511 -14524814</internalNodes>
          <leafValues>
            -2.3326082527637482e-001 2.9033121466636658e-001</leafValues></_>
        <_>
          <internalNodes>
            0 -1 81 -1331429748 1899074732 -274215682 -101468032
            -1152254083 -76417091 -75497540 942665005</internalNodes>
          <leafValues>
            -2.9059180617332458e-001 2.3563900589942932e-001</leafValues></_>
        <_>
          <internalNodes>
            0 -1 237 -1073053696 -212409041 -1078988929 -995180837
            -81527880 -25887761 -232295393 1124844427</internalNodes>
          <leafValues>
            -3.4014964103698730e-001 1.9143940508365631e-001</leafValues></_>
        <_>
          <internalNodes>
            0 -1 298 -8388610 -3539460 -1142104200 -211984388 -79036418
            -4400276 -1073938434 -1141006338</internalNodes>
          <leafValues>
            -3.0827522277832031e-001 1.9632218778133392e-001</leafValues></_>
        <_>
          <internalNodes>
            0 -1 343 -1414861008 201373712 -8388679 419159473
            -1992955971 -1204032011 469753325 146530037</internalNodes>
          <leafValues>
            -3.1336903572082520e-001 2.0193935930728912e-001</leafValues></_>
        <_>
          <internalNodes>
            0 -1 105 -200621438 -778469265 1077968925 520554247
            -257967217 -608499269 -1576296005 -1147434097</internalNodes>
          <leafValues>
            -2.5768023729324341e-001 2.3609349131584167e-001</leafValues></_>
        <_>
          <internalNodes>
            0 -1 261 -10227270 2138863768 1336672600 1903005264
            -29447750 175127856 1193541807 997933055</internalNodes>
          <leafValues>
            -2.9967573285102844e-001 1.8701712787151337e-001</leafValues></_>
        <_>
          <internalNodes>
            0 -1 1 -290521683 -84940818 -65665 -1048577 -16777217
            -83892249 -134350980 -441957232</internalNodes>
          <leafValues>
            -2.2022192180156708e-001 2.5872635841369629e-001</leafValues></_>
        <_>
          <internalNodes>
            0 -1 44 -563454049 -1074118694 -88548521 -1086816904
            -362929922 -33626116 -61017217 -268542090</internalNodes>
          <leafValues>
            -2.7283495664596558e-001 2.0547051727771759e-001</leafValues></_>
        <_>
          <internalNodes>
            0 -1 266 -68426622 -650185598 -928217856 -1867935870
            -1575568920 175642032 491826574 1399848959</internalNodes>
          <leafValues>
            -3.0324149131774902e-001 1.9111257791519165e-001</leafValues></_>
        <_>
          <internalNodes>
            0 -1 236 34609172 238776028 -1770663691 1072647029 197017022
            -1275102467 1073413623 261758428</internalNodes>
          <leafValues>
            -4.4683077931404114e-001 1.3195367157459259e-001</leafValues></_>
        <_>
          <internalNodes>
            0 -1 347 -774439166 -610074897 -91234809 -781257889
            -25176285 -353370373 -5767217 -84471483</internalNodes>
          <leafValues>
            -2.3964822292327881e-001 2.4017968773841858e-001</leafValues></_>
        <_>
          <internalNodes>
            0 -1 104 -773852321 1432558155 1895559227 1907696419
            -657522706 -1739025568 -177209362 -129237313</internalNodes>
          <leafValues>
            -1.4599066972732544e-001 4.0312263369560242e-001</leafValues></_>
        <_>
          <internalNodes>
            0 -1 8 34211026 1030684836 992630205 2138199736 261490058
            400506472 439363067 453001426</internalNodes>
          <leafValues>
            -3.8281187415122986e-001 1.5097793936729431e-001</leafValues></_>
        <_>
          <internalNodes>
            0 -1 331 1109581826 -106172385 -1905340664 25095582 -9375252
            1261976181 1500323020 1074255395</internalNodes>
          <leafValues>
            -3.8332948088645935e-001 1.2757016718387604e-001</leafValues></_>
        <_>
          <internalNodes>
            0 -1 47 -934918100 1497114703 -822161793 -40214582 492586280
            2017150521 1785351104 2017615206</internalNodes>
          <leafValues>
            -3.3656185865402222e-001 1.5890985727310181e-001</leafValues></_>
        <_>
          <internalNodes>
            0 -1 315 -2029256779 -1557069852 -411041803 2146154365
            -1684438851 -1092101953 451858941 -1897137159</internalNodes>
          <leafValues>
            -1.9277155399322510e-001 2.8282746672630310e-001</leafValues></_>
        <_>
          <internalNodes>
            0 -1 111 -1720691240 -775300841 -605577347 1375563917
            -1192035399 -1994447473 -1454449673 292424331</internalNodes>
          <leafValues>
            -2.9844745993614197e-001 1.7883738875389099e-001</leafValues></_>
        <_>
          <internalNodes>
            0 -1 13 -1016115474 -6298913 -1312509484 2108402388
            -87032914 -68370548 -337313 -103972278</internalNodes>
          <leafValues>
            -3.0793213844299316e-001 1.7233031988143921e-001</leafValues></_>
        <_>
          <internalNodes>
            0 -1 346 -905789413 -73731129 -939526177 -85524625 -47585345
            -25 -84030481 -1038991344</internalNodes>
          <leafValues>
            -2.0787987112998962e-001 2.5342547893524170e-001</leafValues></_>
        <_>
          <internalNodes>
            0 -1 233 -429200368 -606361418 -1903219591 -805761480
            259963539 2046590964 402979902 1543487487</internalNodes>
          <leafValues>
            -2.6802957057952881e-001 2.0562835037708282e-001</leafValues></_>
        <_>
          <internalNodes>
            0 -1 378 -1197826647 -1889079947 -272629888 -487392003
            -1084883663 -2089287885 -1128340364 -1931211648</internalNodes>
          <leafValues>
            -2.8922331333160400e-001 1.8835569918155670e-001</leafValues></_>
        <_>
          <internalNodes>
            0 -1 157 -228334334 -235746250 -1881406004 1657319310
            -340460740 2146184456 1564516108 1942874026</internalNodes>
          <leafValues>
            -3.4480348229408264e-001 1.5945173799991608e-001</leafValues></_>
        <_>
          <internalNodes>
            0 -1 143 -500732608 -745284436 2028253034 1625927176
            -1642666592 992229160 1239713454 1108209146</internalNodes>
          <leafValues>
            -3.5518869757652283e-001 1.5110673010349274e-001</leafValues></_>
        <_>
          <internalNodes>
            0 -1 365 -1372668617 1002174901 1862251927 -1938623497
            -293607627 -608704733 -838869001 -1900763660</internalNodes>
          <leafValues>
            -2.2291305661201477e-001 2.5756686925888062e-001</leafValues></_></weakClassifiers></_>
    <!-- stage 16 -->
    <_>
      <maxWeakCount>31</maxWeakCount>
      <stageThreshold>-1.7490731477737427e+000</stageThreshold>
      <weakClassifiers>
        <_>
          <internalNodes>
            0 -1 82 -67374081 -201330189 1229800909 1360073177 -3073
            -67112011 -1048577 -67108865</internalNodes>
          <leafValues>
            -3.7233632802963257e-001 5.4558908939361572e-001</leafValues></_>
        <_>
          <internalNodes>
            0 -1 195 -15760758 -1886412873 -1433730294 -2029535473
            -772550261 -1845504809 -580919345 -570425345</internalNodes>
          <leafValues>
            -3.3574470877647400e-001 3.0062976479530334e-001</leafValues></_>
        <_>
          <internalNodes>
            0 -1 33 -32771 -1 -536936450 -4292609 -33 -545275905
            -16777217 -33</internalNodes>
          <leafValues>
            -1.6352823376655579e-001 4.8840630054473877e-001</leafValues></_>
        <_>
          <internalNodes>
            0 -1 293 -1 -4 -131588 -131588 -65537 -213060 -196609 -1</internalNodes>
          <leafValues>
            -1.5751841664314270e-001 4.6108552813529968e-001</leafValues></_>
        <_>
          <internalNodes>
            0 -1 149 1058528728 -4202531 2147327133 1463752061
            -1103189316 -1082225601 -1422783077 205459740</internalNodes>
          <leafValues>
            -3.5958445072174072e-001 1.7751374840736389e-001</leafValues></_>
        <_>
          <internalNodes>
            0 -1 356 -1414266973 1975514813 -33562720 -16781315
            -1350832763 -1914699777 -1073742715 -1912611593</internalNodes>
          <leafValues>
            -1.6040953993797302e-001 3.5830914974212646e-001</leafValues></_>
        <_>
          <internalNodes>
            0 -1 76 -70257689 -253890316 -1999972518 295179099 -11676172
            -211500 -318974467 -117637121</internalNodes>
          <leafValues>
            -2.4333234131336212e-001 2.6521542668342590e-001</leafValues></_>
        <_>
          <internalNodes>
            0 -1 98 -1324347939 -189155 399708671 -1208542941
            -2051233382 -537993253 -1950709013 -1145435990</internalNodes>
          <leafValues>
            -1.9824276864528656e-001 2.8036344051361084e-001</leafValues></_>
        <_>
          <internalNodes>
            0 -1 37 -457292770 -705925454 -1072935843 1158422698
            348081644 -815885353 1283248126 264130539</internalNodes>
          <leafValues>
            -3.4390598535537720e-001 1.6602919995784760e-001</leafValues></_>
        <_>
          <internalNodes>
            0 -1 120 -591467520 1580195611 -35238878 1389032323
            112674508 15082805 1690759918 -234620933</internalNodes>
          <leafValues>
            -2.8112182021141052e-001 1.8779599666595459e-001</leafValues></_>
        <_>
          <internalNodes>
            0 -1 174 -604012546 -67307076 -294037000 -198724 -8586498
            2122067388 2058408188 2147303102</internalNodes>
          <leafValues>
            -3.3201563358306885e-001 1.6303732991218567e-001</leafValues></_>
        <_>
          <internalNodes>
            0 -1 219 268959760 -68171180 1811799423 -830646065
            -1090602050 -1342299286 -459010 -1366673168</internalNodes>
          <leafValues>
            -3.4789586067199707e-001 1.4982208609580994e-001</leafValues></_>
        <_>
          <internalNodes>
            0 -1 132 -223616886 -71567000 -626766452 -105984734
            -366805748 2114758433 -630405142 1074788267</internalNodes>
          <leafValues>
            -2.8883165121078491e-001 1.8408028781414032e-001</leafValues></_>
        <_>
          <internalNodes>
            0 -1 305 1058274321 169359920 1475866247 41417073 245865966
            1005564761 -1459694340 -1967392516</internalNodes>
          <leafValues>
            -2.5561395287513733e-001 2.0432317256927490e-001</leafValues></_>
        <_>
          <internalNodes>
            0 -1 337 -789323200 -606080017 -909377537 -70189697
            452065779 -1963984171 -707811873 1354977283</internalNodes>
          <leafValues>
            -2.6508295536041260e-001 1.9953238964080811e-001</leafValues></_>
        <_>
          <internalNodes>
            0 -1 71 -635779 -33673753 1861675639 -109199 -307621074
            -96510140 1698364911 -1095598321</internalNodes>
          <leafValues>
            -2.0039898157119751e-001 2.7098333835601807e-001</leafValues></_>
        <_>
          <internalNodes>
            0 -1 373 -1963262033 -580911105 788265471 -50921505
            -84410379 -4194573 -8388623 -1095490124</internalNodes>
          <leafValues>
            -2.4714089930057526e-001 2.0767943561077118e-001</leafValues></_>
        <_>
          <internalNodes>
            0 -1 226 -357897189 -211115990 -1902582221 2078805728
            -2041780756 54157240 1947583676 -134285329</internalNodes>
          <leafValues>
            -1.9531419873237610e-001 2.6232478022575378e-001</leafValues></_>
        <_>
          <internalNodes>
            0 -1 241 -290785476 -1711526764 -1885308399 195061692
            511487161 708056565 388270270 536821759</internalNodes>
          <leafValues>
            -3.0276778340339661e-001 1.7046256363391876e-001</leafValues></_>
        <_>
          <internalNodes>
            0 -1 281 -1039974398 -71565998 -292682744 -1777620436
            -14027014 1259143056 107988416 1393279371</internalNodes>
          <leafValues>
            -3.2499885559082031e-001 1.5629103779792786e-001</leafValues></_>
        <_>
          <internalNodes>
            0 -1 103 -1778491425 1442623759 -1862278377 1896415677
            -1862336548 -871714860 -571552022 -1196758069</internalNodes>
          <leafValues>
            -1.5682606399059296e-001 3.1573721766471863e-001</leafValues></_>
        <_>
          <internalNodes>
            0 -1 327 -85998454 646636078 -404283008 1114299304
            1859120235 7235463 2010629762 -740307973</internalNodes>
          <leafValues>
            -2.4177877604961395e-001 2.0026336610317230e-001</leafValues></_>
        <_>
          <internalNodes>
            0 -1 107 469896328 -1077998160 66364405 1066867461 120455355
            -484624460 733882559 1072302312</internalNodes>
          <leafValues>
            -3.9857378602027893e-001 1.2097868323326111e-001</leafValues></_>
        <_>
          <internalNodes>
            0 -1 58 1621634860 -1225081089 -1114113 -323072001
            -1141252099 -25888900 -134287363 538980140</internalNodes>
          <leafValues>
            -4.6178612112998962e-001 1.0605279356241226e-001</leafValues></_>
        <_>
          <internalNodes>
            0 -1 350 -1615134891 465493268 -545755229 -42739076
            -1078723068 -356780289 -1962934296 -1131941391</internalNodes>
          <leafValues>
            -1.8991471827030182e-001 2.5761395692825317e-001</leafValues></_>
        <_>
          <internalNodes>
            0 -1 117 1358426658 -1712300030 -143077942 2099630121
            -9727824 144207540 -101191010 1675223490</internalNodes>
          <leafValues>
            -2.8487747907638550e-001 1.6967102885246277e-001</leafValues></_>
        <_>
          <internalNodes>
            0 -1 55 -581807883 -2289322 1987802621 1593180922 1580734528
            -75531545 2117661943 -66432513</internalNodes>
          <leafValues>
            -1.8354903161525726e-001 2.6438918709754944e-001</leafValues></_>
        <_>
          <internalNodes>
            0 -1 296 36364810 -748130016 1258815964 -745902588
            -1574837816 187749792 325181839 1378875919</internalNodes>
          <leafValues>
            -3.2525306940078735e-001 1.4893074333667755e-001</leafValues></_>
        <_>
          <internalNodes>
            0 -1 131 -1297382782 -5853390 25216588 2064479570
            -1157844314 -1183030443 -523978865 -1685327286</internalNodes>
          <leafValues>
            -2.7186474204063416e-001 1.7597080767154694e-001</leafValues></_>
        <_>
          <internalNodes>
            0 -1 196 2071883742 1542495660 -1103348272 1073528172
            -604750216 242236856 -1621573972 1073495960</internalNodes>
          <leafValues>
            -5.9961092472076416e-001 7.8777797520160675e-002</leafValues></_>
        <_>
          <internalNodes>
            0 -1 185 402673872 -333897511 431939509 -866838987
            -1395093328 -143685974 958443603 -1122631664</internalNodes>
          <leafValues>
            -3.0191591382026672e-001 1.5373647212982178e-001</leafValues></_></weakClassifiers></_>
    <!-- stage 17 -->
    <_>
      <maxWeakCount>32</maxWeakCount>
      <stageThreshold>-1.7485334873199463e+000</stageThreshold>
      <weakClassifiers>
        <_>
          <internalNodes>
            0 -1 204 -2137 -4609 -5242994 -81 -810573 -34118411 -33 -17</internalNodes>
          <leafValues>
            -3.9408734440803528e-001 4.4038003683090210e-001</leafValues></_>
        <_>
          <internalNodes>
            0 -1 88 -89391361 -206831681 -8193 -72613893 -273678337
            -4198481 -1048577 -72355841</internalNodes>
          <leafValues>
            -1.5349383652210236e-001 6.1685138940811157e-001</leafValues></_>
        <_>
          <internalNodes>
            0 -1 45 -25277201 1568632815 -16847105 -3477553 -807710977
            -51155125 -100663589 -93094057</internalNodes>
          <leafValues>
            -2.0550671219825745e-001 3.5648855566978455e-001</leafValues></_>
        <_>
          <internalNodes>
            0 -1 231 -2576 -176837931 -1686309380 -133635 -197636
            -81995776 245402876 -9060356</internalNodes>
          <leafValues>
            -4.6514588594436646e-001 1.4223185181617737e-001</leafValues></_>
        <_>
          <internalNodes>
            0 -1 100 -234619890 -256770564 -288452918 -19670 -13238291
            -96600769 -336598866 1487928719</internalNodes>
          <leafValues>
            -2.6766404509544373e-001 2.4114359915256500e-001</leafValues></_>
        <_>
          <internalNodes>
            0 -1 183 -269759602 -876315 199756072 2074668264 2092699114
            985150889 667702158 535773183</internalNodes>
          <leafValues>
            -3.3297407627105713e-001 1.8804045021533966e-001</leafValues></_>
        <_>
          <internalNodes>
            0 -1 245 354423256 -1179637352 503152637 -1076537116
            -1179107329 -1343407140 1067253499 427823552</internalNodes>
          <leafValues>
            -4.3048882484436035e-001 1.4697962999343872e-001</leafValues></_>
        <_>
          <internalNodes>
            0 -1 362 -486543593 -4225 -1 -196737 -2112249 -263305
            -293601669 -478917835</internalNodes>
          <leafValues>
            -2.6587370038032532e-001 2.1649612486362457e-001</leafValues></_>
        <_>
          <internalNodes>
            0 -1 287 -1073037304 -214371551 1855970783 1405843519
            -368906614 -542186066 1093658583 1393017227</internalNodes>
          <leafValues>
            -2.8050595521926880e-001 2.0166866481304169e-001</leafValues></_>
        <_>
          <internalNodes>
            0 -1 238 -1070940032 -77386513 -1414544079 -1026816313
            -33423976 7360800 153411467 1395647375</internalNodes>
          <leafValues>
            -3.3626499772071838e-001 1.4513523876667023e-001</leafValues></_>
        <_>
          <internalNodes>
            0 -1 304 792419600 187372977 -33587907 452582873 -1698755665
            -2015936609 -1124627272 149937663</internalNodes>
          <leafValues>
            -2.5560507178306580e-001 2.0435230433940887e-001</leafValues></_>
        <_>
          <internalNodes>
            0 -1 376 502971823 -21037123 -270540830 -320673986
            -1149831323 -71566221 -1082266524 -1611395468</internalNodes>
          <leafValues>
            -2.9249206185340881e-001 1.5955166518688202e-001</leafValues></_>
        <_>
          <internalNodes>
            0 -1 68 -9473938 1882940128 -554807862 273242106 2135839044
            -8432560 1228955132 -1728064031</internalNodes>
          <leafValues>
            -2.4118866026401520e-001 2.0710197091102600e-001</leafValues></_>
        <_>
          <internalNodes>
            0 -1 102 1526984938 -557751582 1535656138 290836952 -3292678
            -2000747196 -523451442 -102892562</internalNodes>
          <leafValues>
            -2.3004922270774841e-001 2.0965248346328735e-001</leafValues></_>
        <_>
          <internalNodes>
            0 -1 137 1997534154 -211422699 21498218 290789139
            -1092795188 -52547770 -1328156437 -70389043</internalNodes>
          <leafValues>
            -1.9860360026359558e-001 2.5256806612014771e-001</leafValues></_>
        <_>
          <internalNodes>
            0 -1 263 233311549 770555839 -85098503 -1427275811
            -270897297 -8454305 -269706737 -1090904164</internalNodes>
          <leafValues>
            -2.6316472887992859e-001 1.9221967458724976e-001</leafValues></_>
        <_>
          <internalNodes>
            0 -1 18 -326275412 -96473441 -335581586 -285217170 -9584657
            -50921481 -1358954788 -1326706888</internalNodes>
          <leafValues>
            -2.9816567897796631e-001 1.6075177490711212e-001</leafValues></_>
        <_>
          <internalNodes>
            0 -1 154 150999184 -6873960 2101106393 -41592440 -1091652178
            -5631820 -648217137 -1199041664</internalNodes>
          <leafValues>
            -3.5739135742187500e-001 1.3571733236312866e-001</leafValues></_>
        <_>
          <internalNodes>
            0 -1 326 -1071390710 -876676624 1137600772 1369717764
            -1369267157 35142564 1429012750 1378872239</internalNodes>
          <leafValues>
            -3.2911407947540283e-001 1.4855660498142242e-001</leafValues></_>
        <_>
          <internalNodes>
            0 -1 36 -939894819 -537379142 2046178731 1069029178
            -633540049 -8849292 -632500561 -537233422</internalNodes>
          <leafValues>
            -2.9924780130386353e-001 1.5843313932418823e-001</leafValues></_>
        <_>
          <internalNodes>
            0 -1 113 1397993674 -876418373 847790976 869372689
            -1997671224 74715552 861991931 1883619403</internalNodes>
          <leafValues>
            -3.0270346999168396e-001 1.5857557952404022e-001</leafValues></_>
        <_>
          <internalNodes>
            0 -1 56 -569225007 -17950595 -676310017 2054839931
            -838840256 -579127303 2138635636 -1375052865</internalNodes>
          <leafValues>
            -2.1271114051342010e-001 2.1587282419204712e-001</leafValues></_>
        <_>
          <internalNodes>
            0 -1 72 -2146900700 -89473101 -680013969 -1212195909
            1061158879 -59375681 -34769099 539527040</internalNodes>
          <leafValues>
            -3.7088584899902344e-001 1.3280904293060303e-001</leafValues></_>
        <_>
          <internalNodes>
            0 -1 85 -1363246068 410758447 -42995764 1993273255
            1179739611 -147638349 1715986904 -1197324357</internalNodes>
          <leafValues>
            -2.4905920028686523e-001 1.8597707152366638e-001</leafValues></_>
        <_>
          <internalNodes>
            0 -1 318 -510934518 -645732052 -1752948716 -407177344
            2032328928 715924272 1332838505 1349510571</internalNodes>
          <leafValues>
            -2.9444637894630432e-001 1.5972477197647095e-001</leafValues></_>
        <_>
          <internalNodes>
            0 -1 210 1041488400 171667620 494875833 1067417407 918487806
            -1157685699 1052454141 247187704</internalNodes>
          <leafValues>
            -3.0340588092803955e-001 1.5072968602180481e-001</leafValues></_>
        <_>
          <internalNodes>
            0 -1 360 -1650288620 -6416463 -1367482883 2012573949
            -1351962765 -12612210 -1640973318 -1097978416</internalNodes>
          <leafValues>
            -2.3442931473255157e-001 1.9657725095748901e-001</leafValues></_>
        <_>
          <internalNodes>
            0 -1 122 500713480 -373781607 -315063105 -846919207 91723354
            1072630361 -1365602049 -1088811027</internalNodes>
          <leafValues>
            -2.9360798001289368e-001 1.5925338864326477e-001</leafValues></_>
        <_>
          <internalNodes>
            0 -1 302 -157294848 540244799 -520149504 -1866472655
            1920864000 1509707727 -388012032 15203827</internalNodes>
          <leafValues>
            -4.3341329693794250e-001 1.0920777171850204e-001</leafValues></_>
        <_>
          <internalNodes>
            0 -1 268 -308305270 -898699730 -438156544 1940028015
            175013790 95911 -203955976 -752879917</internalNodes>
          <leafValues>
            -2.3650075495243073e-001 2.0018941164016724e-001</leafValues></_>
        <_>
          <internalNodes>
            0 -1 366 1051738108 -2189828 -1381243016 -1083410096
            783597249 -1451429891 1812478968 233575668</internalNodes>
          <leafValues>
            -5.9441536664962769e-001 7.1729503571987152e-002</leafValues></_>
        <_>
          <internalNodes>
            0 -1 180 16778440 901595080 -323550292 -637661336 353658583
            -654938251 564290303 833749652</internalNodes>
          <leafValues>
            -3.8734903931617737e-001 1.1231071501970291e-001</leafValues></_></weakClassifiers></_>
    <!-- stage 18 -->
    <_>
      <maxWeakCount>34</maxWeakCount>
      <stageThreshold>-1.6983705759048462e+000</stageThreshold>
      <weakClassifiers>
        <_>
          <internalNodes>
            0 -1 73 -67634177 -235573007 -560996385 1440585727 -10749987
            -202157999 -16777217 -3073</internalNodes>
          <leafValues>
            -3.6094182729721069e-001 5.1681119203567505e-001</leafValues></_>
        <_>
          <internalNodes>
            0 -1 208 -2193 -639631873 -282067697 -36700177 -237768237
            -247990925 -373037621 -2561</internalNodes>
          <leafValues>
            -1.8675066530704498e-001 5.2594530582427979e-001</leafValues></_>
        <_>
          <internalNodes>
            0 -1 61 -151525633 -151130450 -345288977 -479993237 -12291
            1046959633 -62565123 543686399</internalNodes>
          <leafValues>
            -2.8570353984832764e-001 2.5537282228469849e-001</leafValues></_>
        <_>
          <internalNodes>
            0 -1 4 -827665170 -33556754 -4458529 -536911746 -538515868
            -1090519049 -328925360 -865450761</internalNodes>
          <leafValues>
            -2.3688192665576935e-001 2.6217287778854370e-001</leafValues></_>
        <_>
          <internalNodes>
            0 -1 227 -268513729 -8409349 -409309377 -536932741
            -285286981 -75598595 -12919653 -75505665</internalNodes>
          <leafValues>
            -1.1690358072519302e-001 4.9531152844429016e-001</leafValues></_>
        <_>
          <internalNodes>
            0 -1 198 -2147319798 -77336849 -17117733 2049949178
            -230962689 -352354689 1265494975 1375986443</internalNodes>
          <leafValues>
            -3.3386430144309998e-001 1.6856232285499573e-001</leafValues></_>
        <_>
          <internalNodes>
            0 -1 375 -1073758225 -1025 -2129985 -151191558 -411829385
            -269033741 -1082427049 -692831436</internalNodes>
          <leafValues>
            -2.3539924621582031e-001 2.3176491260528564e-001</leafValues></_>
        <_>
          <internalNodes>
            0 -1 69 -604013059 2147319358 -65538 -6924291 -8388612
            -545472516 -2167842 -41009</internalNodes>
          <leafValues>
            -1.6659130156040192e-001 3.1612831354141235e-001</leafValues></_>
        <_>
          <internalNodes>
            0 -1 150 338693240 531372412 685522687 1004476277 928398206
            262085710 -1166905889 716837400</internalNodes>
          <leafValues>
            -4.8011761903762817e-001 1.1071243882179260e-001</leafValues></_>
        <_>
          <internalNodes>
            0 -1 312 1654841344 -776223558 1311558592 -538539693
            -1628110936 1244688800 1147505980 1393552011</internalNodes>
          <leafValues>
            -3.4559676051139832e-001 1.4330430328845978e-001</leafValues></_>
        <_>
          <internalNodes>
            0 -1 6 -604176900 -547426044 -1065853448 -1120388604
            -13042792 -22408 -269992644 -1405572904</internalNodes>
          <leafValues>
            -5.7873320579528809e-001 8.6855918169021606e-002</leafValues></_>
        <_>
          <internalNodes>
            0 -1 316 -1986389232 -1252130504 2066611189 1356166256
            -1953842243 -1358981008 720952744 142760368</internalNodes>
          <leafValues>
            -3.7740793824195862e-001 1.3282892107963562e-001</leafValues></_>
        <_>
          <internalNodes>
            0 -1 253 -292625278 1661649830 1262035488 1669747872
            100565998 65414094 293569154 -795875345</internalNodes>
          <leafValues>
            -2.6679599285125732e-001 1.7944556474685669e-001</leafValues></_>
        <_>
          <internalNodes>
            0 -1 181 -571477274 -611337306 33556868 -1760583510
            -222449426 -129625699 -316947245 -263723326</internalNodes>
          <leafValues>
            -2.5644600391387939e-001 1.8776181340217590e-001</leafValues></_>
        <_>
          <internalNodes>
            0 -1 248 -357916614 -685079362 -1903425003 -1891021215
            -83691078 241984688 523031482 196067263</internalNodes>
          <leafValues>
            -2.6098558306694031e-001 1.9279268383979797e-001</leafValues></_>
        <_>
          <internalNodes>
            0 -1 351 -1078788331 1434252497 -373424349 564985845
            -1691181824 -1398291720 -1315702100 -1734816524</internalNodes>
          <leafValues>
            -2.1593639254570007e-001 2.1999585628509521e-001</leafValues></_>
        <_>
          <internalNodes>
            0 -1 60 -1664476424 -80924144 -1344024897 1441734155
            -344404759 -861946574 -1016312225 158286935</internalNodes>
          <leafValues>
            -2.8221946954727173e-001 1.6883900761604309e-001</leafValues></_>
        <_>
          <internalNodes>
            0 -1 22 2121021103 -156242185 -621916498 -21042561
            -277758657 -159401123 -1052932 -256098516</internalNodes>
          <leafValues>
            -2.2335830330848694e-001 2.1350154280662537e-001</leafValues></_>
        <_>
          <internalNodes>
            0 -1 239 -828185584 -268522250 782953917 199921452
            -881742663 243023136 1018994618 234858429</internalNodes>
          <leafValues>
            -3.1165173649787903e-001 1.5305964648723602e-001</leafValues></_>
        <_>
          <internalNodes>
            0 -1 344 -1893990635 171228864 -390204749 -869083664
            -1635786806 -1617244168 -1396721156 -1976576559</internalNodes>
          <leafValues>
            -2.0439381897449493e-001 2.3344820737838745e-001</leafValues></_>
        <_>
          <internalNodes>
            0 -1 144 -503057206 -264508000 -1681127124 -1014378580
            -301936662 1068013488 1313081259 1376648043</internalNodes>
          <leafValues>
            -2.9595154523849487e-001 1.5930819511413574e-001</leafValues></_>
        <_>
          <internalNodes>
            0 -1 50 -1066794882 -260371142 1928490199 -5083846
            1522681968 883572620 2018311927 2048546066</internalNodes>
          <leafValues>
            -3.2613259553909302e-001 1.5139564871788025e-001</leafValues></_>
        <_>
          <internalNodes>
            0 -1 345 -1073687549 -111216791 -973087745 -89467138
            -368417817 -285288466 -352326725 -754565099</internalNodes>
          <leafValues>
