SVM-light Version V6.02
0 # kernel type
3 # kernel parameter -d 
1 # kernel parameter -g 
1 # kernel parameter -s 
1 # kernel parameter -r 
様様様様様様様様様様様様様様様様様様様様様様様様様様様様# kernel parameter -u 
144 # highest feature index 
1328 # number of training documents 
111 # number of support vectors plus 1 
3.0418139 # threshold b, each following line is a SV (starting with alpha*y)
1:0.44366040254554689 2:3.9507287949764747 3:4.1898350988288149 4:2.4118079067455431 5:-0.042241625056732471 6:0.021051333648908585 7:-0.0048442608711207064 8:-0.68226623523211449 9:-2.5203879448783924 10:0.19287717990537889 11:2.1011596407363275 12:0.36634062117868593 13:0.28870553588672188 14:0.03715898101196629 15:0.029415335800963508 16:-0.21147345322003844 17:-0.083495503839889781 18:-0.10468028356940395 19:2.7484755709189921 20:0.74083194003613206 21:0.26031655456767533 22:0.42287587882668276 23:0.29269156917542188 24:-0.16139249687723928 25:-1.0681067735152396 26:-1.1243233114248612 27:0.76634270573201202 28:0.28589969504227819 29:1.28459186227095 30:0.18251154181877302 31:0.043691898690262521 32:-0.02994130177274279 33:0.0042383062141346977 34:-0.63889550277622464 35:-0.094065013944311132 36:0.27856656868126894 37:0.44130738369530709 38:1.06147907596211 39:0.015741511567492306 40:0.065622541637048892 41:-0.058128200726720994 42:-0.07217438588161193 43:-0.30188292811546208 44:-0.36672769031316443 45:-0.63388196513283213 46:-0.39116827226294826 47:-0.050471046405539656 48:-0.084644787271563687 49:0.023044612847126868 50:0.034760744606386049 51:-0.03652661553987497 52:-0.19955345042804715 53:0.022776724173718312 54:-0.22405033241827399 55:0.1923805058468101 56:0.75243745110174443 57:0.049706659769057679 58:0.011712528228661116 59:-0.11606550415288035 60:-0.085614698393868524 61:-0.46484492167155883 62:-0.083426137489546942 63:0.2352421723025836 64:0.15115755869769154 65:0.73628449905185711 66:0.13857080072671693 67:0.048375055249887937 68:-0.29167842013037509 69:-0.15812685487454223 70:-0.10883168764903278 71:0.98792530926007815 72:0.23223680115833145 73:0.37711239280618558 74:0.089893830410611497 75:-0.039850313286474835 76:0.03084252645660495 77:0.074283761921037181 78:0.0019743520412872024 79:-0.092609898778310731 80:0.44577995765609219 81:-0.13923172930144934 82:-0.44529542545142975 83:0.94909244484588196 84:-0.33606268982306353 85:-0.21725688285503297 86:-0.14446880336343748 87:-0.72364218768505773 88:-0.41612373881624837 89:-0.19266390544874923 90:-0.78694054006536884 91:0.55104045120574063 92:0.7379622688755898 93:0.17655873344078604 94:0.049081547214086557 95:-0.23134206563237758 96:-0.083222177821888205 97:0.054879198022097765 98:1.0382873133166912 99:0.54217884488797841 100:0.76953358025226437 101:-2.3067666423955 102:-1.0314352201210977 103:-0.53002850622649167 104:-1.0196804825798751 105:-0.40016113846129969 106:0.44360919563337547 107:1.4011663995343897 108:1.0628136651539148 109:0.06435775962190432 110:1.7637598583396532 111:-0.23441278392917553 112:0.11907036994668013 113:0.72545888759210286 114:-0.46069022852984398 115:-0.1196465708822162 116:0.08377415394810718 117:-0.67655056974167693 118:0.46787320357133844 119:1.6441627837137749 120:-0.41012171513383111 121:-1.5307310324663366 122:-1.7667976697599086 123:3.0687162912295705 124:4.5919548578914746 125:2.5088747089032291 126:0.0036843860181666188 127:0.6055602886200413 128:-1.4101831870371846 129:-1.3724036696188497 130:-0.24727607022460971 131:-0.39919535107950133 132:-0.22350877290329693 133:0.54813200747995661 134:1.5186137083357154 135:1.3165071350088082 136:1.4516789142370061 137:-0.22150987912801695 138:-0.44880529230898553 139:-1.0461881489613716 140:-0.53978729957908689 141:0.059722655839439337 142:0.34707238483673863 143:0.42548471092776546 144:4.0798181077414792 
