SVM-light Version V6.02
0 # kernel type
3 # kernel parameter -d 
1 # kernel parameter -g 
1 # kernel parameter -s 
1 # kernel parameter -r 
様様様様様様様様様様様様様様様様様様様様様様様様様様様様# kernel parameter -u 
729 # highest feature index 
35615 # number of training documents 
394 # number of support vectors plus 1 
6.6034326 # threshold b, each following line is a SV (starting with alpha*y)
1:-0.12851103888106608 2:-0.047482313308152439 3:-0.10006826070594031 4:-0.025987598530545664 5:0.4082485146417823 6:-0.018438611785578065 7:-0.11892500358163052 8:-0.11244641211020705 9:-0.14712163114906199 10:0.20573362479715668 11:-0.048876752768718015 12:-0.04436996338895776 13:0.19219793218052994 14:0.43017303462351286 15:0.18958824649099978 16:0.031586368627414527 17:-0.0054272184644293554 18:0.087075411739497469 19:0.3435168761880365 20:-0.02689098963276253 21:-0.129651183434524 22:-0.038317337739430184 23:-0.027222585149130903 24:-0.0044957431362893461 25:-0.044373855535941899 26:-0.076355213212718764 27:0.068409078117003794 28:-0.29149362259984168 29:-0.2379181260006778 30:-0.39585962287016135 31:-0.11783305587659618 32:0.52308122592075912 33:0.10033465112462263 34:-0.15548218248798554 35:-0.16561717172522045 36:-0.21744204383704194 37:-0.21970243546073101 38:-0.11861474046881658 39:0.05151395906721179 40:0.5036603137945288 41:0.091511036218012307 42:0.30181010799603097 43:-0.021458268270625903 44:-0.12509126231039611 45:-0.061415708018270669 46:0.038088261174018451 47:0.0014355906292182164 48:-0.048925131047247487 49:0.11012356891900246 50:0.047264835795840933 51:0.015715587505641136 52:-0.01304204576399713 53:-0.09001038477060308 54:0.092762171500873777 55:-0.24379780675115928 56:-0.16536313823741114 57:-0.16761529105359724 58:-0.036143977605181114 59:0.42509799692121969 60:0.088740809664639986 61:-0.034031351442827928 62:-0.058125222897855558 63:-0.19712555465293774 64:-0.086480120581506309 65:0.010760959594557603 66:0.038643700756316429 67:0.33499875377403349 68:0.41133863169108525 69:0.33552980933721194 70:0.18467641532016657 71:0.11892693384720276 72:0.1865579648362824 73:0.059783419876805965 74:0.16548779274262396 75:0.11649619978341816 76:0.093570322000767078 77:0.078679354761891737 78:0.17489141815603781 79:0.13021083062088276 80:0.23079486186423986 81:0.29633038798346306 82:0.27578356742379795 83:-0.044452839184711199 84:-0.14007337939690093 85:-0.051679332973027604 86:-0.037767005888316489 87:-0.017951987392661954 88:-0.033205945227521814 89:-0.037843588270979125 90:0.074307363380541863 91:0.36283299318470708 92:-0.11563032958430687 93:-0.2543617143775519 94:-0.20194103213113659 95:-0.37752326948385023 96:-0.19308924026619589 97:-0.17826490557606026 98:-0.051009957655382576 99:0.28232186176581037 100:0.33362391619827292 101:-0.12286431662754366 102:-0.10975936725608207 103:-0.18145756799171403 104:-0.37149846208459214 105:-0.1270042773848099 106:-0.14715885413410076 107:-0.098819909429762473 108:0.36934341225955536 109:0.043119792496145705 110:0.048490178799944723 111:-0.011013917253439904 112:0.12227892524602585 113:-0.019192402851699403 114:0.037634626768760324 115:0.018130986569915259 116:-0.037284001551907552 117:0.021143349594353416 118:0.19033989916590097 119:0.1257761231071432 120:-0.01290481066175506 121:-0.11974157251026091 122:0.22739590941240065 123:-0.14788586367040704 124:0.088774495957610181 125:0.20922504286395632 126:0.41688969771509898 127:0.57625356794192284 128:0.010250430257775337 129:0.10834215653299417 130:-0.097505621144220525 131:0.10639781154125326 132:-0.016116930977132723 133:-0.046377396859322031 134:0.11892783367582516 135:0.56719803243891287 136:0.10427286618194208 137:0.17052823836605002 138:0.1155845074038218 139:0.11100230795128128 140:0.032926443770987975 141:0.14344217812122428 142:0.12707259027713722 143:0.23129376786014222 144:0.27256340792888628 145:0.011528901194287629 146:0.03896278541909505 147:0.10429034490116351 148:0.060057849379434536 149:0.46936551682841049 150:0.079549272081787137 151:0.2228547507997708 152:0.42376733285527102 153:0.18664348998860089 154:0.12996149033977833 155:0.0012623483546097937 156:0.073437279100513148 157:-0.046296667444805532 158:0.20369573341926708 159:-0.0087168896252499944 160:-0.0307692783588954 161:0.021536829644829052 162:0.11103084795816799 163:0.18776440752499127 164:-0.090850579130946046 165:-0.096660193189408952 166:-0.13491734314013926 167:-0.26788252294535814 168:-0.1030459644807135 169:-0.10508650072289025 170:-0.064390416079209145 171:0.17220228674043381 172:0.13218038307704003 173:-0.16781057715508879 174:-0.22007124336141221 175:-0.12757854137664013 176:-0.032797461111618083 177:0.011532776107469684 178:-0.17264465624631822 179:-0.1179128062419444 180:0.34111726450067109 181:-0.3451199535955019 182:-0.1042189624259386 183:-0.13871126340407477 184:-0.1110376158718597 185:0.13251379348154832 186:-0.00035054262694533101 187:-0.18284690931217829 188:-0.081146498171849657 189:-0.18574678771126046 190:0.30451785539770038 191:0.018248826754959799 192:0.052061633676535067 193:-0.065267490577592679 194:0.14210679153714945 195:-0.018730019971696918 196:-0.0094244001955178826 197:0.12093994602520561 198:0.36567565280906389 199:0.42488905408381195 200:0.096826408871840505 201:-0.0025933371037320683 202:0.23038049970915994 203:0.18611702655667595 204:0.26727857958425744 205:-0.089471892334107822 206:0.16554211192238577 207:0.4363939207182489 208:-0.32903891901146898 209:-0.066550133086480126 210:-0.2297020826669747 211:0.044209443379820947 212:0.50014606904928094 213:0.054340618869992738 214:-0.21851410815170466 215:-0.13159399850225201 216:-0.32333526806076934 217:0.10991471047480227 218:0.0230136611119264 219:0.063098316025198387 220:-0.025719708688358472 221:0.17565252771685733 222:-0.0074113071569366119 223:-0.011039571855526502 224:0.04279040560876661 225:0.085828671133098028 226:0.32204819849954475 227:0.07678664433869907 228:0.068445848048322988 229:0.023462724613239162 230:0.32943887889018858 231:0.077013246993094642 232:-0.03838767074789267 233:0.071984596104991 234:0.16219358443896603 235:-0.23204493513028401 236:-0.07522630851014464 237:-0.11841090212866651 238:-0.085829286098734109 239:0.60184233280983501 240:0.074952955930175924 241:-0.059086256845411161 242:-0.075822388944929028 243:-0.39579791768369393 244:-0.13273295115978045 245:-0.10282830809556426 246:-0.10725816728785917 247:-0.040628000824775481 248:0.28973097456435964 249:0.10634915683662644 250:-0.0025798080869066007 251:-0.063232455892107631 252:-0.14319651952910747 253:0.037772245593867639 254:0.018667553121956608 255:0.044943326030018646 256:0.28086443771846425 257:0.2948631138358796 258:0.30871118005400372 259:0.073816741393851207 260:0.0061631939812163104 261:0.047806013475759065 262:0.11516299123883898 263:0.17197239556886101 264:0.15798017003301196 265:0.06078228229407686 266:-0.14089177676973344 267:0.0030938323556071309 268:0.039239580601072709 269:0.091858965140289461 270:0.10932581686805791 271:-0.30899411186305659 272:-0.2440587595275569 273:-0.17180981804547796 274:0.037928360071558767 275:0.56087665394420916 276:0.19429761035254114 277:-0.14248285142191996 278:-0.18624224571903414 279:-0.33178435327399464 280:0.10015609081159951 281:-0.045445077895918833 282:-0.087956478696606263 283:0.24039732780160591 284:-0.019310131195437584 285:0.41078868756656067 286:-0.0087390096741275323 287:-0.13858512374127455 288:0.052597488014027173 289:0.21985972702854442 290:0.12476977452201465 291:0.084606420245165972 292:0.084844236674744403 293:-0.097521047710735137 294:0.013282902372913758 295:0.12176120531718104 296:0.1302126344086903 297:0.15277206220322601 298:-0.17571593226743157 299:-0.11762945496974141 300:-0.03351711764672647 301:0.11390798859055902 302:0.33866500096994107 303:0.12683745533462001 304:-0.052857683113382556 305:-0.089531927881889795 306:-0.20601999549652367 307:0.085227720749928154 308:0.035220998008121243 309:0.047940623232454072 310:0.33107147812395882 311:0.19053320828230733 312:0.45391823753641064 313:0.11164843640393979 314:0.03038295319388748 315:0.15842766954041837 316:0.21394978801021677 317:0.14189384119906959 318:0.041153991601245991 319:0.051927637702376905 320:-0.060614173909935572 321:0.11592173883140883 322:0.15966264128863786 323:0.21563142233708857 324:0.10387597388602036 325:0.15406080538116212 326:0.17732182170690811 327:0.14268337739359674 328:0.095656907176288372 329:-0.1565139780171991 330:0.02439946697338221 331:0.038255261327396518 332:0.09461341354840358 333:0.1360208927412703 334:0.24066386023834657 335:0.19844607508411563 336:0.24585781946001817 337:0.036847216824346218 338:0.14662547359378228 339:-0.076262658931389518 340:-0.038020075346406591 341:0.061164106164327117 342:0.24168704828463547 343:0.17444670997694692 344:0.081487562256698856 345:0.07242828785975533 346:0.0065519102341884761 347:-0.095671304472061625 348:-0.046374655405617395 349:-0.089480761840076778 350:-0.084136068201884975 351:0.13396227132159202 352:0.36380211290363546 353:0.13144142876333809 354:0.11100717189154918 355:0.10461343272354803 356:-0.11890537482027651 357:0.051833616419314228 358:0.17589997999115167 359:0.15636244739772534 360:0.29876763607172724 361:0.25017150793150772 362:0.22664878586888004 363:0.2154172205890178 364:0.11729938023360559 365:0.30680610662576391 366:0.26340167157941358 367:0.2031839819373388 368:0.24871237601399585 369:0.42167683366654596 370:0.2665826765307408 371:0.036933236860102289 372:0.13028821317581321 373:0.15156577429610174 374:0.021467783603423173 375:0.18566015918150255 376:0.070744035583592615 377:0.08098990498564719 378:0.36731443696629462 379:0.26905890853443931 380:0.18366512540916913 381:0.12109748810525271 382:0.084223148238486492 383:-0.084554633965162163 384:0.11004615287385937 385:0.15766499952617508 386:0.21269509884719309 387:0.14798838011774479 388:0.2587386688984557 389:0.15251243901315761 390:0.04752593674770994 391:0.093515823399056869 392:0.43162773900851792 393:0.21441612608188693 394:0.35338115352162741 395:0.17230051477234909 396:0.29098645428443248 397:0.11551777770946249 398:0.014918699718435482 399:0.031298622295085114 400:-0.054147377224181871 401:-0.071179996660807265 402:-0.040136971780852904 403:0.056482875513134266 404:0.041288016736188558 405:0.18855173295173189 406:0.11290904568536311 407:0.035952902913312379 408:0.033555837221867668 409:-0.0058855072701679625 410:-0.067377321532967438 411:-0.034384920918458982 412:-0.052404817926665168 413:-0.042282511657686046 414:0.092842046091073674 415:0.26998191000131994 416:0.099795978597859769 417:0.06834085270645851 418:0.0082769518345505999 419:0.21158121600537794 420:0.13257034521945527 421:-0.016374384908151639 422:-0.056435855969455252 423:0.06584224789843364 424:-0.1710163040430755 425:-0.039887255885435013 426:-0.032362669052665015 427:-0.0095644112680197194 428:0.55783043423202316 429:0.053546690130531913 430:-0.070012376779098925 431:-0.051029875411544426 432:-0.24232627462025416 433:0.14470366935845061 434:-0.00092496843922479561 435:0.061239998444639676 436:0.11781986431225951 437:-0.003016063061352344 438:0.16806230162780819 439:0.060077370187856867 440:0.029738667037022361 441:0.19910350909712779 442:0.1769761526612883 443:0.1108974615511282 444:0.1092027426068545 445:0.34686171345553973 446:-0.090675538413772558 447:0.29921628228931574 448:0.11576314011504095 449:0.0087934925926962358 450:0.18196639854801883 451:-0.25944225257725023 452:-0.1321556291858543 453:-0.120866665234686 454:0.021716461417525167 455:0.57085278010597396 456:0.19251330925395876 457:-0.22685355070833155 458:-0.18512614046415685 459:-0.25618352291945917 460:0.055185674345846612 461:0.016499761083455557 462:0.0038947345183494774 463:-0.032541507209573467 464:-0.056836438278455463 465:-0.010681560109014873 466:0.042700186256035132 467:0.0081778979733689479 468:0.088085094766417918 469:0.15270369921784738 470:-0.073127045091222614 471:-0.1136560412131971 472:0.049294844910249894 473:0.19590961210358984 474:0.0043268981125516902 475:0.049432417050092908 476:0.0099957539973427462 477:0.26664070249402244 478:-0.31497423227696153 479:-0.09249870207390562 480:-0.11796766950745248 481:-0.056280581434265016 482:0.52442266627577938 483:0.0090375229435591693 484:-0.10129239068849585 485:-0.11380484579046808 486:-0.26259150057190461 487:-0.10893540804552186 488:-0.072831853504622082 489:-0.061425045718345034 490:0.097582522878144465 491:0.32740273409580783 492:0.070274552019862963 493:-0.037559465195094052 494:-0.056604930779523457 495:-0.13037296276103186 496:0.21750426374337065 497:0.062785636246572171 498:0.11331301118784073 499:0.21294963563902125 500:0.40973021244456992 501:0.3236927111422167 502:-0.033934031237435304 503:-0.039658314560851879 504:0.063827916846766447 505:0.28862961639977214 506:0.20526726828517058 507:0.069971614718499109 508:0.040978835550415343 509:-0.042527773348800528 510:0.118073590009552 511:0.068480294795536564 512:0.046475048181952479 513:0.0099162553404344156 514:-0.14863990846012057 515:-0.075678491847308571 516:-0.077455481463235262 517:0.16237174392100071 518:0.61120480537811239 519:0.10636699933108328 520:-0.24724502462331868 521:-0.21433594608521403 522:-0.27822422848631656 523:0.034876301703646632 524:-0.12167535383546657 525:-0.062372218615653216 526:0.25266711785303364 527:0.18907560502455026 528:0.56382404267714115 529:-0.076085820728975948 530:-0.19497584819521904 531:-0.18736217729185528 532:0.0096605832232728693 533:-0.07278442075288527 534:-0.075511530047318462 535:-0.10228414841775534 536:5.3619412671780295e-005 537:0.067097992112088028 538:-0.11842203809692622 539:-0.046741372669240187 540:0.056952873867407536 541:-0.12460977727075172 542:-0.033387364268882377 543:0.0034552522023743848 544:0.0393518981928394 545:0.36988865158603246 546:-0.0090598895581879765 547:-0.17479286635130234 548:-0.1121503856344271 549:-0.11441559175304128 550:0.016451650150942281 551:0.0062006774840428422 552:0.068705019983713145 553:0.24164410697038657 554:0.3781420249471914 555:0.41357803541374327 556:-0.0006510240105757042 557:-0.018040967565711209 558:0.15787866105792772 559:0.050264900806518124 560:-0.076958825146760571 561:-0.056050904733148735 562:0.055692351500638178 563:-0.045008942867283498 564:-0.028541575192045279 565:-0.10603118894116739 566:-0.069827221986974358 567:0.3210130889588349 568:0.32823419061700998 569:0.25298929649030699 570:0.14392565578414074 571:0.082681031258436039 572:-0.03430220423649849 573:0.10418093599188082 574:0.052741990225988654 575:0.072085292532820144 576:0.086821021356432521 577:0.33313318368254091 578:0.34554765028170031 579:0.10286026020104458 580:0.099916882058254566 581:0.30824746831166805 582:0.082482275283119619 583:0.039708650812245859 584:-0.025705329546043869 585:0.056599813876016827 586:0.076781381758232972 587:0.013522661024905876 588:0.045115885455103887 589:-0.035040053096023531 590:0.10853409547468805 591:0.01181138122370704 592:0.066129687069046775 593:0.024603001615002815 594:0.077125430075403179 595:0.039885432976553462 596:-0.011994195662108532 597:-0.022837889508344793 598:-0.024538808750653562 599:-0.024474827463797155 600:0.16220189696383794 601:-0.076479160873403493 602:0.023370403873886076 603:0.079722518784542951 604:0.29388387399381261 605:0.18982250965145581 606:0.14116219009627115 607:-0.014903359236997064 608:0.21734598250165926 609:-0.060560609246664447 610:-0.12177612525443031 611:0.12703488798154788 612:0.16892243756705141 613:0.39620596055259683 614:0.15252932825606128 615:0.11535802502456785 616:-0.035302812007637317 617:0.084680271172559066 618:0.028282814053167273 619:0.024853340108769918 620:0.074369405722066795 621:0.33509004577436263 622:0.061248953564354336 623:-0.051452758388315339 624:-0.046180926882211308 625:0.055595529722525752 626:0.0030318142545812791 627:0.057036201730352308 628:-0.09482195027669027 629:-0.073362148347812545 630:0.2835945895106774 631:0.28639150860190304 632:-0.16454394213762807 633:-0.052482402516396492 634:-0.12070556796529869 635:-0.36613893011826437 636:-0.11086340101083202 637:-0.16099810682563312 638:-0.030914104646572484 639:0.23757835923009876 640:0.34405760676874836 641:-0.064779606897352238 642:-0.00030878208209943469 643:-0.10553017646585731 644:-0.37452481693315354 645:-0.11596225773926946 646:-0.090815803282684238 647:-0.037789742963705936 648:0.30875668441325821 649:0.042416383376072564 650:0.020490741381083026 651:0.038725450299860222 652:0.021105441080658496 653:0.1136116059076735 654:0.039002745104313591 655:0.076215349986966968 656:0.032170005111546919 657:0.048754828664727537 658:0.17278541437140796 659:0.0010135419613531795 660:-0.02506247490155529 661:0.026489716377530524 662:0.48003617616854244 663:0.079575816899830454 664:0.14721576777454937 665:0.069853603603132641 666:0.24834840442214637 667:-0.28972994547221259 668:-0.039930436557413469 669:-0.060660385274931013 670:-0.02539795628770182 671:0.56753061559776041 672:0.035427386633561847 673:-0.10931876600887665 674:-0.13799031673567916 675:-0.25727422302176306 676:0.28004992815157592 677:0.080409129878212179 678:0.055798295416420694 679:0.02826179088582292 680:0.041815547318592522 681:0.036219363125491677 682:0.045574108415496833 683:0.066136549370867895 684:0.2113228475980814 685:0.39388759923314642 686:0.25284882590706986 687:0.010741453260091339 688:0.1107173889520983 689:0.17710983558408996 690:0.19383288398286086 691:-0.023332931925964206 692:-0.0035994175495157 693:0.28317693064916305 694:-0.21176128139080913 695:-0.073830801857792269 696:-0.11963599066575145 697:-0.024954174918284427 698:0.55887052840572393 699:0.030679777180139211 700:-0.3481038795639903 701:-0.19612449507206098 702:-0.32215127851834391 703:0.22979920596209405 704:-0.027353966695586186 705:-0.0051939027107510121 706:-0.037117851980126237 707:-0.21236066885791802 708:-0.084665272603094269 709:-0.069683092074701913 710:-0.050931085877278438 711:0.224231806011499 712:0.40289897351480219 713:0.053925007382839008 714:-0.077557530300575259 715:0.02688380621130548 716:-0.11355978490085027 717:-0.049954010572239499 718:-0.30200122412005193 719:-0.17205010354395719 720:0.23914544771660104 721:-0.19261595543523879 722:-0.11966454176752478 723:-0.16733352482631914 724:-0.073815274025915936 725:0.11834227587348482 726:-0.044761234064678482 727:-0.24801128686463411 728:-0.19162362672048569 729:-0.22314492475702327 
