SVM-light Version V6.02
0 # kernel type
3 # kernel parameter -d 
1 # kernel parameter -g 
1 # kernel parameter -s 
1 # kernel parameter -r 
様様様様様様様様様様様様様様様様様様様様様様様様様様様様# kernel parameter -u 
144 # highest feature index 
1943 # number of training documents 
30 # number of support vectors plus 1 
-0.80592218 # threshold b, each following line is a SV (starting with alpha*y)
1:0.45273661581223285 2:1.0861957797775139 3:2.3239886944972881 4:0.52764312606984587 5:0.91382899560457442 6:1.2652375543619057 7:0.50062431741907476 8:-1.7641679795894378 9:-0.16824989055177386 10:0.60160307813917713 11:-0.65025126227412378 12:-0.34960820971992285 13:-0.15939786415351345 14:-0.049685890798027522 15:0.76104988609170232 16:1.378740300342705 17:0.80040133628176879 18:-0.16386781151111005 19:-1.5179345230516281 20:-0.035573766915965255 21:0.26916817153707245 22:-0.082103442944701149 23:-0.41758277248123365 24:0.96338351347071016 25:0.71444635429736569 26:0.35617873708285652 27:-0.42213669654044506 28:-0.5845525759657485 29:0.88526572048186591 30:0.25295549126923478 31:-0.39788255105532261 32:-0.59244403493338904 33:-0.38591283512016128 34:0.29790922843267098 35:0.77084774821942437 36:-0.17657925850072873 37:0.45812668674071255 38:-0.97580754457309926 39:-0.82142139178278317 40:-0.4308530855364377 41:-0.36280107622602747 42:0.3900581109438151 43:0.34089820283085992 44:0.90892916376770516 45:-0.16036166859735346 46:0.83692690498518385 47:-0.90226493239664596 48:-0.7004762152365237 49:-0.40535422941435795 50:-0.521342191743703 51:0.34964872322605028 52:0.013953413703145692 53:-1.7561165070873357 54:1.0535636156759072 55:-0.87918959718748158 56:0.20048260672412954 57:-0.23942353360045104 58:-0.53538288178835658 59:-0.84520866037950793 60:-0.55645728401232986 61:-0.19599443409842729 62:0.42906729019149337 63:-0.027392083663975914 64:-0.35362685066741684 65:-0.59792623796339817 66:-0.080794556304535678 67:-0.52641760793048675 68:-0.92290076666882981 69:-0.74758425658646033 70:-0.32586192412896425 71:-0.13007336522146296 72:-0.78079288015113024 73:1.2182344211657576 74:-0.53955777558169349 75:-0.47495680203463753 76:-0.23398376591318468 77:-0.46623168675772381 78:0.4104478639016928 79:0.30835446299698838 80:-1.9218640604594408 81:1.327304651452657 82:-0.3543768211958902 83:-0.58412157399585807 84:-0.26971013919257614 85:-0.083283099055444315 86:-0.96073045419986813 87:-0.047337001428838725 88:0.1687053099763349 89:-2.4547899896164691 90:-0.54900235112175244 91:0.92518726527552875 92:0.36065167399972153 93:-0.059504820315414056 94:-0.35163767783449412 95:-0.61245337210917672 96:-0.47779730750269228 97:-0.10004545461469982 98:0.63245788002002001 99:0.080207632706681742 100:0.82978471748803739 101:-0.59282984543637307 102:-0.65910567904670336 103:-0.30085003228596463 104:-0.88469237435830161 105:-0.30913655905427451 106:-0.1816595354901834 107:-1.4025676705574848 108:0.08718545405899103 109:-0.11937338374679163 110:0.53957379889905088 111:0.17461135754252721 112:0.01434019229102622 113:-0.48362672228170039 114:0.013360267223815836 115:0.18606092258350893 116:-1.5510420257412005 117:-0.34387738944285762 118:-2.6630085719054968 119:-0.6640925281200929 120:-0.26172219439288885 121:-0.07499075066405371 122:-0.13687757420649976 123:-0.68266881083188213 124:-0.92939697681254752 125:-0.41425462054109202 126:0.097197724827373572 127:1.6517712917990564 128:0.62919654961084348 129:-0.36015907879457715 130:-0.16979129208724225 131:-0.55189748807560324 132:-0.14663087558534466 133:-0.023362324283655977 134:-1.0474998159918918 135:0.62452632486607296 136:2.1115452384516491 137:1.4560737725866271 138:-0.13685068477970699 139:-0.92196857669293641 140:-0.19187915844549272 141:-1.4372918883992456 142:-0.98265177899206957 143:-0.73486604898900032 144:-0.45482294234639842 
