SVM-light Version V6.02
0 # kernel type
3 # kernel parameter -d 
1 # kernel parameter -g 
1 # kernel parameter -s 
1 # kernel parameter -r 
様様様様様様様様様様様様様様様様様様様様様様様様様様様様# kernel parameter -u 
144 # highest feature index 
2205 # number of training documents 
68 # number of support vectors plus 1 
0.061740695 # threshold b, each following line is a SV (starting with alpha*y)
1:-0.28403049742309711 2:-0.63227316351430352 3:-0.30415013955348114 4:0.67485695156027259 5:0.74920636922220751 6:-0.56032754221353398 7:-0.12124804974784287 8:-0.10178377622913259 9:0.73832619164767033 10:-0.023203120840563779 11:0.053863207270227434 12:0.17621464660727457 13:0.32797567945190048 14:0.22724424322347597 15:0.18850370988122397 16:-0.24648561426310078 17:-0.18948573354944306 18:0.14465546949385064 19:0.2196469329523113 20:0.45186451799162181 21:0.24412594107773264 22:0.91042953199156607 23:0.03514740163536749 24:-1.668345205153992 25:-2.2340452122810852 26:-2.1702710783383443 27:-0.73230767874012948 28:-0.030244421714541697 29:-0.023875995577033862 30:-0.65995700581250805 31:-0.53655296324170354 32:-0.60078076731136565 33:0.33670348759473512 34:0.82486687622975596 35:0.4436481295176139 36:0.12107133583955237 37:-0.17926163960495028 38:0.20349495546987428 39:0.24607267075081055 40:0.32858197587783444 41:0.4660417871333471 42:0.11377565399833056 43:-0.45623672848491903 44:-0.47217604396070001 45:-0.25738530705245533 46:0.33292194215774451 47:0.28490724689563229 48:0.46706058290983726 49:0.82469764763930264 50:1.2617668679715708 51:0.85563260270059394 52:-0.90172742731541056 53:-0.782622386033057 54:-0.02956892128611311 55:-0.060015138041978527 56:-0.050784099078142249 57:-0.50741235613331404 58:-0.49208697189684225 59:-0.39060589706096083 60:0.013866619401401159 61:0.76185083177165325 62:0.69649896572264414 63:0.23467984428141625 64:0.63300639489224841 65:-0.060500491756858385 66:-0.071110178405908511 67:0.15376989028896321 68:-0.078624048570552885 69:-0.18059055357794454 70:0.14594705780502137 71:-0.54400284966348367 72:0.52697334419263619 73:0.3468641164641017 74:0.29778103662741495 75:0.42885462167725952 76:0.77791137434754931 77:1.4668086623201568 78:0.62235473768238647 79:-0.7759847551307113 80:-0.58847726679840406 81:0.21651687666762232 82:0.034242111624945441 83:0.14673457174214916 84:0.15945920430607874 85:0.12795032566513675 86:0.17257955766299082 87:0.054909185818883127 88:-0.79779143570000088 89:-0.80888880315521472 90:0.22227907350823506 91:0.81654028985963045 92:0.074161176178596327 93:-0.05489663874723031 94:0.22335924278585412 95:0.11348671117190509 96:-0.17480257470645499 97:0.24121016707545104 98:-0.38416868370545154 99:0.50951922567962593 100:0.55984936718502787 101:-0.22469480210769366 102:-0.35001672754880298 103:-0.18455142608512853 104:-0.25202761057846129 105:-0.033214648614759902 106:-0.1192152002054522 107:-0.49664495645210127 108:0.049364846285481961 109:-0.024903573997549559 110:0.29805089158723019 111:0.34902306425149204 112:0.19711947829726303 113:0.29098038125935172 114:-0.01567168066779992 115:-0.76296278117902838 116:-0.75768464723665907 117:0.23726947451058794 118:0.078556529728063595 119:0.52174104527272491 120:0.77712363605454438 121:0.22818239363430573 122:-0.16595176897546815 123:0.085697491562814504 124:-0.90425605943034837 125:-0.46828447053908662 126:0.25536539063256486 127:0.25521086960506445 128:-0.045805597642465307 129:-0.45694704358293092 130:-0.18564131218865604 131:-0.30325462472669718 132:0.020308481021314675 133:-0.051649983284052271 134:0.11477045348500529 135:0.2749798833295955 136:0.62884007389860519 137:-0.034773367978296943 138:-0.12865316235898266 139:-0.58189995610974354 140:-0.67845350676801142 141:0.21056206862556046 142:0.059016686330895865 143:0.22919461136061758 144:0.41951049401685941 
