SVM-light Version V6.02
0 # kernel type
3 # kernel parameter -d 
1 # kernel parameter -g 
1 # kernel parameter -s 
1 # kernel parameter -r 
様様様様様様様様様様様様様様様様様様様様様様様様様様様様# kernel parameter -u 
144 # highest feature index 
1096 # number of training documents 
38 # number of support vectors plus 1 
0.27700784 # threshold b, each following line is a SV (starting with alpha*y)
1:1.5024813964409369 2:2.361965924960383 3:4.0606729289022478 4:0.93285188855889534 5:-2.545469662864047 6:0.37021662690852164 7:0.88560863120923139 8:0.21260756218884996 9:-0.12181045057908486 10:-0.6530588602251588 11:-0.35647272701300636 12:-0.15970378489036763 13:0.041997978866635782 14:-0.10995851399980838 15:0.32370058554624759 16:-0.17393760015953982 17:-0.20148209545593229 18:0.028761721807970771 19:-0.88207527847713108 20:-0.55291803081759561 21:-1.3650278486964975 22:-0.6938099726672754 23:-1.6842059152527613 24:0.5179415334153511 25:1.1673194981527149 26:2.0225779741561469 27:0.30972895225471636 28:-0.68178194351866317 29:-0.26882849137529075 30:-0.17664047525900051 31:-0.073315113159373724 32:-0.14234925429412562 33:0.01114795598462669 34:-0.21920942451886238 35:-0.055362108410338895 36:0.74783654662334287 37:-0.14729512142960011 38:-0.58194324703181377 39:-0.65673912155525005 40:-0.15468733956743197 41:-0.013532374830680399 42:-0.0075479416242649373 43:-0.22941533315384693 44:-0.14727763752190109 45:0.21886681420815507 46:0.11962925236403865 47:0.10137349773305782 48:-0.19722815722184112 49:0.067663033338559872 50:0.19687370579029539 51:0.21868949929786927 52:0.13068738048037612 53:0.15996504025412162 54:0.86295665400333066 55:-0.11207772245449776 56:0.10137349773305782 57:-0.19871707911908815 58:-0.022371676415649185 59:-0.038423107940712159 60:-0.074032569089210173 61:-0.17064441670686761 62:-0.035682665473948688 63:0.75959813867675741 64:0.46848039919903728 65:0.10137349773305782 66:1.0762069037657609 67:0.047267816198279473 68:0.2086548460954554 69:0.23913695486027611 70:0.04531710252258242 71:-0.13206125696070281 72:0.69342494480729899 73:-0.30361488304012918 74:0.093980779075271581 75:-0.41867663264752591 76:0.095861421434265015 77:0.13936705445607428 78:0.19322995779934524 79:0.14548388962253703 80:0.16418191855901776 81:0.7414422948058621 82:-0.79806570263633025 83:0.11635239273765619 84:0.37337434595268693 85:0.50888895264710687 86:-0.32532070748706837 87:-0.20467926297180722 88:-0.0028907127285024009 89:-0.11902022236044882 90:0.02051117100913516 91:-0.19370395281657826 92:0.10052514567253246 93:0.52896860963000547 94:-0.053809647614106115 95:0.099986313339112357 96:0.18665267581161141 97:0.0085048107771390977 98:-0.24442136308800272 99:0.31267669273889193 100:0.77691425824353832 101:0.74530867561750647 102:0.34340214772891553 103:-0.11202282353258469 104:-0.10161794131000612 105:-0.67794510968229649 106:0.022088778454904305 107:-0.36991629897836209 108:0.1435351492851038 109:-0.50871145282602581 110:0.0092538120538088187 111:0.052199365632634248 112:0.36998933459892075 113:-0.56361188966067721 114:-0.2295759225978351 115:0.04218742442275307 116:-0.11152047371186734 117:-0.39509103218609348 118:-0.066953573661089005 119:0.54546335894284004 120:-0.65936599944673224 121:-0.57303873014093065 122:0.67091349194928784 123:-0.83195795070256207 124:0.11359716373414958 125:-0.014040835528378037 126:-0.96708556626052922 127:0.57137449062732315 128:1.063252891948038 129:0.25664494204889587 130:-0.2285201991081755 131:-0.11240528046959053 132:-0.3284653853783962 133:0.14383371094444092 134:-0.32336027719811983 135:0.20030628753989924 136:1.6343560941034179 137:1.7510610263749244 138:0.13094719203568067 139:-1.0637946845642237 140:-0.80217865978256642 141:-0.41602983707743302 142:0.54897252762732518 143:0.64422458082976752 144:1.7639009190388466 
