SVM-light Version V6.02
0 # kernel type
3 # kernel parameter -d 
1 # kernel parameter -g 
1 # kernel parameter -s 
1 # kernel parameter -r 
様様様様様様様様様様様様様様様様様様様様様様様様様様様様# kernel parameter -u 
144 # highest feature index 
2016 # number of training documents 
27 # number of support vectors plus 1 
-0.31932434 # threshold b, each following line is a SV (starting with alpha*y)
1:-0.31909881322332484 2:0.26272175556120675 3:0.23889109307547604 4:0.12369718770118092 5:0.49276559924588637 6:-0.0085343573929925129 7:-0.1638476803582577 8:-0.002195178287202908 9:-0.54030504088942233 10:-0.0074093472400071254 11:0.67764877806880019 12:-0.2145487353132596 13:-0.085971569751937565 14:-0.23747112224496542 15:-0.46748680532909515 16:-0.62388566902002529 17:-0.92535081900954819 18:0.05683192285470913 19:-0.30967234247733993 20:-0.12703325753188416 21:-0.0092544130924097565 22:-0.094271883183689092 23:0.64666493015830928 24:0.6208185983541924 25:-0.35910518374379269 26:0.3556461084287203 27:0.32940930325767198 28:-0.023842723288714552 29:-0.7454176054475985 30:-0.37157065464836703 31:-0.091595304347182979 32:-0.13662807250751824 33:-0.16241252893591426 34:-0.039884776850341891 35:0.60815888346151881 36:0.0048053144418158215 37:0.18998932576719152 38:0.52371069740533804 39:-0.24357380972290144 40:-0.14594292754690383 41:-0.34777414573945559 42:-0.49418211806000673 43:-0.71362119369453014 44:-1.1036431015995414 45:0.39608025429482741 46:0.23382867465091262 47:-0.5350778366154072 48:-0.70158054972051864 49:-0.66255025355168462 50:-0.61772677520622821 51:-0.74451001915357695 52:-0.83623928460657937 53:-0.88592229754920182 54:0.72662786988471528 55:0.22972923625012442 56:-0.940309627817147 57:-0.48230739021940738 58:-0.16110050701179759 59:-0.27162197785520731 60:-0.21147295911431394 61:-0.092798768966447218 62:0.52870482202257163 63:0.46963319008972793 64:0.23738102612578227 65:-0.38224400146733883 66:-0.71055905005345688 67:-0.41568166786368699 68:-0.50421640456246464 69:-0.59962692514151439 70:-0.65820694009147229 71:-0.61740702691217986 72:0.42835672267822322 73:0.15492080350731482 74:-0.67117298721908203 75:-0.7017700539580799 76:-0.60522446748296577 77:-0.584339734969617 78:-0.59399083273082176 79:-0.59555225248248123 80:-0.5918606918531204 81:1.0452487344203643 82:-0.059705977278208006 83:-1.0520392923018638 84:-0.72716332198439282 85:-0.30263621551679648 86:-0.19813206162832672 87:0.0027342554689406299 88:0.29844152235482241 89:0.44578984762699803 90:0.1741186882878821 91:0.21582565697765252 92:0.019267272037744577 93:-0.51707816523773009 94:-0.33158642344644906 95:-0.40150178385328011 96:-0.54580333932288005 97:-0.67873782997344911 98:-0.90970138361771347 99:0.35523485329307009 100:0.18364434613729727 101:0.62149218927423455 102:0.19930213652258164 103:-0.051947774246817291 104:-0.069886048868360875 105:-0.27117269759027945 106:-0.42799348603050119 107:-1.2490927468009485 108:-0.18352374939007235 109:-0.45320362200198938 110:-0.54858374883766114 111:-0.40587532489639822 112:-0.074013881206718451 113:-0.086382383604822532 114:0.083872947544885168 115:0.28879034932335679 116:0.47341653831939484 117:-0.065422086746897617 118:-0.83961767598953552 119:-0.27338236291431944 120:0.040846366824644681 121:0.47687392430315834 122:0.39752460958271973 123:-0.4980161961020475 124:-0.15090464268476392 125:-0.078681662915944445 126:-0.31164795763615399 127:0.1634195096909721 128:0.61702028449052226 129:0.25441154513534314 130:0.046955460244134745 131:-0.023851471276506591 132:-0.10687679530022939 133:-0.21151244017725934 134:-0.77735390205450972 135:-0.38321186488418679 136:-0.13477484052195918 137:0.071131316140136569 138:0.088617492244113749 139:0.099199308508841164 140:0.70517076257215239 141:-0.0081184239704321058 142:0.033553559898425282 143:-0.043138435537494385 144:-0.31433902683886306 
