SVM-light Version V6.02
0 # kernel type
3 # kernel parameter -d 
1 # kernel parameter -g 
1 # kernel parameter -s 
1 # kernel parameter -r 
様様様様様様様様様様様様様様様様様様様様様様様様様様様様# kernel parameter -u 
144 # highest feature index 
1356 # number of training documents 
20 # number of support vectors plus 1 
0.16052372 # threshold b, each following line is a SV (starting with alpha*y)
1:-0.4480387304179399 2:-0.51860663446458266 3:-0.21269348109277608 4:0.23650253749361047 5:-0.21177239787745081 6:-0.161983036830944 7:0.63573791888326669 8:0.42822954219476239 9:-0.12182361887290549 10:-0.18810603254315716 11:0.74256234194988291 12:0.17987611949109306 13:0.49488179321943632 14:0.39254343893207794 15:0.14795898249960246 16:0.32865992139947275 17:0.092538054540797166 18:-0.5576753400161335 19:0.97207141047564494 20:0.19032831631757161 21:0.15486573753491728 22:0.10695116750653322 23:-0.43956006581813317 24:-0.52562274090699501 25:-0.30579434491520252 26:-0.4939524258863186 27:0.33287814300299629 28:-0.0041029674915061595 29:0.68058386296425322 30:0.22165449772999002 31:0.058473111527132915 32:-0.19574030740282466 33:-0.19509373048055495 34:-0.35627799358960183 35:-0.38675370811445292 36:-0.01237922731379496 37:-0.054427969859931563 38:0.82999004198590542 39:0.27378753859113353 40:0.36431066819921526 41:0.27901258098210735 42:0.090983986169360181 43:0.13024192098077572 44:-0.17300389767728114 45:-0.95549520069621074 46:-0.098045961589120489 47:0.5459507523355791 48:0.20910203484033568 49:0.15033718062684007 50:0.19311781241543388 51:0.11853092303481863 52:0.37148943910931387 53:0.354809845432771 54:-0.398081251623636 55:-0.12509951088182783 56:0.60633299802225904 57:0.23472343924522807 58:0.04295201917891469 59:-0.17647459635321253 60:-0.12742071372376149 61:-0.23459522430123328 62:-0.26611128983337046 63:-0.080599454190953601 64:-0.16141199617449617 65:0.1224700497311912 66:0.11203571086103227 67:0.041738356837019319 68:-0.025023021694589028 69:0.14162528526062043 70:0.2123631340591674 71:0.40427524206745646 72:-0.10171827280795598 73:-0.25727079459995089 74:0.32849842505686522 75:0.14382236223774891 76:0.1041150029211976 77:0.20634887909343611 78:0.10213980686253564 79:0.335787128962165 80:0.57477587318984702 81:-0.18808233289600887 82:-0.79740638986275414 83:0.2370727255033982 84:0.55879963744061456 85:0.49994765904908234 86:0.02531946959253064 87:-0.17385264249329158 88:0.080893458940463403 89:0.41402334033631527 90:-0.12621793082997232 91:-0.018014428257812524 92:0.031408878698723802 93:0.041513385811915181 94:0.021310243637814728 95:0.040796319867773989 96:0.11568696271430756 97:0.19804873404002246 98:0.47642434206095097 99:0.10588617309658942 100:0.18777871618658393 101:-0.5293777240942833 102:-0.53128736961907419 103:-0.35805038161050362 104:-0.35505163661878952 105:-0.18565429454367954 106:0.103649027759134 107:0.48174957460930579 108:0.16548503971911921 109:-0.40783550109917399 110:0.28574462163582198 111:0.66551757105868059 112:0.63203712137357682 113:0.12837068430775386 114:-0.15007135292508994 115:0.00034761821136678221 116:0.28325648832629818 117:-0.12582715302615402 118:-0.20189410625745277 119:0.12942581657313007 120:0.61522366108663173 121:-0.25632457609815251 122:0.11564320748962037 123:0.35879596444438006 124:0.33507732720520739 125:0.30768255371918801 126:-0.20525819065804465 127:0.10645427354607394 128:-0.29871839180296689 129:-0.28902616898909372 130:-0.3467242689763067 131:-0.24996526857229048 132:-0.14403338297605731 133:0.063867775280356628 134:0.43411222418322581 135:0.36376783394912987 136:0.49249040203194505 137:-0.0076500562625816497 138:0.1241639364922212 139:-0.021066551954279443 140:-0.41207639954190445 141:0.035082528478407156 142:0.084906424749757708 143:0.27405152058709331 144:0.54967088036042588 
