SVM-light Version V6.02
0 # kernel type
3 # kernel parameter -d 
1 # kernel parameter -g 
1 # kernel parameter -s 
1 # kernel parameter -r 
様様様様様様様様様様様様様様様様様様様様様様様様様様様様# kernel parameter -u 
144 # highest feature index 
962 # number of training documents 
28 # number of support vectors plus 1 
-2.1404648 # threshold b, each following line is a SV (starting with alpha*y)
1:-1.0250251953796132 2:-0.35450057919294192 3:1.5800041941338967 4:0.49573260430337213 5:-0.098091392715947634 6:0.22743230733909664 7:0.68669390811061526 8:0.29710355556459134 9:-0.52904323153007693 10:0.14520155399521772 11:-0.047062276025759131 12:-0.13532939106749869 13:0.1421147206398003 14:-0.39342064388027914 15:-0.68287747641184304 16:-0.22054112337784362 17:-0.8237340216902409 18:-1.6131367674582258 19:1.0555082531349542 20:0.37040819389516305 21:-0.016778909050251648 22:-0.0095007634425297721 23:0.047514965669037124 24:0.0032949057677055249 25:-0.68930865578861622 26:-0.91810888022217063 27:0.19412913939452206 28:0.31208461839874613 29:-0.22065751349723944 30:-0.45100687895692482 31:0.06250108393093437 32:-0.08133361489342314 33:-0.66099539858702738 34:-0.58534742004609264 35:-0.38033891637927464 36:0.2604110345916627 37:0.55997736850526081 38:0.50010116275815453 39:-0.11156608509084331 40:0.084989441414408867 41:-0.64123007271336774 42:-1.0187911780374312 43:-0.42311247837292448 44:-0.6539101726898322 45:-1.4343326703386539 46:0.00068326157664694298 47:0.54383723884710966 48:-0.49682006410960694 49:-0.51143438479125858 50:-0.66545400609202021 51:-0.51951784405340629 52:-0.21159610518172287 53:0.42052287893060247 54:0.75937949164541929 55:-0.22431539454325322 56:-0.41967578151019674 57:-0.49764226278379309 58:0.13750743477751648 59:0.050110310824994814 60:-0.60673251593239086 61:-0.58928219503529466 62:-0.37817752618482747 63:-0.1931392712989749 64:0.14777252918828482 65:0.16677371870086705 66:0.17516804230193989 67:0.29913349472868583 68:0.26211182083755463 69:-0.23709825995380748 70:-0.88198384397932783 71:-0.79813466193889748 72:0.18780719071017715 73:-0.62614098827971776 74:0.20773427517678317 75:-0.33647547356791252 76:-0.57787755844993627 77:-0.3786250575602616 78:0.084724254780253305 79:0.32115544123937134 80:0.97252067281902344 81:0.62288562382785106 82:-1.6629066274305493 83:-0.52315853379501676 84:0.045934719042083544 85:0.090136550451233366 86:0.25735555541094696 87:1.0892343831579658 88:0.93910151098807548 89:0.067742470380217884 90:-0.6942737213089808 91:0.77155058310799673 92:0.32286504509305869 93:0.21852492835770831 94:0.088112095391966183 95:0.14019759168014956 96:-0.027394306070262553 97:-0.56245371895101293 98:-0.85633148921661129 99:0.1652275298683914 100:0.24316226734871321 101:-1.0309895196291459 102:-1.1195518899930901 103:-0.97910369896601024 104:-0.42739942023536243 105:0.10606201747281099 106:0.32195879747781403 107:-1.1059142574717573 108:0.22157778954614921 109:-1.2203704376023836 110:0.17033146677480793 111:0.4534611906109442 112:0.49114967621572247 113:0.33271212019578289 114:0.91453505020438952 115:0.62998109482236231 116:0.036611050402017009 117:-1.201137559469613 118:-0.074735493096441258 119:1.0376778617628306 120:0.5899536182974584 121:0.38178929424855668 122:0.26326037144095116 123:-0.55000333527780676 124:-0.017833729064818227 125:-0.34778950865522318 126:-0.88628909655016996 127:0.010124403963544248 128:-0.5108345031626994 129:-1.1875238722358055 130:-1.0077799265314373 131:-0.21621789776846517 132:0.20581134480609753 133:0.48242947846888418 134:-0.88140009538167841 135:0.35394891996130773 136:0.87065219034654073 137:0.70148649140451291 138:0.28591640148773712 139:-0.67567195570616967 140:0.27219466071106901 141:0.38025136980829899 142:0.536275344296822 143:0.42602274270798929 144:0.87384366236011091 
