SVM-light Version V6.02
0 # kernel type
3 # kernel parameter -d 
1 # kernel parameter -g 
1 # kernel parameter -s 
1 # kernel parameter -r 
様様様様様様様様様様様様様様様様様様様様様様様様様様様様# kernel parameter -u 
144 # highest feature index 
928 # number of training documents 
20 # number of support vectors plus 1 
-1.025683 # threshold b, each following line is a SV (starting with alpha*y)
1:0.012725350770529734 2:-0.42086789354665971 3:-0.039508693939396405 4:0.095990632199789358 5:-0.81938792026065388 6:-0.97553645863569327 7:0.27504771512057685 8:0.01401914619449866 9:0.74162021194579786 10:0.13870635848559837 11:-0.94224372007763579 12:-0.99755280474050456 13:-0.99818299479022721 14:-0.96278818208849115 15:-0.06810668867518177 16:-0.057394621826084402 17:-0.23699623845399259 18:0.69007985014291606 19:0.75070842093982504 20:0.35392103509225831 21:0.74534487073160138 22:1.1932282531327396 23:1.5238541797716838 24:0.29101021580287739 25:-0.82007602237624422 26:-0.34460264180172362 27:1.0361335663656517 28:-0.10290685323513951 29:-1.125891043508197 30:-0.93246120064906723 31:-0.069989427253903086 32:0.24732265561507907 33:0.4614313476641006 34:0.77213874848785191 35:-0.49595955353954546 36:-0.43788546374601428 37:0.057791747196490176 38:-0.77698890543069565 39:-1.0405989846495554 40:-0.87798394960237769 41:-0.60825544275375298 42:0.25397615163755222 43:-0.0092177668573432542 44:-0.12143216573031596 45:0.27460533329462861 46:-0.12834279973893198 47:-0.49863474828491056 48:-0.51770972384317626 49:-0.062496117572078465 50:0.12188060713101301 51:-0.47806822166354562 52:-0.34665704449732981 53:0.10843490670247177 54:0.46448099333642012 55:-0.37272763763071576 56:-1.1845291382212182 57:-1.1628494161239233 58:-0.27608815448735985 59:0.7865475212777483 60:0.61167048945264157 61:0.95579829522567084 62:-0.57804459973909805 63:-0.72407492629906522 64:0.35168626082779658 65:0.25482329106722801 66:-0.41310982284808484 67:0.12512946992682542 68:0.48019199518478262 69:-0.18313557220692367 70:0.21686840292952084 71:-0.80835137973616511 72:-0.13403361774747874 73:-0.56771933745618086 74:-0.34749348741003394 75:-0.22228226520944339 76:-0.032720272461147615 77:0.3226239892856978 78:-0.52062940693307957 79:-0.35250620641469566 80:-0.092756951173645102 81:0.85536088433216506 82:0.054817753985213227 83:0.7874060041977623 84:0.55706652976285853 85:-0.41330285907183195 86:0.28567450645574533 87:0.27582569766642362 88:0.061670998277953734 89:0.26166898493137569 90:-0.22166456857348904 91:0.52391987667552686 92:0.59470924419279714 93:-0.028595362784026315 94:0.21153552330834299 95:0.49194826095231048 96:-0.070051144639250107 97:-0.3755354880680617 98:-1.0844067196920821 99:-0.47247387834956139 100:0.20667294923512519 101:-0.052710653153880099 102:-0.35998128867705875 103:-0.49034655281411793 104:0.31830533894069035 105:0.54107338214906775 106:0.50036355445659519 107:-0.82250264957067409 108:0.079056628083685881 109:0.26704154499425242 110:0.51471378260710088 111:0.21326807728505764 112:-0.47779092342862123 113:-0.10353687236154634 114:0.085621366047992642 115:0.086494391335238494 116:0.12091786513961433 117:-0.18819379530448593 118:0.82283964264242382 119:0.14979106769617229 120:-0.24686495427265229 121:-1.4418990736440656 122:-0.096098762834288337 123:0.20423142412581208 124:0.13145155926612334 125:0.96617938868389242 126:0.40148531286278044 127:0.043030058247879657 128:-0.53527094421462895 129:-0.77497623309904085 130:-0.80434048602816444 131:-0.062685579537206965 132:0.39590127699820288 133:0.44679417149235789 134:-1.1151344089335145 135:0.33398779246553845 136:0.77349740354169072 137:-0.63613253564765981 138:0.34047241459719929 139:-1.7005897442221276 140:-0.098237982023749948 141:0.53595272960663276 142:0.34486129090937473 143:0.70869151941482011 144:1.399095723165664 
