SVM-light Version V6.02
0 # kernel type
3 # kernel parameter -d 
1 # kernel parameter -g 
1 # kernel parameter -s 
1 # kernel parameter -r 
様様様様様様様様様様様様様様様様様様様様様様様様様様様様# kernel parameter -u 
144 # highest feature index 
1414 # number of training documents 
19 # number of support vectors plus 1 
0.12006892 # threshold b, each following line is a SV (starting with alpha*y)
1:0.02703385458536238 2:0.17431032612790448 3:0.21574631111535636 4:0.090019557663236563 5:0.10453025151166079 6:-0.073395126076065853 7:0.021650117001695814 8:0.040823453946886704 9:-0.081566815735258771 10:0.03921740587978239 11:0.06537364910510382 12:0.1512464894063329 13:0.13262005973665317 14:-0.20258568200167013 15:-0.25614043275472437 16:-0.091830945927101282 17:0.015621432113656806 18:-0.06589465555669051 19:0.23563772543897396 20:0.1533138338184919 21:0.06322306029855182 22:0.02920661215573548 23:0.16558509487861534 24:-0.025057650864372984 25:-0.035282305706085836 26:-0.26803115140530293 27:-0.0092421956575127785 28:0.10284460266739988 29:-0.13375830266824101 30:0.013626359799385885 31:-0.026918991103616566 32:-0.019113841843554049 33:-0.15789021234787276 34:-0.026144242169958132 35:-0.16194339623189141 36:0.022075874561660585 37:0.052686706830680337 38:0.03564262923132893 39:0.13246279685318826 40:0.07761195025480809 41:-0.17454199401708104 42:-0.22379525200747011 43:-0.09384018042742967 44:-0.0034437308781598008 45:-0.12037879920659407 46:-0.087195507725241581 47:-0.034243481135300617 48:-0.0066390656476502646 49:-0.069291659958646307 50:0.035381390282417831 51:-0.0046439525569351211 52:0.046932704368871675 53:0.052574112338429298 54:0.046915842533252164 55:0.073010760493111809 56:-0.16945920617094237 57:-0.041075036885532733 58:-0.065288441039219255 59:-0.052077427959078444 60:-0.11688174525825945 61:-0.041443633463633299 62:-0.031393773173297161 63:0.13793532150396942 64:0.34161034852559519 65:-0.32659916053527138 66:-0.2103706218032427 67:-0.28865136541095254 68:-0.060267876199738321 69:0.11510185053647692 70:0.12011556617546477 71:0.088919388593180923 72:0.58479005871036627 73:-0.2615712645102849 74:-0.14176001148077408 75:-0.15476655714743578 76:-0.20165663177336043 77:-0.00078562712152163532 78:-0.053009442467307349 79:0.0089440684205701424 80:-0.01383618659418568 81:-0.14990319897143722 82:-0.043512250815856184 83:0.17850958124062816 84:0.0078894400418044585 85:0.0062692909882088111 86:0.20577425885777781 87:0.10707957076705141 88:-0.094223419615485221 89:-0.061975578693668917 90:-0.045570847966695742 91:0.27856565036312486 92:-0.38580499330574292 93:-0.37402044421036434 94:-0.49612855324723998 95:-0.15504880265363213 96:0.051096848054319438 97:0.10635026838313999 98:0.085221517064906799 99:0.60654565863734478 100:0.69819850012122442 101:0.18286975619308726 102:-0.18444718199742838 103:-0.36884147271761358 104:0.091036779042774532 105:0.18770455232583863 106:0.14686032072347638 107:0.21176128494370633 108:0.79919777495170374 109:-0.29378800919147396 110:0.048959133707916339 111:-0.017152659715871387 112:-0.054547300949310602 113:0.10022090455053989 114:0.061558273303708062 115:-0.1634908685279598 116:-0.090971325659839786 117:-0.29895043302355129 118:-0.77173811718214225 119:-0.53066673775688233 120:-0.017002933533847672 121:0.047418761794313861 122:0.15326777820190124 123:0.30700432997642757 124:0.18293945315078777 125:0.27271247617266114 126:-0.43158362261239919 127:0.63989506107813754 128:0.26159555606226653 129:-0.1563164800698168 130:-0.40527356924266689 131:-0.057283411450085926 132:0.078221732361434329 133:0.039998078669866308 134:0.10623522920351511 135:0.72301701913273209 136:0.66414964720154979 137:0.7270866078774314 138:0.54689474057208287 139:0.24930520979820769 140:-0.09013511520483268 141:-0.23794078473364555 142:-0.062194078612922914 143:0.10488811678936369 144:0.47300507752662407 
