SVM-light Version V6.02
0 # kernel type
3 # kernel parameter -d 
1 # kernel parameter -g 
1 # kernel parameter -s 
1 # kernel parameter -r 
様様様様様様様様様様様様様様様様様様様様様様様様様様様様# kernel parameter -u 
144 # highest feature index 
1088 # number of training documents 
27 # number of support vectors plus 1 
-0.68423512 # threshold b, each following line is a SV (starting with alpha*y)
1:-0.11456753861721319 2:-0.37046626554267637 3:-0.078111115174541057 4:0.51638751957185147 5:0.71093336020204589 6:0.3019089124732261 7:-0.19852868265750206 8:-1.6057402981766948 9:-0.20590974942859136 10:0.27282944314201035 11:0.013675030292811145 12:-0.35961420454401316 13:-0.27679186275444922 14:-0.24655997677740957 15:-0.04163636037990804 16:-0.23749832274576682 17:0.045035332691161285 18:-0.1384451992012013 19:-0.31221040018080548 20:-0.8144385584300381 21:-0.27742676831566898 22:0.13580300663446146 23:0.42156758124073251 24:0.58887306225103631 25:0.41661669779792215 26:-0.49259263848498519 27:0.24125584335768072 28:0.24314630046262159 29:-0.21203612479335227 30:-0.23547685933926246 31:-0.19655551736598781 32:-0.24314450315512168 33:-0.17842792562921514 34:-0.67358692565196276 35:-0.53409219648507889 36:0.62666384406391973 37:-0.055432587335233097 38:0.36652368917839395 39:-0.2756900261160144 40:-0.20528559561241944 41:-0.19117415119967218 42:0.0035926313464097236 43:-0.18892148779457918 44:0.20765888895005669 45:-0.4833367375803071 46:-0.098727608672288414 47:0.65828435475920821 48:-0.19863015494216274 49:0.096990663193012611 50:-0.1361084677366376 51:-0.20309400416693701 52:0.059371981390911772 53:0.20404128645911737 54:-0.44504767057991851 55:0.62983163718961976 56:0.040889271481262549 57:-0.1425195014880212 58:-0.16096775077602862 59:-0.21389185628672119 60:-0.17939504920449478 61:-0.71459154927038182 62:-0.66591130955513012 63:-0.0026113343819688661 64:-0.29461303443244635 65:-0.20517904315272112 66:-0.68615462978470076 67:-0.22470312541679546 68:0.1137549389197849 69:-0.24190627885100699 70:-0.16646945923498488 71:-0.18707984613033773 72:-0.0017985756178801882 73:-0.23851628405094771 74:0.67534166596491396 75:0.014849598565180148 76:0.24177503864673897 77:0.0090557803322662694 78:-0.030152998558632186 79:0.19168589337827321 80:0.31675237855120592 81:-0.41473017284234748 82:-0.96971597284263955 83:0.77416173159767798 84:0.34880395475308162 85:0.43708515640268025 86:0.43727151740749204 87:-0.0086430797536668005 88:-0.41754313807089516 89:-1.1387039187278736 90:-0.41302382422846928 91:-0.057433121548340557 92:-0.14897317934476484 93:-0.54328146509989894 94:0.04391560078344401 95:0.68021786461512834 96:0.23372842574284317 97:0.31115828327086498 98:0.2230093611474431 99:-0.16262677147984445 100:0.22579059609947899 101:1.2253037472501211 102:0.58833999234291601 103:0.63425486404685449 104:1.1467290275249304 105:-0.35524453328002098 106:1.0880114701739754 107:1.1831147127182418 108:0.44626581876990656 109:-0.83386859301592153 110:0.69542740771496914 111:0.44780999184446729 112:0.51658986429806952 113:0.45506575157578377 114:0.26936823669287963 115:-0.16933830460464497 116:-1.1555469165660786 117:-0.36385381832204017 118:1.6781051365986617 119:0.30055508566717382 120:0.26020767612383267 121:0.10673930445200104 122:-1.83992268383504 123:-0.34799066678286017 124:-0.27642434864213183 125:-1.0908600769626713 126:1.0794048766129185 127:-0.10164695732919729 128:1.331845324039219 129:0.94937875366337598 130:0.8370692734169034 131:0.10035998060115206 132:-0.86091077977403774 133:0.69676316812770767 134:0.90177076457656213 135:0.13779175411254674 136:1.6741247816014631 137:0.7755817161574583 138:0.24698841406436109 139:-1.4626828563348113 140:-1.1265104006061337 141:-1.6961116458576662 142:1.9626101369079487 143:2.2490716397712536 144:2.1457220578613088 
