SVM-light Version V6.02
0 # kernel type
3 # kernel parameter -d 
1 # kernel parameter -g 
1 # kernel parameter -s 
1 # kernel parameter -r 
様様様様様様様様様様様様様様様様様様様様様様様様様様様様# kernel parameter -u 
144 # highest feature index 
1354 # number of training documents 
28 # number of support vectors plus 1 
-0.68763208 # threshold b, each following line is a SV (starting with alpha*y)
1:0.03500195566488204 2:-0.35996652985560279 3:-0.68266642051138526 4:-0.0001385143237133124 5:0.17543174252599625 6:-0.46401241848752706 7:-0.10166646889979875 8:0.20673711519121696 9:0.30374934490396927 10:0.026728422743398039 11:-0.19729974426732341 12:-0.069678608591566105 13:-0.0033947835482008824 14:0.30935389230351695 15:0.62916785217610616 16:0.54031178564498239 17:0.31983105723116961 18:-0.17715378750559174 19:0.042942906469694592 20:-0.21066829634963058 21:-0.20681712107361225 22:0.21516207410635757 23:0.093219982167991544 24:-0.76769679611655828 25:-0.49826210611526056 26:-0.30811971581194131 27:-0.10372066902793661 28:-0.033864720433415318 29:-0.15649204436459349 30:-0.263700158178029 31:-0.55823231267774109 32:-0.21635611529337254 33:0.092410268725334685 34:0.48338800104983681 35:0.52063512756735886 36:0.24000543837720517 37:-0.2675407812145445 38:-0.20026892522559553 39:0.033316883091531913 40:0.041121084232862558 41:0.32257492868629356 42:0.6442993823543145 43:0.43474536852154794 44:0.15368868971409888 45:-0.40768164483147734 46:-0.61234349530678434 47:-0.09924560858051848 48:0.56182892844675059 49:0.77497846124364256 50:0.82532784524775682 51:0.7012864328267554 52:0.08264323953235983 53:-0.17935200858135106 54:-0.57586924238633097 55:-0.081390933125089521 56:-0.17308002750084275 57:-0.2211486943737663 58:-0.57143818025755899 59:-0.60711894478959338 60:0.16415333956808853 61:0.33481448830396265 62:0.49012320505462614 63:0.24843457763318363 64:-0.28130596569109623 65:-0.17356107431999188 66:0.019986966559491254 67:-0.13831402178227375 68:-0.45138968035756266 69:0.19760197877734959 70:-0.14296222185787347 71:0.10335821381606028 72:0.064745276398503138 73:-0.82186757869544036 74:0.10410981262973509 75:0.59154720518795378 76:0.76622374394017889 77:0.80885318868737233 78:0.57800587634735601 79:0.10062093290495633 80:-0.049169195737567756 81:-0.74784431689491748 82:-0.30653314719642022 83:0.075769584872720341 84:0.3248451103002008 85:0.23261258760629 86:0.4642308133190427 87:0.080236262230265532 88:-0.00089044520710358094 89:-0.087521851589024285 90:-0.92652005878404142 91:-0.038690950412102493 92:-0.086914491957310561 93:0.11679545774064745 94:0.053607841159905252 95:-0.11078713106211335 96:0.23713226393701126 97:-0.29283893122713084 98:0.24718674804754764 99:0.3240123399785183 100:0.13969554581973997 101:-0.075267168197552692 102:-0.11033803737085043 103:-0.11897201680264388 104:0.085681187755820926 105:-0.0027359215288645551 106:-0.16737898036354321 107:-0.19456972395052657 108:-0.054226358235320377 109:-0.29433128676735787 110:0.10476248226326432 111:0.23298757336161363 112:0.14518419604972591 113:0.31603026587349081 114:0.059403586883132499 115:0.0086396937019126291 116:-0.047908177522537856 117:-0.7790021306375039 118:0.093093634647058943 119:0.20251647406815648 120:0.3192327312928529 121:0.048561311701458977 122:-0.2692195745292002 123:-0.14245228782544733 124:-0.31383995498040534 125:0.030401472208776259 126:-0.24805241666290381 127:0.086963771733256784 128:0.025796082494748046 129:-0.1074411002570988 130:-0.10136039444713829 131:0.08488815579595041 132:0.026062688086151104 133:-0.064598926598375656 134:-0.097460036863342217 135:-0.013102005582712267 136:0.28388873688793193 137:0.1156742707806255 138:-0.0090478675427006772 139:-0.099731606632748715 140:-0.38445844201379109 141:0.23314061078914455 142:0.11808033284252827 143:0.21647464508754402 144:0.32270849220334125 
