SVM-light Version V6.02
0 # kernel type
3 # kernel parameter -d 
1 # kernel parameter -g 
1 # kernel parameter -s 
1 # kernel parameter -r 
様様様様様様様様様様様様様様様様様様様様様様様様様様様様# kernel parameter -u 
144 # highest feature index 
1091 # number of training documents 
22 # number of support vectors plus 1 
0.58510722 # threshold b, each following line is a SV (starting with alpha*y)
1:1.6189232607295736 2:3.4514922069363747 3:2.4784083444722018 4:2.4428619112760313 5:1.1319508706893513 6:0.33776709498334501 7:-0.17177875482837301 8:0.035071968839670981 9:-1.7545647849640271 10:-0.2877462143138515 11:0.15146196817666077 12:-0.2131830660560996 13:-0.27655893263278725 14:-0.26059491767986992 15:-0.25664015835007342 16:-0.15170612188302252 17:-0.10135686847006947 18:-0.31573445216997087 19:-1.8663164147580467 20:-1.8618610018576176 21:-0.46895622811829818 22:-0.4319428831378504 23:0.23403814823832828 24:1.2133339266394736 25:2.1573763063553848 26:4.1038950411809898 27:-0.33599041248190098 28:-0.2877462143138515 29:-0.55367041139454543 30:-0.30001858209108834 31:-0.36138814488848281 32:-0.14513749461513945 33:-0.13439452239488189 34:-0.19093736416459109 35:-0.052375367346541274 36:-0.2877462143138515 37:0.22485304929816655 38:-0.13277580995389598 39:-0.21214028960942391 40:-0.20032892563199117 41:-0.20023570795195722 42:-0.1687940158304814 43:-0.071650772296680224 44:-0.068983287716917405 45:-0.3921365919312908 46:0.01455684079977862 47:-0.23343460043310157 48:-0.012951759655516461 49:0.031790301051741923 50:-0.16346201983174566 51:-0.08668456455061993 52:-0.15337693203943714 53:0.17000469523871589 54:0.01455684079977862 55:0.01455684079977862 56:-0.32437977905729881 57:-0.17422232331875759 58:-0.1507276110220791 59:-0.09997826469960272 60:-0.11784061246176045 61:-0.1071151946838188 62:-0.1835986054976376 63:0.01455684079977862 64:0.01455684079977862 65:-0.28475019600810958 66:-0.045658863875370187 67:0.044749405841506933 68:-0.10259059882620754 69:-0.1187060930655502 70:-0.031630747302904313 71:0.16241440437874491 72:0.01455684079977862 73:0.16560270379872677 74:-0.19771975144630163 75:-0.0080236985987611909 76:0.032539443600607072 77:-0.17063317750654039 78:-0.084402484042622308 79:-0.16019795581280216 80:0.28581782402390188 81:0.030338640118504512 82:0.51970780304292774 83:-0.090340564043668553 84:-0.0080981780638384477 85:0.054381491324659297 86:-0.19320678541531622 87:-0.050596627054467012 88:-0.54389464634307605 89:-0.2108462176584866 90:-0.045597659345910979 91:0.030338640118504512 92:-0.15695719489646626 93:-0.032123090820307426 94:0.033357855245836059 95:-0.12399069805992856 96:-0.11807625779455971 97:-0.030278135279190155 98:0.23076073611589412 99:0.030338640118504512 100:0.030338640118504512 101:-0.58625150498920564 102:-0.23376442360114275 103:-0.1104275482483424 104:-0.20040760741926578 105:-0.053673195236028037 106:-0.08937125534548189 107:0.54209640094334899 108:0.030338640118504512 109:0.49026351099233734 110:0.17440598999157866 111:0.20918397043167022 112:0.24702180578415306 113:0.069869042255050737 114:0.21154000998617814 115:-0.43803396750936874 116:0.23976535156315915 117:-0.1085300823937608 118:0.66331558601091256 119:0.012016492613403986 120:0.26006658163662616 121:0.20063977271073158 122:0.81002599241895912 123:-0.79685279445601698 124:-0.92887758745204185 125:-0.14606384695477823 126:0.75308720525090711 127:-0.035601673866001521 128:-0.062228169545675116 129:-0.027257389136147225 130:0.098188224605342267 131:-0.031764656742821029 132:0.066464965316430355 133:0.00057107784687360393 134:0.77902088384708368 135:0.01673255158684786 136:0.81115432304408464 137:-0.25873123728340375 138:0.22595665427774367 139:-0.13918207387510428 140:0.32096629311580099 141:-0.32222193295910362 142:-0.086614112311304628 143:0.66164936982981826 144:0.19946590229701625 
