SVM-light Version V6.02
0 # kernel type
3 # kernel parameter -d 
1 # kernel parameter -g 
1 # kernel parameter -s 
1 # kernel parameter -r 
様様様様様様様様様様様様様様様様様様様様様様様様様様様様# kernel parameter -u 
144 # highest feature index 
2010 # number of training documents 
27 # number of support vectors plus 1 
1.4288044 # threshold b, each following line is a SV (starting with alpha*y)
1:1.2679236732567163 2:0.78937610128060198 3:0.92483240663747213 4:0.51463165043435144 5:-0.14621386935672184 6:-0.80989296896391427 7:-1.6421633084410145 8:-1.993977919949995 9:-0.29366825155051757 10:0.089920684917412771 11:0.25155577973127813 12:0.23858300095565843 13:-0.12609147537662227 14:-1.1042665130254885 15:-1.2442377736352479 16:-1.1842087653954645 17:-1.4610769891303932 18:0.62806550174082121 19:-1.0762610873334684 20:-0.62307474109986027 21:-0.14336173082029674 22:0.047731922399566556 23:0.77317337437466715 24:1.6436093978744348 25:2.4234643070276034 26:2.5461421130991551 27:0.035841064880108395 28:0.035841064880108395 29:0.45417476623238839 30:0.18638342161382199 31:0.032462597172394025 32:-0.13561837499108906 33:-0.27131345371140025 34:-0.11643647176993087 35:0.75233256997423437 36:0.035841064880108395 37:0.37259156511283431 38:-0.46991253676884792 39:-0.065993277746634313 40:-0.16408167299900644 41:-0.60861151868741026 42:-0.63493775453514067 43:-0.58822285269312002 44:-0.8993270873563326 45:1.1129426765501358 46:0.15997731452209563 47:-0.44460347203894846 48:-0.20230710364858956 49:-0.15885446446652357 50:-0.033925112425561482 51:-0.069044889985551139 52:-0.10925617987406375 53:-0.32529990632690953 54:-0.070257300179716098 55:-0.01869697303058826 56:0.28798842661529461 57:0.069908185139880591 58:-0.0041985779212266958 59:-0.066823247350675213 60:-0.15273654472590861 61:-0.13523735790765826 62:0.21329033755156743 63:-0.10982176261765952 64:-0.10982176261765952 65:0.14645392901652626 66:-0.040819472590201793 67:-0.056549347870908366 68:0.07691218493614646 69:0.021958954289672872 70:-0.1249768484045455 71:-0.11500375982011 72:-0.10982176261765952 73:0.39755751200743922 74:-0.2202030640938254 75:-0.12349991884298277 76:-0.10832042392397993 77:-0.0042751261992131267 78:-0.036702350006448656 79:-0.080668157499399012 80:-0.15197122944657832 81:0.25133694233981102 82:0.22008934371744399 83:-0.11377763345078223 84:-0.14714600636551853 85:-0.28150098814623314 86:-0.14799691122110833 87:-0.03447612653976953 88:0.070739551045272617 89:0.45233001131144113 90:0.32067836370671382 91:-0.11492719020495461 92:0.11349501580435378 93:-0.0044454549864080574 94:-0.036871000137638964 95:0.090403530854157421 96:0.052152850179685011 97:-0.090894879103339904 98:-0.08763399770270483 99:-0.1254067108496944 100:-0.085718789921041913 101:-0.45309977676879676 102:-0.11207117199935054 103:-0.17556683698340608 104:0.013356671613847546 105:-0.013169507367536536 106:-0.072511745877048034 107:-0.028856846445468133 108:-0.053826777683190483 109:0.21175304383820331 110:0.024640791914516996 111:-0.097126621506733124 112:-0.32233297112206688 113:-0.188097503361805 114:-0.0084318458542928347 115:0.30455571385012048 116:0.73591670044125157 117:0.36138926846411862 118:-1.1763335346285364 119:0.29801688070935839 120:0.24515933632577133 121:0.13469130017745776 122:0.85437596726374554 123:0.93893896110765029 124:1.7931566578807558 125:0.7468516506147167 126:-0.60364443963567915 127:-0.1398221112173495 128:-0.3205809111285135 129:-0.08281481409418999 130:-0.19577566728494961 131:-0.0041565387850872847 132:-0.014564066208993573 133:0.050434221119570105 134:0.24846829365346623 135:-0.18960852516417664 136:-0.38095046207866307 137:1.011910013958307 138:1.4794205310197268 139:1.2951713936874851 140:-0.014772983200484707 141:-0.033774391619521379 142:0.10336976359868794 143:-0.079397184398420403 144:-0.39563657031839 
